svm_type c_svc
kernel_type linear
nr_class 2
total_sv 109
rho 1.02171
label 1 0
probA -1.45667
probB 0.345513
nr_sv 44 65
SV
6.174243818478482e-08 604:2 605:2 606:2 607:1 608:1 609:1 610:1 611:1 612:1 613:1 614:1 615:1 616:2 617:2 618:2 619:2 620:2 621:2 622:1 623:1 624:1 625:3 626:3 627:3 628:3 629:3 630:3 631:3 632:3 633:3 634:2 635:2 636:2 733:2 734:2 735:2 790:2 791:6 792:4 793:5 794:9 795:7 796:30 797:31 798:31 799:25 800:26 801:26 802:6 803:6 804:6 805:3 806:1 807:2 808:65 809:62 810:64 811:85 812:88 813:91 814:60 815:67 816:66 817:130 818:131 819:135 820:115 821:114 822:118 823:87 824:86 825:91 826:41 827:40 828:45 832:1 833:1 834:1 883:7 884:12 885:13 886:24 887:44 888:34 889:40 890:57 891:49 892:188 893:182 894:187 895:229 896:224 897:233 898:207 899:205 900:212 901:211 902:207 903:211 904:209 905:206 906:210 907:81 908:88 909:84 910:45 911:51 912:47 913:162 914:166 915:169 916:255 917:255 918:255 919:255 920:254 921:255 922:247 923:246 924:249 925:101 926:101 927:102 931:4 932:4 933:4 974:1 979:8 980:15 981:16 982:49 983:60 984:50 985:145 986:134 987:134 988:195 989:185 990:186 991:248 992:242 993:247 994:255 995:255 996:255 997:255 998:255 999:255 1000:254 1001:253 1002:254 1003:209 1004:204 1005:204 1006:111 1007:104 1008:95 1009:135 1010:136 1011:133 1012:201 1013:201 1014:201 1015:183 1016:184 1017:182 1018:255 1019:255 1020:255 1021:252 1022:252 1023:255 1024:93 1025:93 1026:97 1030:5 1031:5 1032:5 1033:1 1034:1 1035:1 1072:1 1076:1 1077:1 1078:44 1079:56 1080:52 1081:161 1082:147 1083:150 1084:170 1085:158 1086:160 1087:224 1088:220 1089:220 1090:254 1091:254 1092:255 1093:250 1094:250 1095:250 1096:254 1097:254 1098:254 1099:255 1100:255 1101:255 1102:235 1103:236 1104:236 1105:255 1106:255 1107:255 1108:249 1109:248 1110:246 1111:227 1112:227 1113:225 1114:252 1115:252 1116:251 1117:249 1118:249 1119:247 1120:225 1121:224 1122:230 1123:111 1124:111 1125:111 1132:1 1133:1 1134:1 1171:1 1172:1 1173:1 1174:41 1175:43 1176:40 1177:109 1178:103 1179:96 1180:186 1181:171 1182:170 1183:211 1184:203 1185:205 1186:246 1187:245 1188:244 1189:255 1190:255 1191:255 1192:255 1193:255 1194:255 1195:252 1196:252 1197:252 1198:255 1199:255 1200:255 1201:255 1202:255 1203:255 1204:255 1205:255 1206:254 1207:242 1208:242 1209:240 1210:255 1211:255 1212:255 1213:255 1214:255 1215:255 1216:107 1217:111 1218:113 1219:196 1220:196 1221:201 1222:119 1223:118 1224:122 1225:20 1226:20 1227:20 1231:1 1232:1 1233:1 1267:1 1270:11 1271:7 1272:6 1273:42 1274:38 1275:36 1276:147 1277:146 1278:150 1279:204 1280:203 1281:206 1282:224 1283:225 1284:224 1285:144 1286:147 1287:146 1288:215 1289:217 1290:218 1291:255 1292:255 1293:255 1294:254 1295:254 1296:254 1297:255 1298:254 1299:254 1300:255 1301:255 1302:255 1303:253 1304:252 1305:253 1306:171 1307:172 1308:174 1309:216 1310:217 1311:218 1312:66 1313:79 1314:75 1315:124 1316:128 1317:132 1318:227 1319:226 1320:232 1321:239 1322:238 1323:239 1324:97 1325:96 1326:97 1330:3 1331:3 1332:3 1365:1 1372:35 1373:19 1374:18 1375:153 1376:109 1377:106 1378:217 1379:157 1380:154 1381:186 1382:126 1383:124 1384:194 1385:149 1386:145 1387:193 1388:176 1389:171 1390:245 1391:246 1392:245 1393:254 1394:254 1395:254 1396:255 1397:255 1398:255 1399:236 1400:235 1401:235 1402:48 1403:58 1404:56 1405:100 1406:109 1407:109 1408:63 1409:73 1410:72 1411:48 1412:60 1413:59 1414:36 1415:51 1416:52 1417:232 1418:234 1419:237 1420:105 1421:106 1422:105 1426:3 1427:3 1428:3 1456:1 1457:1 1458:1 1461:1 1462:88 1463:59 1464:60 1465:167 1466:112 1467:114 1468:176 1469:118 1470:114 1471:184 1472:120 1473:112 1474:192 1475:128 1476:115 1477:188 1478:140 1479:134 1480:165 1481:141 1482:135 1483:73 1484:69 1485:62 1486:150 1487:153 1488:154 1489:255 1490:255 1491:255 1492:251 1493:251 1494:251 1495:255 1496:255 1497:255 1498:182 1499:186 1500:183 1501:59 1502:71 1503:73 1504:39 1505:58 1506:57 1507:41 1508:56 1509:55 1510:20 1511:39 1512:45 1513:43 1514:59 1515:61 1516:8 1517:6 1518:6 1555:1 1558:151 1559:92 1560:95 1561:166 1562:128 1563:126 1564:83 1565:78 1566:70 1567:65 1568:64 1569:53 1570:68 1571:75 1572:61 1573:30 1574:43 1575:34 1576:9 1577:31 1578:25 1579:13 1580:30 1581:21 1582:135 1583:135 1584:134 1585:255 1586:255 1587:255 1588:252 1589:252 1590:252 1591:253 1592:253 1593:254 1594:255 1595:255 1596:255 1597:135 1598:140 1599:141 1600:36 1601:55 1602:54 1603:48 1604:62 1605:59 1606:26 1607:45 1608:47 1609:10 1610:22 1611:24 1648:1 1649:1 1650:1 1651:2 1652:1 1653:1 1654:59 1655:50 1656:46 1657:162 1658:162 1659:160 1660:212 1661:211 1662:208 1663:237 1664:235 1665:233 1666:242 1667:241 1668:239 1669:189 1670:183 1671:181 1672:133 1673:131 1674:130 1675:127 1676:130 1677:125 1678:229 1679:229 1680:228 1681:255 1682:255 1683:255 1684:252 1685:252 1686:252 1687:255 1688:255 1689:255 1690:218 1691:220 1692:219 1693:64 1694:75 1695:74 1696:63 1697:71 1698:70 1699:73 1700:73 1701:75 1702:29 1703:47 1704:51 1705:10 1706:14 1707:16 1712:1 1744:1 1745:1 1746:1 1747:1 1748:1 1749:1 1750:10 1751:13 1752:13 1753:128 1754:126 1755:128 1756:152 1757:153 1758:152 1759:140 1760:141 1761:141 1762:159 1763:157 1764:159 1765:237 1766:236 1767:237 1768:255 1769:255 1770:255 1771:255 1772:255 1773:255 1774:255 1775:255 1776:255 1777:255 1778:254 1779:254 1780:254 1781:253 1782:254 1783:255 1784:255 1785:255 1786:210 1787:212 1788:210 1789:139 1790:132 1791:132 1792:212 1793:204 1794:209 1795:207 1796:200 1797:203 1798:76 1799:82 1800:83 1801:3 1802:2 1803:4 1804:1 1805:1 1806:1 1861:26 1862:24 1863:25 1864:220 1865:219 1866:219 1867:254 1868:255 1869:254 1870:253 1871:252 1872:253 1873:255 1874:255 1875:255 1876:255 1877:255 1878:255 1879:253 1880:254 1881:254 1882:252 1883:253 1884:253 1885:255 1886:255 1887:255 1888:180 1889:176 1890:182 1891:107 1892:106 1893:111 1894:71 1895:67 1896:71 1900:1 1901:1 1902:1 1943:1 1944:1 1945:4 1946:4 1947:4 1948:4 1949:4 1950:4 1951:4 1952:4 1953:4 1954:7 1955:6 1956:6 1960:155 1961:153 1962:154 1963:243 1964:242 1965:243 1966:250 1967:251 1968:251 1969:255 1970:255 1971:255 1972:255 1973:255 1974:255 1975:255 1976:255 1977:255 1978:255 1979:255 1980:255 1981:255 1982:255 1983:255 1984:180 1985:179 1986:183 1987:124 1988:120 1989:124 1990:88 1991:83 1992:88 1996:3 1997:3 1998:3 2050:4 2051:4 2052:4 2053:1 2054:1 2055:1 2056:135 2057:134 2058:135 2059:149 2060:155 2061:156 2062:223 2063:225 2064:225 2065:255 2066:255 2067:255 2068:255 2069:255 2070:255 2071:188 2072:194 2073:194 2074:108 2075:116 2076:117 2077:250 2078:249 2079:250 2080:118 2081:126 2082:126 2083:92 2084:98 2085:98 2086:151 2087:145 2088:150 2089:1 2090:1 2091:1 2092:3 2093:3 2094:3 2146:4 2147:4 2148:4 2152:127 2153:125 2154:126 2155:108 2156:116 2157:116 2158:211 2159:211 2160:212 2161:255 2162:255 2163:255 2164:247 2165:247 2166:248 2167:76 2168:86 2169:92 2170:36 2171:47 2172:49 2173:99 2174:105 2175:106 2176:148 2177:145 2178:151 2179:212 2180:207 2181:208 2182:180 2183:180 2184:184 2188:2 2189:2 2190:2 2242:2 2243:2 2244:2 2248:63 2249:61 2250:60 2251:120 2252:125 2253:121 2254:238 2255:239 2256:239 2257:255 2258:255 2259:255 2260:255 2261:255 2262:255 2263:123 2264:123 2265:126 2266:141 2267:137 2268:133 2269:47 2270:55 2271:55 2272:132 2273:134 2274:137 2275:255 2276:255 2277:255 2278:234 2279:233 2280:237 2281:32 2282:32 2283:33 2287:2 2288:2 2289:2 2338:4 2339:4 2340:4 2344:104 2345:100 2346:102 2347:254 2348:252 2349:252 2350:255 2351:255 2352:255 2353:243 2354:243 2355:243 2356:199 2357:199 2358:199 2359:255 2360:255 2361:254 2362:255 2363:252 2364:249 2365:161 2366:161 2367:160 2368:225 2369:225 2370:225 2371:251 2372:250 2373:251 2374:255 2375:255 2376:255 2377:166 2378:167 2379:170 2383:3 2384:3 2385:3 2434:2 2435:2 2436:2 2440:98 2441:99 2442:100 2443:219 2444:221 2445:222 2446:255 2447:255 2448:255 2449:233 2450:233 2451:233 2452:161 2453:161 2454:161 2455:255 2456:255 2457:255 2458:252 2459:254 2460:251 2461:255 2462:255 2463:255 2464:255 2465:255 2466:255 2467:255 2468:255 2469:255 2470:206 2471:203 2472:208 2473:167 2474:170 2475:177 2476:99 2477:99 2478:101 2482:3 2483:3 2484:3 2530:2 2531:2 2532:2 2536:114 2537:114 2538:115 2539:234 2540:235 2541:233 2542:254 2543:254 2544:254 2545:255 2546:255 2547:255 2548:255 2549:255 2550:255 2551:255 2552:255 2553:254 2554:254 2555:254 2556:254 2557:249 2558:249 2559:249 2560:252 2561:252 2562:252 2563:190 2564:189 2565:195 2566:103 2567:107 2568:118 2569:54 2570:60 2571:65 2572:199 2573:200 2574:202 2575:31 2576:30 2577:30 2578:2 2579:2 2580:2 2581:1 2582:1 2583:1 2626:1 2627:2 2628:1 2632:183 2633:182 2634:184 2635:254 2636:254 2637:254 2638:250 2639:250 2640:251 2641:255 2642:255 2643:255 2644:254 2645:254 2646:254 2647:255 2648:255 2649:255 2650:255 2651:255 2652:255 2653:255 2654:255 2655:255 2656:255 2657:255 2658:255 2659:160 2660:157 2661:156 2662:63 2663:66 2664:71 2665:185 2666:178 2667:181 2668:242 2669:241 2670:243 2671:128 2672:124 2673:124 2677:4 2678:4 2679:4 2719:2 2720:2 2721:2 2725:32 2726:31 2727:32 2728:233 2729:231 2730:235 2731:255 2732:255 2733:255 2734:255 2735:255 2736:255 2737:255 2738:255 2739:255 2740:255 2741:255 2742:255 2743:255 2744:255 2745:255 2746:240 2747:241 2748:241 2749:158 2750:157 2751:159 2752:201 2753:200 2754:203 2755:251 2756:249 2757:248 2758:204 2759:201 2760:198 2761:255 2762:255 2763:255 2764:255 2765:255 2766:255 2767:235 2768:233 2769:233 2770:40 2771:39 2772:40 2774:1 2776:2 2777:2 2778:2 2815:2 2816:2 2817:2 2821:75 2822:72 2823:74 2824:251 2825:249 2826:252 2827:242 2828:243 2829:244 2830:145 2831:146 2832:147 2833:240 2834:240 2835:240 2836:255 2837:255 2838:255 2839:214 2840:215 2841:215 2842:80 2843:86 2844:87 2845:49 2846:59 2847:59 2848:111 2849:112 2850:112 2851:255 2852:255 2853:255 2854:255 2855:255 2856:255 2857:253 2858:253 2859:253 2860:255 2861:255 2862:255 2863:255 2864:255 2865:255 2866:179 2867:178 2868:178 2872:2 2873:2 2874:2 2875:1 2876:1 2877:1 2911:2 2912:2 2913:2 2917:62 2918:61 2919:63 2920:252 2921:252 2922:252 2923:149 2924:151 2925:154 2926:37 2927:42 2928:45 2929:211 2930:211 2931:209 2932:255 2933:255 2934:255 2935:229 2936:228 2937:228 2938:68 2939:78 2940:77 2941:65 2942:73 2943:75 2944:165 2945:161 2946:161 2947:255 2948:254 2949:254 2950:251 2951:251 2952:251 2953:255 2954:255 2955:255 2956:203 2957:203 2958:204 2959:231 2960:230 2961:232 2962:251 2963:251 2964:254 2965:117 2966:116 2967:119 2968:1 2969:1 2974:1 2975:1 2976:1 3007:2 3008:2 3009:2 3013:84 3014:87 3015:87 3016:255 3017:255 3018:255 3019:122 3020:121 3021:119 3022:112 3023:114 3024:112 3025:247 3026:247 3027:246 3028:253 3029:253 3030:253 3031:255 3032:255 3033:255 3034:120 3035:122 3036:118 3037:100 3038:95 3039:94 3040:215 3041:208 3042:209 3043:255 3044:255 3045:255 3046:251 3047:251 3048:251 3049:255 3050:255 3051:255 3052:134 3053:135 3054:136 3055:106 3056:108 3057:112 3058:164 3059:164 3060:168 3061:106 3062:110 3063:116 3064:153 3065:153 3066:154 3067:16 3068:16 3069:15 3070:2 3071:2 3072:2 
1.993402488895892e-07 1:161 2:185 3:187 4:150 5:173 6:176 7:155 8:176 9:181 10:162 11:183 12:182 13:161 14:183 15:181 16:124 17:146 18:144 19:104 20:124 21:121 22:167 23:188 24:184 25:165 26:185 27:187 28:161 29:181 30:181 31:167 32:187 33:185 34:176 35:196 36:194 37:179 38:199 39:197 40:176 41:196 42:194 43:178 44:198 45:196 46:175 47:198 48:193 49:182 50:202 51:203 52:149 53:146 54:135 55:123 56:91 57:77 58:133 59:100 60:83 61:136 62:102 63:83 64:134 65:101 66:83 67:137 68:105 69:84 70:138 71:106 72:85 73:148 74:115 75:97 76:155 77:123 78:103 79:151 80:118 81:95 82:144 83:113 84:88 85:147 86:117 87:91 88:146 89:114 90:90 91:146 92:114 93:92 94:141 95:109 96:88 97:159 98:183 99:185 100:151 101:174 102:178 103:156 104:176 105:181 106:161 107:183 108:182 109:163 110:186 111:183 112:125 113:147 114:145 115:103 116:122 117:119 118:166 119:186 120:183 121:164 122:184 123:186 124:160 125:180 126:180 127:167 128:187 129:185 130:176 131:196 132:194 133:179 134:199 135:197 136:177 137:196 138:194 139:177 140:197 141:195 142:174 143:197 144:192 145:181 146:201 147:202 148:156 149:152 150:142 151:134 152:102 153:89 154:142 155:109 156:93 157:143 158:109 159:89 160:132 161:100 162:78 163:141 164:109 165:88 166:145 167:113 168:91 169:144 170:112 171:91 172:151 173:117 174:94 175:150 176:115 177:88 178:144 179:112 180:87 181:146 182:115 183:90 184:148 185:112 186:91 187:149 188:114 189:92 190:141 191:110 192:86 193:161 194:183 195:186 196:148 197:170 198:172 199:152 200:174 201:174 202:158 203:180 204:179 205:164 206:186 207:188 208:125 209:146 210:147 211:101 212:122 213:119 214:166 215:189 216:186 217:163 218:185 219:183 220:157 221:180 222:177 223:169 224:188 225:187 226:176 227:196 228:195 229:178 230:198 231:197 232:176 233:196 234:194 235:177 236:199 237:196 238:171 239:196 240:192 241:180 242:200 243:199 244:163 245:160 246:148 247:150 248:118 249:99 250:161 251:129 252:106 253:161 254:128 255:105 256:145 257:113 258:91 259:157 260:123 261:102 262:158 263:125 264:104 265:155 266:121 267:99 268:157 269:120 270:96 271:149 272:109 273:86 274:154 275:109 276:87 277:160 278:119 279:98 280:162 281:126 282:103 283:166 284:130 285:106 286:159 287:125 288:98 289:160 290:181 291:185 292:147 293:168 294:169 295:152 296:174 297:171 298:157 299:179 300:177 301:164 302:185 303:189 304:126 305:147 306:149 307:99 308:120 309:118 310:164 311:188 312:185 313:163 314:185 315:182 316:157 317:182 318:177 319:170 320:189 321:188 322:175 323:195 324:194 325:177 326:197 327:196 328:177 329:197 330:196 331:177 332:199 333:196 334:171 335:196 336:192 337:180 338:200 339:198 340:163 341:162 342:148 343:152 344:121 345:99 346:162 347:129 348:107 349:160 350:128 351:105 352:147 353:115 354:94 355:156 356:121 357:101 358:153 359:118 360:98 361:154 362:115 363:96 364:154 365:112 366:90 367:142 368:97 369:76 370:148 371:99 372:80 373:158 374:118 375:96 376:158 377:122 378:98 379:159 380:124 381:99 382:157 383:123 384:95 385:161 386:182 387:185 388:149 389:171 390:173 391:154 392:176 393:174 394:159 395:180 396:179 397:165 398:187 399:190 400:123 401:146 402:148 403:97 404:117 405:115 406:164 407:187 408:184 409:162 410:184 411:181 412:159 413:184 414:180 415:170 416:189 417:188 418:174 419:194 420:192 421:177 422:198 423:196 424:176 425:197 426:194 427:175 428:197 429:194 430:171 431:195 432:192 433:180 434:201 435:199 436:164 437:162 438:147 439:152 440:121 441:100 442:162 443:130 444:107 445:158 446:126 447:102 448:144 449:112 450:91 451:152 452:117 453:97 454:154 455:119 456:98 457:154 458:114 459:93 460:154 461:110 462:89 463:150 464:105 465:83 466:152 467:106 468:85 469:160 470:120 471:97 472:159 473:124 474:99 475:160 476:125 477:100 478:161 479:126 480:100 481:162 482:183 483:186 484:150 485:171 486:173 487:155 488:177 489:175 490:161 491:182 492:181 493:161 494:184 495:186 496:120 497:143 498:145 499:100 500:115 501:115 502:168 503:187 504:185 505:163 506:184 507:182 508:159 509:184 510:180 511:171 512:190 513:188 514:174 515:194 516:192 517:174 518:196 519:193 520:173 521:195 522:192 523:173 524:195 525:192 526:171 527:193 528:191 529:181 530:202 531:200 532:157 533:156 534:141 535:133 536:101 537:83 538:143 539:109 540:89 541:144 542:110 543:88 544:134 545:100 546:80 547:133 548:97 549:81 550:136 551:101 552:86 553:134 554:97 555:82 556:134 557:95 558:80 559:132 560:97 561:79 562:140 563:100 564:84 565:140 566:104 567:86 568:142 569:107 570:89 571:151 572:115 573:96 574:157 575:121 576:96 577:161 578:182 579:185 580:150 581:171 582:173 583:153 584:175 585:173 586:161 587:182 588:181 589:159 590:182 591:185 592:123 593:143 594:146 595:99 596:112 597:113 598:169 599:186 600:185 601:164 602:182 603:181 604:156 605:181 606:177 607:171 608:190 609:188 610:173 611:194 612:191 613:174 614:196 615:193 616:173 617:195 618:192 619:173 620:195 621:192 622:172 623:194 624:193 625:183 626:203 627:203 628:164 629:162 630:150 631:135 632:101 633:87 634:141 635:104 636:87 637:146 638:109 639:89 640:145 641:107 642:87 643:139 644:103 645:83 646:138 647:103 648:83 649:138 650:102 651:85 652:140 653:102 654:85 655:135 656:98 657:79 658:139 659:103 660:85 661:142 662:108 663:90 664:142 665:107 666:89 667:147 668:111 669:91 670:152 671:116 672:91 673:159 674:180 675:183 676:150 677:171 678:175 679:152 680:174 681:173 682:157 683:179 684:178 685:159 686:182 687:183 688:121 689:142 690:145 691:95 692:112 693:113 694:170 695:187 696:185 697:164 698:185 699:182 700:158 701:181 702:178 703:170 704:189 705:187 706:173 707:193 708:191 709:173 710:195 711:192 712:172 713:193 714:190 715:174 716:193 717:191 718:173 719:194 720:194 721:181 722:202 723:202 724:175 725:174 726:160 727:153 728:120 729:104 730:154 731:118 732:97 733:159 734:122 735:98 736:162 737:122 738:100 739:160 740:121 741:98 742:159 743:119 744:96 745:160 746:118 747:96 748:162 749:122 750:99 751:153 752:118 753:93 754:154 755:119 756:96 757:160 758:125 759:103 760:160 761:125 762:102 763:162 764:127 765:103 766:165 767:129 768:102 769:158 770:179 771:182 772:151 773:172 774:175 775:155 776:177 777:176 778:157 779:178 780:176 781:159 782:183 783:180 784:120 785:141 786:140 787:96 788:112 789:110 790:171 791:187 792:186 793:163 794:187 795:183 796:159 797:181 798:178 799:167 800:186 801:185 802:173 803:194 804:192 805:172 806:194 807:192 808:170 809:192 810:189 811:170 812:190 813:188 814:173 815:194 816:192 817:182 818:203 819:199 820:171 821:170 822:155 823:151 824:117 825:101 826:155 827:116 828:96 829:158 830:117 831:95 832:158 833:114 834:93 835:159 836:116 837:94 838:159 839:116 840:94 841:159 842:116 843:94 844:160 845:120 846:97 847:153 848:118 849:93 850:153 851:117 852:95 853:153 854:118 855:96 856:152 857:118 858:91 859:158 860:123 861:97 862:162 863:126 864:101 865:154 866:178 867:180 868:149 869:171 870:173 871:157 872:177 873:175 874:159 875:180 876:175 877:158 878:183 879:177 880:123 881:142 882:141 883:95 884:113 885:110 886:169 887:188 888:187 889:160 890:184 891:184 892:162 893:184 894:182 895:179 896:199 897:201 898:172 899:196 900:197 901:170 902:193 903:192 904:174 905:196 906:194 907:183 908:202 909:198 910:172 911:191 912:188 913:176 914:196 915:191 916:172 917:171 918:155 919:152 920:119 921:100 922:155 923:114 924:94 925:158 926:114 927:92 928:159 929:115 930:93 931:156 932:113 933:91 934:156 935:114 936:92 937:158 938:116 939:94 940:157 941:118 942:96 943:150 944:114 945:92 946:149 947:112 948:92 949:150 950:113 951:94 952:149 953:113 954:88 955:154 956:119 957:94 958:159 959:125 960:100 961:153 962:177 963:179 964:150 965:173 966:175 967:157 968:177 969:175 970:159 971:179 972:174 973:158 974:184 975:178 976:121 977:142 978:141 979:96 980:112 981:109 982:168 983:187 984:187 985:165 986:192 987:191 988:144 989:164 990:162 991:116 992:125 993:132 994:186 995:199 996:204 997:234 998:240 999:241 1000:212 1001:220 1002:220 1003:240 1004:248 1005:247 1006:234 1007:242 1008:242 1009:203 1010:216 1011:213 1012:166 1013:163 1014:151 1015:144 1016:112 1017:96 1018:136 1019:98 1020:81 1021:138 1022:96 1023:79 1024:139 1025:98 1026:84 1027:139 1028:100 1029:85 1030:140 1031:101 1032:86 1033:141 1034:102 1035:87 1036:145 1037:106 1038:90 1039:140 1040:103 1041:85 1042:138 1043:100 1044:84 1045:141 1046:104 1047:88 1048:144 1049:107 1050:87 1051:148 1052:111 1053:91 1054:148 1055:113 1056:92 1057:151 1058:176 1059:178 1060:150 1061:174 1062:174 1063:156 1064:178 1065:175 1066:156 1067:179 1068:174 1069:159 1070:184 1071:178 1072:118 1073:140 1074:138 1075:100 1076:115 1077:114 1078:175 1079:193 1080:191 1081:134 1082:149 1083:152 1084:59 1085:64 1086:71 1087:65 1088:67 1089:76 1090:221 1091:226 1092:230 1093:255 1094:255 1095:255 1096:255 1097:255 1098:255 1099:254 1100:254 1101:255 1102:247 1103:252 1104:252 1105:242 1106:249 1107:248 1108:198 1109:197 1110:187 1111:142 1112:114 1113:101 1114:132 1115:97 1116:82 1117:133 1118:91 1119:80 1120:134 1121:92 1122:78 1123:140 1124:100 1125:86 1126:140 1127:101 1128:87 1129:139 1130:100 1131:86 1132:140 1133:104 1134:89 1135:142 1136:106 1137:91 1138:139 1139:103 1140:89 1141:136 1142:101 1143:87 1144:139 1145:102 1146:84 1147:139 1148:103 1149:85 1150:133 1151:99 1152:80 1153:152 1154:176 1155:178 1156:147 1157:171 1158:171 1159:154 1160:175 1161:172 1162:155 1163:179 1164:174 1165:159 1166:183 1167:176 1168:122 1169:145 1170:143 1171:89 1172:97 1173:99 1174:98 1175:100 1176:103 1177:66 1178:60 1179:69 1180:42 1181:43 1182:49 1183:160 1184:166 1185:170 1186:255 1187:255 1188:255 1189:243 1190:243 1191:244 1192:180 1193:185 1194:189 1195:255 1196:255 1197:255 1198:151 1199:158 1200:162 1201:192 1202:198 1203:199 1204:255 1205:255 1206:255 1207:150 1208:141 1209:135 1210:112 1211:90 1212:78 1213:146 1214:110 1215:94 1216:142 1217:106 1218:86 1219:155 1220:116 1221:96 1222:154 1223:115 1224:97 1225:154 1226:115 1227:96 1228:155 1229:120 1230:101 1231:157 1232:121 1233:104 1234:154 1235:120 1236:102 1237:151 1238:118 1239:100 1240:154 1241:117 1242:99 1243:153 1244:117 1245:99 1246:140 1247:107 1248:88 1249:153 1250:177 1251:179 1252:147 1253:171 1254:170 1255:154 1256:176 1257:172 1258:155 1259:178 1260:174 1261:159 1262:186 1263:180 1264:119 1265:138 1266:136 1267:55 1268:54 1269:58 1270:56 1271:54 1272:58 1273:55 1274:49 1275:56 1276:80 1277:90 1278:93 1279:238 1280:247 1281:247 1282:255 1283:255 1284:255 1285:243 1286:249 1287:249 1288:200 1289:205 1290:208 1291:253 1292:254 1293:254 1294:177 1295:185 1296:191 1297:199 1298:206 1299:208 1300:253 1301:253 1302:254 1303:121 1304:122 1305:126 1306:61 1307:51 1308:55 1309:135 1310:105 1311:94 1312:142 1313:108 1314:89 1315:153 1316:114 1317:94 1318:154 1319:114 1320:95 1321:152 1322:112 1323:93 1324:153 1325:117 1326:97 1327:150 1328:117 1329:97 1330:146 1331:117 1332:95 1333:145 1334:116 1335:93 1336:147 1337:112 1338:93 1339:152 1340:117 1341:98 1342:139 1343:107 1344:88 1345:153 1346:177 1347:179 1348:145 1349:170 1350:169 1351:151 1352:174 1353:170 1354:156 1355:179 1356:176 1357:148 1358:174 1359:170 1360:72 1361:79 1362:79 1363:58 1364:53 1365:57 1366:65 1367:63 1368:66 1369:54 1370:56 1371:59 1372:150 1373:162 1374:168 1375:213 1376:220 1377:226 1378:184 1379:194 1380:196 1381:164 1382:171 1383:169 1384:250 1385:252 1386:251 1387:246 1388:247 1389:249 1390:229 1391:239 1392:240 1393:255 1394:255 1395:255 1396:255 1397:255 1398:255 1399:159 1400:157 1401:158 1402:47 1403:44 1404:53 1405:107 1406:82 1407:81 1408:149 1409:107 1410:94 1411:150 1412:112 1413:97 1414:152 1415:113 1416:98 1417:152 1418:109 1419:96 1420:147 1421:110 1422:95 1423:145 1424:113 1425:96 1426:141 1427:111 1428:92 1429:138 1430:109 1431:90 1432:134 1433:105 1434:87 1435:138 1436:111 1437:93 1438:131 1439:103 1440:88 1441:152 1442:176 1443:178 1444:143 1445:169 1446:167 1447:150 1448:173 1449:169 1450:159 1451:183 1452:179 1453:136 1454:155 1455:152 1456:59 1457:56 1458:60 1459:64 1460:59 1461:63 1462:63 1463:60 1464:63 1465:66 1466:70 1467:73 1468:177 1469:192 1470:197 1471:110 1472:112 1473:123 1474:65 1475:66 1476:72 1477:70 1478:73 1479:72 1480:236 1481:234 1482:235 1483:255 1484:255 1485:255 1486:187 1487:192 1488:195 1489:162 1490:165 1491:170 1492:203 1493:208 1494:214 1495:183 1496:186 1497:188 1498:53 1499:56 1500:63 1501:73 1502:62 1503:67 1504:121 1505:86 1506:85 1507:137 1508:104 1509:91 1510:133 1511:103 1512:88 1513:134 1514:106 1515:91 1516:126 1517:107 1518:89 1519:128 1520:106 1521:89 1522:127 1523:102 1524:89 1525:121 1526:99 1527:85 1528:122 1529:102 1530:84 1531:125 1532:104 1533:87 1534:124 1535:102 1536:89 1537:152 1538:176 1539:178 1540:144 1541:169 1542:168 1543:151 1544:175 1545:169 1546:154 1547:179 1548:173 1549:152 1550:168 1551:165 1552:72 1553:67 1554:74 1555:54 1556:49 1557:56 1558:58 1559:54 1560:61 1561:71 1562:73 1563:79 1564:168 1565:181 1566:189 1567:73 1568:73 1569:83 1570:48 1571:43 1572:50 1573:120 1574:124 1575:127 1576:195 1577:201 1578:204 1579:241 1580:242 1581:243 1582:130 1583:132 1584:134 1585:46 1586:49 1587:59 1588:120 1589:127 1590:136 1591:193 1592:202 1593:204 1594:71 1595:76 1596:80 1597:59 1598:59 1599:67 1600:79 1601:64 1602:69 1603:120 1604:93 1605:85 1606:122 1607:96 1608:79 1609:124 1610:106 1611:88 1612:114 1613:105 1614:85 1615:104 1616:95 1617:78 1618:112 1619:98 1620:84 1621:106 1622:98 1623:82 1624:104 1625:100 1626:77 1627:112 1628:102 1629:82 1630:116 1631:105 1632:89 1633:151 1634:175 1635:177 1636:144 1637:170 1638:168 1639:150 1640:174 1641:168 1642:153 1643:174 1644:169 1645:156 1646:174 1647:171 1648:93 1649:96 1650:103 1651:79 1652:82 1653:90 1654:70 1655:76 1656:83 1657:76 1658:83 1659:88 1660:204 1661:217 1662:225 1663:104 1664:108 1665:117 1666:62 1667:62 1668:67 1669:220 1670:224 1671:227 1672:228 1673:234 1674:237 1675:247 1676:247 1677:248 1678:131 1679:133 1680:134 1681:38 1682:42 1683:46 1684:62 1685:66 1686:68 1687:174 1688:180 1689:184 1690:76 1691:80 1692:84 1693:57 1694:59 1695:65 1696:60 1697:58 1698:64 1699:91 1700:79 1701:79 1702:126 1703:108 1704:92 1705:125 1706:116 1707:98 1708:117 1709:109 1710:91 1711:97 1712:95 1713:75 1714:109 1715:109 1716:90 1717:103 1718:111 1719:90 1720:97 1721:108 1722:84 1723:104 1724:112 1725:89 1726:106 1727:114 1728:91 1729:148 1730:174 1731:174 1732:142 1733:166 1734:166 1735:149 1736:171 1737:165 1738:151 1739:170 1740:165 1741:159 1742:179 1743:173 1744:100 1745:113 1746:114 1747:117 1748:126 1749:134 1750:155 1751:166 1752:175 1753:74 1754:83 1755:87 1756:208 1757:221 1758:223 1759:165 1760:174 1761:178 1762:158 1763:167 1764:169 1765:255 1766:255 1767:255 1768:254 1769:254 1770:255 1771:255 1772:255 1773:255 1774:149 1775:158 1776:157 1777:120 1778:127 1779:131 1780:180 1781:187 1782:192 1783:193 1784:202 1785:204 1786:78 1787:83 1788:87 1789:70 1790:69 1791:75 1792:59 1793:56 1794:63 1795:72 1796:67 1797:73 1798:122 1799:106 1800:97 1801:120 1802:116 1803:96 1804:111 1805:107 1806:90 1807:91 1808:95 1809:73 1810:100 1811:113 1812:91 1813:98 1814:114 1815:93 1816:85 1817:106 1818:83 1819:86 1820:107 1821:82 1822:91 1823:113 1824:85 1825:150 1826:171 1827:173 1828:144 1829:164 1830:166 1831:150 1832:171 1833:165 1834:148 1835:168 1836:163 1837:156 1838:176 1839:169 1840:116 1841:131 1842:128 1843:71 1844:80 1845:83 1846:104 1847:112 1848:121 1849:75 1850:82 1851:89 1852:182 1853:195 1854:195 1855:229 1856:240 1857:242 1858:238 1859:250 1860:251 1861:246 1862:251 1863:251 1864:246 1865:246 1866:248 1867:230 1868:235 1869:236 1870:219 1871:226 1872:225 1873:211 1874:219 1875:223 1876:213 1877:218 1878:225 1879:183 1880:189 1881:191 1882:70 1883:75 1884:79 1885:66 1886:66 1887:71 1888:65 1889:62 1890:68 1891:60 1892:59 1893:61 1894:113 1895:107 1896:93 1897:113 1898:117 1899:93 1900:104 1901:109 1902:90 1903:97 1904:106 1905:86 1906:95 1907:113 1908:91 1909:90 1910:114 1911:90 1912:79 1913:104 1914:79 1915:73 1916:99 1917:74 1918:80 1919:109 1920:82 1921:149 1922:169 1923:169 1924:144 1925:163 1926:164 1927:149 1928:170 1929:164 1930:146 1931:167 1932:159 1933:154 1934:172 1935:166 1936:131 1937:146 1938:142 1939:71 1940:80 1941:80 1942:60 1943:62 1944:69 1945:63 1946:67 1947:75 1948:166 1949:180 1950:180 1951:234 1952:245 1953:247 1954:229 1955:241 1956:243 1957:240 1958:247 1959:247 1960:254 1961:255 1962:255 1963:249 1964:252 1965:252 1966:255 1967:255 1968:255 1969:160 1970:166 1971:168 1972:187 1973:190 1974:196 1975:165 1976:168 1977:172 1978:49 1979:50 1980:56 1981:59 1982:56 1983:60 1984:60 1985:56 1986:59 1987:63 1988:62 1989:60 1990:110 1991:120 1992:98 1993:94 1994:114 1995:87 1996:89 1997:110 1998:87 1999:97 2000:116 2001:95 2002:93 2003:117 2004:93 2005:83 2006:110 2007:85 2008:78 2009:105 2010:80 2011:70 2012:100 2013:74 2014:72 2015:106 2016:80 2017:144 2018:164 2019:163 2020:142 2021:162 2022:160 2023:144 2024:165 2025:158 2026:144 2027:166 2028:157 2029:151 2030:169 2031:163 2032:132 2033:147 2034:144 2035:100 2036:109 2037:108 2038:69 2039:69 2040:75 2041:75 2042:82 2043:86 2044:134 2045:143 2046:143 2047:213 2048:223 2049:227 2050:172 2051:182 2052:188 2053:206 2054:213 2055:221 2056:189 2057:197 2058:205 2059:191 2060:196 2061:201 2062:220 2063:225 2064:225 2065:212 2066:218 2067:218 2068:214 2069:222 2070:223 2071:109 2072:113 2073:115 2074:61 2075:63 2076:72 2077:63 2078:65 2079:72 2080:58 2081:59 2082:62 2083:73 2084:80 2085:70 2086:93 2087:119 2088:91 2089:80 2090:111 2091:81 2092:74 2093:104 2094:79 2095:77 2096:110 2097:83 2098:85 2099:114 2100:88 2101:81 2102:109 2103:84 2104:78 2105:109 2106:85 2107:72 2108:104 2109:79 2110:73 2111:107 2112:80 2113:142 2114:162 2115:161 2116:139 2117:159 2118:158 2119:141 2120:162 2121:156 2122:141 2123:162 2124:154 2125:147 2126:165 2127:160 2128:137 2129:154 2130:150 2131:93 2132:98 2133:100 2134:74 2135:72 2136:80 2137:92 2138:99 2139:105 2140:110 2141:114 2142:119 2143:197 2144:205 2145:213 2146:68 2147:73 2148:84 2149:65 2150:74 2151:87 2152:68 2153:77 2154:91 2155:84 2156:92 2157:101 2158:227 2159:231 2160:233 2161:249 2162:255 2163:255 2164:195 2165:208 2166:203 2167:96 2168:101 2169:99 2170:102 2171:113 2172:121 2173:111 2174:119 2175:131 2176:85 2177:94 2178:96 2179:82 2180:99 2181:79 2182:87 2183:118 2184:90 2185:82 2186:111 2187:83 2188:72 2189:101 2190:76 2191:72 2192:101 2193:76 2194:74 2195:104 2196:79 2197:78 2198:111 2199:84 2200:77 2201:111 2202:87 2203:74 2204:108 2205:84 2206:74 2207:109 2208:81 2209:141 2210:161 2211:159 2212:137 2213:157 2214:156 2215:139 2216:160 2217:154 2218:139 2219:159 2220:151 2221:144 2222:164 2223:157 2224:136 2225:154 2226:147 2227:88 2228:95 2229:98 2230:108 2231:110 2232:120 2233:96 2234:100 2235:109 2236:116 2237:121 2238:130 2239:204 2240:215 2241:219 2242:77 2243:79 2244:82 2245:55 2246:53 2247:59 2248:58 2249:58 2250:65 2251:83 2252:88 2253:94 2254:237 2255:242 2256:245 2257:240 2258:243 2259:246 2260:135 2261:143 2262:138 2263:101 2264:105 2265:100 2266:68 2267:78 2268:88 2269:73 2270:81 2271:87 2272:82 2273:96 2274:87 2275:85 2276:106 2277:83 2278:81 2279:109 2280:84 2281:81 2282:109 2283:85 2284:77 2285:105 2286:80 2287:74 2288:104 2289:78 2290:77 2291:107 2292:81 2293:81 2294:115 2295:89 2296:79 2297:115 2298:89 2299:77 2300:113 2301:86 2302:75 2303:111 2304:83 2305:138 2306:158 2307:157 2308:135 2309:156 2310:153 2311:137 2312:159 2313:149 2314:136 2315:157 2316:145 2317:144 2318:163 2319:152 2320:133 2321:150 2322:139 2323:121 2324:138 2325:134 2326:142 2327:153 2328:160 2329:92 2330:98 2331:105 2332:123 2333:128 2334:136 2335:165 2336:176 2337:181 2338:86 2339:88 2340:92 2341:58 2342:53 2343:54 2344:50 2345:45 2346:45 2347:125 2348:127 2349:131 2350:222 2351:232 2352:236 2353:222 2354:223 2355:227 2356:119 2357:120 2358:118 2359:101 2360:106 2361:98 2362:114 2363:118 2364:133 2365:103 2366:114 2367:107 2368:79 2369:100 2370:74 2371:83 2372:108 2373:82 2374:80 2375:104 2376:80 2377:78 2378:105 2379:80 2380:79 2381:109 2382:84 2383:79 2384:113 2385:86 2386:78 2387:112 2388:85 2389:72 2390:110 2391:81 2392:83 2393:120 2394:94 2395:78 2396:114 2397:88 2398:73 2399:109 2400:81 2401:136 2402:156 2403:155 2404:130 2405:151 2406:144 2407:135 2408:155 2409:144 2410:136 2411:154 2412:144 2413:143 2414:160 2415:150 2416:133 2417:152 2418:139 2419:143 2420:157 2421:157 2422:95 2423:105 2424:112 2425:108 2426:116 2427:119 2428:129 2429:131 2430:137 2431:106 2432:107 2433:107 2434:127 2435:123 2436:118 2437:63 2438:59 2439:57 2440:56 2441:52 2442:50 2443:149 2444:146 2445:149 2446:236 2447:235 2448:241 2449:177 2450:180 2451:179 2452:137 2453:146 2454:142 2455:106 2456:116 2457:105 2458:138 2459:143 2460:149 2461:115 2462:130 2463:119 2464:78 2465:104 2466:75 2467:83 2468:109 2469:84 2470:85 2471:112 2472:87 2473:87 2474:113 2475:88 2476:93 2477:121 2478:98 2479:85 2480:118 2481:94 2482:75 2483:111 2484:81 2485:73 2486:110 2487:80 2488:85 2489:122 2490:95 2491:84 2492:120 2493:94 2494:76 2495:112 2496:86 2497:133 2498:154 2499:150 2500:121 2501:141 2502:131 2503:134 2504:150 2505:140 2506:135 2507:151 2508:141 2509:139 2510:156 2511:146 2512:128 2513:147 2514:137 2515:153 2516:166 2517:168 2518:74 2519:80 2520:85 2521:135 2522:142 2523:143 2524:137 2525:131 2526:136 2527:87 2528:78 2529:82 2530:107 2531:105 2532:102 2533:70 2534:67 2535:60 2536:75 2537:72 2538:68 2539:152 2540:146 2541:142 2542:182 2543:172 2544:167 2545:172 2546:175 2547:169 2548:172 2549:182 2550:178 2551:107 2552:117 2553:112 2554:89 2555:100 2556:92 2557:62 2558:83 2559:68 2560:73 2561:104 2562:75 2563:74 2564:105 2565:79 2566:80 2567:111 2568:85 2569:93 2570:124 2571:97 2572:94 2573:124 2574:100 2575:88 2576:121 2577:97 2578:73 2579:109 2580:82 2581:76 2582:111 2583:86 2584:82 2585:118 2586:92 2587:86 2588:121 2589:95 2590:78 2591:114 2592:88 2593:130 2594:149 2595:143 2596:138 2597:154 2598:147 2599:132 2600:146 2601:139 2602:130 2603:146 2604:137 2605:131 2606:148 2607:137 2608:127 2609:144 2610:138 2611:101 2612:109 2613:114 2614:79 2615:81 2616:84 2617:183 2618:184 2619:182 2620:128 2621:116 2622:121 2623:138 2624:137 2625:142 2626:139 2627:144 2628:145 2629:115 2630:113 2631:107 2632:120 2633:118 2634:110 2635:128 2636:123 2637:115 2638:168 2639:165 2640:154 2641:131 2642:133 2643:128 2644:157 2645:167 2646:166 2647:160 2648:171 2649:169 2650:183 2651:191 2652:188 2653:147 2654:161 2655:152 2656:114 2657:140 2658:121 2659:80 2660:109 2661:87 2662:66 2663:97 2664:73 2665:71 2666:103 2667:78 2668:71 2669:101 2670:78 2671:76 2672:108 2673:86 2674:80 2675:117 2676:92 2677:80 2678:116 2679:91 2680:73 2681:110 2682:83 2683:79 2684:116 2685:87 2686:73 2687:108 2688:83 2689:114 2690:132 2691:126 2692:145 2693:159 2694:154 2695:137 2696:152 2697:145 2698:135 2699:151 2700:143 2701:127 2702:144 2703:133 2704:124 2705:140 2706:134 2707:103 2708:112 2709:117 2710:98 2711:105 2712:109 2713:167 2714:160 2715:161 2716:163 2717:153 2718:154 2719:105 2720:110 2721:110 2722:109 2723:113 2724:114 2725:80 2726:78 2727:80 2728:66 2729:65 2730:64 2731:74 2732:73 2733:71 2734:111 2735:112 2736:107 2737:73 2738:77 2739:80 2740:129 2741:137 2742:144 2743:215 2744:222 2745:226 2746:248 2747:254 2748:254 2749:216 2750:221 2751:221 2752:250 2753:255 2754:254 2755:218 2756:231 2757:227 2758:191 2759:209 2760:203 2761:170 2762:192 2763:186 2764:153 2765:174 2766:164 2767:126 2768:148 2769:133 2770:90 2771:122 2772:100 2773:76 2774:117 2775:90 2776:71 2777:113 2778:87 2779:75 2780:114 2781:87 2782:77 2783:110 2784:89 2785:138 2786:155 2787:149 2788:136 2789:152 2790:146 2791:142 2792:157 2793:149 2794:143 2795:158 2796:149 2797:119 2798:138 2799:127 2800:166 2801:182 2802:179 2803:173 2804:186 2805:192 2806:140 2807:150 2808:155 2809:171 2810:172 2811:175 2812:207 2813:206 2814:209 2815:146 2816:150 2817:151 2818:116 2819:118 2820:119 2821:100 2822:98 2823:100 2824:54 2825:51 2826:56 2827:87 2828:86 2829:85 2830:112 2831:112 2832:112 2833:144 2834:148 2835:154 2836:156 2837:162 2838:166 2839:245 2840:250 2841:253 2842:238 2843:242 2844:243 2845:234 2846:239 2847:239 2848:234 2849:240 2850:243 2851:255 2852:255 2853:255 2854:255 2855:255 2856:255 2857:255 2858:255 2859:255 2860:236 2861:241 2862:242 2863:235 2864:240 2865:241 2866:178 2867:189 2868:186 2869:94 2870:120 2871:110 2872:74 2873:106 2874:88 2875:77 2876:111 2877:89 2878:82 2879:117 2880:97 2881:133 2882:150 2883:143 2884:125 2885:142 2886:134 2887:137 2888:153 2889:141 2890:126 2891:142 2892:128 2893:122 2894:140 2895:130 2896:206 2897:223 2898:224 2899:201 2900:216 2901:223 2902:178 2903:190 2904:194 2905:200 2906:208 2907:208 2908:205 2909:212 2910:212 2911:180 2912:185 2913:180 2914:180 2915:180 2916:175 2917:124 2918:123 2919:121 2920:52 2921:49 2922:52 2923:136 2924:135 2925:125 2926:155 2927:155 2928:152 2929:88 2930:90 2931:94 2932:208 2933:213 2934:216 2935:248 2936:252 2937:255 2938:233 2939:236 2940:238 2941:245 2942:250 2943:248 2944:200 2945:209 2946:210 2947:249 2948:250 2949:252 2950:251 2951:252 2952:253 2953:251 2954:251 2955:252 2956:245 2957:248 2958:249 2959:201 2960:206 2961:206 2962:211 2963:214 2964:215 2965:175 2966:182 2967:182 2968:181 2969:196 2970:189 2971:82 2972:108 2973:91 2974:81 2975:119 2976:97 2977:96 2978:113 2979:102 2980:106 2981:123 2982:111 2983:128 2984:145 2985:129 2986:106 2987:121 2988:104 2989:118 2990:135 2991:129 2992:195 2993:211 2994:212 2995:210 2996:224 2997:229 2998:161 2999:172 3000:177 3001:77 3002:81 3003:83 3004:166 3005:168 3006:169 3007:194 3008:198 3009:197 3010:129 3011:130 3012:128 3013:92 3014:91 3015:91 3016:57 3017:53 3018:58 3019:98 3020:97 3021:93 3022:71 3023:72 3024:69 3025:94 3026:99 3027:100 3028:223 3029:229 3030:232 3031:218 3032:223 3033:227 3034:242 3035:245 3036:247 3037:252 3038:253 3039:253 3040:188 3041:196 3042:198 3043:224 3044:225 3045:227 3046:254 3047:255 3048:255 3049:243 3050:244 3051:246 3052:249 3053:252 3054:253 3055:165 3056:171 3057:171 3058:173 3059:181 3060:181 3061:242 3062:246 3063:246 3064:255 3065:255 3066:255 3067:201 3068:211 3069:207 3070:85 3071:114 3072:97 
3.059577587325666e-07 1:245 2:245 3:245 4:245 5:245 6:245 7:245 8:245 9:245 10:245 11:245 12:245 13:245 14:245 15:245 16:245 17:245 18:245 19:245 20:245 21:245 22:245 23:245 24:245 25:245 26:245 27:245 28:244 29:244 30:244 31:243 32:243 33:243 34:245 35:245 36:245 37:245 38:245 39:245 40:245 41:245 42:245 43:243 44:243 45:243 46:243 47:243 48:243 49:242 50:242 51:242 52:246 53:246 54:246 55:246 56:246 57:246 58:245 59:245 60:245 61:244 62:244 63:244 64:245 65:245 66:245 67:244 68:244 69:244 70:244 71:244 72:244 73:245 74:245 75:245 76:245 77:245 78:245 79:245 80:245 81:245 82:245 83:245 84:245 85:245 86:245 87:245 88:244 89:244 90:244 91:244 92:244 93:244 94:246 95:246 96:246 97:245 98:245 99:245 100:245 101:245 102:245 103:245 104:245 105:245 106:245 107:245 108:245 109:245 110:245 111:245 112:245 113:245 114:245 115:245 116:245 117:245 118:245 119:245 120:245 121:245 122:245 123:245 124:244 125:244 126:244 127:243 128:243 129:243 130:245 131:245 132:245 133:245 134:245 135:245 136:246 137:246 138:246 139:241 140:241 141:241 142:246 143:246 144:246 145:253 146:253 147:253 148:241 149:241 150:241 151:242 152:242 153:242 154:245 155:245 156:245 157:243 158:243 159:243 160:245 161:245 162:245 163:246 164:246 165:246 166:245 167:245 168:245 169:241 170:241 171:241 172:245 173:245 174:245 175:244 176:244 177:244 178:245 179:245 180:245 181:244 182:244 183:244 184:243 185:243 186:243 187:244 188:244 189:244 190:244 191:244 192:244 193:245 194:245 195:245 196:245 197:245 198:245 199:245 200:245 201:245 202:245 203:245 204:245 205:245 206:245 207:245 208:245 209:245 210:245 211:245 212:245 213:245 214:245 215:245 216:245 217:245 218:245 219:245 220:245 221:245 222:245 223:244 224:244 225:244 226:244 227:244 228:244 229:244 230:244 231:244 232:243 233:243 234:243 235:245 236:245 237:245 238:235 239:235 240:235 241:180 242:180 243:180 244:224 245:224 246:224 247:238 248:238 249:238 250:246 251:246 252:246 253:245 254:245 255:245 256:245 257:245 258:245 259:246 260:246 261:246 262:243 263:243 264:243 265:243 266:243 267:243 268:224 269:224 270:224 271:252 272:252 273:252 274:245 275:245 276:245 277:244 278:244 279:244 280:243 281:243 282:243 283:245 284:245 285:245 286:243 287:243 288:243 289:244 290:244 291:244 292:244 293:244 294:244 295:245 296:245 297:245 298:245 299:245 300:245 301:245 302:245 303:245 304:245 305:245 306:245 307:245 308:245 309:245 310:245 311:245 312:245 313:245 314:245 315:245 316:245 317:245 318:245 319:245 320:245 321:245 322:245 323:245 324:245 325:245 326:245 327:245 328:239 329:239 330:239 331:255 332:255 333:255 334:133 335:133 336:133 337:106 338:106 339:106 340:192 341:192 342:192 343:231 344:231 345:231 346:247 347:247 348:247 349:244 350:244 351:244 352:245 353:245 354:245 355:245 356:245 357:245 358:242 359:242 360:242 361:249 362:249 363:249 364:223 365:223 366:223 367:185 368:185 369:185 370:251 371:251 372:251 373:245 374:245 375:245 376:243 377:243 378:243 379:245 380:245 381:245 382:244 383:244 384:244 385:245 386:245 387:245 388:244 389:244 390:244 391:245 392:245 393:245 394:245 395:245 396:245 397:245 398:245 399:245 400:245 401:245 402:245 403:245 404:245 405:245 406:245 407:245 408:245 409:245 410:245 411:245 412:245 413:245 414:245 415:245 416:245 417:245 418:244 419:244 420:244 421:240 422:240 423:240 424:254 425:254 426:254 427:167 428:167 429:167 430:42 431:42 432:42 433:152 434:152 435:152 436:99 437:99 438:99 439:205 440:205 441:205 442:253 443:253 444:253 445:243 446:243 447:243 448:238 449:238 450:238 451:250 452:250 453:250 454:203 455:203 456:203 457:232 458:232 459:232 460:241 461:241 462:241 463:58 464:58 465:58 466:123 467:123 468:123 469:255 470:255 471:255 472:243 473:243 474:243 475:245 476:245 477:245 478:244 479:244 480:244 481:245 482:245 483:245 484:245 485:245 486:245 487:245 488:245 489:245 490:245 491:245 492:245 493:245 494:245 495:245 496:245 497:245 498:245 499:245 500:245 501:245 502:245 503:245 504:245 505:246 506:246 507:246 508:245 509:245 510:245 511:245 512:245 513:245 514:241 515:241 516:241 517:255 518:255 519:255 520:174 521:174 522:174 523:16 524:16 525:16 526:48 527:48 528:48 529:99 530:99 531:99 532:34 533:34 534:34 535:103 536:103 537:103 538:243 539:243 540:243 541:243 542:243 543:243 544:241 545:241 546:241 547:228 548:228 549:228 550:148 551:148 552:148 553:229 554:229 555:229 556:255 557:255 558:255 559:99 560:99 561:99 562:23 563:23 564:23 565:185 566:185 567:185 568:254 569:254 570:254 571:242 572:242 573:242 574:244 575:244 576:244 577:245 578:245 579:245 580:245 581:245 582:245 583:245 584:245 585:245 586:245 587:245 588:245 589:245 590:245 591:245 592:245 593:245 594:245 595:245 596:245 597:245 598:245 599:245 600:245 601:245 602:245 603:245 604:245 605:245 606:245 607:243 608:243 609:243 610:250 611:250 612:250 613:211 614:211 615:211 616:41 617:41 618:41 619:16 620:16 621:16 622:56 623:56 624:56 625:87 626:87 627:87 628:26 629:26 630:26 631:72 632:72 633:72 634:235 635:235 636:235 637:249 638:249 639:249 640:241 641:241 642:241 643:99 644:99 645:99 646:40 647:40 648:40 649:155 650:155 651:155 652:255 653:255 654:255 655:86 656:86 657:86 658:28 659:28 660:28 661:73 662:73 663:73 664:240 665:240 666:240 667:247 668:247 669:247 670:243 671:243 672:243 673:245 674:245 675:245 676:245 677:245 678:245 679:245 680:245 681:245 682:245 683:245 684:245 685:245 686:245 687:245 688:245 689:245 690:245 691:245 692:245 693:245 694:245 695:245 696:245 697:244 698:244 699:244 700:245 701:245 702:245 703:240 704:240 705:240 706:255 707:255 708:255 709:120 710:120 711:120 712:13 713:13 714:13 715:19 716:19 717:19 718:74 719:74 720:74 721:155 722:155 723:155 724:42 725:42 726:42 727:92 728:92 729:92 730:241 731:241 732:241 733:232 734:232 735:232 736:228 737:228 738:228 739:77 740:77 741:77 742:96 743:96 744:96 745:216 746:216 747:216 748:254 749:254 750:254 751:85 752:85 753:85 754:32 755:32 756:32 757:29 758:29 759:29 760:134 761:134 762:134 763:255 764:255 765:255 766:243 767:243 768:243 769:245 770:245 771:245 772:244 773:244 774:244 775:245 776:245 777:245 778:245 779:245 780:245 781:245 782:245 783:245 784:245 785:245 786:245 787:245 788:245 789:245 790:245 791:245 792:245 793:245 794:245 795:245 796:245 797:245 798:245 799:240 800:240 801:240 802:255 803:255 804:255 805:138 806:138 807:138 808:14 809:14 810:14 811:19 812:19 813:19 814:102 815:102 816:102 817:176 818:176 819:176 820:133 821:133 822:133 823:139 824:139 825:139 826:215 827:215 828:215 829:211 830:211 831:211 832:246 833:246 834:246 835:148 836:148 837:148 838:226 839:226 840:226 841:254 842:254 843:254 844:254 845:254 846:254 847:86 848:86 849:86 850:26 851:26 852:26 853:25 854:25 855:25 856:25 857:25 858:25 859:183 860:183 861:183 862:254 863:254 864:254 865:245 866:245 867:245 868:244 869:244 870:244 871:245 872:245 873:245 874:245 875:245 876:245 877:245 878:245 879:245 880:245 881:245 882:245 883:245 884:245 885:245 886:245 887:245 888:245 889:245 890:245 891:245 892:245 893:245 894:245 895:243 896:243 897:243 898:253 899:253 900:253 901:213 902:213 903:213 904:33 905:33 906:33 907:13 908:13 909:13 910:145 911:145 912:145 913:189 914:189 915:189 916:153 917:153 918:153 919:185 920:185 921:185 922:241 923:241 924:241 925:221 926:221 927:221 928:242 929:242 930:242 931:233 932:233 933:233 934:243 935:243 936:243 937:244 938:244 939:244 940:245 941:245 942:245 943:79 944:79 945:79 946:44 947:44 948:44 949:117 950:117 951:117 952:38 953:38 954:38 955:101 956:101 957:101 958:253 959:253 960:253 961:245 962:245 963:245 964:245 965:245 966:245 967:245 968:245 969:245 970:245 971:245 972:245 973:245 974:245 975:245 976:245 977:245 978:245 979:245 980:245 981:245 982:245 983:245 984:245 985:244 986:244 987:244 988:245 989:245 990:245 991:245 992:245 993:245 994:243 995:243 996:243 997:254 998:254 999:254 1000:97 1001:97 1002:97 1003:2 1004:2 1005:2 1006:184 1007:184 1008:184 1009:205 1010:205 1011:205 1012:153 1013:153 1014:153 1015:176 1016:176 1017:176 1018:201 1019:201 1020:201 1021:237 1022:237 1023:237 1024:248 1025:248 1026:248 1027:247 1028:247 1029:247 1030:243 1031:243 1032:243 1033:251 1034:251 1035:251 1036:233 1037:233 1038:233 1039:92 1040:92 1041:92 1042:78 1043:78 1044:78 1045:108 1046:108 1047:108 1048:52 1049:52 1050:52 1051:150 1052:150 1053:150 1054:255 1055:255 1056:255 1057:244 1058:244 1059:244 1060:243 1061:243 1062:243 1063:243 1064:243 1065:243 1066:243 1067:243 1068:243 1069:245 1070:245 1071:245 1072:243 1073:243 1074:243 1075:246 1076:246 1077:246 1078:243 1079:243 1080:243 1081:242 1082:242 1083:242 1084:243 1085:243 1086:243 1087:242 1088:242 1089:242 1090:241 1091:241 1092:241 1093:253 1094:253 1095:253 1096:201 1097:201 1098:201 1099:28 1100:28 1101:28 1102:204 1103:204 1104:204 1105:227 1106:227 1107:227 1108:123 1109:123 1110:123 1111:43 1112:43 1113:43 1114:40 1115:40 1116:40 1117:124 1118:124 1119:124 1120:246 1121:246 1122:246 1123:244 1124:244 1125:244 1126:246 1127:246 1128:246 1129:232 1130:232 1131:232 1132:199 1133:199 1134:199 1135:61 1136:61 1137:61 1138:87 1139:87 1140:87 1141:31 1142:31 1143:31 1144:80 1145:80 1146:80 1147:242 1148:242 1149:242 1150:246 1151:246 1152:246 1153:232 1154:232 1155:232 1156:255 1157:255 1158:255 1159:255 1160:255 1161:255 1162:255 1163:255 1164:255 1165:245 1166:245 1167:245 1168:255 1169:255 1170:255 1171:203 1172:203 1173:203 1174:226 1175:226 1176:226 1177:255 1178:255 1179:255 1180:255 1181:255 1182:255 1183:250 1184:250 1185:250 1186:244 1187:244 1188:244 1189:244 1190:244 1191:244 1192:255 1193:255 1194:255 1195:123 1196:123 1197:123 1198:214 1199:214 1200:214 1201:251 1202:251 1203:251 1204:98 1205:98 1206:98 1207:13 1208:13 1209:13 1210:30 1211:30 1212:30 1213:54 1214:54 1215:54 1216:221 1217:221 1218:221 1219:253 1220:253 1221:253 1222:216 1223:216 1224:216 1225:192 1226:192 1227:192 1228:150 1229:150 1230:150 1231:46 1232:46 1233:46 1234:41 1235:41 1236:41 1237:49 1238:49 1239:49 1240:209 1241:209 1242:209 1243:252 1244:252 1245:252 1246:242 1247:242 1248:242 1249:185 1250:185 1251:185 1252:187 1253:187 1254:187 1255:186 1256:186 1257:186 1258:189 1259:189 1260:189 1261:234 1262:234 1263:234 1264:210 1265:210 1266:210 1267:128 1268:128 1269:128 1270:173 1271:173 1272:173 1273:192 1274:192 1275:192 1276:183 1277:183 1278:183 1279:208 1280:208 1281:208 1282:250 1283:250 1284:250 1285:243 1286:243 1287:243 1288:247 1289:247 1290:247 1291:178 1292:178 1293:178 1294:238 1295:238 1296:238 1297:239 1298:239 1299:239 1300:105 1301:105 1302:105 1303:27 1304:27 1305:27 1306:23 1307:23 1308:23 1309:133 1310:133 1311:133 1312:244 1313:244 1314:244 1315:244 1316:244 1317:244 1318:238 1319:238 1320:238 1321:160 1322:160 1323:160 1324:60 1325:60 1326:60 1327:77 1328:77 1329:77 1330:58 1331:58 1332:58 1333:203 1334:203 1335:203 1336:253 1337:253 1338:253 1339:242 1340:242 1341:242 1342:246 1343:246 1344:246 1345:142 1346:142 1347:142 1348:128 1349:128 1350:128 1351:124 1352:124 1353:124 1354:98 1355:98 1356:98 1357:203 1358:203 1359:203 1360:123 1361:123 1362:123 1363:122 1364:122 1365:122 1366:128 1367:128 1368:128 1369:129 1370:129 1371:129 1372:125 1373:125 1374:125 1375:130 1376:130 1377:130 1378:233 1379:233 1380:233 1381:248 1382:248 1383:248 1384:244 1385:244 1386:244 1387:241 1388:241 1389:241 1390:250 1391:250 1392:250 1393:218 1394:218 1395:218 1396:136 1397:136 1398:136 1399:79 1400:79 1401:79 1402:34 1403:34 1404:34 1405:183 1406:183 1407:183 1408:253 1409:253 1410:253 1411:255 1412:255 1413:255 1414:185 1415:185 1416:185 1417:22 1418:22 1419:22 1420:42 1421:42 1422:42 1423:82 1424:82 1425:82 1426:156 1427:156 1428:156 1429:255 1430:255 1431:255 1432:239 1433:239 1434:239 1435:244 1436:244 1437:244 1438:245 1439:245 1440:245 1441:255 1442:255 1443:255 1444:251 1445:251 1446:251 1447:251 1448:251 1449:251 1450:227 1451:227 1452:227 1453:229 1454:229 1455:229 1456:220 1457:220 1458:220 1459:254 1460:254 1461:254 1462:251 1463:251 1464:251 1465:245 1466:245 1467:245 1468:251 1469:251 1470:251 1471:234 1472:234 1473:234 1474:239 1475:239 1476:239 1477:246 1478:246 1479:246 1480:245 1481:245 1482:245 1483:243 1484:243 1485:243 1486:247 1487:247 1488:247 1489:227 1490:227 1491:227 1492:179 1493:179 1494:179 1495:123 1496:123 1497:123 1498:54 1499:54 1500:54 1501:177 1502:177 1503:177 1504:246 1505:246 1506:246 1507:224 1508:224 1509:224 1510:158 1511:158 1512:158 1513:36 1514:36 1515:36 1516:54 1517:54 1518:54 1519:180 1520:180 1521:180 1522:207 1523:207 1524:207 1525:249 1526:249 1527:249 1528:243 1529:243 1530:243 1531:244 1532:244 1533:244 1534:245 1535:245 1536:245 1537:204 1538:204 1539:204 1540:249 1541:249 1542:249 1543:255 1544:255 1545:255 1546:216 1547:216 1548:216 1549:216 1550:216 1551:216 1552:255 1553:255 1554:255 1555:250 1556:250 1557:250 1558:187 1559:187 1560:187 1561:236 1562:236 1563:236 1564:255 1565:255 1566:255 1567:255 1568:255 1569:255 1570:251 1571:251 1572:251 1573:244 1574:244 1575:244 1576:245 1577:245 1578:245 1579:244 1580:244 1581:244 1582:243 1583:243 1584:243 1585:248 1586:248 1587:248 1588:238 1589:238 1590:238 1591:128 1592:128 1593:128 1594:116 1595:116 1596:116 1597:103 1598:103 1599:103 1600:178 1601:178 1602:178 1603:188 1604:188 1605:188 1606:175 1607:175 1608:175 1609:69 1610:69 1611:69 1612:158 1613:158 1614:158 1615:235 1616:235 1617:235 1618:250 1619:250 1620:250 1621:244 1622:244 1623:244 1624:244 1625:244 1626:244 1627:244 1628:244 1629:244 1630:245 1631:245 1632:245 1633:146 1634:146 1635:146 1636:210 1637:210 1638:210 1639:196 1640:196 1641:196 1642:137 1643:137 1644:137 1645:139 1646:139 1647:139 1648:204 1649:204 1650:204 1651:223 1652:223 1653:223 1654:117 1655:117 1656:117 1657:180 1658:180 1659:180 1660:182 1661:182 1662:182 1663:168 1664:168 1665:168 1666:220 1667:220 1668:220 1669:249 1670:249 1671:249 1672:244 1673:244 1674:244 1675:244 1676:244 1677:244 1678:244 1679:244 1680:244 1681:244 1682:244 1683:244 1684:248 1685:248 1686:248 1687:97 1688:97 1689:97 1690:53 1691:53 1692:53 1693:34 1694:34 1695:34 1696:40 1697:40 1698:40 1699:137 1700:137 1701:137 1702:228 1703:228 1704:228 1705:224 1706:224 1707:224 1708:205 1709:205 1710:205 1711:164 1712:164 1713:164 1714:228 1715:228 1716:228 1717:248 1718:248 1719:248 1720:243 1721:243 1722:243 1723:244 1724:244 1725:244 1726:245 1727:245 1728:245 1729:205 1730:205 1731:205 1732:167 1733:167 1734:167 1735:140 1736:140 1737:140 1738:133 1739:133 1740:133 1741:112 1742:112 1743:112 1744:172 1745:172 1746:172 1747:193 1748:193 1749:193 1750:120 1751:120 1752:120 1753:151 1754:151 1755:151 1756:129 1757:129 1758:129 1759:126 1760:126 1761:126 1762:176 1763:176 1764:176 1765:244 1766:244 1767:244 1768:245 1769:245 1770:245 1771:244 1772:244 1773:244 1774:244 1775:244 1776:244 1777:244 1778:244 1779:244 1780:252 1781:252 1782:252 1783:116 1784:116 1785:116 1786:45 1787:45 1788:45 1789:58 1790:58 1791:58 1792:29 1793:29 1794:29 1795:174 1796:174 1797:174 1798:246 1799:246 1800:246 1801:241 1802:241 1803:241 1804:218 1805:218 1806:218 1807:58 1808:58 1809:58 1810:145 1811:145 1812:145 1813:255 1814:255 1815:255 1816:240 1817:240 1818:240 1819:244 1820:244 1821:244 1822:245 1823:245 1824:245 1825:246 1826:246 1827:246 1828:247 1829:247 1830:247 1831:247 1832:247 1833:247 1834:251 1835:251 1836:251 1837:253 1838:253 1839:253 1840:249 1841:249 1842:249 1843:245 1844:245 1845:245 1846:251 1847:251 1848:251 1849:251 1850:251 1851:251 1852:254 1853:254 1854:254 1855:255 1856:255 1857:255 1858:247 1859:247 1860:247 1861:244 1862:244 1863:244 1864:245 1865:245 1866:245 1867:243 1868:243 1869:243 1870:244 1871:244 1872:244 1873:245 1874:245 1875:245 1876:247 1877:247 1878:247 1879:126 1880:126 1881:126 1882:36 1883:36 1884:36 1885:33 1886:33 1887:33 1888:113 1889:113 1890:113 1891:233 1892:233 1893:233 1894:241 1895:241 1896:241 1897:246 1898:246 1899:246 1900:196 1901:196 1902:196 1903:22 1904:22 1905:22 1906:98 1907:98 1908:98 1909:244 1910:244 1911:244 1912:245 1913:245 1914:245 1915:243 1916:243 1917:243 1918:244 1919:244 1920:244 1921:255 1922:255 1923:255 1924:255 1925:255 1926:255 1927:252 1928:252 1929:252 1930:249 1931:249 1932:249 1933:255 1934:255 1935:255 1936:255 1937:255 1938:255 1939:222 1940:222 1941:222 1942:200 1943:200 1944:200 1945:255 1946:255 1947:255 1948:251 1949:251 1950:251 1951:244 1952:244 1953:244 1954:245 1955:245 1956:245 1957:245 1958:245 1959:245 1960:245 1961:245 1962:245 1963:245 1964:245 1965:245 1966:244 1967:244 1968:244 1969:248 1970:248 1971:248 1972:237 1973:237 1974:237 1975:89 1976:89 1977:89 1978:59 1979:59 1980:59 1981:102 1982:102 1983:102 1984:110 1985:110 1986:110 1987:226 1988:226 1989:226 1990:232 1991:232 1992:232 1993:245 1994:245 1995:245 1996:108 1997:108 1998:108 1999:5 2000:5 2001:5 2002:40 2003:40 2004:40 2005:123 2006:123 2007:123 2008:248 2009:248 2010:248 2011:243 2012:243 2013:243 2014:244 2015:244 2016:244 2017:169 2018:169 2019:169 2020:174 2021:174 2022:174 2023:204 2024:204 2025:204 2026:213 2027:213 2028:213 2029:163 2030:163 2031:163 2032:198 2033:198 2034:198 2035:146 2036:146 2037:146 2038:149 2039:149 2040:149 2041:168 2042:168 2043:168 2044:176 2045:176 2046:176 2047:245 2048:245 2049:245 2050:243 2051:243 2052:243 2053:243 2054:243 2055:243 2056:244 2057:244 2058:244 2059:245 2060:245 2061:245 2062:245 2063:245 2064:245 2065:246 2066:246 2067:246 2068:241 2069:241 2070:241 2071:107 2072:107 2073:107 2074:87 2075:87 2076:87 2077:187 2078:187 2079:187 2080:120 2081:120 2082:120 2083:203 2084:203 2085:203 2086:101 2087:101 2088:101 2089:180 2090:180 2091:180 2092:141 2093:141 2094:141 2095:128 2096:128 2097:128 2098:37 2099:37 2100:37 2101:47 2102:47 2103:47 2104:238 2105:238 2106:238 2107:247 2108:247 2109:247 2110:243 2111:243 2112:243 2113:124 2114:124 2115:124 2116:118 2117:118 2118:118 2119:181 2120:181 2121:181 2122:179 2123:179 2124:179 2125:108 2126:108 2127:108 2128:104 2129:104 2130:104 2131:134 2132:134 2133:134 2134:137 2135:137 2136:137 2137:127 2138:127 2139:127 2140:138 2141:138 2142:138 2143:199 2144:199 2145:199 2146:198 2147:198 2148:198 2149:199 2150:199 2151:199 2152:235 2153:235 2154:235 2155:246 2156:246 2157:246 2158:244 2159:244 2160:244 2161:247 2162:247 2163:247 2164:237 2165:237 2166:237 2167:144 2168:144 2169:144 2170:103 2171:103 2172:103 2173:186 2174:186 2175:186 2176:101 2177:101 2178:101 2179:151 2180:151 2181:151 2182:56 2183:56 2184:56 2185:160 2186:160 2187:160 2188:173 2189:173 2190:173 2191:185 2192:185 2193:185 2194:184 2195:184 2196:184 2197:95 2198:95 2199:95 2200:227 2201:227 2202:227 2203:248 2204:248 2205:248 2206:243 2207:243 2208:243 2209:255 2210:255 2211:255 2212:254 2213:254 2214:254 2215:250 2216:250 2217:250 2218:247 2219:247 2220:247 2221:252 2222:252 2223:252 2224:223 2225:223 2226:223 2227:252 2228:252 2229:252 2230:250 2231:250 2232:250 2233:254 2234:254 2235:254 2236:254 2237:254 2238:254 2239:243 2240:243 2241:243 2242:241 2243:241 2244:241 2245:244 2246:244 2247:244 2248:245 2249:245 2250:245 2251:245 2252:245 2253:245 2254:243 2255:243 2256:243 2257:253 2258:253 2259:253 2260:211 2261:211 2262:211 2263:95 2264:95 2265:95 2266:108 2267:108 2268:108 2269:191 2270:191 2271:191 2272:73 2273:73 2274:73 2275:161 2276:161 2277:161 2278:174 2279:174 2280:174 2281:150 2282:150 2283:150 2284:86 2285:86 2286:86 2287:52 2288:52 2289:52 2290:115 2291:115 2292:115 2293:107 2294:107 2295:107 2296:213 2297:213 2298:213 2299:253 2300:253 2301:253 2302:243 2303:243 2304:243 2305:243 2306:243 2307:243 2308:243 2309:243 2310:243 2311:244 2312:244 2313:244 2314:243 2315:243 2316:243 2317:244 2318:244 2319:244 2320:249 2321:249 2322:249 2323:242 2324:242 2325:242 2326:244 2327:244 2328:244 2329:244 2330:244 2331:244 2332:243 2333:243 2334:243 2335:245 2336:245 2337:245 2338:244 2339:244 2340:244 2341:245 2342:245 2343:245 2344:245 2345:245 2346:245 2347:245 2348:245 2349:245 2350:241 2351:241 2352:241 2353:255 2354:255 2355:255 2356:148 2357:148 2358:148 2359:33 2360:33 2361:33 2362:58 2363:58 2364:58 2365:129 2366:129 2367:129 2368:73 2369:73 2370:73 2371:86 2372:86 2373:86 2374:188 2375:188 2376:188 2377:178 2378:178 2379:178 2380:130 2381:130 2382:130 2383:24 2384:24 2385:24 2386:10 2387:10 2388:10 2389:44 2390:44 2391:44 2392:146 2393:146 2394:146 2395:223 2396:223 2397:223 2398:249 2399:249 2400:249 2401:245 2402:245 2403:245 2404:245 2405:245 2406:245 2407:245 2408:245 2409:245 2410:244 2411:244 2412:244 2413:244 2414:244 2415:244 2416:243 2417:243 2418:243 2419:244 2420:244 2421:244 2422:243 2423:243 2424:243 2425:244 2426:244 2427:244 2428:244 2429:244 2430:244 2431:245 2432:245 2433:245 2434:245 2435:245 2436:245 2437:245 2438:245 2439:245 2440:245 2441:245 2442:245 2443:245 2444:245 2445:245 2446:246 2447:246 2448:246 2449:250 2450:250 2451:250 2452:86 2453:86 2454:86 2455:18 2456:18 2457:18 2458:22 2459:22 2460:22 2461:95 2462:95 2463:95 2464:51 2465:51 2466:51 2467:67 2468:67 2469:67 2470:195 2471:195 2472:195 2473:233 2474:233 2475:233 2476:252 2477:252 2478:252 2479:180 2480:180 2481:180 2482:103 2483:103 2484:103 2485:217 2486:217 2487:217 2488:67 2489:67 2490:67 2491:129 2492:129 2493:129 2494:255 2495:255 2496:255 2497:246 2498:246 2499:246 2500:245 2501:245 2502:245 2503:245 2504:245 2505:245 2506:245 2507:245 2508:245 2509:244 2510:244 2511:244 2512:244 2513:244 2514:244 2515:245 2516:245 2517:245 2518:243 2519:243 2520:243 2521:244 2522:244 2523:244 2524:245 2525:245 2526:245 2527:245 2528:245 2529:245 2530:244 2531:244 2532:244 2533:245 2534:245 2535:245 2536:246 2537:246 2538:246 2539:245 2540:245 2541:245 2542:234 2543:234 2544:234 2545:227 2546:227 2547:227 2548:60 2549:60 2550:60 2551:4 2552:4 2553:4 2554:98 2555:98 2556:98 2557:155 2558:155 2559:155 2560:17 2561:17 2562:17 2563:96 2564:96 2565:96 2566:227 2567:227 2568:227 2569:206 2570:206 2571:206 2572:109 2573:109 2574:109 2575:220 2576:220 2577:220 2578:212 2579:212 2580:212 2581:206 2582:206 2583:206 2584:145 2585:145 2586:145 2587:126 2588:126 2589:126 2590:254 2591:254 2592:254 2593:245 2594:245 2595:245 2596:245 2597:245 2598:245 2599:244 2600:244 2601:244 2602:244 2603:244 2604:244 2605:244 2606:244 2607:244 2608:245 2609:245 2610:245 2611:245 2612:245 2613:245 2614:245 2615:245 2616:245 2617:245 2618:245 2619:245 2620:245 2621:245 2622:245 2623:245 2624:245 2625:245 2626:244 2627:244 2628:244 2629:245 2630:245 2631:245 2632:244 2633:244 2634:244 2635:244 2636:244 2637:244 2638:211 2639:211 2640:211 2641:183 2642:183 2643:183 2644:45 2645:45 2646:45 2647:57 2648:57 2649:57 2650:123 2651:123 2652:123 2653:68 2654:68 2655:68 2656:28 2657:28 2658:28 2659:135 2660:135 2661:135 2662:209 2663:209 2664:209 2665:196 2666:196 2667:196 2668:44 2669:44 2670:44 2671:136 2672:136 2673:136 2674:181 2675:181 2676:181 2677:97 2678:97 2679:97 2680:253 2681:253 2682:253 2683:169 2684:169 2685:169 2686:230 2687:230 2688:230 2689:244 2690:244 2691:244 2692:245 2693:245 2694:245 2695:246 2696:246 2697:246 2698:248 2699:248 2700:248 2701:246 2702:246 2703:246 2704:245 2705:245 2706:245 2707:245 2708:245 2709:245 2710:244 2711:244 2712:244 2713:244 2714:244 2715:244 2716:245 2717:245 2718:245 2719:245 2720:245 2721:245 2722:244 2723:244 2724:244 2725:244 2726:244 2727:244 2728:250 2729:250 2730:250 2731:243 2732:243 2733:243 2734:214 2735:214 2736:214 2737:174 2738:174 2739:174 2740:32 2741:32 2742:32 2743:129 2744:129 2745:129 2746:121 2747:121 2748:121 2749:8 2750:8 2751:8 2752:75 2753:75 2754:75 2755:182 2756:182 2757:182 2758:101 2759:101 2760:101 2761:43 2762:43 2763:43 2764:119 2765:119 2766:119 2767:232 2768:232 2769:232 2770:250 2771:250 2772:250 2773:213 2774:213 2775:213 2776:255 2777:255 2778:255 2779:185 2780:185 2781:185 2782:178 2783:178 2784:178 2785:243 2786:243 2787:243 2788:250 2789:250 2790:250 2791:213 2792:213 2793:213 2794:210 2795:210 2796:210 2797:251 2798:251 2799:251 2800:243 2801:243 2802:243 2803:245 2804:245 2805:245 2806:245 2807:245 2808:245 2809:244 2810:244 2811:244 2812:245 2813:245 2814:245 2815:245 2816:245 2817:245 2818:245 2819:245 2820:245 2821:248 2822:248 2823:248 2824:229 2825:229 2826:229 2827:218 2828:218 2829:217 2830:231 2831:231 2832:231 2833:241 2834:241 2835:241 2836:114 2837:114 2838:114 2839:48 2840:48 2841:48 2842:180 2843:180 2844:180 2845:205 2846:205 2847:205 2848:82 2849:82 2850:82 2851:66 2852:66 2853:66 2854:64 2855:64 2856:64 2860:71 2861:71 2862:71 2863:204 2864:204 2865:204 2866:204 2867:204 2868:204 2869:252 2870:252 2871:252 2872:252 2873:252 2874:252 2875:209 2876:209 2877:209 2878:150 2879:150 2880:150 2881:244 2882:244 2883:244 2884:252 2885:252 2886:252 2887:201 2888:201 2889:201 2890:159 2891:159 2892:159 2893:233 2894:233 2895:233 2896:248 2897:248 2898:248 2899:244 2900:244 2901:244 2902:245 2903:245 2904:245 2905:246 2906:246 2907:246 2908:246 2909:246 2910:246 2911:244 2912:244 2913:244 2914:248 2915:248 2916:248 2917:215 2918:215 2919:215 2920:186 2921:186 2922:187 2923:217 2924:217 2925:218 2926:247 2927:247 2928:247 2929:207 2930:207 2931:207 2932:221 2933:221 2934:221 2935:124 2936:124 2937:124 2938:48 2939:48 2940:48 2941:141 2942:141 2943:141 2944:101 2945:101 2946:101 2947:13 2948:13 2949:13 2950:101 2951:101 2952:101 2953:138 2954:138 2955:138 2956:173 2957:173 2958:173 2959:137 2960:137 2961:137 2962:36 2963:36 2964:36 2965:206 2966:206 2967:206 2968:253 2969:253 2970:253 2971:228 2972:228 2973:228 2974:235 2975:235 2976:235 2977:244 2978:244 2979:244 2980:250 2981:250 2982:250 2983:219 2984:219 2985:219 2986:162 2987:162 2988:162 2989:176 2990:176 2991:176 2992:238 2993:238 2994:238 2995:245 2996:245 2997:245 2998:245 2999:245 3000:245 3001:237 3002:237 3003:237 3004:235 3005:235 3006:235 3007:250 3008:250 3009:250 3010:221 3011:221 3012:221 3013:166 3014:166 3015:166 3016:198 3017:198 3018:199 3019:185 3020:185 3021:187 3022:181 3023:181 3024:182 3025:178 3026:178 3027:178 3028:223 3029:223 3030:223 3031:241 3032:241 3033:241 3034:46 3035:46 3036:46 3037:22 3038:22 3039:22 3040:43 3041:43 3042:43 3043:42 3044:42 3045:42 3046:153 3047:153 3048:153 3049:144 3050:144 3051:144 3052:132 3053:132 3054:132 3055:191 3056:191 3057:191 3058:13 3059:13 3060:13 3061:171 3062:171 3063:171 3064:255 3065:255 3066:255 3067:243 3068:243 3069:243 3070:236 3071:236 3072:236 
1.753617515043069e-07 1:131 2:135 3:164 4:132 5:136 6:165 7:132 8:136 9:165 10:132 11:136 12:165 13:129 14:133 15:162 16:132 17:136 18:165 19:131 20:135 21:164 22:131 23:135 24:164 25:132 26:134 27:163 28:134 29:135 30:162 31:128 32:131 33:163 34:126 35:130 36:162 37:129 38:134 39:164 40:128 41:132 42:163 43:127 44:132 45:162 46:127 47:132 48:162 49:125 50:130 51:159 52:122 53:129 54:158 55:124 56:129 57:156 58:126 59:130 60:157 61:122 62:126 63:153 64:123 65:127 66:155 67:123 68:125 69:153 70:123 71:124 72:152 73:119 74:120 75:150 76:117 77:119 78:148 79:118 80:122 81:149 82:118 83:122 84:149 85:115 86:119 87:146 88:112 89:116 90:143 91:114 92:118 93:145 94:114 95:118 96:144 97:132 98:136 99:165 100:132 101:136 102:165 103:132 104:136 105:165 106:132 107:136 108:165 109:130 110:134 111:163 112:129 113:133 114:162 115:132 116:135 117:165 118:133 119:137 120:166 121:132 122:134 123:166 124:135 125:137 126:167 127:160 128:159 129:175 130:162 131:160 132:170 133:137 134:135 135:153 136:147 137:144 138:162 139:155 140:153 141:166 142:148 143:146 144:159 145:138 146:135 147:149 148:135 149:132 150:150 151:126 152:127 153:149 154:120 155:124 156:151 157:119 158:124 159:151 160:118 161:123 162:147 163:119 164:120 165:147 166:121 167:122 168:150 169:116 170:117 171:147 172:114 173:116 174:145 175:115 176:119 177:146 178:111 179:115 180:142 181:110 182:114 183:141 184:108 185:112 186:140 187:108 188:112 189:140 190:110 191:114 192:141 193:133 194:137 195:166 196:134 197:138 198:167 199:133 200:137 201:166 202:133 203:137 204:166 205:132 206:137 207:165 208:132 209:135 210:166 211:131 212:135 213:165 214:137 215:142 216:171 217:137 218:139 219:170 220:137 221:138 222:151 223:240 224:234 225:227 226:221 227:216 228:207 229:194 230:188 231:182 232:188 233:181 234:174 235:179 236:171 237:156 238:171 239:160 240:148 241:183 242:171 243:162 244:184 245:172 246:166 247:174 248:163 249:158 250:152 251:147 252:146 253:131 254:132 255:138 256:130 257:129 258:148 259:119 260:123 261:146 262:111 263:114 264:142 265:111 266:112 267:141 268:111 269:113 270:142 271:109 272:113 273:143 274:108 275:112 276:139 277:106 278:110 279:137 280:108 281:112 282:141 283:105 284:109 285:138 286:106 287:110 288:139 289:133 290:137 291:166 292:134 293:138 294:167 295:133 296:137 297:166 298:134 299:137 300:167 301:134 302:138 303:167 304:134 305:137 306:168 307:140 308:144 309:175 310:120 311:125 312:152 313:58 314:60 315:75 316:152 317:146 318:142 319:239 320:237 321:231 322:220 323:218 324:211 325:213 326:210 327:198 328:201 329:197 330:182 331:189 332:182 333:166 334:196 335:187 336:182 337:205 338:198 339:188 340:189 341:180 342:167 343:195 344:186 345:173 346:189 347:180 348:162 349:208 350:199 351:186 352:103 353:101 354:98 355:82 356:83 357:83 358:137 359:136 360:147 361:116 362:118 363:141 364:109 365:113 366:139 367:106 368:111 369:140 370:106 371:110 372:137 373:105 374:109 375:136 376:105 377:109 378:138 379:105 380:109 381:138 382:103 383:107 384:136 385:134 386:138 387:167 388:136 389:140 390:169 391:136 392:140 393:169 394:135 395:138 396:168 397:136 398:139 399:171 400:135 401:138 402:166 403:86 404:88 405:108 406:54 407:56 408:62 409:132 410:126 411:119 412:242 413:237 414:233 415:201 416:193 417:191 418:196 419:188 420:178 421:218 422:213 423:202 424:212 425:208 426:197 427:217 428:212 429:207 430:231 431:225 432:222 433:224 434:219 435:210 436:195 437:187 438:173 439:194 440:186 441:174 442:198 443:189 444:175 445:213 446:206 447:192 448:133 449:132 450:119 451:80 452:73 453:62 454:151 455:143 456:135 457:77 458:78 459:86 460:112 461:115 462:133 463:106 464:110 465:137 466:106 467:111 468:137 469:105 470:109 471:136 472:105 473:109 474:136 475:104 476:108 477:135 478:104 479:108 480:133 481:135 482:139 483:168 484:136 485:140 486:169 487:134 488:138 489:166 490:136 491:139 492:170 493:138 494:140 495:172 496:78 497:81 498:100 499:48 500:45 501:48 502:200 503:192 504:185 505:255 506:251 507:243 508:243 509:239 510:235 511:187 512:178 513:172 514:193 515:187 516:177 517:223 518:219 519:209 520:220 521:217 522:210 523:240 524:238 525:240 526:177 527:176 528:173 529:95 530:95 531:88 532:193 533:187 534:174 535:198 536:190 537:174 538:196 539:188 540:172 541:204 542:195 543:180 544:218 545:212 546:199 547:194 548:188 549:174 550:148 551:141 552:131 553:72 554:68 555:60 556:167 557:160 558:161 559:110 560:112 561:138 562:104 563:109 564:135 565:105 566:108 567:135 568:104 569:107 570:134 571:102 572:106 573:132 574:102 575:107 576:128 577:135 578:139 579:168 580:133 581:137 582:166 583:131 584:135 585:164 586:140 587:142 588:173 589:117 590:118 591:145 592:31 593:35 594:42 595:112 596:109 597:108 598:255 599:250 600:245 601:117 602:116 603:113 604:52 605:52 606:50 607:233 608:228 609:224 610:240 611:235 612:233 613:221 614:218 615:213 616:226 617:222 618:218 619:252 620:249 621:246 622:156 623:153 624:149 628:112 629:109 630:106 631:222 632:215 633:200 634:204 635:196 636:182 637:208 638:200 639:188 640:219 641:211 642:199 643:198 644:189 645:179 646:147 647:140 648:134 649:199 650:193 651:182 652:178 653:173 654:166 655:81 656:83 657:94 658:109 659:112 660:136 661:105 662:105 663:135 664:104 665:104 666:132 667:103 668:104 669:132 670:100 671:104 672:128 673:134 674:138 675:167 676:134 677:138 678:167 679:131 680:135 681:164 682:140 683:142 684:173 685:119 686:122 687:144 688:34 689:35 690:39 691:187 692:183 693:178 694:239 695:235 696:226 697:32 698:30 699:27 700:37 701:32 702:33 703:227 704:224 705:219 706:233 707:232 708:227 709:224 710:221 711:216 712:229 713:226 714:221 715:247 716:244 717:237 718:174 719:169 720:168 721:13 722:11 723:18 724:10 725:11 726:14 727:82 728:79 729:79 730:201 731:194 732:183 733:205 734:199 735:183 736:221 737:212 738:201 739:193 740:182 741:176 742:56 743:51 744:47 745:206 746:201 747:194 748:116 749:114 750:109 754:58 755:60 756:67 757:108 758:111 759:132 760:105 761:105 762:135 763:101 764:104 765:131 766:101 767:106 768:130 769:134 770:138 771:167 772:135 773:139 774:168 775:131 776:135 777:164 778:137 779:139 780:170 781:132 782:138 783:162 784:53 785:52 786:56 787:203 788:197 789:192 790:245 791:237 792:228 793:66 794:58 795:51 796:82 797:67 798:64 799:235 800:228 801:225 802:217 803:215 804:207 805:214 806:209 807:202 808:222 809:217 810:211 811:239 812:235 813:231 814:139 815:135 816:134 817:11 818:10 819:10 820:23 821:23 822:26 823:7 824:6 825:5 826:107 827:104 828:94 829:178 830:170 831:157 832:225 833:216 834:209 835:205 836:196 837:189 838:194 839:185 840:173 841:169 842:162 843:158 844:16 845:15 846:14 847:15 848:15 849:21 850:8 851:7 852:13 853:31 854:34 855:42 856:100 857:102 858:125 859:100 860:105 861:131 862:102 863:106 864:130 865:133 866:137 867:166 868:133 869:137 870:166 871:134 872:138 873:167 874:135 875:137 876:167 877:123 878:129 879:156 880:127 881:125 882:127 883:252 884:248 885:240 886:251 887:247 888:244 889:116 890:114 891:114 892:105 893:105 894:105 895:223 896:221 897:216 898:198 899:194 900:186 901:199 902:190 903:180 904:205 905:197 906:190 907:227 908:220 909:217 910:107 911:102 912:101 913:43 914:37 915:37 916:80 917:66 918:63 919:104 920:93 921:87 922:167 923:160 924:153 925:214 926:204 927:196 928:228 929:219 930:215 931:207 932:199 933:194 934:210 935:203 936:195 937:48 938:48 939:47 940:4 941:6 942:8 943:20 944:19 945:25 946:29 947:27 948:31 949:16 950:17 951:17 952:92 953:94 954:112 955:103 956:106 957:133 958:101 959:105 960:129 961:132 962:136 963:165 964:132 965:136 966:165 967:133 968:137 969:166 970:134 971:136 972:165 973:129 974:134 975:165 976:107 977:108 978:110 979:195 980:195 981:183 982:248 983:246 984:245 985:188 986:183 987:176 988:154 989:146 990:141 991:164 992:155 993:148 994:179 995:171 996:159 997:194 998:184 999:173 1000:203 1001:193 1002:186 1003:212 1004:202 1005:200 1006:203 1007:193 1008:191 1009:205 1010:197 1011:194 1012:215 1013:210 1014:205 1015:223 1016:219 1017:212 1018:204 1019:197 1020:186 1021:218 1022:208 1023:199 1024:224 1025:217 1026:211 1027:210 1028:206 1029:201 1030:187 1031:182 1032:176 1033:23 1034:26 1035:28 1036:14 1037:17 1038:21 1039:21 1040:19 1041:25 1042:8 1043:10 1044:13 1045:47 1046:50 1047:59 1048:109 1049:110 1050:133 1051:102 1052:104 1053:131 1054:99 1055:104 1056:128 1057:132 1058:136 1059:165 1060:132 1061:136 1062:165 1063:134 1064:139 1065:167 1066:132 1067:135 1068:164 1069:138 1070:144 1071:173 1072:81 1073:84 1074:97 1075:56 1076:58 1077:60 1078:69 1079:70 1080:68 1081:59 1082:57 1083:57 1084:75 1085:69 1086:68 1087:118 1088:105 1089:99 1090:165 1091:150 1092:135 1093:191 1094:180 1095:167 1096:200 1097:189 1098:182 1099:210 1100:200 1101:197 1102:222 1103:215 1104:212 1105:234 1106:230 1107:226 1108:224 1109:219 1110:216 1111:201 1112:196 1113:192 1114:207 1115:201 1116:193 1117:219 1118:211 1119:204 1120:221 1121:215 1122:209 1123:212 1124:206 1125:200 1126:200 1127:193 1128:187 1129:40 1130:41 1131:43 1132:17 1133:18 1134:22 1135:10 1136:8 1137:13 1138:31 1139:34 1140:42 1141:94 1142:99 1143:121 1144:103 1145:105 1146:131 1147:99 1148:102 1149:127 1150:99 1151:104 1152:127 1153:133 1154:137 1155:166 1156:133 1157:137 1158:166 1159:132 1160:136 1161:165 1162:134 1163:137 1164:166 1165:136 1166:142 1167:171 1168:111 1169:116 1170:138 1171:27 1172:29 1173:38 1174:23 1175:26 1176:31 1177:21 1178:20 1179:28 1180:14 1181:18 1182:22 1183:81 1184:76 1185:70 1186:187 1187:170 1188:154 1189:178 1190:165 1191:151 1192:202 1193:191 1194:184 1195:210 1196:202 1197:195 1198:215 1199:208 1200:206 1201:219 1202:214 1203:212 1204:209 1205:204 1206:201 1207:215 1208:210 1209:207 1210:211 1211:207 1212:203 1213:218 1214:214 1215:209 1216:215 1217:210 1218:204 1219:210 1220:204 1221:199 1222:207 1223:197 1224:191 1225:34 1226:34 1227:33 1228:7 1229:7 1230:9 1231:49 1232:50 1233:56 1234:105 1235:107 1236:124 1237:104 1238:108 1239:136 1240:100 1241:105 1242:133 1243:98 1244:103 1245:125 1246:99 1247:104 1248:124 1249:133 1250:136 1251:167 1252:133 1253:137 1254:167 1255:134 1256:138 1257:167 1258:134 1259:137 1260:166 1261:132 1262:137 1263:167 1264:138 1265:139 1266:165 1267:66 1268:63 1269:69 1270:16 1271:16 1272:20 1273:18 1274:18 1275:20 1276:13 1277:12 1278:12 1279:111 1280:99 1281:91 1282:209 1283:193 1284:181 1285:170 1286:158 1287:143 1288:206 1289:198 1290:189 1291:212 1292:208 1293:202 1294:201 1295:197 1296:192 1297:209 1298:206 1299:199 1300:221 1301:217 1302:213 1303:225 1304:221 1305:217 1306:208 1307:203 1308:198 1309:219 1310:213 1311:208 1312:230 1313:223 1314:218 1315:210 1316:203 1317:197 1318:227 1319:218 1320:213 1321:115 1322:112 1323:107 1324:79 1325:80 1326:91 1327:113 1328:117 1329:137 1330:103 1331:106 1332:131 1333:101 1334:105 1335:132 1336:102 1337:106 1338:134 1339:98 1340:102 1341:124 1342:97 1343:102 1344:122 1345:132 1346:135 1347:166 1348:129 1349:132 1350:163 1351:132 1352:136 1353:165 1354:132 1355:136 1356:165 1357:125 1358:131 1359:161 1360:139 1361:137 1362:151 1363:124 1364:114 1365:112 1366:11 1367:9 1368:15 1369:25 1370:25 1371:32 1372:64 1373:59 1374:55 1375:214 1376:203 1377:192 1378:166 1379:154 1380:147 1381:166 1382:154 1383:137 1384:205 1385:198 1386:189 1387:222 1388:217 1389:214 1390:190 1391:186 1392:181 1393:206 1394:203 1395:198 1396:224 1397:220 1398:217 1399:212 1400:208 1401:204 1402:205 1403:201 1404:194 1405:224 1406:220 1407:214 1408:151 1409:147 1410:143 1411:189 1412:186 1413:177 1414:223 1415:220 1416:214 1417:170 1418:170 1419:179 1420:108 1421:114 1422:138 1423:102 1424:106 1425:133 1426:100 1427:104 1428:131 1429:100 1430:104 1431:131 1432:100 1433:104 1434:132 1435:99 1436:104 1437:126 1438:99 1439:104 1440:124 1441:128 1442:131 1443:162 1444:128 1445:131 1446:162 1447:128 1448:133 1449:161 1450:132 1451:135 1452:164 1453:122 1454:128 1455:158 1456:140 1457:137 1458:155 1459:211 1460:195 1461:190 1462:25 1463:20 1464:22 1465:39 1466:32 1467:29 1468:194 1469:182 1470:174 1471:213 1472:203 1473:197 1474:124 1475:112 1476:108 1477:177 1478:164 1479:150 1480:197 1481:189 1482:179 1483:217 1484:213 1485:209 1486:188 1487:184 1488:180 1489:204 1490:200 1491:196 1492:201 1493:196 1494:193 1495:197 1496:193 1497:189 1498:219 1499:213 1500:208 1501:193 1502:188 1503:186 1505:1 1506:6 1507:93 1508:91 1509:88 1510:174 1511:173 1512:177 1513:95 1514:98 1515:122 1516:100 1517:105 1518:128 1519:103 1520:107 1521:135 1522:102 1523:106 1524:134 1525:101 1526:105 1527:133 1528:100 1529:104 1530:131 1531:100 1532:105 1533:128 1534:97 1535:102 1536:122 1537:128 1538:131 1539:162 1540:128 1541:131 1542:162 1543:130 1544:134 1545:163 1546:129 1547:133 1548:162 1549:126 1550:132 1551:162 1552:143 1553:141 1554:159 1555:232 1556:218 1557:214 1558:155 1559:143 1560:138 1561:183 1562:171 1563:159 1564:241 1565:227 1566:223 1567:114 1568:105 1569:108 1570:166 1571:157 1572:152 1573:181 1574:168 1575:151 1576:194 1577:184 1578:173 1579:205 1580:198 1581:196 1582:195 1583:189 1584:185 1585:215 1586:210 1587:205 1588:174 1589:169 1590:165 1591:196 1592:192 1593:187 1594:179 1595:174 1596:165 1597:148 1598:141 1599:134 1600:5 1601:4 1602:8 1603:31 1604:29 1605:31 1606:118 1607:117 1608:137 1609:103 1610:108 1611:133 1612:102 1613:106 1614:131 1615:102 1616:106 1617:133 1618:100 1619:104 1620:130 1621:100 1622:104 1623:129 1624:98 1625:102 1626:129 1627:99 1628:103 1629:130 1630:100 1631:104 1632:129 1633:129 1634:133 1635:163 1636:130 1637:134 1638:163 1639:129 1640:134 1641:162 1642:130 1643:133 1644:162 1645:126 1646:128 1647:160 1648:159 1649:158 1650:178 1651:216 1652:210 1653:206 1654:237 1655:226 1656:220 1657:251 1658:238 1659:238 1660:217 1661:206 1662:206 1663:5 1664:2 1665:8 1666:87 1667:87 1668:87 1669:193 1670:180 1671:168 1672:190 1673:179 1674:171 1675:198 1676:189 1677:186 1678:198 1679:191 1680:190 1681:138 1682:134 1683:130 1684:172 1685:167 1686:163 1687:204 1688:199 1689:196 1690:170 1691:165 1692:159 1693:170 1694:162 1695:157 1696:114 1697:106 1698:101 1699:69 1700:68 1701:76 1702:110 1703:113 1704:140 1705:105 1706:109 1707:138 1708:102 1709:105 1710:133 1711:102 1712:106 1713:133 1714:102 1715:106 1716:130 1717:99 1718:104 1719:126 1720:98 1721:103 1722:129 1723:101 1724:105 1725:132 1726:101 1727:103 1728:131 1729:131 1730:135 1731:164 1732:129 1733:133 1734:162 1735:128 1736:132 1737:161 1738:131 1739:133 1740:163 1741:131 1742:132 1743:162 1744:140 1745:143 1746:171 1747:173 1748:169 1749:181 1750:149 1751:141 1752:139 1753:175 1754:163 1755:160 1756:213 1757:199 1758:202 1759:167 1760:157 1761:160 1762:175 1763:168 1764:168 1765:203 1766:193 1767:185 1768:190 1769:181 1770:173 1771:196 1772:186 1773:183 1774:179 1775:170 1776:170 1777:155 1778:149 1779:142 1780:202 1781:197 1782:191 1783:225 1784:219 1785:218 1786:212 1787:207 1788:205 1789:189 1790:184 1791:181 1792:215 1793:211 1794:200 1795:140 1796:139 1797:151 1798:102 1799:105 1800:135 1801:105 1802:109 1803:134 1804:102 1805:106 1806:130 1807:103 1808:108 1809:129 1810:101 1811:105 1812:131 1813:101 1814:105 1815:132 1816:101 1817:106 1818:128 1819:100 1820:104 1821:126 1822:102 1823:103 1824:126 1825:130 1826:134 1827:163 1828:128 1829:132 1830:161 1831:129 1832:133 1833:162 1834:132 1835:135 1836:164 1837:128 1838:132 1839:161 1840:127 1841:131 1842:160 1843:130 1844:132 1845:162 1846:134 1847:135 1848:158 1849:115 1850:117 1851:129 1852:180 1853:174 1854:178 1855:216 1856:211 1857:214 1858:202 1859:196 1860:198 1861:186 1862:176 1863:174 1864:185 1865:174 1866:169 1867:190 1868:181 1869:178 1870:172 1871:161 1872:159 1873:198 1874:188 1875:178 1876:224 1877:220 1878:215 1879:224 1880:219 1881:217 1882:212 1883:202 1884:202 1885:189 1886:183 1887:177 1888:201 1889:197 1890:185 1891:134 1892:132 1893:144 1894:103 1895:108 1896:135 1897:104 1898:109 1899:129 1900:102 1901:107 1902:127 1903:103 1904:108 1905:128 1906:102 1907:107 1908:132 1909:100 1910:104 1911:131 1912:100 1913:105 1914:126 1915:99 1916:103 1917:123 1918:101 1919:103 1920:124 1921:126 1922:130 1923:159 1924:128 1925:132 1926:161 1927:129 1928:133 1929:162 1930:127 1931:131 1932:160 1933:126 1934:131 1935:160 1936:128 1937:132 1938:161 1939:128 1940:132 1941:161 1942:134 1943:135 1944:165 1945:130 1946:131 1947:161 1948:208 1949:207 1950:219 1951:243 1952:242 1953:246 1954:210 1955:203 1956:209 1957:198 1958:190 1959:194 1960:200 1961:189 1962:190 1963:194 1964:184 1965:184 1966:200 1967:192 1968:188 1969:220 1970:214 1971:208 1972:225 1973:221 1974:218 1975:224 1976:218 1977:216 1978:212 1979:202 1980:198 1981:194 1982:185 1983:176 1984:204 1985:194 1986:182 1987:136 1988:133 1989:140 1990:103 1991:108 1992:130 1993:104 1994:108 1995:128 1996:103 1997:108 1998:128 1999:102 2000:107 2001:127 2002:103 2003:108 2004:129 2005:101 2006:106 2007:128 2008:99 2009:105 2010:125 2011:101 2012:105 2013:125 2014:100 2015:102 2016:123 2017:124 2018:128 2019:157 2020:125 2021:129 2022:158 2023:126 2024:130 2025:159 2026:128 2027:132 2028:161 2029:127 2030:131 2031:160 2032:126 2033:130 2034:160 2035:129 2036:132 2037:161 2038:131 2039:132 2040:161 2041:126 2042:127 2043:155 2044:207 2045:203 2046:209 2047:252 2048:249 2049:250 2050:242 2051:236 2052:243 2053:238 2054:234 2055:236 2056:228 2057:223 2058:225 2059:224 2060:218 2061:221 2062:221 2063:217 2064:215 2065:226 2066:223 2067:218 2068:227 2069:224 2070:220 2071:225 2072:220 2073:217 2074:207 2075:201 2076:195 2077:195 2078:189 2079:180 2080:207 2081:200 2082:193 2083:140 2084:137 2085:141 2086:102 2087:108 2088:129 2089:103 2090:108 2091:127 2092:102 2093:107 2094:127 2095:102 2096:107 2097:127 2098:99 2099:104 2100:124 2101:100 2102:105 2103:125 2104:99 2105:104 2106:124 2107:97 2108:102 2109:122 2110:98 2111:102 2112:122 2113:123 2114:127 2115:156 2116:125 2117:129 2118:158 2119:126 2120:130 2121:159 2122:126 2123:130 2124:159 2125:125 2126:129 2127:158 2128:126 2129:130 2130:159 2131:128 2132:131 2133:161 2134:130 2135:131 2136:162 2137:127 2138:130 2139:156 2140:213 2141:211 2142:210 2143:251 2144:247 2145:246 2146:230 2147:227 2148:225 2149:234 2150:230 2151:231 2152:240 2153:236 2154:238 2155:234 2156:229 2157:235 2158:224 2159:219 2160:224 2161:228 2162:223 2163:223 2164:229 2165:225 2166:222 2167:222 2168:218 2169:215 2170:203 2171:199 2172:192 2173:191 2174:185 2175:176 2176:81 2177:80 2178:78 2179:120 2180:120 2181:124 2182:104 2183:109 2184:129 2185:103 2186:108 2187:127 2188:101 2189:106 2190:126 2191:101 2192:106 2193:126 2194:101 2195:106 2196:126 2197:100 2198:105 2199:125 2200:101 2201:106 2202:126 2203:100 2204:105 2205:125 2206:99 2207:104 2208:124 2209:123 2210:127 2211:156 2212:126 2213:130 2214:159 2215:126 2216:130 2217:159 2218:126 2219:130 2220:158 2221:126 2222:130 2223:157 2224:124 2225:129 2226:157 2227:125 2228:129 2229:159 2230:124 2231:127 2232:157 2233:142 2234:143 2235:165 2236:233 2237:230 2238:231 2239:255 2240:255 2241:253 2242:135 2243:133 2244:131 2245:193 2246:189 2247:190 2248:255 2249:252 2250:253 2251:239 2252:234 2253:237 2254:225 2255:220 2256:221 2257:231 2258:227 2259:225 2260:228 2261:224 2262:221 2263:219 2264:215 2265:211 2266:206 2267:201 2268:195 2269:187 2270:177 2271:172 2272:37 2273:36 2274:32 2275:115 2276:118 2277:122 2278:104 2279:109 2280:132 2281:102 2282:106 2283:130 2284:102 2285:106 2286:131 2287:102 2288:107 2289:127 2290:99 2291:105 2292:124 2293:100 2294:105 2295:125 2296:100 2297:105 2298:125 2299:100 2300:105 2301:125 2302:100 2303:102 2304:123 2305:123 2306:126 2307:156 2308:124 2309:128 2310:157 2311:125 2312:129 2313:158 2314:124 2315:127 2316:155 2317:125 2318:128 2319:155 2320:124 2321:128 2322:156 2323:124 2324:128 2325:157 2326:120 2327:124 2328:154 2329:161 2330:162 2331:180 2332:248 2333:245 2334:243 2335:250 2336:245 2337:240 2338:191 2339:187 2340:179 2341:227 2342:223 2343:220 2344:255 2345:255 2346:255 2347:188 2348:185 2349:181 2350:124 2351:120 2352:118 2353:245 2354:241 2355:241 2356:226 2357:221 2358:220 2359:215 2360:212 2361:207 2362:209 2363:204 2364:197 2365:207 2366:196 2367:192 2368:87 2369:84 2370:81 2371:116 2372:117 2373:128 2374:104 2375:109 2376:131 2377:104 2378:108 2379:133 2380:102 2381:106 2382:131 2383:99 2384:104 2385:124 2386:100 2387:105 2388:125 2389:99 2390:104 2391:124 2392:100 2393:105 2394:125 2395:100 2396:104 2397:124 2398:100 2399:102 2400:123 2401:124 2402:125 2403:155 2404:125 2405:126 2406:156 2407:126 2408:127 2409:157 2410:125 2411:126 2412:155 2413:124 2414:125 2415:153 2416:125 2417:126 2418:154 2419:129 2420:130 2421:158 2422:119 2423:121 2424:150 2425:180 2426:179 2427:190 2428:255 2429:251 2430:246 2431:253 2432:249 2433:246 2434:255 2435:255 2436:252 2437:248 2438:245 2439:239 2440:254 2441:252 2442:249 2443:210 2444:207 2445:201 2446:148 2447:144 2448:143 2449:239 2450:235 2451:233 2452:224 2453:219 2454:215 2455:222 2456:218 2457:215 2458:186 2459:181 2460:175 2461:136 2462:127 2463:124 2464:177 2465:171 2466:168 2467:105 2468:107 2469:124 2470:103 2471:106 2472:128 2473:104 2474:106 2475:127 2476:102 2477:104 2478:126 2479:103 2480:105 2481:126 2482:102 2483:105 2484:125 2485:100 2486:102 2487:123 2488:100 2489:102 2490:123 2491:101 2492:103 2493:124 2494:101 2495:103 2496:124 2497:122 2498:123 2499:153 2500:122 2501:123 2502:154 2503:123 2504:123 2505:154 2506:124 2507:125 2508:153 2509:124 2510:125 2511:152 2512:122 2513:124 2514:151 2515:127 2516:128 2517:156 2518:119 2519:121 2520:149 2521:173 2522:172 2523:183 2524:255 2525:253 2526:252 2527:202 2528:199 2529:193 2530:218 2531:216 2532:208 2533:254 2534:252 2535:249 2536:246 2537:242 2538:238 2539:252 2540:248 2541:247 2542:255 2543:253 2544:250 2545:175 2546:171 2547:164 2548:87 2549:83 2550:75 2551:234 2552:227 2553:220 2554:170 2555:163 2556:157 2557:75 2558:70 2559:68 2560:164 2561:161 2562:163 2563:98 2564:101 2565:122 2566:106 2567:108 2568:129 2569:104 2570:106 2571:127 2572:104 2573:106 2574:127 2575:104 2576:106 2577:127 2578:103 2579:105 2580:126 2581:102 2582:104 2583:125 2584:102 2585:104 2586:125 2587:101 2588:103 2589:124 2590:102 2591:104 2592:124 2593:123 2594:125 2595:153 2596:124 2597:125 2598:155 2599:123 2600:124 2601:153 2602:122 2603:124 2604:146 2605:124 2606:126 2607:147 2608:123 2609:125 2610:146 2611:125 2612:126 2613:154 2614:118 2615:119 2616:148 2617:160 2618:161 2619:175 2620:254 2621:254 2622:251 2623:111 2624:108 2625:101 2626:184 2627:182 2628:174 2629:237 2630:236 2631:229 2632:249 2633:246 2634:241 2635:248 2636:244 2637:243 2638:247 2639:245 2640:242 2641:204 2642:200 2643:194 2644:127 2645:120 2646:115 2647:215 2648:206 2649:196 2650:207 2651:198 2652:192 2653:187 2654:179 2655:179 2656:123 2657:124 2658:138 2659:100 2660:104 2661:126 2662:107 2663:110 2664:129 2665:105 2666:107 2667:128 2668:105 2669:108 2670:128 2671:104 2672:107 2673:126 2674:103 2675:105 2676:126 2677:102 2678:104 2679:125 2680:103 2681:106 2682:125 2683:101 2684:104 2685:123 2686:103 2687:106 2688:125 2689:125 2690:127 2691:151 2692:123 2693:125 2694:150 2695:124 2696:126 2697:150 2698:123 2699:126 2700:146 2701:123 2702:124 2703:145 2704:123 2705:125 2706:146 2707:126 2708:128 2709:153 2710:121 2711:123 2712:146 2713:156 2714:156 2715:171 2716:251 2717:248 2718:247 2719:226 2720:224 2721:217 2722:141 2723:137 2724:131 2725:152 2726:149 2727:143 2728:255 2729:255 2730:255 2731:246 2732:242 2733:241 2734:242 2735:240 2736:237 2737:244 2738:240 2739:234 2740:238 2741:232 2742:226 2743:214 2744:204 2745:196 2746:205 2747:199 2748:189 2749:147 2750:147 2751:156 2752:105 2753:106 2754:128 2755:108 2756:111 2757:129 2758:108 2759:111 2760:130 2761:107 2762:110 2763:130 2764:106 2765:108 2766:128 2767:104 2768:108 2769:126 2770:104 2771:106 2772:127 2773:105 2774:107 2775:128 2776:104 2777:107 2778:126 2779:106 2780:109 2781:128 2782:107 2783:110 2784:129 2785:125 2786:127 2787:148 2788:123 2789:125 2790:146 2791:123 2792:125 2793:146 2794:125 2795:127 2796:148 2797:124 2798:126 2799:147 2800:123 2801:125 2802:146 2803:128 2804:130 2805:151 2806:122 2807:125 2808:144 2809:150 2810:150 2811:168 2812:249 2813:246 2814:245 2815:144 2816:138 2817:130 2818:165 2819:159 2820:150 2821:222 2822:221 2823:217 2824:252 2825:252 2826:248 2827:250 2828:246 2829:243 2830:239 2831:235 2832:232 2833:154 2834:149 2835:141 2836:203 2837:198 2838:192 2839:217 2840:211 2841:204 2842:167 2843:164 2844:163 2845:106 2846:109 2847:125 2848:111 2849:113 2850:133 2851:108 2852:111 2853:130 2854:109 2855:112 2856:131 2857:109 2858:112 2859:131 2860:106 2861:109 2862:128 2863:107 2864:110 2865:129 2866:106 2867:109 2868:128 2869:106 2870:109 2871:128 2872:107 2873:110 2874:129 2875:109 2876:112 2877:131 2878:109 2879:112 2880:131 2881:124 2882:126 2883:147 2884:124 2885:126 2886:147 2887:124 2888:126 2889:147 2890:125 2891:127 2892:148 2893:125 2894:127 2895:148 2896:125 2897:127 2898:148 2899:128 2900:130 2901:150 2902:125 2903:128 2904:147 2905:137 2906:137 2907:157 2908:237 2909:235 2910:237 2911:180 2912:177 2913:169 2914:248 2915:244 2916:243 2917:255 2918:253 2919:252 2920:250 2921:247 2922:244 2923:249 2924:245 2925:243 2926:247 2927:242 2928:237 2929:78 2930:74 2931:63 2932:155 2933:150 2934:144 2935:197 2936:193 2937:189 2938:116 2939:116 2940:132 2941:110 2942:114 2943:132 2944:111 2945:114 2946:133 2947:109 2948:112 2949:131 2950:107 2951:110 2952:129 2953:107 2954:110 2955:129 2956:107 2957:110 2958:129 2959:108 2960:111 2961:130 2962:107 2963:110 2964:129 2965:108 2966:111 2967:130 2968:110 2969:112 2970:132 2971:110 2972:112 2973:132 2974:111 2975:114 2976:133 2977:123 2978:125 2979:146 2980:124 2981:126 2982:147 2983:124 2984:126 2985:147 2986:126 2987:128 2988:149 2989:126 2990:128 2991:149 2992:123 2993:125 2994:146 2995:126 2996:128 2997:149 2998:128 2999:131 3000:150 3001:117 3002:120 3003:140 3004:194 3005:195 3006:202 3007:255 3008:255 3009:255 3010:248 3011:244 3012:244 3013:250 3014:246 3015:245 3016:253 3017:249 3018:248 3019:246 3020:242 3021:242 3022:244 3023:239 3024:236 3025:205 3026:200 3027:196 3028:181 3029:175 3030:170 3031:147 3032:144 3033:142 3034:110 3035:111 3036:133 3037:114 3038:116 3039:136 3040:111 3041:114 3042:133 3043:110 3044:113 3045:132 3046:108 3047:111 3048:130 3049:105 3050:108 3051:127 3052:107 3053:110 3054:129 3055:108 3056:111 3057:130 3058:109 3059:112 3060:131 3061:109 3062:112 3063:131 3064:110 3065:112 3066:133 3067:111 3068:113 3069:134 3070:111 3071:114 3072:133 
