svm_type c_svc
kernel_type polynomial
degree 3
gamma 0.000325521
coef0 0
nr_class 2
total_sv 109
rho 0.737451
label 1 0
probA -1.13148
probB 1.29476
nr_sv 18 91
SV
1.249786284968297e-12 1:144 2:159 3:192 4:157 5:161 6:193 7:195 8:102 9:128 10:222 11:35 12:41 13:227 14:23 15:32 16:231 17:28 18:34 19:222 20:22 21:30 22:165 23:8 24:12 25:151 26:121 27:142 28:144 29:170 30:199 31:141 32:156 33:190 34:142 35:155 36:188 37:146 38:151 39:184 40:142 41:139 42:172 43:161 44:34 45:44 46:179 47:6 48:9 49:160 50:3 51:11 52:147 53:4 54:10 55:156 56:6 57:17 58:148 59:4 60:12 61:136 62:3 63:6 64:180 65:6 66:11 67:202 68:20 69:20 70:192 71:13 72:18 73:193 74:9 75:10 76:173 77:5 78:4 79:199 80:15 81:18 82:181 83:97 84:123 85:144 86:172 87:198 88:149 89:164 90:192 91:147 92:166 93:199 94:147 95:165 96:198 97:138 98:166 99:196 100:175 101:123 102:146 103:221 104:37 105:53 106:225 107:23 108:30 109:222 110:16 111:26 112:238 113:30 114:40 115:202 116:8 117:16 118:142 119:39 120:52 121:150 122:162 123:193 124:146 125:158 126:194 127:137 128:154 129:185 130:138 131:149 132:184 133:135 134:145 135:181 136:139 137:152 138:185 139:153 140:99 141:120 142:154 143:6 144:15 145:173 146:9 147:16 148:158 149:5 150:7 151:141 153:4 154:143 155:3 156:9 157:119 159:2 160:160 161:10 162:12 163:183 164:13 165:19 166:163 167:1 168:5 169:184 170:8 171:6 172:180 173:10 174:9 175:202 176:10 177:13 178:188 179:64 180:88 181:171 182:168 183:210 184:151 185:163 186:198 187:151 188:165 189:197 190:144 191:166 192:199 193:165 194:157 195:191 196:202 197:75 198:97 199:235 200:24 201:28 202:219 203:19 204:27 205:215 206:14 207:23 208:222 209:19 210:29 211:180 212:7 213:12 214:160 215:105 216:129 217:151 218:171 219:207 220:146 221:159 222:189 223:139 224:155 225:186 226:143 227:151 228:188 229:134 230:144 231:177 232:135 233:149 234:183 235:156 236:134 237:161 238:148 239:12 240:26 241:152 242:5 243:8 244:138 245:4 246:4 247:128 248:3 249:3 250:141 251:5 252:9 253:111 255:1 256:135 257:9 258:10 259:156 260:4 261:9 262:166 263:7 264:10 265:218 266:26 267:27 268:210 269:21 270:25 271:196 272:8 273:12 274:199 275:30 276:38 277:190 278:90 279:110 280:170 281:152 282:186 283:153 284:161 285:201 286:148 287:162 288:196 289:199 290:72 291:98 292:227 293:30 294:44 295:229 296:26 297:36 298:231 299:31 300:39 301:225 302:28 303:34 304:209 305:9 306:17 307:158 308:13 309:20 310:157 311:141 312:165 313:153 314:164 315:198 316:139 317:156 318:184 319:142 320:159 321:188 322:143 323:152 324:184 325:135 326:143 327:173 328:138 329:155 330:186 331:143 332:112 333:134 334:152 335:4 336:13 337:133 338:1 339:3 340:118 341:3 342:3 343:116 344:2 345:2 346:124 347:2 348:6 349:115 350:2 351:6 352:121 353:2 354:4 355:132 356:2 357:1 358:178 359:12 360:18 361:207 362:10 363:20 364:196 365:2 366:10 367:181 368:5 369:7 370:220 371:23 372:27 373:222 374:31 375:35 376:195 377:70 378:84 379:164 380:157 381:187 382:143 383:163 384:199 385:216 386:38 387:49 388:233 389:31 390:35 391:232 392:32 393:35 394:229 395:29 396:33 397:235 398:35 399:39 400:216 401:14 402:16 403:159 404:56 405:68 406:151 407:171 408:197 409:148 410:160 411:195 412:139 413:155 414:185 415:135 416:153 417:180 418:138 419:149 420:179 421:138 422:149 423:178 424:134 425:158 426:187 427:140 428:109 429:129 430:159 431:5 432:9 433:139 434:5 435:10 436:117 437:4 438:4 439:118 440:2 441:4 442:117 444:6 445:112 446:1 447:5 448:106 449:2 450:1 451:119 452:1 453:2 454:167 455:6 456:12 457:173 458:2 459:8 460:202 461:17 462:19 463:219 464:25 465:29 466:231 467:25 468:30 469:231 470:31 471:35 472:224 473:26 474:33 475:189 476:84 477:103 478:169 479:148 480:188 481:198 482:32 483:36 484:235 485:33 486:34 487:232 488:27 489:27 490:223 491:20 492:22 493:238 494:35 495:38 496:215 497:14 498:13 499:163 500:89 501:104 502:147 503:170 504:205 505:149 506:157 507:192 508:138 509:154 510:184 511:135 512:151 513:179 514:140 515:150 516:180 517:133 518:147 519:172 520:130 521:155 522:179 523:145 524:118 525:138 526:152 527:5 528:10 529:138 530:2 531:7 532:123 533:1 534:4 535:121 536:1 537:4 538:122 539:2 540:9 541:110 542:1 543:6 544:94 545:1 547:110 548:1 549:2 550:142 551:2 552:8 553:163 554:4 555:10 556:225 557:29 558:31 559:234 560:24 561:31 562:241 563:29 564:34 565:223 566:19 567:19 568:227 569:26 570:29 571:224 572:32 573:34 574:204 575:65 576:82 577:179 578:48 579:57 580:229 581:22 582:29 583:235 584:29 585:34 586:232 587:27 588:31 589:235 590:31 591:32 592:217 593:13 594:17 595:165 596:84 597:103 598:149 599:172 600:206 601:141 602:157 603:190 604:139 605:154 606:183 607:141 608:155 609:183 610:142 611:154 612:183 613:128 614:143 615:166 616:126 617:152 618:174 619:150 620:122 621:142 622:151 623:8 624:14 625:137 626:2 627:6 628:143 629:4 630:12 631:124 632:2 633:6 634:113 635:2 636:5 637:112 639:6 640:106 641:2 642:6 643:101 644:3 646:129 647:20 648:29 649:156 650:34 651:44 652:202 653:13 654:16 655:215 656:17 657:27 658:230 659:26 660:33 661:223 662:19 663:20 664:222 665:19 666:27 667:234 668:29 669:37 670:228 671:32 672:33 673:190 674:61 675:77 676:222 677:19 678:26 679:235 680:29 681:34 682:220 683:16 684:26 685:204 686:14 687:14 688:207 689:11 690:5 691:187 692:70 693:83 694:156 695:164 696:198 697:142 698:161 699:192 700:135 701:152 702:183 703:142 704:152 705:182 706:131 707:148 708:174 709:135 710:145 711:172 712:132 713:154 714:184 715:149 716:97 717:121 718:152 719:2 720:10 721:127 722:3 723:5 724:135 725:4 726:9 727:119 728:1 729:5 730:102 732:1 733:118 734:1 735:6 736:117 737:5 738:10 739:99 742:146 743:61 744:71 745:165 746:102 747:122 748:166 751:196 752:15 753:21 754:220 755:22 756:26 757:235 758:31 759:33 760:235 761:30 762:37 763:232 764:28 765:32 766:233 767:33 768:35 769:186 770:49 771:60 772:205 773:17 774:22 775:218 776:21 777:25 778:214 779:8 780:15 781:189 782:38 783:39 784:195 785:74 786:72 787:187 788:49 789:62 790:152 791:110 792:135 793:141 794:161 795:190 796:128 797:144 798:178 799:140 800:148 801:181 802:137 803:147 804:176 805:134 806:144 807:174 808:138 809:154 810:188 811:153 812:79 813:102 814:161 815:2 816:11 817:131 818:3 819:7 820:133 821:1 822:6 823:121 824:2 825:6 826:99 827:1 828:1 829:120 831:6 832:124 833:2 834:10 835:109 838:138 839:44 840:55 841:161 842:132 843:163 844:140 845:11 846:20 847:177 848:7 849:9 850:210 851:20 852:26 853:233 854:26 855:33 856:235 857:30 858:37 859:237 860:33 861:36 862:236 863:35 864:37 865:179 866:54 867:68 868:188 869:9 870:16 871:199 872:12 873:16 874:228 875:20 876:23 877:217 878:104 879:109 880:200 881:180 882:184 883:191 884:138 885:147 886:177 887:152 888:159 889:166 890:175 891:186 892:150 893:157 894:177 895:146 896:151 897:176 898:140 899:144 900:168 901:124 902:136 903:161 904:134 905:141 906:173 907:146 908:55 909:73 910:143 913:135 914:3 915:8 916:146 917:6 918:14 919:128 920:4 921:10 922:106 923:2 924:3 925:126 926:4 927:12 928:125 929:4 930:11 931:109 933:1 934:141 935:27 936:38 937:179 938:153 939:186 940:128 941:57 942:77 943:156 945:6 946:191 947:13 948:21 949:218 950:21 951:31 952:230 953:24 954:33 955:235 956:31 957:33 958:231 959:31 960:32 961:164 962:73 963:94 964:195 965:11 966:16 967:211 968:22 969:24 970:225 971:20 972:25 973:218 974:123 975:132 976:139 977:144 978:144 979:101 980:98 981:97 982:114 983:113 984:114 985:127 986:126 987:126 988:151 989:150 990:156 991:163 992:165 993:177 994:170 995:169 996:182 997:162 998:168 999:180 1000:169 1001:170 1002:185 1003:167 1004:102 1005:110 1006:140 1007:34 1008:36 1009:129 1010:13 1011:20 1012:131 1013:1 1014:10 1015:106 1018:111 1021:128 1022:1 1024:118 1026:1 1027:114 1028:6 1029:7 1030:140 1031:11 1032:11 1033:166 1034:103 1035:123 1036:151 1037:137 1038:165 1039:132 1040:13 1041:20 1042:176 1043:6 1044:11 1045:201 1046:15 1047:19 1048:216 1049:19 1050:21 1051:230 1052:28 1053:29 1054:236 1055:30 1056:35 1057:153 1058:120 1059:144 1060:170 1061:25 1062:35 1063:216 1064:24 1065:26 1066:209 1067:19 1068:23 1069:209 1070:147 1071:151 1072:131 1073:135 1074:137 1075:127 1076:120 1077:121 1078:109 1079:106 1080:107 1081:90 1082:88 1083:86 1084:101 1085:98 1086:97 1087:110 1088:105 1089:108 1090:110 1091:103 1092:107 1093:110 1094:111 1095:112 1096:123 1097:117 1098:119 1099:149 1100:135 1101:136 1102:164 1103:139 1104:140 1105:165 1106:127 1107:131 1108:162 1109:117 1110:120 1111:148 1112:96 1113:99 1114:137 1115:60 1116:65 1117:131 1118:41 1119:42 1120:118 1121:23 1122:27 1123:111 1124:3 1125:11 1126:124 1129:144 1130:43 1131:60 1132:154 1133:155 1134:180 1135:126 1136:48 1137:65 1138:132 1140:2 1141:161 1142:16 1143:17 1144:188 1145:32 1146:33 1147:230 1148:27 1149:31 1150:233 1151:32 1152:36 1153:152 1154:164 1155:194 1156:160 1157:89 1158:111 1159:198 1160:15 1161:16 1162:205 1163:20 1164:26 1165:201 1166:153 1167:158 1168:122 1169:128 1170:127 1171:123 1172:121 1173:122 1174:107 1175:105 1176:106 1177:144 1178:141 1179:139 1180:142 1181:135 1182:134 1183:133 1184:125 1185:127 1186:121 1187:115 1188:115 1189:114 1190:112 1191:111 1192:109 1193:105 1194:105 1195:117 1196:107 1197:114 1198:120 1199:109 1200:117 1201:119 1202:121 1203:124 1204:121 1205:120 1206:124 1207:139 1208:121 1209:130 1210:147 1211:124 1212:132 1213:159 1214:132 1215:140 1216:171 1217:141 1218:142 1219:162 1220:122 1221:124 1222:150 1223:102 1224:103 1225:161 1226:105 1227:113 1228:170 1229:163 1230:178 1231:183 1232:168 1233:181 1234:164 1235:124 1236:132 1237:184 1238:150 1239:158 1240:206 1241:135 1242:139 1243:217 1244:29 1245:31 1246:212 1247:19 1248:20 1249:148 1250:162 1251:201 1252:177 1253:138 1254:168 1255:217 1256:34 1257:38 1258:195 1259:28 1260:33 1261:191 1262:162 1263:165 1264:117 1265:120 1266:119 1267:104 1268:104 1269:104 1270:125 1271:124 1272:125 1273:165 1274:161 1275:163 1276:163 1277:155 1278:162 1279:165 1280:161 1281:166 1282:159 1283:158 1284:161 1285:154 1286:150 1287:153 1288:169 1289:161 1290:166 1291:175 1292:164 1293:168 1294:173 1295:159 1296:163 1297:137 1298:126 1299:129 1300:132 1301:119 1302:124 1303:155 1304:138 1305:144 1306:121 1307:116 1308:119 1309:104 1310:93 1311:98 1312:98 1313:85 1314:89 1315:118 1316:110 1317:114 1318:122 1319:111 1320:114 1321:125 1322:110 1323:113 1324:118 1325:108 1326:114 1327:117 1328:108 1329:115 1330:126 1331:115 1332:119 1333:111 1334:110 1335:119 1336:165 1337:123 1338:135 1339:214 1340:28 1341:32 1342:210 1343:15 1344:16 1345:152 1346:161 1347:200 1348:189 1349:96 1350:124 1351:231 1352:19 1353:28 1354:198 1355:51 1356:54 1357:177 1358:171 1359:171 1360:124 1361:127 1362:126 1363:141 1364:141 1365:141 1366:165 1367:163 1368:166 1369:161 1370:160 1371:164 1372:165 1373:166 1374:170 1375:134 1376:131 1377:137 1378:131 1379:130 1380:131 1381:166 1382:162 1383:163 1384:164 1385:159 1386:161 1387:163 1388:153 1389:157 1390:122 1391:111 1392:115 1393:128 1394:117 1395:121 1396:125 1397:112 1398:116 1399:131 1400:119 1401:123 1402:167 1403:164 1404:165 1405:165 1406:159 1407:160 1408:150 1409:140 1410:144 1411:138 1412:127 1413:131 1414:128 1415:116 1416:121 1417:118 1418:109 1419:114 1420:117 1421:109 1422:113 1423:101 1424:89 1425:92 1426:125 1427:112 1428:118 1429:119 1430:111 1431:121 1432:159 1433:119 1434:127 1435:189 1436:20 1437:23 1438:216 1439:19 1440:21 1441:158 1442:156 1443:185 1444:211 1445:60 1446:76 1447:238 1448:18 1449:16 1450:204 1451:71 1452:70 1453:175 1454:169 1455:171 1456:111 1457:115 1458:114 1459:161 1460:164 1461:163 1462:170 1463:168 1464:171 1465:158 1466:158 1467:161 1468:139 1469:144 1470:146 1471:127 1472:124 1473:129 1474:121 1475:119 1476:120 1477:153 1478:150 1479:150 1480:172 1481:168 1482:169 1483:135 1484:127 1485:130 1486:110 1487:101 1488:104 1489:145 1490:139 1491:141 1492:147 1493:141 1494:143 1495:106 1496:96 1497:100 1498:143 1499:138 1500:140 1501:162 1502:158 1503:159 1504:156 1505:151 1506:152 1507:159 1508:152 1509:154 1510:159 1511:150 1512:153 1513:163 1514:150 1515:157 1516:169 1517:161 1518:165 1519:126 1520:117 1521:120 1522:113 1523:101 1524:106 1525:112 1526:106 1527:113 1528:155 1529:123 1530:126 1531:168 1532:14 1533:15 1534:200 1535:19 1536:15 1537:157 1538:149 1539:178 1540:212 1541:51 1542:64 1543:229 1544:18 1545:19 1546:195 1547:93 1548:89 1549:162 1550:164 1551:164 1552:111 1553:105 1554:107 1555:160 1556:157 1557:158 1558:167 1559:165 1560:168 1561:171 1562:169 1563:173 1564:152 1565:147 1566:154 1567:124 1568:120 1569:126 1570:124 1571:123 1572:124 1573:158 1574:153 1575:154 1576:168 1577:165 1578:166 1579:115 1580:111 1581:112 1582:107 1583:98 1584:101 1585:133 1586:123 1587:127 1588:134 1589:135 1590:135 1591:113 1592:104 1593:107 1594:126 1595:122 1596:123 1597:166 1598:164 1599:164 1600:150 1601:148 1602:149 1603:148 1604:144 1605:145 1606:144 1607:140 1608:141 1609:151 1610:147 1611:151 1612:149 1613:147 1614:149 1615:151 1616:145 1617:147 1618:129 1619:119 1620:122 1621:119 1622:112 1623:117 1624:160 1625:126 1626:127 1627:156 1628:8 1629:11 1630:185 1631:16 1632:18 1633:156 1634:153 1635:191 1636:199 1637:56 1638:73 1639:212 1640:11 1641:12 1642:197 1643:119 1644:121 1645:141 1646:147 1647:144 1648:99 1649:92 1650:93 1651:161 1652:158 1653:160 1654:166 1655:166 1656:168 1657:165 1658:160 1659:164 1660:176 1661:169 1662:174 1663:142 1664:137 1665:142 1666:147 1667:143 1668:146 1669:166 1670:164 1671:165 1672:163 1673:161 1674:161 1675:117 1676:109 1677:112 1678:109 1679:94 1680:98 1681:114 1682:101 1683:104 1684:132 1685:132 1686:132 1687:100 1688:94 1689:96 1690:131 1691:122 1692:125 1693:167 1694:164 1695:167 1696:140 1697:138 1698:142 1699:118 1700:114 1701:116 1702:128 1703:124 1704:126 1705:147 1706:144 1707:148 1708:151 1709:149 1710:151 1711:167 1712:160 1713:162 1714:168 1715:157 1716:161 1717:128 1718:125 1719:128 1720:164 1721:125 1722:131 1723:174 1724:17 1725:25 1726:176 1727:16 1728:18 1729:152 1730:153 1731:180 1732:193 1733:49 1734:58 1735:180 1738:192 1739:133 1740:137 1741:122 1742:124 1743:123 1744:90 1745:85 1746:86 1747:161 1748:160 1749:161 1750:166 1751:166 1752:168 1753:154 1754:150 1755:153 1756:156 1757:152 1758:155 1759:164 1760:157 1761:161 1762:157 1763:147 1764:152 1765:152 1766:150 1767:151 1768:160 1769:157 1770:158 1771:109 1772:105 1773:106 1774:92 1775:84 1776:85 1777:111 1778:101 1779:102 1780:123 1781:120 1782:120 1783:95 1784:90 1785:92 1786:140 1787:130 1788:133 1789:171 1790:165 1791:169 1792:130 1793:122 1794:130 1795:116 1796:112 1797:114 1798:116 1799:112 1800:113 1801:144 1802:139 1803:145 1804:157 1805:154 1806:158 1807:165 1808:162 1809:163 1810:156 1811:148 1812:150 1813:114 1814:115 1815:117 1816:160 1817:123 1818:133 1819:171 1820:17 1821:23 1822:149 1823:5 1824:11 1825:175 1826:113 1827:135 1828:220 1829:35 1830:40 1831:184 1832:17 1833:21 1834:184 1835:143 1836:146 1837:108 1838:106 1839:108 1840:130 1841:125 1842:127 1843:175 1844:175 1845:175 1846:154 1847:155 1848:157 1849:151 1850:149 1851:152 1852:148 1853:148 1854:150 1855:150 1856:147 1857:150 1858:152 1859:145 1860:150 1861:145 1862:142 1863:144 1864:163 1865:162 1866:162 1867:109 1868:105 1869:106 1870:71 1871:61 1872:63 1873:105 1874:95 1875:96 1876:132 1877:125 1878:127 1879:90 1880:83 1881:85 1882:154 1883:148 1884:150 1885:164 1886:159 1887:163 1888:152 1889:144 1890:152 1891:129 1892:125 1893:127 1894:139 1895:135 1896:136 1897:154 1898:149 1899:155 1900:159 1901:151 1902:158 1903:166 1904:158 1905:165 1906:142 1907:137 1908:140 1909:106 1910:109 1911:110 1912:155 1913:121 1914:125 1915:140 1916:25 1917:31 1918:141 1919:85 1920:100 1921:190 1922:75 1923:98 1924:229 1925:23 1926:25 1927:194 1928:30 1929:40 1930:187 1931:159 1932:162 1933:97 1934:95 1935:97 1936:137 1937:131 1938:133 1939:128 1940:128 1941:128 1942:143 1943:141 1944:143 1945:164 1946:159 1947:163 1948:163 1949:160 1950:163 1951:141 1952:141 1953:143 1954:133 1955:135 1956:135 1957:134 1958:132 1959:133 1960:148 1961:149 1962:149 1963:131 1964:121 1965:124 1966:110 1967:92 1968:97 1969:117 1970:104 1971:106 1972:137 1973:128 1974:131 1975:127 1976:119 1977:122 1978:153 1979:149 1980:148 1981:150 1982:148 1983:150 1984:152 1985:148 1986:154 1987:147 1988:144 1989:146 1990:147 1991:142 1992:144 1993:149 1994:145 1995:150 1996:152 1997:144 1998:151 1999:166 2000:153 2001:163 2002:134 2003:127 2004:131 2005:104 2006:107 2007:106 2008:145 2009:119 2010:121 2011:128 2012:62 2013:80 2014:148 2015:152 2016:181 2017:202 2018:47 2019:62 2020:213 2021:12 2022:15 2023:172 2024:33 2025:38 2026:178 2027:167 2028:167 2029:88 2030:88 2031:88 2032:100 2033:94 2034:95 2035:112 2036:112 2037:112 2038:102 2039:97 2040:99 2041:125 2042:115 2043:119 2044:129 2045:123 2046:125 2047:112 2048:110 2049:111 2050:114 2051:115 2052:115 2053:119 2054:118 2055:118 2056:125 2057:122 2058:123 2059:134 2060:129 2061:131 2062:137 2063:129 2064:130 2065:138 2066:127 2067:128 2068:128 2069:122 2070:123 2071:128 2072:124 2073:125 2074:126 2075:122 2076:121 2077:126 2078:119 2079:119 2080:124 2081:115 2082:116 2083:129 2084:126 2085:125 2086:149 2087:143 2088:147 2089:154 2090:150 2091:154 2092:147 2093:148 2094:150 2095:152 2096:148 2097:152 2098:158 2099:152 2100:155 2101:120 2102:117 2103:118 2104:151 2105:143 2106:152 2107:140 2108:125 2109:156 2110:140 2111:141 2112:171 2113:220 2114:38 2115:40 2116:208 2117:8 2118:12 2119:166 2120:44 2121:47 2122:163 2123:157 2124:161 2125:65 2126:59 2127:66 2128:89 2129:80 2130:83 2131:116 2132:113 2133:113 2134:88 2135:87 2136:88 2137:81 2138:80 2139:80 2140:83 2141:85 2142:84 2143:95 2144:97 2145:96 2146:125 2147:120 2148:122 2149:121 2150:116 2151:118 2152:124 2153:117 2154:119 2155:125 2156:125 2157:125 2158:129 2159:124 2160:126 2161:130 2162:118 2163:122 2164:127 2165:122 2166:123 2167:122 2168:119 2169:119 2170:115 2171:108 2172:111 2173:105 2174:96 2175:96 2176:102 2177:99 2178:93 2179:98 2180:91 2181:90 2182:123 2183:115 2184:120 2185:120 2186:114 2187:118 2188:112 2189:107 2190:110 2191:110 2192:108 2193:109 2194:124 2195:127 2196:126 2197:118 2198:112 2199:113 2200:154 2201:156 2202:160 2203:133 2204:137 2205:164 2206:139 2207:139 2208:168 2209:207 2210:35 2211:42 2212:203 2213:12 2214:12 2215:178 2216:65 2217:70 2218:193 2219:186 2220:193 2221:158 2222:153 2223:154 2224:169 2225:162 2226:165 2227:167 2228:164 2229:165 2230:171 2231:168 2232:169 2233:170 2234:165 2235:167 2236:173 2237:163 2238:166 2239:166 2240:161 2241:163 2242:164 2243:162 2244:163 2245:162 2246:158 2247:159 2248:164 2249:155 2250:159 2251:160 2252:157 2253:158 2254:164 2255:156 2256:162 2257:164 2258:158 2259:163 2260:158 2261:157 2262:158 2263:155 2264:151 2265:153 2266:152 2267:143 2268:151 2269:144 2270:143 2271:144 2272:136 2273:137 2274:136 2275:110 2276:100 2277:101 2278:86 2279:79 2280:84 2281:81 2282:77 2283:81 2284:98 2285:87 2286:91 2287:114 2288:115 2289:112 2290:88 2291:85 2292:86 2293:96 2294:84 2295:87 2296:157 2297:148 2298:153 2299:142 2300:127 2301:151 2302:133 2303:134 2304:162 2305:185 2306:29 2307:38 2308:176 2309:2 2311:150 2312:44 2313:49 2314:157 2315:113 2316:128 2317:152 2318:98 2319:111 2320:142 2321:87 2322:98 2323:129 2324:79 2325:86 2326:125 2327:74 2328:76 2329:121 2330:69 2331:73 2332:116 2333:69 2334:70 2335:107 2336:67 2337:70 2338:99 2339:71 2340:71 2341:106 2342:73 2343:75 2344:117 2345:73 2346:80 2347:118 2348:75 2349:83 2350:122 2351:79 2352:84 2353:134 2354:91 2355:99 2356:144 2357:105 2358:109 2359:147 2360:109 2361:116 2362:143 2363:116 2364:125 2365:152 2366:123 2367:131 2368:148 2369:124 2370:129 2371:155 2372:136 2373:139 2374:168 2375:148 2376:154 2377:172 2378:157 2379:162 2380:165 2381:153 2382:157 2383:158 2384:153 2385:154 2386:156 2387:143 2388:149 2389:158 2390:146 2391:154 2392:166 2393:128 2394:132 2395:143 2396:85 2397:104 2398:131 2399:141 2400:168 2401:191 2402:33 2403:35 2404:189 2405:16 2406:14 2407:150 2408:6 2409:13 2410:116 2412:6 2413:113 2416:125 2418:6 2419:119 2421:1 2422:114 2424:2 2425:113 2427:9 2428:100 2430:1 2431:88 2434:82 2437:93 2440:84 2442:2 2443:84 2445:2 2446:83 2449:94 2451:1 2452:94 2454:2 2455:86 2457:1 2458:86 2461:98 2462:3 2463:9 2464:97 2465:4 2466:11 2467:81 2468:3 2469:9 2470:93 2471:16 2472:27 2473:108 2474:34 2475:48 2476:99 2477:48 2478:58 2479:107 2480:60 2481:69 2482:118 2483:69 2484:76 2485:142 2486:95 2487:104 2488:163 2489:70 2490:76 2491:157 2492:54 2493:66 2494:132 2495:136 2496:163 2497:191 2498:24 2499:28 2500:188 2501:16 2502:18 2503:153 2504:8 2505:15 2506:139 2507:6 2508:14 2509:130 2510:5 2511:9 2512:181 2513:24 2514:25 2515:175 2516:14 2517:15 2518:132 2519:3 2520:4 2521:137 2522:10 2523:12 2524:151 2525:9 2526:12 2527:132 2528:9 2529:6 2530:129 2531:10 2532:5 2533:137 2534:12 2535:11 2536:102 2537:4 2538:6 2539:95 2540:3 2541:2 2542:108 2543:4 2544:4 2545:133 2546:8 2547:9 2548:132 2549:6 2550:8 2551:121 2552:8 2553:11 2554:108 2555:3 2556:9 2557:112 2558:6 2559:8 2560:130 2561:8 2562:12 2563:107 2564:2 2565:5 2566:96 2568:4 2569:96 2570:1 2571:9 2572:72 2574:5 2575:81 2577:1 2578:95 2581:114 2582:1 2583:11 2584:147 2585:10 2586:13 2587:166 2588:40 2589:48 2590:141 2591:125 2592:155 2593:202 2594:26 2595:32 2596:179 2597:4 2598:11 2599:135 2600:1 2601:11 2602:119 2603:2 2604:7 2605:131 2606:4 2607:7 2608:186 2609:16 2610:22 2611:185 2612:11 2613:19 2614:159 2615:5 2616:15 2617:157 2618:8 2619:10 2620:182 2621:20 2622:17 2623:152 2624:10 2625:9 2626:156 2627:11 2628:12 2629:150 2630:10 2631:10 2632:111 2633:4 2634:7 2635:98 2636:3 2637:2 2638:125 2639:5 2640:10 2641:147 2642:4 2643:9 2644:141 2645:4 2646:6 2647:144 2648:7 2649:12 2650:129 2651:1 2652:5 2653:117 2654:2 2655:4 2656:125 2657:1 2658:9 2659:121 2660:3 2661:8 2662:110 2663:4 2664:7 2665:102 2666:5 2667:5 2668:84 2669:2 2670:3 2671:110 2672:4 2673:9 2674:117 2675:6 2676:5 2677:128 2678:8 2679:10 2680:152 2681:7 2682:9 2683:156 2684:33 2685:40 2686:140 2687:118 2688:145 2689:212 2690:32 2691:32 2692:186 2693:15 2694:17 2695:123 2696:1 2697:3 2698:114 2699:2 2700:2 2701:136 2702:3 2703:7 2704:183 2705:13 2706:21 2707:173 2708:8 2709:15 2710:159 2711:4 2712:12 2713:159 2714:7 2715:8 2716:180 2717:22 2718:19 2719:148 2720:9 2721:11 2722:159 2723:12 2724:17 2725:149 2726:7 2727:8 2728:115 2729:3 2730:5 2731:106 2732:3 2733:5 2734:120 2735:2 2736:7 2737:129 2738:1 2739:5 2740:130 2741:2 2742:5 2743:157 2744:7 2745:11 2746:159 2747:6 2748:15 2749:134 2750:2 2751:6 2752:132 2753:4 2754:9 2755:138 2756:6 2757:12 2758:123 2759:3 2760:5 2761:105 2762:1 2763:2 2764:94 2765:2 2767:112 2768:4 2769:6 2770:117 2771:4 2772:5 2773:133 2774:7 2775:11 2776:160 2777:9 2778:20 2779:166 2780:28 2781:34 2782:154 2783:104 2784:123 2785:195 2786:21 2787:22 2788:176 2789:11 2790:12 2791:123 2792:3 2793:4 2794:115 2796:2 2797:135 2798:4 2799:7 2800:177 2801:9 2802:16 2803:163 2804:1 2805:6 2806:153 2807:1 2808:2 2809:175 2810:16 2811:21 2812:172 2813:16 2814:23 2815:139 2816:5 2817:9 2818:148 2819:11 2820:15 2821:142 2822:4 2823:8 2824:122 2825:3 2826:6 2827:127 2828:5 2829:10 2830:106 2831:1 2832:2 2833:102 2834:1 2835:2 2836:112 2837:2 2838:5 2839:154 2840:2 2841:11 2842:165 2843:4 2844:16 2845:143 2846:3 2847:10 2848:134 2849:2 2850:8 2851:137 2852:4 2853:10 2854:120 2855:1 2856:3 2857:114 2858:2 2859:5 2860:115 2861:2 2862:6 2863:102 2864:2 2865:2 2866:119 2867:4 2868:6 2869:153 2870:8 2871:14 2872:165 2873:13 2874:22 2875:176 2876:15 2877:18 2878:172 2879:49 2880:61 2881:200 2882:30 2883:31 2884:171 2885:11 2886:12 2887:121 2888:4 2889:4 2890:118 2891:3 2892:4 2893:135 2894:3 2895:7 2896:162 2897:7 2898:9 2899:151 2902:175 2903:13 2904:13 2905:187 2906:16 2907:22 2908:162 2909:9 2910:14 2911:130 2912:1 2913:5 2914:131 2915:3 2916:8 2917:138 2918:2 2919:10 2920:124 2921:2 2922:5 2923:138 2924:2 2925:8 2926:117 2927:2 2928:6 2929:82 2930:2 2931:3 2932:83 2933:2 2934:1 2935:130 2936:3 2937:7 2938:153 2939:2 2940:10 2941:131 2942:1 2943:5 2944:120 2945:2 2946:4 2947:117 2948:1 2949:1 2950:106 2951:2 2953:114 2954:5 2955:8 2956:129 2957:3 2958:12 2959:107 2960:1 2961:3 2962:135 2963:4 2964:12 2965:165 2966:11 2967:15 2968:165 2969:13 2970:18 2971:183 2972:16 2973:21 2974:193 2975:23 2976:27 2977:195 2978:26 2979:27 2980:179 2981:16 2982:18 2983:126 2984:2 2985:4 2986:123 2987:2 2988:4 2989:135 2990:2 2991:6 2992:148 2993:2 2994:7 2995:156 2996:6 2997:6 2998:191 2999:16 3000:20 3001:175 3002:8 3003:12 3004:155 3005:4 3006:12 3007:133 3008:2 3009:6 3010:131 3011:1 3012:5 3013:138 3014:2 3015:9 3016:133 3017:2 3018:8 3019:129 3020:1 3021:4 3022:113 3023:3 3024:5 3025:58 3026:2 3027:3 3028:42 3029:2 3030:2 3031:100 3032:2 3033:4 3034:146 3035:3 3036:9 3037:127 3038:2 3039:6 3040:117 3041:2 3042:2 3043:115 3044:1 3045:3 3046:109 3047:2 3048:4 3049:117 3050:3 3051:6 3052:130 3053:1 3054:7 3055:127 3056:4 3057:8 3058:137 3059:6 3060:10 3061:158 3062:10 3063:13 3064:163 3065:9 3066:11 3067:179 3068:16 3069:18 3070:193 3071:20 3072:21 
6.653214593963658e-14 1:255 2:255 3:255 4:255 5:255 6:255 7:255 8:255 9:255 10:255 11:255 12:255 13:255 14:255 15:255 16:255 17:255 18:255 19:255 20:255 21:255 22:255 23:255 24:255 25:255 26:255 27:255 28:255 29:254 30:254 31:255 32:255 33:255 34:251 35:248 36:245 37:205 38:73 39:74 40:209 41:123 42:124 43:211 44:138 45:134 46:215 47:94 48:95 49:215 50:102 51:102 52:213 53:81 54:83 55:211 56:118 57:118 58:211 59:123 60:122 61:251 62:254 63:253 64:254 65:254 66:253 67:255 68:255 69:254 70:255 71:255 72:255 73:255 74:255 75:255 76:255 77:255 78:255 79:255 80:255 81:255 82:255 83:255 84:255 85:255 86:255 87:255 88:255 89:255 90:255 91:255 92:255 93:255 94:255 95:255 96:255 97:255 98:255 99:255 100:255 101:255 102:255 103:255 104:255 105:255 106:255 107:255 108:255 109:255 110:255 111:255 112:255 113:255 114:255 115:255 116:255 117:255 118:255 119:255 120:255 121:255 122:255 123:255 124:255 125:255 126:255 127:255 128:255 129:255 130:251 131:252 132:253 133:239 134:225 135:217 136:246 137:241 138:242 139:241 140:237 141:240 142:239 143:228 144:224 145:240 146:219 147:216 148:242 149:223 150:219 151:240 152:218 153:212 154:243 155:245 156:241 157:253 158:254 159:250 160:255 161:255 162:255 163:255 164:255 165:255 166:255 167:255 168:255 169:255 170:255 171:255 172:255 173:255 174:255 175:255 176:255 177:255 178:255 179:255 180:255 181:255 182:255 183:255 184:255 185:255 186:255 187:255 188:255 189:255 190:255 191:255 192:255 193:255 194:255 195:255 196:255 197:255 198:255 199:255 200:255 201:255 202:255 203:255 204:255 205:255 206:255 207:255 208:255 209:255 210:254 211:255 212:255 213:254 214:255 215:255 216:254 217:255 218:255 219:254 220:255 221:255 222:255 223:255 224:255 225:255 226:254 227:255 228:255 229:251 230:255 231:255 232:251 233:255 234:255 235:252 236:255 237:255 238:252 239:255 240:255 241:252 242:255 243:255 244:252 245:255 246:255 247:251 248:255 249:255 250:251 251:254 252:254 253:253 254:254 255:252 256:253 257:253 258:253 259:247 260:247 261:246 262:248 263:248 264:249 265:255 266:255 267:255 268:255 269:255 270:254 271:255 272:255 273:255 274:255 275:255 276:255 277:255 278:255 279:255 280:255 281:255 282:255 283:255 284:255 285:255 286:255 287:255 288:255 289:255 290:255 291:255 292:255 293:255 294:255 295:252 296:252 297:252 298:251 299:251 300:251 301:252 302:252 303:252 304:253 305:252 306:255 307:252 308:251 309:255 310:253 311:253 312:253 313:253 314:252 315:255 316:253 317:252 318:255 319:252 320:252 321:255 322:252 323:251 324:255 325:252 326:251 327:255 328:252 329:251 330:253 331:254 332:253 333:253 334:255 335:254 336:254 337:254 338:254 339:253 340:254 341:253 342:254 343:254 344:254 345:254 346:254 347:254 348:254 349:255 350:255 351:255 352:226 353:226 354:226 355:201 356:201 357:200 358:229 359:231 360:220 361:242 362:243 363:239 364:252 365:252 366:255 367:251 368:250 369:254 370:251 371:250 372:254 373:254 374:254 375:255 376:254 377:254 378:254 379:255 380:255 381:255 382:255 383:255 384:255 385:255 386:255 387:255 388:254 389:254 390:254 391:233 392:233 393:233 394:215 395:215 396:216 397:215 398:215 399:216 400:217 401:216 402:217 403:215 404:214 405:215 406:218 407:218 408:216 409:221 410:221 411:221 412:222 413:222 414:223 415:223 416:223 417:224 418:223 419:223 420:224 421:223 422:222 423:223 424:222 425:222 426:223 427:224 428:224 429:225 430:228 431:228 432:229 433:229 434:229 435:230 436:229 437:229 438:230 439:229 440:229 441:229 442:228 443:228 444:229 445:226 446:226 447:227 448:189 449:188 450:190 451:202 452:203 453:196 454:216 455:220 456:196 457:221 458:224 459:206 460:222 461:222 462:222 463:214 464:214 465:215 466:224 467:223 468:225 469:233 470:233 471:234 472:251 473:251 474:252 475:255 476:255 477:255 478:255 479:255 480:255 481:255 482:255 483:255 484:252 485:252 486:252 487:202 488:202 489:201 490:206 491:207 492:204 493:207 494:210 495:202 496:202 497:206 498:192 499:201 500:204 501:190 502:199 503:202 504:188 505:206 506:209 507:195 508:209 509:212 510:199 511:209 512:210 513:200 514:215 515:216 516:206 517:221 518:224 519:210 520:224 521:226 522:214 523:225 524:226 525:215 526:226 527:228 528:218 529:223 530:225 531:217 532:219 533:221 534:211 535:215 536:217 537:206 538:217 539:218 540:207 541:210 542:212 543:201 544:205 545:207 546:196 547:200 548:203 549:183 550:193 551:196 552:174 553:200 554:204 555:182 556:199 557:202 558:184 559:196 560:198 561:184 562:212 563:214 564:199 565:210 566:212 567:197 568:218 569:219 570:212 571:255 572:255 573:254 574:255 575:255 576:255 577:255 578:255 579:255 580:251 581:251 582:251 583:196 584:197 585:195 586:213 587:215 588:204 589:155 590:160 591:150 592:145 593:149 594:143 595:139 596:142 597:134 598:148 599:151 600:144 601:132 602:135 603:128 604:135 605:137 606:130 607:163 608:165 609:158 610:130 611:133 612:125 613:132 614:134 615:127 616:128 617:130 618:124 619:147 620:149 621:139 622:134 623:137 624:125 625:139 626:141 627:130 628:131 629:132 630:124 631:150 632:152 633:143 634:129 635:131 636:120 637:133 638:135 639:124 640:141 641:143 642:132 643:168 644:170 645:159 646:157 647:159 648:148 649:158 650:160 651:148 652:166 653:169 654:156 655:168 656:170 657:156 658:155 659:157 660:146 661:151 662:153 663:143 664:213 665:215 666:201 667:255 668:255 669:254 670:254 671:254 672:255 673:255 674:255 675:255 676:250 677:250 678:250 679:197 680:197 681:196 682:214 683:215 684:204 685:120 686:125 687:116 688:109 689:112 690:109 691:116 692:117 693:114 694:117 695:119 696:116 697:114 698:117 699:113 700:104 701:109 702:105 703:133 704:138 705:132 706:144 707:148 708:143 709:144 710:146 711:142 712:157 713:158 714:156 715:167 716:167 717:163 718:165 719:169 720:162 721:166 722:171 723:163 724:167 725:168 726:161 727:175 728:176 729:168 730:166 731:168 732:159 733:177 734:178 735:170 736:167 737:169 738:160 739:148 740:148 741:142 742:113 743:114 744:108 745:121 746:121 747:117 748:121 749:122 750:116 751:120 752:121 753:114 754:111 755:112 756:107 757:111 758:112 759:106 760:218 761:220 762:204 763:255 764:255 765:254 766:254 767:254 768:255 769:255 770:255 771:255 772:245 773:245 774:245 775:188 776:188 777:187 778:213 779:215 780:207 781:136 782:140 783:132 784:137 785:142 786:136 787:165 788:169 789:163 790:147 791:149 792:144 793:155 794:159 795:153 796:140 797:146 798:139 799:123 800:128 801:122 802:175 803:180 804:172 805:121 806:124 807:116 808:164 809:166 810:157 811:158 812:160 813:154 814:153 815:157 816:150 817:163 818:168 819:162 820:166 821:170 822:160 823:151 824:154 825:144 826:142 827:145 828:135 829:142 830:144 831:135 832:173 833:174 834:166 835:146 836:148 837:142 838:134 839:136 840:127 841:162 842:165 843:156 844:154 845:156 846:149 847:157 848:160 849:154 850:160 851:162 852:156 853:120 854:121 855:115 856:220 857:223 858:208 859:255 860:255 861:255 862:254 863:254 864:254 865:255 866:255 867:255 868:226 869:226 870:227 871:189 872:190 873:186 874:218 875:220 876:209 877:133 878:138 879:131 880:107 881:113 882:106 883:122 884:126 885:120 886:119 887:121 888:116 889:112 890:116 891:110 892:100 893:105 894:99 895:112 896:117 897:109 898:228 899:234 900:221 901:229 902:235 903:222 904:221 905:228 906:213 907:224 908:232 909:217 910:193 911:200 912:187 913:174 914:179 915:170 916:194 917:197 918:188 919:226 920:229 921:218 922:220 923:224 924:212 925:217 926:220 927:207 928:228 929:232 930:216 931:140 932:143 933:132 934:115 935:118 936:109 937:140 938:143 939:134 940:139 941:142 942:134 943:143 944:146 945:139 946:138 947:140 948:135 949:139 950:140 951:135 952:227 953:229 954:215 955:255 956:255 957:255 958:254 959:254 960:254 961:255 962:255 963:255 964:210 965:210 966:211 967:210 968:210 969:203 970:224 971:226 972:211 973:127 974:131 975:125 976:136 977:141 978:136 979:120 980:125 981:119 982:155 983:157 984:151 985:156 986:160 987:153 988:128 989:133 990:128 991:170 992:173 993:167 994:204 995:209 996:195 997:164 998:174 999:158 1000:214 1001:223 1002:208 1003:199 1004:207 1005:195 1006:181 1007:187 1008:178 1009:224 1010:230 1011:213 1012:184 1013:187 1014:176 1015:202 1016:205 1017:194 1018:234 1019:238 1020:222 1021:227 1022:233 1023:217 1024:232 1025:240 1026:225 1027:172 1028:177 1029:162 1030:129 1031:132 1032:122 1033:133 1034:137 1035:126 1036:138 1037:141 1038:133 1039:113 1040:117 1041:110 1042:115 1043:117 1044:111 1045:125 1046:126 1047:120 1048:225 1049:227 1050:214 1051:255 1052:255 1053:255 1054:254 1055:254 1056:254 1057:255 1058:255 1059:255 1060:213 1061:212 1062:212 1063:203 1064:203 1065:196 1066:226 1067:228 1068:211 1069:125 1070:129 1071:124 1072:175 1073:181 1074:174 1075:209 1076:214 1077:203 1078:204 1079:208 1080:197 1081:230 1082:230 1083:220 1084:207 1085:218 1086:198 1087:197 1088:212 1089:192 1090:200 1091:198 1092:190 1093:161 1094:167 1095:156 1096:195 1097:200 1098:188 1099:173 1100:176 1101:168 1102:206 1103:210 1104:197 1105:208 1106:211 1107:199 1108:184 1109:187 1110:177 1111:180 1112:183 1113:173 1114:224 1115:227 1116:214 1117:219 1118:228 1119:209 1120:209 1121:223 1122:203 1123:209 1124:220 1125:201 1126:197 1127:212 1128:192 1129:218 1130:229 1131:212 1132:217 1133:223 1134:211 1135:186 1136:192 1137:181 1138:179 1139:183 1140:173 1141:128 1142:130 1143:123 1144:219 1145:220 1146:209 1147:255 1148:255 1149:255 1150:254 1151:254 1152:254 1153:255 1154:255 1155:255 1156:215 1157:216 1158:215 1159:196 1160:199 1161:191 1162:228 1163:231 1164:215 1165:137 1166:141 1167:136 1168:202 1169:208 1170:197 1171:236 1172:243 1173:226 1174:211 1175:219 1176:205 1177:211 1178:224 1179:205 1180:132 1181:177 1182:132 1183:107 1184:161 1185:111 1186:191 1187:215 1188:189 1189:223 1190:226 1191:214 1192:198 1193:204 1194:191 1195:153 1196:155 1197:150 1198:194 1199:197 1200:188 1201:106 1202:109 1203:101 1204:95 1205:97 1206:91 1207:123 1208:126 1209:120 1210:210 1211:212 1212:203 1213:223 1214:233 1215:215 1216:198 1217:212 1218:191 1219:205 1220:217 1221:198 1222:194 1223:207 1224:187 1225:217 1226:229 1227:210 1228:223 1229:228 1230:216 1231:209 1232:216 1233:201 1234:207 1235:211 1236:199 1237:122 1238:124 1239:118 1240:215 1241:218 1242:201 1243:249 1244:249 1245:248 1246:254 1247:254 1248:255 1249:252 1250:252 1251:252 1252:204 1253:205 1254:204 1255:193 1256:196 1257:185 1258:228 1259:232 1260:214 1261:178 1262:181 1263:175 1264:179 1265:184 1266:174 1267:226 1268:233 1269:218 1270:232 1271:239 1272:224 1273:190 1274:213 1275:187 1276:133 1277:176 1278:131 1279:143 1280:182 1281:144 1282:161 1283:195 1284:164 1285:241 1286:245 1287:229 1288:196 1289:203 1290:189 1291:156 1292:159 1293:155 1294:134 1295:137 1296:131 1297:88 1298:91 1299:85 1300:132 1301:135 1302:130 1303:158 1304:163 1305:155 1306:196 1307:200 1308:189 1309:204 1310:208 1311:194 1312:177 1313:192 1314:169 1315:119 1316:151 1317:119 1318:168 1319:183 1320:163 1321:202 1322:208 1323:196 1324:198 1325:204 1326:192 1327:227 1328:234 1329:218 1330:194 1331:199 1332:189 1333:157 1334:157 1335:152 1336:218 1337:221 1338:201 1339:236 1340:238 1341:227 1342:249 1343:249 1344:250 1345:244 1346:244 1347:243 1348:197 1349:197 1350:197 1351:226 1352:228 1353:215 1354:218 1355:222 1356:202 1357:171 1358:174 1359:168 1360:153 1361:158 1362:148 1363:213 1364:219 1365:204 1366:231 1367:236 1368:221 1369:209 1370:221 1371:201 1372:130 1373:176 1374:133 1375:116 1376:166 1377:120 1378:180 1379:203 1380:174 1381:237 1382:242 1383:223 1384:190 1385:197 1386:183 1387:125 1388:130 1389:125 1390:144 1391:147 1392:142 1393:95 1394:97 1395:93 1396:132 1397:136 1398:129 1399:184 1400:191 1401:178 1402:203 1403:208 1404:192 1405:185 1406:189 1407:175 1408:102 1409:133 1410:103 1411:49 1412:104 1413:49 1414:105 1415:144 1416:107 1417:168 1418:172 1419:164 1420:161 1421:167 1422:156 1423:214 1424:221 1425:205 1426:152 1427:156 1428:149 1429:175 1430:175 1431:168 1432:204 1433:205 1434:186 1435:219 1436:223 1437:199 1438:241 1439:243 1440:233 1441:245 1442:245 1443:245 1444:194 1445:194 1446:194 1447:217 1448:218 1449:206 1450:211 1451:214 1452:196 1453:146 1454:148 1455:143 1456:147 1457:152 1458:146 1459:202 1460:209 1461:197 1462:228 1463:235 1464:219 1465:229 1466:236 1467:220 1468:176 1469:206 1470:177 1471:157 1472:189 1473:154 1474:225 1475:233 1476:215 1477:233 1478:241 1479:220 1480:173 1481:180 1482:166 1483:101 1484:106 1485:101 1486:154 1487:157 1488:151 1489:110 1490:112 1491:107 1492:134 1493:139 1494:129 1495:190 1496:196 1497:182 1498:200 1499:205 1500:190 1501:188 1502:189 1503:176 1504:83 1505:116 1506:86 1507:48 1508:100 1509:49 1510:85 1511:121 1512:87 1513:152 1514:157 1515:148 1516:155 1517:161 1518:150 1519:201 1520:207 1521:192 1522:150 1523:154 1524:146 1525:143 1526:143 1527:137 1528:209 1529:211 1530:192 1531:200 1532:203 1533:182 1534:241 1535:242 1536:232 1537:252 1538:252 1539:252 1540:194 1541:194 1542:196 1543:219 1544:221 1545:208 1546:217 1547:221 1548:203 1549:137 1550:140 1551:133 1552:177 1553:180 1554:172 1555:202 1556:205 1557:195 1558:220 1559:230 1560:211 1561:198 1562:216 1563:195 1564:205 1565:224 1566:202 1567:205 1568:225 1569:203 1570:215 1571:227 1572:210 1573:236 1574:243 1575:225 1576:185 1577:191 1578:179 1579:119 1580:124 1581:118 1582:166 1583:171 1584:166 1585:134 1586:138 1587:132 1588:111 1589:115 1590:108 1591:189 1592:193 1593:180 1594:198 1595:203 1596:187 1597:190 1598:188 1599:179 1600:145 1601:161 1602:140 1603:88 1604:130 1605:87 1606:139 1607:161 1608:136 1609:176 1610:179 1611:171 1612:177 1613:180 1614:169 1615:193 1616:198 1617:183 1618:168 1619:170 1620:162 1621:144 1622:145 1623:139 1624:202 1625:204 1626:188 1627:212 1628:214 1629:198 1630:244 1631:245 1632:238 1633:253 1634:253 1635:253 1636:197 1637:197 1638:199 1639:211 1640:212 1641:204 1642:221 1643:224 1644:207 1645:151 1646:154 1647:147 1648:189 1649:193 1650:180 1651:210 1652:214 1653:200 1654:213 1655:219 1656:203 1657:214 1658:222 1659:206 1660:232 1661:237 1662:222 1663:203 1664:213 1665:196 1666:208 1667:214 1668:202 1669:221 1670:226 1671:214 1672:184 1673:190 1674:178 1675:119 1676:124 1677:118 1678:130 1679:136 1680:131 1681:153 1682:159 1683:152 1684:129 1685:132 1686:125 1687:152 1688:155 1689:146 1690:192 1691:196 1692:183 1693:196 1694:199 1695:188 1696:215 1697:217 1698:202 1699:208 1700:218 1701:198 1702:214 1703:219 1704:204 1705:220 1706:223 1707:211 1708:217 1709:220 1710:206 1711:175 1712:179 1713:164 1714:181 1715:183 1716:172 1717:143 1718:145 1719:136 1720:199 1721:202 1722:184 1723:208 1724:211 1725:195 1726:249 1727:249 1728:245 1729:248 1730:248 1731:248 1732:193 1733:192 1734:194 1735:212 1736:213 1737:207 1738:224 1739:227 1740:209 1741:161 1742:164 1743:157 1744:169 1745:172 1746:164 1747:195 1748:199 1749:189 1750:176 1751:178 1752:168 1753:208 1754:208 1755:199 1756:194 1757:195 1758:185 1759:193 1760:199 1761:187 1762:199 1763:207 1764:198 1765:203 1766:208 1767:199 1768:216 1769:222 1770:209 1771:98 1772:103 1773:97 1774:98 1775:103 1776:98 1777:151 1778:155 1779:149 1780:147 1781:150 1782:141 1783:149 1784:152 1785:145 1786:217 1787:220 1788:210 1789:200 1790:205 1791:191 1792:207 1793:213 1794:196 1795:218 1796:222 1797:208 1798:211 1799:217 1800:202 1801:221 1802:225 1803:212 1804:200 1805:204 1806:189 1807:199 1808:203 1809:189 1810:186 1811:188 1812:176 1813:164 1814:166 1815:154 1816:218 1817:222 1818:197 1819:235 1820:238 1821:220 1822:251 1823:251 1824:251 1825:245 1826:245 1827:245 1828:194 1829:194 1830:194 1831:232 1832:234 1833:219 1834:224 1835:228 1836:208 1837:140 1838:142 1839:136 1840:136 1841:141 1842:136 1843:142 1844:147 1845:138 1846:129 1847:131 1848:126 1849:142 1850:145 1851:139 1852:127 1853:130 1854:123 1855:192 1856:200 1857:191 1858:202 1859:211 1860:202 1861:194 1862:201 1863:189 1864:198 1865:203 1866:193 1867:160 1868:162 1869:156 1870:140 1871:142 1872:136 1873:156 1874:158 1875:153 1876:164 1877:167 1878:161 1879:176 1880:179 1881:171 1882:201 1883:205 1884:190 1885:194 1886:197 1887:185 1888:205 1889:209 1890:196 1891:202 1892:206 1893:192 1894:131 1895:135 1896:126 1897:139 1898:142 1899:135 1900:127 1901:129 1902:121 1903:153 1904:154 1905:144 1906:135 1907:136 1908:129 1909:149 1910:151 1911:140 1912:216 1913:221 1914:196 1915:229 1916:232 1917:213 1918:251 1919:251 1920:249 1921:250 1922:250 1923:249 1924:194 1925:193 1926:197 1927:217 1928:219 1929:208 1930:225 1931:229 1932:208 1933:139 1934:141 1935:135 1936:138 1937:143 1938:141 1939:136 1940:141 1941:134 1942:141 1943:142 1944:138 1945:130 1946:132 1947:127 1948:120 1949:123 1950:116 1951:177 1952:180 1953:173 1954:165 1955:170 1956:163 1957:129 1958:135 1959:128 1960:130 1961:134 1962:127 1963:131 1964:134 1965:127 1966:143 1967:145 1968:140 1969:150 1970:152 1971:148 1972:153 1973:156 1974:149 1975:128 1976:132 1977:124 1978:126 1979:129 1980:117 1981:131 1982:134 1983:125 1984:165 1985:168 1986:157 1987:182 1988:185 1989:172 1990:126 1991:129 1992:121 1993:128 1994:131 1995:125 1996:126 1997:128 1998:122 1999:140 2000:140 2001:135 2002:134 2003:135 2004:129 2005:151 2006:152 2007:141 2008:219 2009:222 2010:203 2011:234 2012:236 2013:222 2014:252 2015:252 2016:250 2017:252 2018:252 2019:251 2020:196 2021:195 2022:199 2023:209 2024:210 2025:201 2026:228 2027:232 2028:212 2029:165 2030:168 2031:160 2032:158 2033:161 2034:158 2035:155 2036:159 2037:153 2038:154 2039:157 2040:148 2041:149 2042:152 2043:144 2044:152 2045:155 2046:148 2047:157 2048:160 2049:153 2050:123 2051:126 2052:118 2053:105 2054:109 2055:103 2056:121 2057:124 2058:118 2059:121 2060:124 2061:115 2062:133 2063:135 2064:129 2065:135 2066:137 2067:132 2068:142 2069:145 2070:137 2071:127 2072:129 2073:120 2074:122 2075:124 2076:116 2077:131 2078:133 2079:124 2080:144 2081:147 2082:131 2083:164 2084:167 2085:153 2086:137 2087:140 2088:130 2089:136 2090:138 2091:131 2092:133 2093:135 2094:129 2095:136 2096:137 2097:131 2098:132 2099:133 2100:129 2101:148 2102:149 2103:140 2104:221 2105:225 2106:201 2107:237 2108:240 2109:222 2110:255 2111:254 2112:254 2113:250 2114:250 2115:249 2116:197 2117:196 2118:198 2119:221 2120:223 2121:213 2122:233 2123:237 2124:221 2125:216 2126:219 2127:208 2128:218 2129:221 2130:214 2131:207 2132:210 2133:202 2134:201 2135:205 2136:192 2137:210 2138:213 2139:201 2140:205 2141:208 2142:196 2143:205 2144:209 2145:194 2146:210 2147:214 2148:199 2149:209 2150:213 2151:201 2152:203 2153:207 2154:193 2155:201 2156:205 2157:189 2158:207 2159:209 2160:193 2161:197 2162:199 2163:182 2164:195 2165:197 2166:184 2167:201 2168:204 2169:189 2170:196 2171:198 2172:183 2173:194 2174:195 2175:184 2176:202 2177:204 2178:189 2179:203 2180:205 2181:189 2182:212 2183:214 2184:198 2185:212 2186:215 2187:199 2188:215 2189:217 2190:204 2191:212 2192:215 2193:199 2194:213 2195:216 2196:198 2197:211 2198:215 2199:195 2200:232 2201:236 2202:215 2203:245 2204:245 2205:238 2206:254 2207:254 2208:255 2209:253 2210:253 2211:253 2212:202 2213:201 2214:203 2215:213 2216:215 2217:204 2218:234 2219:238 2220:221 2221:167 2222:170 2223:159 2224:131 2225:134 2226:127 2227:147 2228:150 2229:143 2230:126 2231:128 2232:121 2233:146 2234:149 2235:140 2236:128 2237:132 2238:121 2239:150 2240:154 2241:141 2242:169 2243:173 2244:160 2245:137 2246:140 2247:129 2248:120 2249:123 2250:112 2251:116 2252:119 2253:109 2254:122 2255:124 2256:115 2257:123 2258:125 2259:115 2260:135 2261:137 2262:122 2263:150 2264:153 2265:138 2266:164 2267:167 2268:150 2269:182 2270:185 2271:167 2272:209 2273:212 2274:192 2275:229 2276:232 2277:213 2278:239 2279:242 2280:223 2281:231 2282:234 2283:215 2284:208 2285:210 2286:197 2287:202 2288:206 2289:183 2290:237 2291:241 2292:211 2293:249 2294:252 2295:237 2296:251 2297:252 2298:248 2299:254 2300:254 2301:255 2302:255 2303:255 2304:255 2305:255 2306:255 2307:255 2308:215 2309:215 2310:216 2311:199 2312:200 2313:196 2314:236 2315:238 2316:219 2317:170 2318:172 2319:164 2320:114 2321:117 2322:111 2323:124 2324:128 2325:121 2326:112 2327:115 2328:111 2329:114 2330:114 2331:111 2332:113 2333:114 2334:109 2335:138 2336:140 2337:133 2338:141 2339:144 2340:137 2341:126 2342:128 2343:121 2344:140 2345:142 2346:135 2347:166 2348:168 2349:157 2350:184 2351:187 2352:170 2353:193 2354:198 2355:179 2356:191 2357:195 2358:177 2359:183 2360:186 2361:169 2362:183 2363:185 2364:171 2365:206 2366:208 2367:192 2368:213 2369:216 2370:196 2371:204 2372:207 2373:186 2374:183 2375:185 2376:168 2377:178 2378:179 2379:169 2380:200 2381:204 2382:185 2383:230 2384:233 2385:214 2386:244 2387:245 2388:238 2389:250 2390:250 2391:249 2392:253 2393:253 2394:255 2395:255 2396:255 2397:255 2398:255 2399:255 2400:255 2401:255 2402:255 2403:255 2404:224 2405:224 2406:225 2407:189 2408:190 2409:188 2410:239 2411:240 2412:220 2413:169 2414:172 2415:161 2416:133 2417:135 2418:132 2419:152 2420:155 2421:150 2422:155 2423:159 2424:150 2425:177 2426:178 2427:167 2428:199 2429:201 2430:186 2431:201 2432:205 2433:190 2434:213 2435:216 2436:202 2437:211 2438:214 2439:199 2440:192 2441:194 2442:181 2443:171 2444:173 2445:160 2446:146 2447:148 2448:134 2449:138 2450:143 2451:131 2452:145 2453:148 2454:135 2455:180 2456:181 2457:168 2458:190 2459:192 2460:179 2461:169 2462:171 2463:161 2464:131 2465:133 2466:121 2467:154 2468:156 2469:144 2470:196 2471:198 2472:185 2473:226 2474:229 2475:209 2476:240 2477:244 2478:222 2479:250 2480:250 2481:247 2482:254 2483:254 2484:255 2485:255 2486:255 2487:255 2488:255 2489:255 2490:255 2491:255 2492:255 2493:255 2494:255 2495:255 2496:255 2497:255 2498:255 2499:255 2500:230 2501:230 2502:231 2503:193 2504:193 2505:192 2506:236 2507:238 2508:219 2509:206 2510:210 2511:193 2512:193 2513:196 2514:184 2515:195 2516:199 2517:187 2518:182 2519:187 2520:172 2521:192 2522:194 2523:180 2524:160 2525:162 2526:148 2527:152 2528:155 2529:141 2530:171 2531:175 2532:161 2533:128 2534:131 2535:117 2536:91 2537:93 2538:82 2539:116 2540:117 2541:109 2542:155 2543:156 2544:144 2545:184 2546:189 2547:175 2548:184 2549:188 2550:171 2551:172 2552:174 2553:157 2554:127 2555:129 2556:118 2557:132 2558:134 2559:124 2560:180 2561:182 2562:168 2563:212 2564:214 2565:199 2566:229 2567:232 2568:211 2569:227 2570:231 2571:205 2572:245 2573:246 2574:237 2575:255 2576:255 2577:255 2578:255 2579:255 2580:255 2581:255 2582:255 2583:255 2584:255 2585:255 2586:255 2587:255 2588:255 2589:255 2590:255 2591:255 2592:255 2593:255 2594:255 2595:255 2596:247 2597:247 2598:249 2599:214 2600:214 2601:215 2602:237 2603:239 2604:229 2605:230 2606:232 2607:221 2608:175 2609:176 2610:169 2611:169 2612:170 2613:165 2614:180 2615:181 2616:175 2617:172 2618:173 2619:168 2620:156 2621:157 2622:152 2623:164 2624:165 2625:160 2626:185 2627:186 2628:181 2629:162 2630:164 2631:159 2632:205 2633:207 2634:201 2635:232 2636:233 2637:226 2638:220 2639:221 2640:213 2641:189 2642:190 2643:182 2644:159 2645:160 2646:155 2647:165 2648:166 2649:160 2650:196 2651:197 2652:189 2653:230 2654:231 2655:222 2656:216 2657:217 2658:209 2659:232 2660:234 2661:222 2662:237 2663:239 2664:224 2665:237 2666:239 2667:225 2668:254 2669:254 2670:252 2671:255 2672:255 2673:255 2674:255 2675:255 2676:255 2677:255 2678:255 2679:255 2680:255 2681:255 2682:255 2683:255 2684:255 2685:255 2686:255 2687:255 2688:255 2689:255 2690:255 2691:255 2692:255 2693:255 2694:255 2695:255 2696:255 2697:255 2698:255 2699:255 2700:254 2701:254 2702:254 2703:253 2704:255 2705:255 2706:255 2707:255 2708:255 2709:255 2710:255 2711:255 2712:255 2713:255 2714:255 2715:255 2716:255 2717:255 2718:255 2719:255 2720:255 2721:255 2722:255 2723:255 2724:255 2725:255 2726:255 2727:255 2728:255 2729:255 2730:255 2731:255 2732:255 2733:255 2734:253 2735:253 2736:254 2737:255 2738:255 2739:255 2740:255 2741:255 2742:255 2743:255 2744:255 2745:255 2746:255 2747:255 2748:255 2749:255 2750:255 2751:255 2752:255 2753:255 2754:255 2755:255 2756:255 2757:255 2758:255 2759:255 2760:255 2761:255 2762:255 2763:255 2764:255 2765:255 2766:255 2767:255 2768:255 2769:255 2770:255 2771:255 2772:255 2773:255 2774:255 2775:255 2776:255 2777:255 2778:255 2779:255 2780:255 2781:255 2782:255 2783:255 2784:255 2785:255 2786:255 2787:255 2788:255 2789:255 2790:254 2791:254 2792:254 2793:254 2794:255 2795:255 2796:255 2797:255 2798:255 2799:254 2800:254 2801:254 2802:252 2803:254 2804:254 2805:252 2806:254 2807:254 2808:254 2809:254 2810:254 2811:254 2812:254 2813:254 2814:254 2815:254 2816:254 2817:253 2818:254 2819:254 2820:252 2821:252 2822:253 2823:251 2824:253 2825:254 2826:251 2827:255 2828:255 2829:253 2830:255 2831:255 2832:254 2833:254 2834:254 2835:254 2836:254 2837:254 2838:254 2839:254 2840:254 2841:254 2842:254 2843:254 2844:254 2845:255 2846:255 2847:255 2848:254 2849:254 2850:254 2851:255 2852:255 2853:255 2854:255 2855:255 2856:255 2857:255 2858:255 2859:254 2860:255 2861:255 2862:254 2863:255 2864:255 2865:255 2866:255 2867:255 2868:255 2869:255 2870:255 2871:255 2872:255 2873:255 2874:255 2875:255 2876:255 2877:255 2878:255 2879:255 2880:255 2881:255 2882:255 2883:255 2884:255 2885:255 2886:255 2887:255 2888:255 2889:255 2890:255 2891:255 2892:255 2893:255 2894:255 2895:255 2896:255 2897:255 2898:255 2899:255 2900:255 2901:255 2902:255 2903:255 2904:255 2905:255 2906:255 2907:255 2908:255 2909:255 2910:255 2911:255 2912:255 2913:255 2914:255 2915:255 2916:255 2917:255 2918:255 2919:255 2920:255 2921:255 2922:255 2923:255 2924:255 2925:255 2926:255 2927:255 2928:255 2929:255 2930:255 2931:255 2932:255 2933:255 2934:255 2935:255 2936:255 2937:255 2938:255 2939:255 2940:255 2941:255 2942:255 2943:255 2944:255 2945:255 2946:255 2947:255 2948:255 2949:255 2950:255 2951:255 2952:255 2953:255 2954:255 2955:255 2956:255 2957:255 2958:255 2959:255 2960:255 2961:255 2962:255 2963:255 2964:255 2965:255 2966:255 2967:255 2968:255 2969:255 2970:255 2971:255 2972:255 2973:255 2974:255 2975:255 2976:255 2977:255 2978:255 2979:255 2980:255 2981:255 2982:255 2983:255 2984:255 2985:255 2986:255 2987:255 2988:255 2989:255 2990:255 2991:255 2992:255 2993:255 2994:255 2995:255 2996:255 2997:255 2998:255 2999:255 3000:255 3001:255 3002:255 3003:255 3004:255 3005:255 3006:255 3007:255 3008:255 3009:255 3010:255 3011:255 3012:255 3013:255 3014:255 3015:255 3016:255 3017:255 3018:255 3019:255 3020:255 3021:255 3022:255 3023:255 3024:255 3025:255 3026:255 3027:255 3028:255 3029:255 3030:255 3031:255 3032:255 3033:255 3034:255 3035:255 3036:255 3037:255 3038:255 3039:255 3040:255 3041:255 3042:255 3043:255 3044:255 3045:255 3046:255 3047:255 3048:255 3049:255 3050:255 3051:255 3052:255 3053:255 3054:255 3055:255 3056:255 3057:255 3058:255 3059:255 3060:255 3061:255 3062:255 3063:255 3064:255 3065:255 3066:255 3067:255 3068:255 3069:255 3070:255 3071:255 3072:255 
1.361906056158037e-12 1:242 2:241 3:209 4:245 5:240 6:205 7:236 8:235 9:197 10:236 11:236 12:199 13:240 14:235 15:200 16:238 17:236 18:201 19:238 20:237 21:200 22:233 23:234 24:194 25:238 26:238 27:199 28:239 29:238 30:199 31:238 32:236 33:201 34:237 35:236 36:201 37:238 38:235 39:197 40:236 41:235 42:196 43:233 44:233 45:194 46:230 47:231 48:194 49:231 50:231 51:196 52:233 53:234 54:198 55:232 56:233 57:196 58:234 59:237 60:197 61:234 62:235 63:196 64:237 65:236 66:197 67:231 68:230 69:195 70:233 71:233 72:198 73:235 74:237 75:198 76:231 77:233 78:194 79:239 80:240 81:201 82:240 83:243 84:202 85:238 86:243 87:201 88:239 89:240 90:202 91:234 92:234 93:198 94:235 95:234 96:202 97:241 98:241 99:208 100:241 101:243 102:210 103:245 104:249 105:214 106:240 107:245 108:209 109:240 110:245 111:208 112:243 113:246 114:207 115:243 116:244 117:205 118:246 119:245 120:210 121:245 122:244 123:209 124:247 125:248 126:213 127:247 128:248 129:208 130:243 131:246 132:205 133:245 134:246 135:204 136:247 137:249 138:206 139:244 140:246 141:204 142:243 143:246 144:204 145:243 146:247 147:206 148:241 149:245 150:205 151:243 152:247 153:206 154:241 155:244 156:201 157:236 158:240 159:197 160:234 161:239 162:196 163:227 164:234 165:198 166:224 167:231 168:197 169:224 170:227 171:189 172:223 173:226 174:187 175:228 176:232 177:190 178:225 179:228 180:191 181:219 182:221 183:187 184:223 185:222 186:182 187:223 188:224 189:188 190:231 191:231 192:198 193:239 194:242 195:207 196:145 197:155 198:125 199:118 200:129 201:100 202:120 203:133 204:103 205:120 206:136 207:105 208:126 209:144 210:117 211:121 212:139 213:111 214:132 215:149 216:116 217:133 218:151 219:117 220:131 221:152 222:117 223:139 224:158 225:127 226:140 227:160 228:130 229:142 230:160 231:132 232:135 233:154 234:125 235:142 236:161 237:133 238:151 239:171 240:141 241:147 242:169 243:138 244:146 245:167 246:139 247:143 248:163 249:136 250:145 251:163 252:135 253:134 254:147 255:121 256:132 257:142 258:116 259:125 260:137 261:107 262:122 263:136 264:105 265:108 266:126 267:99 268:97 269:116 270:90 271:91 272:112 273:86 274:85 275:106 276:77 277:79 278:100 279:67 280:78 281:97 282:69 283:101 284:118 285:92 286:227 287:229 288:194 289:241 290:246 291:209 292:88 293:104 294:77 295:122 296:137 297:112 298:96 299:113 300:91 301:50 302:73 303:53 304:130 305:143 306:118 307:159 308:170 309:144 310:133 311:146 312:119 313:125 314:138 315:111 316:142 317:153 318:127 319:156 320:167 321:139 322:157 323:169 324:139 325:148 326:159 327:131 328:135 329:147 330:119 331:145 332:157 333:130 334:140 335:154 336:124 337:145 338:160 339:129 340:136 341:150 342:125 343:125 344:138 345:113 346:158 347:168 348:140 349:122 350:135 351:106 352:126 353:142 354:113 355:153 356:164 357:137 358:138 359:148 360:121 361:158 362:168 363:137 364:127 365:139 366:111 367:108 368:121 369:99 370:66 371:85 372:62 373:105 374:125 375:98 376:130 377:147 378:119 379:83 380:102 381:76 382:230 383:234 384:198 385:243 386:246 387:210 388:100 389:116 390:91 391:172 392:186 393:157 394:118 395:134 396:108 397:79 398:103 399:82 400:122 401:135 402:109 403:150 404:159 405:131 406:135 407:147 408:120 409:121 410:132 411:108 412:126 413:136 414:113 415:143 416:154 417:128 418:139 419:149 420:125 421:145 422:153 423:130 424:126 425:140 426:112 427:135 428:147 429:121 430:135 431:148 432:120 433:138 434:152 435:123 436:124 437:137 438:111 439:133 440:145 441:119 442:142 443:154 444:125 445:105 446:121 447:93 448:120 449:135 450:111 451:121 452:136 453:110 454:119 455:136 456:109 457:125 458:137 459:110 460:111 461:124 462:97 463:111 464:123 465:98 466:75 467:95 468:70 469:121 470:138 471:109 472:156 473:165 474:136 475:92 476:109 477:83 478:228 479:231 480:194 481:235 482:238 483:202 484:131 485:144 486:117 487:169 488:183 489:153 490:156 491:168 492:139 493:76 494:95 495:71 496:69 497:90 498:69 499:71 500:87 501:63 502:58 503:76 504:51 505:61 506:78 507:58 508:74 509:92 510:71 511:70 512:89 513:65 514:80 515:98 516:75 517:63 518:79 519:57 520:72 521:90 522:71 523:61 524:80 525:59 526:62 527:81 528:58 529:58 530:77 531:52 532:60 533:78 534:56 535:61 536:78 537:57 538:59 539:79 540:55 541:89 542:108 543:85 544:72 545:86 546:64 547:77 548:92 549:71 550:61 551:80 552:58 553:62 554:83 555:62 556:73 557:94 558:72 559:60 560:80 561:59 562:88 563:107 564:85 565:154 566:167 567:140 568:151 569:163 570:134 571:124 572:137 573:114 574:221 575:224 576:186 577:239 578:241 579:206 580:129 581:142 582:114 583:130 584:145 585:116 586:121 587:133 588:106 589:90 590:108 591:85 592:76 593:100 594:81 595:84 596:103 597:80 598:105 599:123 600:99 601:95 602:114 603:94 604:97 605:118 606:97 607:100 608:121 609:98 610:116 611:138 612:113 613:111 614:130 615:103 616:106 617:122 618:101 619:102 620:120 621:97 622:105 623:122 624:97 625:107 626:125 627:99 628:97 629:115 630:91 631:95 632:111 633:89 634:97 635:117 636:95 637:99 638:118 639:94 640:93 641:107 642:84 643:97 644:111 645:92 646:89 647:107 648:87 649:97 650:118 651:96 652:89 653:110 654:88 655:74 656:95 657:74 658:80 659:97 660:78 661:104 662:116 663:92 664:115 665:127 666:100 667:96 668:110 669:87 670:225 671:228 672:190 673:241 674:244 675:208 676:86 677:101 678:76 679:164 680:178 681:147 682:116 683:131 684:105 685:59 686:81 687:60 688:88 689:107 690:85 691:126 692:142 693:116 694:145 695:159 696:131 697:110 698:125 699:100 700:87 701:104 702:78 703:94 704:110 705:89 706:84 707:101 708:81 709:120 710:136 711:106 712:165 713:175 714:144 715:161 716:171 717:142 718:165 719:175 720:145 721:162 722:172 723:141 724:167 725:177 726:148 727:164 728:174 729:147 730:123 731:138 732:111 733:96 734:112 735:86 736:96 737:111 738:89 739:107 740:122 741:97 742:101 743:120 744:93 745:121 746:137 747:111 748:114 749:130 750:104 751:108 752:123 753:97 754:61 755:81 756:60 757:113 758:130 759:106 760:166 761:176 762:148 763:77 764:94 765:69 766:225 767:228 768:191 769:235 770:242 771:206 772:102 773:121 774:95 775:164 776:180 777:151 778:128 779:145 780:119 781:80 782:99 783:76 784:128 785:144 786:116 787:106 788:126 789:99 790:101 791:118 792:94 793:115 794:129 795:106 796:132 797:150 798:126 799:87 800:103 801:81 802:157 803:165 804:138 805:179 806:187 807:151 808:234 809:235 810:198 811:243 812:246 813:211 814:236 815:240 816:205 817:234 818:239 819:203 820:245 821:247 822:211 823:226 824:230 825:200 826:185 827:194 828:159 829:165 830:171 831:139 832:91 833:105 834:83 835:126 836:140 837:113 838:102 839:119 840:91 841:83 842:100 843:75 844:92 845:110 846:83 847:120 848:134 849:108 850:89 851:107 852:82 853:82 854:102 855:77 856:106 857:122 858:100 859:92 860:109 861:84 862:223 863:225 864:188 865:234 866:240 867:205 868:96 869:115 870:90 871:66 872:89 873:65 874:78 875:98 876:72 877:110 878:127 879:104 880:112 881:127 882:104 883:78 884:98 885:73 886:76 887:94 888:70 889:102 890:117 891:95 892:98 893:117 894:92 895:153 896:164 897:135 898:243 899:243 900:209 901:236 902:237 903:199 904:193 905:199 906:165 907:171 908:183 909:149 910:166 911:182 912:146 913:166 914:183 915:147 916:171 917:183 918:148 919:168 920:179 921:147 922:225 923:227 924:192 925:241 926:242 927:206 928:166 929:174 930:145 931:101 932:115 933:90 934:72 935:89 936:68 937:99 938:117 939:92 940:103 941:123 942:96 943:75 944:90 945:66 946:115 947:133 948:104 949:64 950:84 951:62 952:57 953:79 954:58 955:96 956:115 957:89 958:225 959:227 960:190 961:237 962:240 963:206 964:99 965:116 966:92 967:77 968:102 969:81 970:92 971:113 972:88 973:104 974:121 975:98 976:75 977:93 978:73 979:144 980:160 981:133 982:142 983:159 984:131 985:94 986:112 987:88 988:99 989:118 990:90 991:213 992:220 993:185 994:246 995:245 996:207 997:238 998:240 999:202 1000:213 1001:218 1002:185 1003:196 1004:198 1005:169 1006:198 1007:204 1008:173 1009:202 1010:207 1011:177 1012:197 1013:201 1014:173 1015:202 1016:205 1017:172 1018:231 1019:235 1020:196 1021:241 1022:244 1023:205 1024:208 1025:210 1026:176 1027:93 1028:109 1029:86 1030:72 1031:91 1032:72 1033:103 1034:121 1035:94 1036:108 1037:128 1038:102 1039:71 1040:88 1041:65 1042:106 1043:124 1044:96 1045:96 1046:115 1047:94 1048:73 1049:97 1050:75 1051:95 1052:116 1053:89 1054:223 1055:225 1056:188 1057:240 1058:241 1059:208 1060:97 1061:111 1062:88 1063:79 1064:98 1065:76 1066:93 1067:110 1068:85 1069:107 1070:125 1071:102 1072:80 1073:100 1074:76 1075:159 1076:174 1077:141 1078:157 1079:173 1080:142 1081:89 1082:109 1083:85 1084:120 1085:139 1086:110 1087:227 1088:234 1089:198 1090:232 1091:238 1092:201 1093:215 1094:227 1095:188 1096:236 1097:243 1098:204 1099:220 1100:232 1101:194 1102:229 1103:237 1104:201 1105:236 1106:239 1107:204 1108:212 1109:223 1110:189 1111:225 1112:235 1113:193 1114:220 1115:232 1116:188 1117:224 1118:232 1119:193 1120:217 1121:221 1122:188 1123:94 1124:114 1125:88 1126:90 1127:111 1128:87 1129:102 1130:121 1131:94 1132:105 1133:126 1134:101 1135:87 1136:107 1137:86 1138:91 1139:109 1140:87 1141:86 1142:106 1143:81 1144:76 1145:94 1146:73 1147:88 1148:104 1149:80 1150:222 1151:225 1152:187 1153:245 1154:248 1155:215 1156:102 1157:118 1158:93 1159:95 1160:112 1161:88 1162:104 1163:122 1164:99 1165:107 1166:126 1167:101 1168:99 1169:122 1170:97 1171:161 1172:179 1173:147 1174:157 1175:175 1176:140 1177:118 1178:140 1179:111 1180:114 1181:135 1182:107 1183:208 1184:217 1185:182 1186:174 1187:188 1188:152 1189:146 1190:160 1191:126 1192:158 1193:173 1194:136 1195:150 1196:169 1197:133 1198:129 1199:149 1200:121 1201:183 1202:196 1203:161 1204:157 1205:173 1206:136 1207:142 1208:162 1209:125 1210:159 1211:174 1212:137 1213:156 1214:169 1215:133 1216:187 1217:198 1218:165 1219:75 1220:93 1221:67 1222:80 1223:101 1224:77 1225:115 1226:138 1227:110 1228:123 1229:146 1230:119 1231:87 1232:106 1233:86 1234:79 1235:97 1236:73 1237:100 1238:118 1239:95 1240:79 1241:94 1242:74 1243:90 1244:107 1245:82 1246:224 1247:226 1248:192 1249:241 1250:246 1251:212 1252:110 1253:126 1254:101 1255:95 1256:114 1257:91 1258:98 1259:117 1260:94 1261:116 1262:135 1263:108 1264:131 1265:153 1266:125 1267:145 1268:164 1269:133 1270:152 1271:172 1272:136 1273:145 1274:167 1275:133 1276:144 1277:165 1278:132 1279:180 1280:189 1281:158 1282:139 1283:155 1284:124 1285:175 1286:188 1287:155 1288:137 1289:153 1290:123 1291:165 1292:181 1293:149 1294:126 1295:145 1296:117 1297:166 1298:180 1299:148 1300:188 1301:201 1302:164 1303:136 1304:156 1305:123 1306:174 1307:189 1308:155 1309:173 1310:185 1311:149 1312:161 1313:173 1314:139 1315:106 1316:124 1317:98 1318:66 1319:85 1320:63 1321:101 1322:119 1323:93 1324:104 1325:123 1326:97 1327:65 1328:83 1329:63 1330:90 1331:108 1332:83 1333:73 1334:90 1335:67 1336:88 1337:103 1338:83 1339:92 1340:109 1341:85 1342:220 1343:221 1344:188 1345:241 1346:245 1347:211 1348:107 1349:124 1350:98 1351:110 1352:129 1353:105 1354:79 1355:95 1356:74 1357:155 1358:171 1359:141 1360:170 1361:188 1362:157 1363:145 1364:164 1365:132 1366:164 1367:183 1368:150 1369:163 1370:183 1371:147 1372:180 1373:199 1374:161 1375:167 1376:177 1377:147 1378:134 1379:151 1380:125 1381:185 1382:198 1383:165 1384:131 1385:146 1386:119 1387:178 1388:191 1389:160 1390:142 1391:158 1392:125 1393:144 1394:160 1395:130 1396:202 1397:215 1398:178 1399:142 1400:162 1401:130 1402:155 1403:171 1404:138 1405:203 1406:213 1407:176 1408:158 1409:171 1410:138 1411:118 1412:137 1413:111 1414:65 1415:84 1416:61 1417:105 1418:121 1419:95 1420:98 1421:115 1422:89 1423:62 1424:81 1425:61 1426:105 1427:124 1428:99 1429:71 1430:88 1431:66 1432:106 1433:122 1434:101 1435:97 1436:114 1437:90 1438:221 1439:223 1440:189 1441:243 1442:248 1443:214 1444:122 1445:138 1446:113 1447:104 1448:123 1449:99 1450:98 1451:113 1452:93 1453:176 1454:191 1455:158 1456:170 1457:185 1458:150 1459:146 1460:165 1461:133 1462:159 1463:178 1464:146 1465:161 1466:181 1467:146 1468:185 1469:201 1470:167 1471:180 1472:192 1473:160 1474:127 1475:147 1476:116 1477:186 1478:199 1479:166 1480:129 1481:146 1482:117 1483:185 1484:196 1485:165 1486:157 1487:171 1488:139 1489:124 1490:141 1491:112 1492:197 1493:209 1494:172 1495:136 1496:156 1497:126 1498:138 1499:153 1500:122 1501:211 1502:219 1503:182 1504:158 1505:172 1506:139 1507:112 1508:132 1509:105 1510:74 1511:93 1512:70 1513:102 1514:125 1515:97 1516:94 1517:116 1518:88 1519:65 1520:84 1521:64 1522:111 1523:130 1524:105 1525:86 1526:103 1527:80 1528:82 1529:97 1530:77 1531:108 1532:125 1533:100 1534:226 1535:228 1536:194 1537:244 1538:249 1539:215 1540:109 1541:125 1542:100 1543:96 1544:109 1545:87 1546:84 1547:102 1548:80 1549:166 1550:182 1551:149 1552:139 1553:153 1554:120 1555:146 1556:163 1557:132 1558:151 1559:171 1560:136 1561:161 1562:181 1563:147 1564:161 1565:179 1566:148 1567:174 1568:189 1569:156 1570:131 1571:148 1572:117 1573:183 1574:197 1575:164 1576:136 1577:150 1578:122 1579:185 1580:195 1581:165 1582:192 1583:204 1584:169 1585:118 1586:136 1587:108 1588:184 1589:195 1590:160 1591:144 1592:162 1593:134 1594:162 1595:177 1596:144 1597:185 1598:196 1599:163 1600:177 1601:189 1602:155 1603:114 1604:134 1605:107 1606:68 1607:88 1608:64 1609:90 1610:110 1611:87 1612:88 1613:107 1614:83 1615:66 1616:85 1617:67 1618:94 1619:113 1620:92 1621:89 1622:104 1623:83 1624:118 1625:131 1626:109 1627:97 1628:113 1629:88 1630:223 1631:225 1632:190 1633:242 1634:247 1635:213 1636:115 1637:131 1638:106 1639:121 1640:135 1641:113 1642:105 1643:124 1644:100 1645:145 1646:161 1647:132 1648:113 1649:128 1650:101 1651:168 1652:185 1653:152 1654:165 1655:184 1656:151 1657:154 1658:175 1659:142 1660:135 1661:157 1662:125 1663:184 1664:198 1665:165 1666:142 1667:155 1668:124 1669:174 1670:188 1671:154 1672:141 1673:154 1674:126 1675:151 1676:162 1677:132 1678:191 1679:202 1680:166 1681:145 1682:160 1683:130 1684:177 1685:190 1686:156 1687:134 1688:149 1689:122 1690:159 1691:174 1692:140 1693:143 1694:156 1695:124 1696:154 1697:165 1698:131 1699:126 1700:146 1701:118 1702:92 1703:112 1704:87 1705:114 1706:129 1707:104 1708:110 1709:125 1710:99 1711:85 1712:105 1713:81 1714:101 1715:120 1716:98 1717:104 1718:118 1719:97 1720:115 1721:129 1722:106 1723:97 1724:113 1725:88 1726:224 1727:227 1728:191 1729:242 1730:246 1731:212 1732:107 1733:124 1734:98 1735:97 1736:114 1737:90 1738:105 1739:122 1740:98 1741:101 1742:119 1743:93 1744:103 1745:121 1746:97 1747:152 1748:170 1749:138 1750:138 1751:156 1752:129 1753:115 1754:134 1755:107 1756:112 1757:133 1758:105 1759:205 1760:215 1761:180 1762:178 1763:188 1764:153 1765:164 1766:176 1767:141 1768:174 1769:186 1770:154 1771:143 1772:154 1773:124 1774:182 1775:194 1776:160 1777:186 1778:198 1779:163 1780:170 1781:183 1782:150 1783:145 1784:159 1785:129 1786:168 1787:181 1788:149 1789:155 1790:170 1791:137 1792:175 1793:186 1794:152 1795:105 1796:124 1797:97 1798:97 1799:117 1800:92 1801:148 1802:163 1803:135 1804:130 1805:146 1806:117 1807:89 1808:110 1809:83 1810:107 1811:124 1812:100 1813:88 1814:105 1815:81 1816:87 1817:104 1818:80 1819:97 1820:115 1821:89 1822:223 1823:225 1824:190 1825:243 1826:247 1827:213 1828:94 1829:112 1830:86 1831:74 1832:93 1833:69 1834:100 1835:116 1836:91 1837:106 1838:124 1839:100 1840:85 1841:106 1842:80 1843:77 1844:97 1845:70 1846:77 1847:94 1848:72 1849:80 1850:98 1851:73 1852:107 1853:128 1854:101 1855:219 1856:227 1857:190 1858:217 1859:223 1860:185 1861:188 1862:197 1863:162 1864:188 1865:199 1866:165 1867:184 1868:196 1869:166 1870:180 1871:193 1872:161 1873:211 1874:220 1875:183 1876:170 1877:186 1878:155 1879:165 1880:178 1881:146 1882:172 1883:186 1884:155 1885:167 1886:184 1887:149 1888:188 1889:197 1890:164 1891:120 1892:137 1893:110 1894:93 1895:114 1896:89 1897:88 1898:111 1899:85 1900:85 1901:104 1902:80 1903:89 1904:109 1905:89 1906:120 1907:135 1908:111 1909:101 1910:120 1911:92 1912:79 1913:99 1914:73 1915:98 1916:118 1917:91 1918:225 1919:227 1920:192 1921:238 1922:243 1923:208 1924:102 1925:118 1926:95 1927:67 1928:88 1929:69 1930:103 1931:122 1932:99 1933:108 1934:125 1935:104 1936:110 1937:131 1938:103 1939:113 1940:135 1941:107 1942:113 1943:133 1944:107 1945:105 1946:126 1947:101 1948:117 1949:139 1950:111 1951:234 1952:240 1953:202 1954:242 1955:245 1956:206 1957:188 1958:193 1959:161 1960:205 1961:209 1962:178 1963:216 1964:223 1965:191 1966:198 1967:207 1968:174 1969:215 1970:220 1971:187 1972:197 1973:204 1974:170 1975:193 1976:200 1977:165 1978:191 1979:198 1980:163 1981:190 1982:198 1983:163 1984:213 1985:220 1986:188 1987:122 1988:143 1989:114 1990:74 1991:97 1992:75 1993:109 1994:133 1995:107 1996:111 1997:134 1998:106 1999:91 2000:112 2001:90 2002:111 2003:129 2004:103 2005:98 2006:120 2007:94 2008:79 2009:101 2010:78 2011:98 2012:115 2013:91 2014:227 2015:226 2016:192 2017:238 2018:244 2019:208 2020:103 2021:117 2022:96 2023:67 2024:85 2025:67 2026:82 2027:102 2028:79 2029:116 2030:133 2031:112 2032:98 2033:114 2034:88 2035:120 2036:139 2037:111 2038:123 2039:144 2040:116 2041:89 2042:107 2043:82 2044:101 2045:117 2046:92 2047:178 2048:189 2049:156 2050:235 2051:244 2052:208 2053:246 2054:253 2055:212 2056:229 2057:236 2058:196 2059:228 2060:230 2061:197 2062:234 2063:237 2064:202 2065:227 2066:231 2067:196 2068:231 2069:236 2070:198 2071:232 2072:241 2073:203 2074:236 2075:246 2076:210 2077:231 2078:241 2079:206 2080:164 2081:178 2082:145 2083:112 2084:130 2085:102 2086:78 2087:96 2088:74 2089:108 2090:124 2091:103 2092:96 2093:112 2094:87 2095:87 2096:103 2097:79 2098:119 2099:138 2100:112 2101:74 2102:94 2103:71 2104:68 2105:86 2106:65 2107:92 2108:106 2109:84 2110:227 2111:226 2112:193 2113:247 2114:251 2115:217 2116:95 2117:110 2118:87 2119:106 2120:119 2121:96 2122:98 2123:115 2124:91 2125:101 2126:119 2127:97 2128:119 2129:133 2130:110 2131:78 2132:93 2133:68 2134:75 2135:93 2136:67 2137:113 2138:127 2139:101 2140:103 2141:116 2142:92 2143:112 2144:130 2145:103 2146:116 2147:134 2148:105 2149:153 2150:166 2151:135 2152:173 2153:186 2154:153 2155:210 2156:218 2157:182 2158:234 2159:238 2160:204 2161:232 2162:238 2163:202 2164:220 2165:231 2166:193 2167:174 2168:191 2169:153 2170:145 2171:164 2172:132 2173:127 2174:146 2175:114 2176:99 2177:122 2178:91 2179:108 2180:123 2181:98 2182:118 2183:131 2184:107 2185:74 2186:86 2187:69 2188:82 2189:95 2190:76 2191:118 2192:132 2193:109 2194:90 2195:108 2196:85 2197:101 2198:117 2199:92 2200:129 2201:141 2202:117 2203:85 2204:99 2205:78 2206:230 2207:229 2208:196 2209:246 2210:250 2211:215 2212:93 2213:111 2214:87 2215:186 2216:194 2217:166 2218:110 2219:125 2220:101 2221:74 2222:93 2223:71 2224:108 2225:127 2226:102 2227:113 2228:132 2229:107 2230:121 2231:136 2232:111 2233:139 2234:151 2235:125 2236:104 2237:123 2238:97 2239:95 2240:115 2241:89 2242:136 2243:155 2244:128 2245:103 2246:121 2247:100 2248:128 2249:144 2250:120 2251:140 2252:157 2253:128 2254:154 2255:170 2256:137 2257:154 2258:167 2259:134 2260:140 2261:157 2262:125 2263:120 2264:141 2265:110 2266:98 2267:118 2268:91 2269:130 2270:148 2271:121 2272:90 2273:110 2274:85 2275:95 2276:112 2277:88 2278:127 2279:144 2280:113 2281:105 2282:125 2283:98 2284:97 2285:116 2286:94 2287:93 2288:112 2289:87 2290:62 2291:81 2292:60 2293:130 2294:141 2295:115 2296:165 2297:171 2298:145 2299:90 2300:102 2301:82 2302:229 2303:228 2304:194 2305:239 2306:244 2307:208 2308:129 2309:142 2310:118 2311:167 2312:174 2313:149 2314:138 2315:151 2316:127 2317:75 2318:93 2319:70 2320:92 2321:112 2322:89 2323:94 2324:115 2325:91 2326:119 2327:138 2328:112 2329:102 2330:120 2331:92 2332:81 2333:100 2334:74 2335:119 2336:140 2337:113 2338:112 2339:133 2340:105 2341:104 2342:123 2343:98 2344:110 2345:130 2346:104 2347:108 2348:133 2349:105 2350:121 2351:140 2352:113 2353:130 2354:143 2355:117 2356:114 2357:132 2358:107 2359:109 2360:128 2361:102 2362:117 2363:135 2364:111 2365:112 2366:131 2367:106 2368:118 2369:136 2370:111 2371:85 2372:103 2373:78 2374:86 2375:104 2376:78 2377:101 2378:121 2379:95 2380:82 2381:102 2382:76 2383:64 2384:86 2385:63 2386:94 2387:113 2388:90 2389:159 2390:170 2391:144 2392:153 2393:164 2394:138 2395:118 2396:130 2397:105 2398:219 2399:219 2400:186 2401:236 2402:242 2403:204 2404:138 2405:149 2406:125 2407:125 2408:134 2409:111 2410:121 2411:137 2412:112 2413:69 2414:91 2415:67 2416:72 2417:91 2418:69 2419:81 2420:100 2421:77 2422:76 2423:94 2424:67 2425:64 2426:82 2427:56 2428:88 2429:106 2430:81 2431:91 2432:109 2433:83 2434:87 2435:104 2436:79 2437:88 2438:106 2439:82 2440:83 2441:102 2442:78 2443:91 2444:110 2445:84 2446:95 2447:117 2448:90 2449:87 2450:111 2451:83 2452:78 2453:97 2454:72 2455:92 2456:109 2457:86 2458:86 2459:104 2460:81 2461:64 2462:85 2463:59 2464:82 2465:100 2466:74 2467:73 2468:90 2469:67 2470:53 2471:71 2472:49 2473:58 2474:76 2475:53 2476:79 2477:97 2478:72 2479:62 2480:81 2481:60 2482:75 2483:93 2484:70 2485:114 2486:127 2487:101 2488:110 2489:123 2490:95 2491:103 2492:118 2493:92 2494:219 2495:221 2496:187 2497:245 2498:247 2499:211 2500:94 2501:109 2502:83 2503:149 2504:161 2505:136 2506:101 2507:120 2508:95 2509:60 2510:85 2511:62 2512:75 2513:95 2514:74 2515:99 2516:116 2517:94 2518:128 2519:141 2520:116 2521:126 2522:142 2523:116 2524:131 2525:150 2526:123 2527:115 2528:129 2529:105 2530:128 2531:141 2532:117 2533:91 2534:109 2535:85 2536:113 2537:129 2538:105 2539:127 2540:139 2541:115 2542:111 2543:125 2544:100 2545:103 2546:120 2547:94 2548:108 2549:126 2550:101 2551:97 2552:114 2553:93 2554:105 2555:122 2556:100 2557:105 2558:124 2559:96 2560:99 2561:116 2562:91 2563:105 2564:122 2565:98 2566:108 2567:126 2568:101 2569:119 2570:137 2571:113 2572:93 2573:111 2574:88 2575:72 2576:91 2577:69 2578:63 2579:82 2580:61 2581:108 2582:123 2583:97 2584:153 2585:164 2586:137 2587:89 2588:107 2589:85 2590:230 2591:232 2592:198 2593:249 2594:249 2595:213 2596:100 2597:118 2598:92 2599:154 2600:170 2601:144 2602:105 2603:121 2604:99 2605:74 2606:93 2607:75 2608:72 2609:91 2610:71 2611:99 2612:118 2613:95 2614:131 2615:150 2616:124 2617:112 2618:131 2619:105 2620:117 2621:135 2622:109 2623:113 2624:132 2625:105 2626:118 2627:138 2628:112 2629:96 2630:114 2631:91 2632:104 2633:122 2634:97 2635:114 2636:130 2637:104 2638:120 2639:135 2640:110 2641:111 2642:126 2643:101 2644:102 2645:119 2646:96 2647:97 2648:116 2649:92 2650:105 2651:123 2652:100 2653:108 2654:126 2655:103 2656:102 2657:117 2658:92 2659:112 2660:128 2661:106 2662:113 2663:132 2664:108 2665:114 2666:133 2667:109 2668:70 2669:88 2670:68 2671:64 2672:84 2673:62 2674:57 2675:79 2676:58 2677:93 2678:113 2679:89 2680:105 2681:122 2682:98 2683:86 2684:103 2685:80 2686:227 2687:229 2688:196 2689:245 2690:246 2691:212 2692:113 2693:122 2694:98 2695:61 2696:74 2697:49 2698:75 2699:86 2700:62 2701:71 2702:82 2703:62 2704:79 2705:93 2706:69 2707:72 2708:87 2709:62 2710:73 2711:90 2712:62 2713:75 2714:90 2715:64 2716:77 2717:90 2718:65 2719:81 2720:94 2721:68 2722:80 2723:94 2724:68 2725:84 2726:95 2727:71 2728:87 2729:99 2730:74 2731:91 2732:104 2733:77 2734:91 2735:104 2736:78 2737:91 2738:104 2739:79 2740:97 2741:109 2742:84 2743:109 2744:121 2745:95 2746:102 2747:111 2748:87 2749:100 2750:108 2751:86 2752:108 2753:116 2754:92 2755:109 2756:118 2757:95 2758:104 2759:114 2760:90 2761:104 2762:114 2763:90 2764:110 2765:120 2766:97 2767:116 2768:126 2769:103 2770:103 2771:113 2772:91 2773:104 2774:114 2775:91 2776:95 2777:103 2778:80 2779:138 2780:144 2781:118 2782:230 2783:231 2784:195 2785:248 2786:250 2787:221 2788:229 2789:231 2790:202 2791:226 2792:229 2793:201 2794:221 2795:225 2796:194 2797:209 2798:212 2799:184 2800:204 2801:208 2802:178 2803:206 2804:211 2805:180 2806:202 2807:209 2808:176 2809:202 2810:207 2811:177 2812:202 2813:206 2814:177 2815:196 2816:198 2817:169 2818:199 2819:201 2820:170 2821:201 2822:203 2823:173 2824:203 2825:206 2826:176 2827:204 2828:208 2829:177 2830:209 2831:212 2832:181 2833:208 2834:212 2835:181 2836:211 2837:215 2838:183 2839:221 2840:225 2841:193 2842:220 2843:222 2844:192 2845:215 2846:217 2847:186 2848:223 2849:225 2850:195 2851:223 2852:227 2853:195 2854:223 2855:227 2856:196 2857:226 2858:230 2859:198 2860:224 2861:228 2862:197 2863:222 2864:226 2865:194 2866:226 2867:229 2868:198 2869:229 2870:231 2871:200 2872:240 2873:241 2874:208 2875:235 2876:234 2877:201 2878:234 2879:235 2880:197 2881:251 2882:254 2883:228 2884:251 2885:254 2886:218 2887:250 2888:250 2889:215 2890:247 2891:247 2892:210 2893:243 2894:243 2895:209 2896:246 2897:243 2898:208 2899:250 2900:247 2901:211 2902:247 2903:247 2904:210 2905:246 2906:245 2907:209 2908:241 2909:241 2910:206 2911:246 2912:244 2913:208 2914:246 2915:243 2916:207 2917:245 2918:242 2919:206 2920:245 2921:243 2922:206 2923:241 2924:241 2925:204 2926:234 2927:237 2928:199 2929:237 2930:242 2931:203 2932:239 2933:239 2934:202 2935:243 2936:244 2937:206 2938:238 2939:239 2940:202 2941:235 2942:237 2943:199 2944:235 2945:236 2946:198 2947:229 2948:233 2949:195 2950:226 2951:231 2952:193 2953:230 2954:234 2955:196 2956:226 2957:231 2958:192 2959:224 2960:229 2961:190 2962:226 2963:228 2964:190 2965:228 2966:229 2967:191 2968:228 2969:231 2970:191 2971:233 2972:234 2973:195 2974:234 2975:236 2976:197 2977:252 2978:255 2979:229 2980:251 2981:254 2982:219 2983:249 2984:249 2985:212 2986:245 2987:247 2988:208 2989:239 2990:240 2991:204 2992:241 2993:238 2994:201 2995:241 2996:238 2997:200 2998:240 2999:239 3000:201 3001:241 3002:240 3003:203 3004:239 3005:240 3006:203 3007:246 3008:245 3009:207 3010:248 3011:247 3012:208 3013:247 3014:246 3015:208 3016:241 3017:241 3018:203 3019:240 3020:241 3021:202 3022:239 3023:240 3024:202 3025:239 3026:241 3027:202 3028:244 3029:245 3030:207 3031:247 3032:247 3033:209 3034:242 3035:241 3036:203 3037:240 3038:239 3039:201 3040:240 3041:239 3042:201 3043:237 3044:238 3045:199 3046:235 3047:237 3048:198 3049:236 3050:238 3051:199 3052:238 3053:240 3054:201 3055:234 3056:236 3057:197 3058:233 3059:233 3060:195 3061:236 3062:235 3063:197 3064:231 3065:234 3066:197 3067:235 3068:235 3069:197 3070:233 3071:234 3072:194 
2.074398993925806e-12 1:162 2:161 3:166 4:181 5:180 6:185 7:189 8:188 9:193 10:186 11:185 12:190 13:187 14:186 15:191 16:189 17:189 18:191 19:185 20:185 21:187 22:180 23:180 24:182 25:187 26:187 27:189 28:193 29:193 30:195 31:193 32:193 33:195 34:193 35:193 36:195 37:188 38:188 39:190 40:184 41:184 42:186 43:182 44:182 45:184 46:187 47:186 48:187 49:188 50:185 51:186 52:185 53:185 54:187 55:187 56:187 57:189 58:185 59:185 60:185 61:186 62:186 63:186 64:186 65:186 66:186 67:183 68:183 69:183 70:179 71:178 72:179 73:183 74:182 75:187 76:183 77:182 78:187 79:186 80:188 81:192 82:186 83:186 84:191 85:177 86:175 87:181 88:193 89:192 90:197 91:202 92:201 93:206 94:181 95:180 96:185 97:165 98:164 99:169 100:175 101:174 102:179 103:188 104:187 105:192 106:183 107:182 108:187 109:186 110:185 111:190 112:187 113:187 114:189 115:187 116:187 117:189 118:183 119:184 120:185 121:183 122:183 123:185 124:189 125:189 126:191 127:192 128:192 129:194 130:194 131:194 132:196 133:194 134:194 135:196 136:189 137:189 138:191 139:181 140:181 141:184 142:186 143:186 144:186 145:189 146:189 147:189 148:189 149:189 150:191 151:189 152:189 153:190 154:192 155:192 156:192 157:188 158:188 159:188 160:185 161:185 162:185 163:182 164:182 165:182 166:181 167:181 168:181 169:185 170:185 171:187 172:182 173:183 174:185 175:179 176:180 177:182 178:188 179:188 180:191 181:177 182:176 183:179 184:187 185:186 186:191 187:202 188:201 189:206 190:179 191:178 192:183 193:179 194:178 195:183 196:168 197:167 198:172 199:186 200:185 201:190 202:179 203:178 204:183 205:184 206:183 207:188 208:184 209:184 210:186 211:182 212:182 213:184 214:185 215:184 216:187 217:186 218:186 219:188 220:187 221:187 222:190 223:190 224:190 225:192 226:192 227:192 228:194 229:192 230:191 231:193 232:195 233:195 234:197 235:190 236:190 237:192 238:185 239:186 240:186 241:190 242:192 243:191 244:192 245:192 246:194 247:192 248:192 249:194 250:195 251:194 252:194 253:195 254:195 255:195 256:192 257:191 258:191 259:188 260:188 261:188 262:191 263:190 264:191 265:191 266:191 267:191 268:189 269:189 270:188 271:184 272:186 273:185 274:188 275:188 276:187 277:180 278:180 279:180 280:183 281:182 282:187 283:202 284:201 285:206 286:178 287:176 288:181 289:185 290:184 291:189 292:175 293:174 294:178 295:176 296:176 297:178 298:177 299:177 300:179 301:182 302:182 303:184 304:180 305:179 306:184 307:178 308:177 309:182 310:181 311:180 312:183 313:183 314:183 315:186 316:187 317:188 318:191 319:179 320:180 321:183 322:157 323:158 324:160 325:151 326:152 327:152 328:157 329:158 330:158 331:160 332:161 333:161 334:159 335:161 336:160 337:161 338:163 339:161 340:162 341:163 342:163 343:163 344:164 345:164 346:165 347:166 348:166 349:169 350:170 351:169 352:169 353:170 354:168 355:169 356:171 357:169 358:173 359:175 360:173 361:176 362:178 363:176 364:178 365:179 366:177 367:179 368:179 369:177 370:181 371:182 372:181 373:175 374:180 375:179 376:169 377:174 378:176 379:188 380:189 381:192 382:170 383:173 384:175 385:189 386:188 387:193 388:185 389:184 390:188 391:167 392:168 393:169 394:177 395:177 396:179 397:181 398:181 399:183 400:179 401:179 402:182 403:175 404:175 405:178 406:179 407:179 408:179 409:185 410:185 411:185 412:176 413:177 414:177 415:143 416:145 417:145 418:137 419:140 420:139 421:137 422:145 423:141 424:137 425:146 426:142 427:138 428:146 429:142 430:138 431:147 432:140 433:141 434:150 435:143 436:143 437:152 438:147 439:141 440:149 441:145 442:143 443:151 444:147 445:143 446:152 447:146 448:142 449:151 450:143 451:142 452:151 453:144 454:142 455:152 456:144 457:146 458:155 459:148 460:145 461:154 462:147 463:145 464:154 465:147 466:148 467:157 468:152 469:142 470:156 471:150 472:139 473:152 474:148 475:141 476:152 477:149 478:140 479:152 480:150 481:191 482:190 483:195 484:186 485:185 486:189 487:174 488:174 489:175 490:179 491:179 492:181 493:182 494:182 495:184 496:183 497:184 498:184 499:179 500:179 501:178 502:183 503:183 504:180 505:165 506:166 507:163 508:143 509:145 510:142 511:140 512:142 513:139 514:142 515:145 516:141 517:142 518:147 519:141 520:145 521:150 522:144 523:144 524:149 525:144 526:146 527:151 528:143 529:147 530:152 531:144 532:149 533:154 534:148 535:148 536:153 537:147 538:150 539:155 540:150 541:149 542:154 543:146 544:146 545:151 546:142 547:147 548:152 549:143 550:147 551:153 552:144 553:150 554:155 555:146 556:148 557:155 558:145 559:147 560:157 561:146 562:146 563:156 564:147 565:139 566:153 567:144 568:140 569:151 570:144 571:136 572:150 573:144 574:140 575:152 576:150 577:194 578:193 579:198 580:182 581:181 582:185 583:177 584:177 585:179 586:179 587:179 588:181 589:186 590:186 591:187 592:181 593:181 594:182 595:171 596:171 597:168 598:157 599:158 600:154 601:143 602:144 603:140 604:150 605:150 606:145 607:152 608:152 609:148 610:150 611:151 612:146 613:152 614:153 615:147 616:157 617:157 618:152 619:156 620:158 621:150 622:163 623:161 624:153 625:163 626:160 627:151 628:163 629:162 630:157 631:160 632:160 633:155 634:162 635:163 636:155 637:162 638:163 639:154 640:161 641:162 642:153 643:162 644:162 645:154 646:159 647:161 648:152 649:159 650:162 651:153 652:158 653:161 654:152 655:158 656:161 657:151 658:155 659:160 660:150 661:154 662:160 663:151 664:146 665:150 666:141 667:142 668:153 669:146 670:141 671:149 672:149 673:195 674:194 675:199 676:180 677:180 678:184 679:175 680:175 681:177 682:180 683:180 684:180 685:180 686:180 687:180 688:175 689:175 690:174 691:159 692:161 693:154 694:136 695:139 696:131 697:155 698:157 699:148 700:162 701:161 702:152 703:162 704:163 705:153 706:166 707:168 708:156 709:165 710:166 711:156 712:166 713:167 714:159 715:166 716:169 717:158 718:169 719:170 720:158 721:173 722:172 723:160 724:173 725:173 726:160 727:174 728:176 729:162 730:173 731:176 732:160 733:171 734:174 735:158 736:172 737:174 738:159 739:172 740:175 741:159 742:172 743:174 744:159 745:175 746:175 747:161 748:175 749:173 750:160 751:175 752:172 753:159 754:172 755:171 756:156 757:183 758:182 759:167 760:170 761:167 762:159 763:140 764:146 765:140 766:138 767:147 768:144 769:195 770:194 771:199 772:187 773:186 774:190 775:177 776:177 777:179 778:178 779:178 780:179 781:168 782:168 783:168 784:172 785:173 786:169 787:157 788:159 789:149 790:145 791:149 792:135 793:149 794:152 795:137 796:153 797:153 798:139 799:155 800:158 801:139 802:155 803:159 804:138 805:155 806:158 807:140 808:151 809:153 810:139 811:153 812:154 813:141 814:155 815:157 816:142 817:155 818:158 819:140 820:156 821:157 822:138 823:162 824:163 825:146 826:155 827:157 828:144 829:153 830:155 831:142 832:152 833:154 834:140 835:154 836:156 837:143 838:156 839:158 840:145 841:157 842:158 843:145 844:154 845:154 846:142 847:158 848:157 849:144 850:155 851:156 852:140 853:168 854:169 855:153 856:173 857:173 858:164 859:141 860:149 861:142 862:140 863:150 864:144 865:192 866:191 867:196 868:195 869:195 870:199 871:183 872:183 873:185 874:176 875:176 876:177 877:172 878:172 879:172 880:169 881:170 882:166 883:128 884:132 885:122 886:120 887:124 888:113 889:129 890:130 891:117 892:131 893:131 894:117 895:133 896:134 897:115 898:137 899:139 900:117 901:126 902:130 903:112 904:124 905:127 906:114 907:121 908:126 909:113 910:120 911:123 912:111 913:119 914:122 915:109 916:116 917:118 918:106 919:115 920:117 921:106 922:115 923:119 924:110 925:118 926:121 927:113 928:117 929:122 930:114 931:130 932:135 933:127 934:129 935:134 936:125 937:120 938:127 939:117 940:120 941:125 942:118 943:111 944:115 945:108 946:101 947:106 948:95 949:120 950:124 951:111 952:154 953:158 954:150 955:141 956:151 957:142 958:143 959:153 960:144 961:188 962:187 963:193 964:195 965:194 966:198 967:190 968:190 969:192 970:175 971:175 972:176 973:180 974:180 975:180 976:173 977:174 978:172 979:99 980:104 981:95 982:87 983:91 984:84 985:79 986:81 987:71 988:94 989:94 990:82 991:100 992:100 993:88 994:98 995:99 996:86 997:94 998:97 999:87 1000:77 1001:80 1002:75 1003:76 1004:81 1005:75 1006:87 1007:91 1008:83 1009:90 1010:93 1011:84 1012:97 1013:100 1014:91 1015:97 1016:101 1017:92 1018:97 1019:103 1020:93 1021:93 1022:98 1023:88 1024:93 1025:100 1026:90 1027:114 1028:122 1029:114 1030:120 1031:128 1032:119 1033:112 1034:120 1035:109 1036:116 1037:123 1038:116 1039:94 1040:100 1041:94 1042:108 1043:112 1044:103 1045:117 1046:120 1047:110 1048:143 1049:147 1050:140 1051:140 1052:149 1053:140 1054:143 1055:153 1056:144 1057:186 1058:185 1059:190 1060:191 1061:191 1062:195 1063:192 1064:192 1065:194 1066:176 1067:176 1068:177 1069:191 1070:191 1071:191 1072:174 1073:174 1074:172 1075:105 1076:110 1077:102 1078:109 1079:112 1080:106 1081:89 1082:92 1083:83 1084:94 1085:98 1086:83 1087:99 1088:102 1089:91 1090:97 1091:100 1092:90 1093:92 1094:95 1095:86 1096:93 1097:96 1098:90 1099:108 1100:114 1101:108 1102:128 1103:132 1104:124 1105:134 1106:137 1107:128 1108:131 1109:133 1110:125 1111:143 1112:147 1113:137 1114:136 1115:143 1116:133 1117:130 1118:134 1119:124 1120:117 1121:124 1122:110 1123:122 1124:130 1125:121 1126:131 1127:137 1128:129 1129:125 1130:133 1131:121 1132:129 1133:137 1134:130 1135:113 1136:123 1137:115 1138:112 1139:116 1140:110 1141:122 1142:124 1143:118 1144:143 1145:147 1146:140 1147:140 1148:150 1149:140 1150:143 1151:153 1152:144 1153:188 1154:187 1155:193 1156:185 1157:185 1158:189 1159:190 1160:190 1161:192 1162:179 1163:179 1164:180 1165:195 1166:195 1167:195 1168:174 1169:175 1170:172 1171:100 1172:105 1173:96 1174:94 1175:99 1176:90 1177:100 1178:105 1179:92 1180:131 1181:136 1182:120 1183:123 1184:129 1185:112 1186:121 1187:126 1188:108 1189:118 1190:122 1191:106 1192:124 1193:128 1194:116 1195:135 1196:141 1197:127 1198:142 1199:146 1200:136 1201:118 1202:121 1203:112 1204:95 1205:99 1206:89 1207:121 1208:125 1209:116 1210:145 1211:151 1212:140 1213:144 1214:149 1215:135 1216:139 1217:151 1218:135 1219:144 1220:157 1221:146 1222:179 1223:188 1224:180 1225:190 1226:194 1227:187 1228:165 1229:172 1230:165 1231:123 1232:135 1233:126 1234:115 1235:122 1236:115 1237:121 1238:123 1239:117 1240:140 1241:144 1242:136 1243:141 1244:150 1245:140 1246:142 1247:153 1248:143 1249:187 1250:186 1251:191 1252:183 1253:183 1254:187 1255:187 1256:187 1257:189 1258:186 1259:186 1260:186 1261:195 1262:195 1263:195 1264:175 1265:175 1266:173 1267:105 1268:110 1269:102 1270:92 1271:99 1272:89 1273:95 1274:100 1275:85 1276:137 1277:141 1278:124 1279:127 1280:132 1281:113 1282:129 1283:134 1284:114 1285:128 1286:131 1287:116 1288:126 1289:131 1290:117 1291:135 1292:142 1293:126 1294:131 1295:136 1296:126 1297:101 1298:104 1299:95 1300:125 1301:131 1302:118 1303:98 1304:104 1305:95 1306:136 1307:142 1308:129 1309:146 1310:152 1311:136 1312:130 1313:146 1314:130 1315:132 1316:153 1317:139 1318:217 1319:224 1320:220 1321:255 1322:254 1323:254 1324:198 1325:200 1326:195 1327:129 1328:140 1329:132 1330:99 1331:109 1332:100 1333:112 1334:116 1335:108 1336:142 1337:148 1338:138 1339:144 1340:152 1341:141 1342:139 1343:154 1344:141 1345:186 1346:184 1347:190 1348:188 1349:187 1350:191 1351:189 1352:189 1353:191 1354:192 1355:192 1356:193 1357:191 1358:191 1359:191 1360:174 1361:175 1362:172 1363:93 1364:98 1365:90 1366:77 1367:83 1368:73 1369:117 1370:122 1371:106 1372:145 1373:148 1374:131 1375:145 1376:149 1377:133 1378:105 1379:109 1380:93 1381:120 1382:124 1383:108 1384:139 1385:143 1386:129 1387:137 1388:143 1389:127 1390:104 1391:111 1392:100 1393:105 1394:113 1395:101 1396:139 1397:145 1398:132 1399:111 1400:116 1401:108 1402:108 1403:113 1404:105 1405:150 1406:156 1407:141 1408:139 1409:151 1410:136 1411:143 1412:157 1413:145 1414:220 1415:225 1416:221 1417:254 1418:254 1419:254 1420:233 1421:233 1422:230 1423:151 1424:159 1425:152 1426:114 1427:124 1428:116 1429:115 1430:120 1431:112 1432:145 1433:150 1434:140 1435:144 1436:152 1437:141 1438:138 1439:152 1440:140 1441:184 1442:183 1443:188 1444:187 1445:187 1446:191 1447:190 1448:190 1449:192 1450:193 1451:193 1452:194 1453:185 1454:185 1455:185 1456:173 1457:173 1458:172 1459:102 1460:108 1461:100 1462:95 1463:102 1464:91 1465:140 1466:145 1467:130 1468:134 1469:139 1470:122 1471:127 1472:133 1473:118 1474:101 1475:105 1476:91 1477:104 1478:108 1479:94 1480:134 1481:139 1482:125 1483:132 1484:139 1485:122 1486:82 1487:90 1488:80 1489:94 1490:103 1491:94 1492:126 1493:133 1494:121 1495:118 1496:123 1497:115 1498:98 1499:103 1500:97 1501:145 1502:152 1503:139 1504:138 1505:147 1506:132 1507:139 1508:145 1509:136 1510:206 1511:216 1512:211 1513:255 1514:255 1515:255 1516:248 1517:245 1518:245 1519:172 1520:178 1521:171 1522:140 1523:148 1524:139 1525:128 1526:133 1527:124 1528:146 1529:152 1530:142 1531:144 1532:153 1533:141 1534:139 1535:153 1536:140 1537:178 1538:177 1539:182 1540:185 1541:185 1542:189 1543:191 1544:191 1545:193 1546:194 1547:194 1548:195 1549:184 1550:184 1551:184 1552:170 1553:170 1554:170 1555:107 1556:113 1557:107 1558:119 1559:130 1560:115 1561:143 1562:148 1563:132 1564:139 1565:147 1566:131 1567:114 1568:125 1569:109 1570:98 1571:102 1572:88 1573:104 1574:107 1575:98 1576:131 1577:134 1578:122 1579:128 1580:136 1581:118 1582:81 1583:89 1584:81 1585:98 1586:105 1587:98 1588:119 1589:127 1590:117 1591:118 1592:122 1593:112 1594:96 1595:102 1596:98 1597:138 1598:146 1599:135 1600:140 1601:148 1602:132 1603:126 1604:147 1605:132 1606:130 1607:159 1608:147 1609:200 1610:210 1611:210 1612:216 1613:221 1614:217 1615:171 1616:177 1617:168 1618:155 1619:161 1620:150 1621:132 1622:139 1623:128 1624:143 1625:149 1626:139 1627:147 1628:154 1629:143 1630:140 1631:152 1632:141 1633:179 1634:178 1635:183 1636:189 1637:188 1638:192 1639:188 1640:188 1641:190 1642:192 1643:192 1644:193 1645:188 1646:188 1647:188 1648:167 1649:168 1650:167 1651:101 1652:107 1653:101 1654:120 1655:126 1656:113 1657:145 1658:148 1659:134 1660:139 1661:147 1662:131 1663:119 1664:129 1665:113 1666:87 1667:91 1668:77 1669:101 1670:105 1671:91 1672:139 1673:143 1674:129 1675:128 1676:135 1677:120 1678:81 1679:90 1680:82 1681:81 1682:88 1683:81 1684:116 1685:124 1686:114 1687:117 1688:122 1689:112 1690:90 1691:97 1692:93 1693:135 1694:142 1695:130 1696:142 1697:149 1698:134 1699:110 1700:143 1701:124 1702:100 1703:145 1704:128 1705:134 1706:162 1707:153 1708:171 1709:186 1710:177 1711:168 1712:178 1713:167 1714:150 1715:156 1716:145 1717:122 1718:128 1719:117 1720:144 1721:150 1722:140 1723:149 1724:156 1725:145 1726:143 1727:151 1728:141 1729:180 1730:179 1731:184 1732:189 1733:188 1734:193 1735:189 1736:189 1737:191 1738:187 1739:187 1740:188 1741:193 1742:193 1743:193 1744:162 1745:162 1746:162 1747:98 1748:103 1749:97 1750:116 1751:120 1752:108 1753:148 1754:150 1755:136 1756:134 1757:143 1758:126 1759:137 1760:147 1761:131 1762:107 1763:113 1764:98 1765:122 1766:127 1767:112 1768:148 1769:153 1770:139 1771:131 1772:137 1773:125 1774:85 1775:93 1776:87 1777:81 1778:88 1779:82 1780:97 1781:105 1782:96 1783:116 1784:120 1785:112 1786:92 1787:98 1788:94 1789:133 1790:141 1791:129 1792:143 1793:151 1794:136 1795:105 1796:135 1797:118 1798:99 1799:144 1800:126 1801:116 1802:150 1803:137 1804:161 1805:178 1806:168 1807:166 1808:177 1809:166 1810:152 1811:157 1812:146 1813:128 1814:134 1815:124 1816:143 1817:149 1818:140 1819:150 1820:156 1821:145 1822:146 1823:152 1824:143 1825:182 1826:181 1827:186 1828:185 1829:185 1830:189 1831:185 1832:185 1833:187 1834:184 1835:184 1836:185 1837:190 1838:190 1839:190 1840:165 1841:165 1842:163 1843:97 1844:102 1845:93 1846:113 1847:119 1848:107 1849:145 1850:153 1851:136 1852:126 1853:138 1854:120 1855:121 1856:135 1857:117 1858:127 1859:141 1860:123 1861:121 1862:137 1863:118 1864:125 1865:140 1866:121 1867:131 1868:138 1869:126 1870:80 1871:89 1872:85 1873:75 1874:84 1875:81 1876:92 1877:100 1878:93 1879:102 1880:105 1881:101 1882:92 1883:98 1884:93 1885:137 1886:145 1887:132 1888:141 1889:152 1890:140 1891:107 1892:137 1893:120 1894:78 1895:125 1896:107 1897:113 1898:148 1899:135 1900:158 1901:173 1902:165 1903:162 1904:172 1905:162 1906:145 1907:152 1908:140 1909:117 1910:122 1911:115 1912:146 1913:152 1914:143 1915:150 1916:157 1917:146 1918:145 1919:153 1920:143 1921:183 1922:182 1923:187 1924:189 1925:188 1926:192 1927:180 1928:180 1929:182 1930:180 1931:180 1932:181 1933:187 1934:187 1935:187 1936:170 1937:170 1938:168 1939:88 1940:94 1941:85 1942:98 1943:105 1944:92 1945:147 1946:156 1947:139 1948:124 1949:139 1950:120 1951:114 1952:130 1953:112 1954:121 1955:136 1956:118 1957:118 1958:136 1959:117 1960:116 1961:132 1962:112 1963:133 1964:139 1965:128 1966:79 1967:88 1968:84 1969:56 1970:65 1971:62 1972:105 1973:112 1974:106 1975:103 1976:107 1977:101 1978:88 1979:95 1980:87 1981:145 1982:153 1983:139 1984:142 1985:153 1986:141 1987:132 1988:150 1989:137 1990:110 1991:143 1992:129 1993:136 1994:160 1995:150 1996:157 1997:171 1998:163 1999:156 2000:167 2001:156 2002:139 2003:145 2004:133 2005:105 2006:110 2007:104 2008:145 2009:151 2010:142 2011:148 2012:156 2013:145 2014:142 2015:154 2016:142 2017:186 2018:185 2019:190 2020:187 2021:187 2022:191 2023:184 2024:184 2025:186 2026:177 2027:177 2028:178 2029:192 2030:192 2031:192 2032:169 2033:169 2034:167 2035:92 2036:97 2037:89 2038:97 2039:104 2040:92 2041:148 2042:152 2043:137 2044:131 2045:136 2046:121 2047:134 2048:141 2049:124 2050:130 2051:137 2052:121 2053:127 2054:136 2055:119 2056:120 2057:130 2058:112 2059:138 2060:145 2061:133 2062:90 2063:99 2064:95 2065:49 2066:58 2067:55 2068:88 2069:95 2070:89 2071:113 2072:117 2073:111 2074:93 2075:100 2076:88 2077:145 2078:154 2079:139 2080:141 2081:153 2082:141 2083:138 2084:152 2085:141 2086:143 2087:154 2088:147 2089:146 2090:157 2091:151 2092:154 2093:168 2094:160 2095:153 2096:163 2097:153 2098:139 2099:146 2100:134 2101:109 2102:114 2103:107 2104:145 2105:150 2106:141 2107:150 2108:158 2109:146 2110:141 2111:155 2112:143 2113:188 2114:187 2115:193 2116:185 2117:184 2118:188 2119:188 2120:188 2121:190 2122:175 2123:175 2124:177 2125:193 2126:193 2127:195 2128:170 2129:170 2130:168 2131:105 2132:112 2133:103 2134:112 2135:120 2136:109 2137:147 2138:149 2139:136 2140:141 2141:143 2142:125 2143:132 2144:138 2145:117 2146:113 2147:120 2148:103 2149:117 2150:123 2151:107 2152:111 2153:121 2154:104 2155:129 2156:142 2157:129 2158:113 2159:122 2160:116 2161:65 2162:70 2163:67 2164:89 2165:96 2166:88 2167:116 2168:123 2169:114 2170:116 2171:124 2172:111 2173:133 2174:141 2175:129 2176:136 2177:148 2178:136 2179:133 2180:146 2181:136 2182:139 2183:147 2184:140 2185:151 2186:157 2187:150 2188:163 2189:172 2190:165 2191:155 2192:167 2193:159 2194:149 2195:158 2196:150 2197:127 2198:131 2199:123 2200:148 2201:151 2202:142 2203:147 2204:157 2205:146 2206:143 2207:155 2208:146 2209:189 2210:188 2211:193 2212:186 2213:186 2214:190 2215:182 2216:182 2217:184 2218:173 2219:173 2220:175 2221:192 2222:192 2223:194 2224:165 2225:165 2226:163 2227:111 2228:118 2229:109 2230:126 2231:134 2232:123 2233:127 2234:130 2235:114 2236:148 2237:151 2238:130 2239:143 2240:150 2241:130 2242:131 2243:138 2244:124 2245:113 2246:118 2247:107 2248:106 2249:114 2250:100 2251:103 2252:116 2253:102 2254:103 2255:111 2256:103 2257:94 2258:100 2259:94 2260:105 2261:112 2262:104 2263:109 2264:116 2265:108 2266:110 2267:118 2268:108 2269:120 2270:127 2271:119 2272:121 2273:133 2274:124 2275:114 2276:127 2277:118 2278:133 2279:142 2280:135 2281:154 2282:161 2283:154 2284:153 2285:161 2286:154 2287:130 2288:139 2289:132 2290:131 2291:141 2292:132 2293:128 2294:132 2295:125 2296:147 2297:151 2298:142 2299:147 2300:157 2301:145 2302:144 2303:152 2304:144 2305:188 2306:187 2307:193 2308:188 2309:188 2310:192 2311:181 2312:181 2313:182 2314:176 2315:176 2316:178 2317:192 2318:192 2319:194 2320:166 2321:166 2322:164 2323:111 2324:117 2325:109 2326:93 2327:101 2328:90 2329:96 2330:98 2331:87 2332:112 2333:114 2334:101 2335:127 2336:133 2337:117 2338:111 2339:117 2340:106 2341:98 2342:102 2343:97 2344:93 2345:99 2346:90 2347:92 2348:101 2349:89 2350:104 2351:112 2352:103 2353:98 2354:106 2355:96 2356:104 2357:111 2358:103 2359:113 2360:120 2361:112 2362:111 2363:118 2364:111 2365:116 2366:123 2367:117 2368:112 2369:123 2370:117 2371:106 2372:119 2373:110 2374:119 2375:127 2376:120 2377:137 2378:144 2379:138 2380:126 2381:132 2382:126 2383:119 2384:124 2385:118 2386:113 2387:120 2388:113 2389:118 2390:122 2391:114 2392:150 2393:154 2394:145 2395:149 2396:158 2397:147 2398:146 2399:151 2400:144 2401:187 2402:186 2403:191 2404:186 2405:185 2406:190 2407:183 2408:183 2409:185 2410:181 2411:181 2412:183 2413:189 2414:189 2415:191 2416:160 2417:159 2418:161 2419:106 2420:108 2421:104 2422:86 2423:92 2424:84 2425:113 2426:117 2427:109 2428:88 2429:93 2430:85 2431:71 2432:82 2433:71 2434:76 2435:83 2436:75 2437:102 2438:108 2439:103 2440:105 2441:111 2442:105 2443:100 2444:106 2445:98 2446:110 2447:115 2448:106 2449:115 2450:118 2451:109 2452:117 2453:124 2454:116 2455:119 2456:126 2457:118 2458:118 2459:124 2460:118 2461:120 2462:126 2463:120 2464:121 2465:128 2466:121 2467:117 2468:126 2469:119 2470:90 2471:100 2472:92 2473:99 2474:107 2475:103 2476:99 2477:107 2478:101 2479:120 2480:126 2481:118 2482:106 2483:112 2484:104 2485:103 2486:109 2487:100 2488:156 2489:159 2490:149 2491:148 2492:152 2493:146 2494:164 2495:169 2496:167 2497:188 2498:187 2499:192 2500:186 2501:186 2502:190 2503:185 2504:185 2505:187 2506:181 2507:181 2508:183 2509:194 2510:194 2511:196 2512:157 2513:157 2514:158 2515:110 2516:111 2517:106 2518:84 2519:88 2520:79 2521:106 2522:109 2523:100 2524:95 2525:100 2526:90 2527:89 2528:98 2529:87 2530:92 2531:98 2532:88 2533:118 2534:121 2535:112 2536:119 2537:122 2538:113 2539:116 2540:120 2541:111 2542:115 2543:118 2544:107 2545:117 2546:120 2547:109 2548:121 2549:125 2550:115 2551:126 2552:129 2553:120 2554:127 2555:131 2556:124 2557:130 2558:133 2559:126 2560:133 2561:136 2562:129 2563:132 2564:139 2565:131 2566:117 2567:124 2568:116 2569:123 2570:130 2571:122 2572:123 2573:129 2574:120 2575:128 2576:131 2577:122 2578:127 2579:131 2580:121 2581:128 2582:132 2583:122 2584:151 2585:154 2586:146 2587:170 2588:172 2589:170 2590:200 2591:202 2592:202 2593:183 2594:182 2595:187 2596:183 2597:182 2598:187 2599:187 2600:187 2601:189 2602:176 2603:176 2604:178 2605:194 2606:194 2607:196 2608:168 2609:169 2610:167 2611:140 2612:141 2613:132 2614:144 2615:146 2616:133 2617:143 2618:143 2619:131 2620:139 2621:141 2622:129 2623:135 2624:142 2625:127 2626:137 2627:139 2628:126 2629:139 2630:141 2631:126 2632:137 2633:139 2634:126 2635:138 2636:140 2637:128 2638:139 2639:142 2640:128 2641:137 2642:142 2643:126 2644:136 2645:138 2646:126 2647:141 2648:143 2649:131 2650:145 2651:147 2652:136 2653:143 2654:145 2655:135 2656:146 2657:148 2658:138 2659:149 2660:152 2661:142 2662:153 2663:157 2664:145 2665:155 2666:159 2667:146 2668:156 2669:159 2670:146 2671:155 2672:157 2673:145 2674:159 2675:161 2676:149 2677:164 2678:166 2679:154 2680:164 2681:166 2682:161 2683:196 2684:197 2685:197 2686:201 2687:201 2688:201 2689:185 2690:184 2691:189 2692:181 2693:181 2694:185 2695:184 2696:184 2697:186 2698:173 2699:173 2700:175 2701:186 2702:185 2703:188 2704:186 