svm_type c_svc
kernel_type linear
nr_class 2
total_sv 110
rho 1.40981
label 1 0
probA -1.80148
probB 0.504733
nr_sv 38 72
SV
2.630160072734287e-07 1:255 2:255 3:255 4:255 5:255 6:255 7:255 8:255 9:255 10:255 11:255 12:255 13:255 14:255 15:255 16:255 17:255 18:255 19:255 20:255 21:255 22:255 23:255 24:255 25:255 26:255 27:255 28:255 29:255 30:255 31:255 32:255 33:255 34:255 35:255 36:255 37:255 38:255 39:255 40:255 41:255 42:255 43:255 44:255 45:255 46:255 47:255 48:255 49:255 50:255 51:255 52:255 53:255 54:255 55:255 56:255 57:255 58:255 59:255 60:255 61:255 62:255 63:255 64:255 65:255 66:255 67:255 68:255 69:255 70:255 71:255 72:255 73:255 74:255 75:255 76:255 77:255 78:255 79:255 80:255 81:255 82:255 83:255 84:255 85:255 86:255 87:255 88:255 89:255 90:255 91:255 92:255 93:255 94:255 95:255 96:255 97:255 98:255 99:255 100:255 101:255 102:255 103:255 104:255 105:255 106:255 107:255 108:255 109:255 110:255 111:255 112:255 113:255 114:255 115:255 116:255 117:255 118:255 119:255 120:255 121:255 122:255 123:255 124:255 125:255 126:255 127:255 128:255 129:255 130:255 131:255 132:255 133:255 134:255 135:255 136:255 137:255 138:255 139:251 140:251 141:251 142:248 143:248 144:248 145:242 146:242 147:242 148:248 149:244 150:245 151:246 152:242 153:243 154:238 155:237 156:237 157:251 158:251 159:251 160:255 161:255 162:255 163:255 164:255 165:255 166:255 167:255 168:255 169:255 170:255 171:255 172:255 173:255 174:255 175:255 176:255 177:255 178:255 179:255 180:255 181:255 182:255 183:255 184:255 185:255 186:255 187:255 188:255 189:255 190:255 191:255 192:255 193:255 194:255 195:255 196:255 197:255 198:255 199:255 200:255 201:255 202:255 203:255 204:255 205:255 206:255 207:255 208:255 209:255 210:255 211:255 212:255 213:255 214:255 215:255 216:255 217:255 218:255 219:255 220:255 221:255 222:255 223:255 224:255 225:255 226:254 227:254 228:254 229:251 230:251 231:249 232:242 233:243 234:241 235:230 236:229 237:227 238:228 239:226 240:226 241:229 242:226 243:226 244:233 245:224 246:223 247:235 248:232 249:229 250:210 251:205 252:203 253:214 254:211 255:208 256:255 257:255 258:255 259:254 260:254 261:254 262:255 263:255 264:255 265:255 266:255 267:255 268:255 269:255 270:255 271:255 272:255 273:255 274:255 275:255 276:255 277:255 278:255 279:255 280:255 281:255 282:255 283:255 284:255 285:255 286:255 287:255 288:255 289:254 290:254 291:254 292:253 293:254 294:254 295:255 296:255 297:255 298:255 299:255 300:255 301:255 302:255 303:255 304:251 305:252 306:251 307:248 308:247 309:247 310:250 311:250 312:250 313:249 314:249 315:249 316:244 317:244 318:244 319:239 320:236 321:237 322:232 323:228 324:229 325:234 326:231 327:230 328:235 329:230 330:230 331:232 332:227 333:227 334:230 335:226 336:226 337:232 338:226 339:226 340:228 341:226 342:223 343:219 344:205 345:206 346:228 347:223 348:219 349:186 350:183 351:179 352:251 353:251 354:250 355:254 356:254 357:254 358:255 359:255 360:255 361:255 362:255 363:255 364:255 365:255 366:255 367:255 368:255 369:255 370:255 371:255 372:255 373:255 374:255 375:255 376:255 377:255 378:255 379:255 380:255 381:255 382:255 383:255 384:255 385:255 386:255 387:255 388:255 389:255 390:255 391:253 392:252 393:252 394:246 395:246 396:246 397:235 398:235 399:235 400:234 401:230 402:231 403:232 404:228 405:229 406:235 407:228 408:231 409:233 410:228 411:229 412:233 413:232 414:232 415:236 416:233 417:234 418:235 419:230 420:231 421:233 422:226 423:227 424:210 425:201 426:199 427:203 428:176 429:175 430:204 431:159 432:164 433:176 434:92 435:106 436:194 437:150 438:151 439:198 440:173 441:175 442:224 443:219 444:215 445:209 446:209 447:203 448:215 449:210 450:211 451:255 452:255 453:255 454:253 455:254 456:254 457:255 458:255 459:255 460:255 461:255 462:255 463:255 464:255 465:255 466:255 467:255 468:255 469:255 470:255 471:255 472:255 473:255 474:255 475:255 476:255 477:255 478:255 479:255 480:255 481:234 482:232 483:230 484:202 485:201 486:197 487:240 488:238 489:239 490:232 491:229 492:230 493:235 494:232 495:233 496:238 497:234 498:235 499:237 500:235 501:234 502:232 503:230 504:231 505:234 506:235 507:234 508:217 509:205 510:204 511:209 512:192 513:196 514:220 515:206 516:211 517:198 518:181 519:186 520:190 521:135 522:138 523:157 524:15 525:37 526:164 527:22 528:45 529:165 530:21 531:40 532:159 533:21 534:40 535:173 536:69 537:84 538:189 539:153 540:155 541:222 542:218 543:213 544:197 545:192 546:188 547:250 548:252 549:251 550:254 551:254 552:254 553:255 554:255 555:255 556:255 557:255 558:255 559:255 560:255 561:255 562:255 563:255 564:255 565:255 566:255 567:255 568:255 569:255 570:255 571:255 572:255 573:255 574:255 575:255 576:255 577:200 578:197 579:193 580:129 581:119 582:115 583:250 584:247 585:249 586:232 587:229 588:229 589:232 590:223 591:226 592:221 593:212 594:213 595:216 596:203 597:206 598:209 599:190 600:193 601:185 602:153 603:159 604:169 605:124 606:134 607:189 608:167 609:168 610:193 611:180 612:178 613:204 614:175 615:180 616:170 617:75 618:84 619:170 620:41 621:62 622:173 623:31 624:53 625:171 626:48 627:65 628:169 629:59 630:73 631:160 632:10 633:34 634:166 635:73 636:82 637:221 638:218 639:214 640:202 641:196 642:194 643:219 644:219 645:213 646:255 647:255 648:255 649:254 650:254 651:254 652:255 653:255 654:255 655:255 656:255 657:255 658:255 659:255 660:255 661:255 662:255 663:255 664:255 665:255 666:255 667:255 668:255 669:255 670:255 671:255 672:255 673:223 674:222 675:218 676:112 677:99 678:87 679:223 680:219 681:221 682:238 683:239 684:242 685:212 686:198 687:203 688:209 689:181 690:189 691:207 692:188 693:192 694:165 695:134 696:137 697:168 698:133 699:138 700:201 701:183 702:184 703:178 704:145 705:146 706:179 707:143 708:150 709:194 710:163 711:165 712:108 713:88 714:91 715:152 716:142 717:138 718:173 719:55 720:69 721:162 722:40 723:59 724:168 725:42 726:65 727:172 728:64 729:80 730:160 731:40 732:55 733:186 734:130 735:139 736:231 737:226 738:224 739:199 740:196 741:190 742:249 743:249 744:249 745:254 746:254 747:254 748:255 749:255 750:255 751:255 752:255 753:255 754:255 755:255 756:255 757:255 758:255 759:255 760:255 761:255 762:255 763:255 764:255 765:255 766:255 767:255 768:255 769:235 770:236 771:235 772:98 773:86 774:68 775:184 776:177 777:170 778:248 779:244 780:249 781:225 782:219 783:223 784:182 785:153 786:160 787:165 788:134 789:135 790:185 791:163 792:165 793:196 794:177 795:181 796:177 797:141 798:145 799:192 800:163 801:163 802:154 803:143 804:146 805:125 806:127 807:125 808:132 809:128 810:128 811:163 812:96 813:100 814:181 815:93 816:103 817:182 818:109 819:117 820:167 821:45 822:66 823:172 824:40 825:62 826:160 827:33 828:52 829:176 830:101 831:114 832:225 833:220 834:219 835:202 836:197 837:195 838:225 839:221 840:218 841:255 842:255 843:255 844:254 845:252 846:253 847:255 848:255 849:255 850:255 851:255 852:255 853:255 854:255 855:255 856:255 857:255 858:255 859:255 860:255 861:255 862:255 863:255 864:255 865:255 866:255 867:255 868:149 869:142 870:128 871:128 872:113 873:103 874:240 875:236 876:237 877:237 878:231 879:231 880:204 881:184 882:187 883:194 884:167 885:168 886:176 887:138 888:141 889:190 890:173 891:176 892:196 893:180 894:183 895:131 896:116 897:117 898:161 899:164 900:165 901:109 902:116 903:117 904:161 905:118 906:117 907:185 908:106 909:113 910:185 911:114 912:121 913:171 914:89 915:93 916:176 917:79 918:89 919:168 920:9 921:34 922:165 923:34 924:57 925:203 926:185 927:192 928:207 929:194 930:199 931:233 932:235 933:233 934:192 935:186 936:184 937:251 938:250 939:249 940:254 941:252 942:252 943:255 944:255 945:255 946:255 947:255 948:255 949:255 950:255 951:255 952:255 953:255 954:255 955:255 956:255 957:255 958:255 959:255 960:255 961:255 962:255 963:255 964:195 965:196 966:185 967:87 968:72 969:56 970:217 971:210 972:208 973:244 974:240 975:239 976:200 977:182 978:177 979:178 980:136 981:142 982:161 983:134 984:138 985:122 986:111 987:112 988:147 989:144 990:143 991:135 992:135 993:133 994:108 995:111 996:109 997:162 998:165 999:161 1000:201 1001:191 1002:190 1003:183 1004:129 1005:134 1006:156 1007:1 1008:21 1009:181 1010:74 1011:92 1012:192 1013:123 1014:130 1015:171 1016:52 1017:54 1018:188 1019:110 1020:105 1021:208 1022:184 1023:176 1024:215 1025:189 1026:177 1027:226 1028:215 1029:202 1030:205 1031:199 1032:195 1033:223 1034:223 1035:226 1036:255 1037:255 1038:255 1039:254 1040:252 1041:254 1042:255 1043:255 1044:254 1045:255 1046:255 1047:255 1048:255 1049:255 1050:255 1051:255 1052:255 1053:255 1054:255 1055:255 1056:255 1057:255 1058:255 1059:255 1060:242 1061:243 1062:240 1063:103 1064:92 1065:74 1066:171 1067:157 1068:152 1069:244 1070:240 1071:240 1072:230 1073:227 1074:224 1075:129 1076:119 1077:122 1078:127 1079:127 1080:128 1081:138 1082:137 1083:136 1084:122 1085:114 1086:115 1087:157 1088:152 1089:151 1090:135 1091:130 1092:129 1093:197 1094:182 1095:184 1096:229 1097:218 1098:216 1099:191 1100:168 1101:170 1102:194 1103:126 1104:140 1105:175 1106:70 1107:63 1108:213 1109:156 1110:111 1111:222 1112:165 1113:113 1114:227 1115:176 1116:116 1117:225 1118:176 1119:126 1120:212 1121:151 1122:115 1123:219 1124:171 1125:136 1126:210 1127:169 1128:122 1129:226 1130:188 1131:151 1132:244 1133:237 1134:220 1135:251 1136:252 1137:251 1138:254 1139:255 1140:255 1141:254 1142:253 1143:253 1144:255 1145:254 1146:254 1147:255 1148:255 1149:255 1150:255 1151:255 1152:255 1153:253 1154:253 1155:252 1156:255 1157:255 1158:255 1159:150 1160:145 1161:134 1162:114 1163:94 1164:86 1165:244 1166:244 1167:240 1168:185 1169:177 1170:178 1171:106 1172:107 1173:104 1174:53 1175:52 1176:50 1177:197 1178:184 1179:185 1180:218 1181:210 1182:211 1183:204 1184:192 1185:195 1186:219 1187:203 1188:207 1189:233 1190:227 1191:226 1192:237 1193:238 1194:236 1195:231 1196:226 1197:225 1198:214 1199:176 1200:141 1201:232 1202:173 1203:108 1204:210 1205:158 1206:115 1207:205 1208:141 1209:74 1210:195 1211:121 1212:66 1213:193 1214:181 1215:168 1216:151 1217:101 1218:91 1219:184 1220:152 1221:131 1222:152 1223:172 1224:118 1225:199 1226:144 1227:107 1228:207 1229:160 1230:120 1231:229 1232:211 1233:175 1234:242 1235:242 1236:237 1237:252 1238:255 1239:255 1240:253 1241:253 1242:249 1243:255 1244:255 1245:254 1246:255 1247:255 1248:255 1249:253 1250:253 1251:253 1252:255 1253:255 1254:254 1255:201 1256:204 1257:198 1258:93 1259:77 1260:60 1261:216 1262:213 1263:208 1264:192 1265:186 1266:187 1267:146 1268:137 1269:138 1270:111 1271:101 1272:102 1273:171 1274:161 1275:161 1276:240 1277:241 1278:239 1279:237 1280:237 1281:235 1282:237 1283:234 1284:232 1285:233 1286:231 1287:230 1288:235 1289:229 1290:230 1291:228 1292:179 1293:141 1294:212 1295:136 1296:77 1297:150 1298:97 1299:63 1300:172 1301:160 1302:141 1303:205 1304:173 1305:143 1306:190 1307:160 1308:128 1309:84 1310:87 1311:47 1312:139 1313:156 1314:118 1315:223 1316:201 1317:178 1318:198 1319:189 1320:175 1321:226 1322:216 1323:211 1324:164 1325:111 1326:109 1327:209 1328:172 1329:145 1330:235 1331:209 1332:167 1333:241 1334:235 1335:225 1336:254 1337:255 1338:255 1339:255 1340:254 1341:253 1342:255 1343:255 1344:255 1345:255 1346:255 1347:255 1348:255 1349:255 1350:255 1351:250 1352:252 1353:252 1354:109 1355:102 1356:84 1357:155 1358:142 1359:135 1360:244 1361:244 1362:245 1363:223 1364:217 1365:216 1366:193 1367:170 1368:171 1369:218 1370:210 1371:208 1372:231 1373:234 1374:231 1375:232 1376:231 1377:229 1378:233 1379:231 1380:228 1381:237 1382:236 1383:238 1384:226 1385:192 1386:162 1387:207 1388:148 1389:90 1390:148 1391:70 1392:67 1393:165 1394:127 1395:109 1396:209 1397:205 1398:152 1399:183 1400:182 1401:175 1402:128 1403:129 1404:136 1405:194 1406:166 1407:152 1408:184 1409:154 1410:138 1411:199 1412:135 1413:124 1414:137 1415:89 1416:95 1417:121 1418:102 1419:105 1420:208 1421:158 1422:135 1423:181 1424:158 1425:130 1426:204 1427:145 1428:115 1429:234 1430:202 1431:160 1432:247 1433:242 1434:234 1435:254 1436:255 1437:255 1438:252 1439:254 1440:254 1441:255 1442:255 1443:255 1444:253 1445:253 1446:252 1447:255 1448:255 1449:255 1450:150 1451:149 1452:137 1453:115 1454:98 1455:87 1456:241 1457:232 1458:237 1459:239 1460:240 1461:238 1462:209 1463:197 1464:197 1465:228 1466:223 1467:222 1468:236 1469:236 1470:234 1471:235 1472:233 1473:230 1474:235 1475:235 1476:233 1477:234 1478:228 1479:218 1480:217 1481:152 1482:96 1483:189 1484:135 1485:75 1486:194 1487:153 1488:99 1489:243 1490:234 1491:218 1492:229 1493:216 1494:217 1495:164 1496:110 1497:111 1498:180 1499:128 1500:114 1501:174 1502:137 1503:117 1504:172 1505:130 1506:122 1507:181 1508:125 1509:125 1510:189 1511:139 1512:136 1513:179 1514:161 1515:155 1516:223 1517:184 1518:105 1519:189 1520:189 1521:144 1522:169 1523:126 1524:117 1525:221 1526:161 1527:124 1528:230 1529:196 1530:151 1531:248 1532:250 1533:244 1534:253 1535:254 1536:254 1537:255 1538:255 1539:255 1540:253 1541:253 1542:253 1543:255 1544:255 1545:255 1546:214 1547:218 1548:212 1549:96 1550:83 1551:66 1552:202 1553:190 1554:191 1555:243 1556:242 1557:242 1558:224 1559:219 1560:216 1561:210 1562:193 1563:196 1564:241 1565:237 1566:240 1567:233 1568:230 1569:226 1570:239 1571:242 1572:243 1573:229 1574:206 1575:180 1576:208 1577:154 1578:99 1579:195 1580:147 1581:116 1582:205 1583:173 1584:122 1585:186 1586:149 1587:141 1588:208 1589:198 1590:170 1591:187 1592:181 1593:150 1594:147 1595:157 1596:123 1597:175 1598:178 1599:139 1600:176 1601:153 1602:133 1603:172 1604:113 1605:117 1606:210 1607:190 1608:176 1609:191 1610:184 1611:175 1612:219 1613:196 1614:191 1615:196 1616:183 1617:144 1618:203 1619:191 1620:171 1621:180 1622:107 1623:104 1624:220 1625:170 1626:121 1627:238 1628:224 1629:197 1630:252 1631:255 1632:255 1633:255 1634:255 1635:255 1636:255 1637:255 1638:255 1639:255 1640:255 1641:255 1642:247 1643:248 1644:248 1645:104 1646:98 1647:81 1648:154 1649:141 1650:131 1651:247 1652:245 1653:247 1654:233 1655:231 1656:232 1657:208 1658:186 1659:187 1660:239 1661:236 1662:237 1663:244 1664:235 1665:238 1666:236 1667:232 1668:237 1669:214 1670:172 1671:125 1672:229 1673:198 1674:160 1675:186 1676:168 1677:151 1678:157 1679:118 1680:97 1681:161 1682:123 1683:98 1684:173 1685:168 1686:119 1687:232 1688:213 1689:187 1690:192 1691:175 1692:160 1693:244 1694:235 1695:210 1696:134 1697:149 1698:130 1699:183 1700:185 1701:174 1702:205 1703:180 1704:175 1705:214 1706:206 1707:204 1708:134 1709:137 1710:152 1711:162 1712:154 1713:123 1714:186 1715:151 1716:124 1717:205 1718:177 1719:170 1720:201 1721:126 1722:98 1723:236 1724:195 1725:147 1726:246 1727:247 1728:240 1729:255 1730:255 1731:255 1732:255 1733:255 1734:255 1735:253 1736:253 1737:253 1738:255 1739:255 1740:255 1741:166 1742:167 1743:154 1744:112 1745:101 1746:84 1747:234 1748:229 1749:230 1750:241 1751:241 1752:244 1753:218 1754:209 1755:208 1756:193 1757:171 1758:170 1759:213 1760:196 1761:201 1762:215 1763:200 1764:203 1765:219 1766:161 1767:104 1768:209 1769:163 1770:129 1771:144 1772:155 1773:156 1774:147 1775:83 1776:80 1777:196 1778:169 1779:162 1780:239 1781:229 1782:212 1783:183 1784:171 1785:163 1786:193 1787:186 1788:180 1789:248 1790:246 1791:228 1792:180 1793:162 1794:151 1795:136 1796:116 1797:109 1798:191 1799:129 1800:103 1801:213 1802:177 1803:134 1804:155 1805:136 1806:140 1807:225 1808:227 1809:219 1810:189 1811:119 1812:119 1813:194 1814:141 1815:132 1816:183 1817:153 1818:122 1819:223 1820:179 1821:118 1822:244 1823:234 1824:215 1825:255 1826:255 1827:255 1828:255 1829:255 1830:255 1831:253 1832:253 1833:253 1834:255 1835:255 1836:255 1837:223 1838:225 1839:219 1840:90 1841:81 1842:64 1843:198 1844:189 1845:184 1846:244 1847:245 1848:248 1849:227 1850:230 1851:229 1852:219 1853:210 1854:208 1855:233 1856:237 1857:235 1858:242 1859:235 1860:237 1861:231 1862:174 1863:122 1864:195 1865:111 1866:73 1867:127 1868:104 1869:114 1870:178 1871:152 1872:152 1873:193 1874:161 1875:157 1876:205 1877:160 1878:135 1879:169 1880:148 1881:142 1882:142 1883:146 1884:133 1885:224 1886:207 1887:190 1888:130 1889:118 1890:109 1891:40 1892:62 1893:38 1894:198 1895:167 1896:112 1897:230 1898:192 1899:128 1900:170 1901:162 1902:132 1903:186 1904:192 1905:158 1906:214 1907:165 1908:129 1909:221 1910:207 1911:192 1912:147 1913:182 1914:146 1915:199 1916:164 1917:108 1918:244 1919:223 1920:194 1921:255 1922:255 1923:255 1924:255 1925:255 1926:255 1927:255 1928:255 1929:255 1930:254 1931:254 1932:254 1933:250 1934:251 1935:251 1936:127 1937:120 1938:103 1939:156 1940:143 1941:130 1942:246 1943:245 1944:248 1945:237 1946:232 1947:234 1948:242 1949:242 1950:244 1951:243 1952:235 1953:239 1954:234 1955:234 1956:233 1957:220 1958:181 1959:129 1960:209 1961:115 1962:70 1963:219 1964:158 1965:147 1966:185 1967:203 1968:158 1969:105 1970:123 1971:94 1972:180 1973:109 1974:109 1975:245 1976:200 1977:195 1978:231 1979:227 1980:185 1981:164 1982:147 1983:99 1984:205 1985:197 1986:183 1987:169 1988:126 1989:121 1990:180 1991:132 1992:122 1993:238 1994:221 1995:216 1996:167 1997:183 1998:135 1999:112 2000:111 2001:66 2002:223 2003:193 2004:135 2005:189 2006:183 2007:158 2008:191 2009:155 2010:165 2011:206 2012:143 2013:107 2014:234 2015:209 2016:171 2017:255 2018:255 2019:255 2020:255 2021:255 2022:255 2023:255 2024:255 2025:255 2026:253 2027:253 2028:253 2029:255 2030:255 2031:255 2032:177 2033:179 2034:165 2035:110 2036:92 2037:77 2038:230 2039:224 2040:223 2041:239 2042:238 2043:238 2044:234 2045:232 2046:232 2047:238 2048:234 2049:239 2050:245 2051:245 2052:252 2053:226 2054:188 2055:155 2056:229 2057:166 2058:97 2059:199 2060:144 2061:118 2062:199 2063:191 2064:165 2065:120 2066:132 2067:86 2068:205 2069:187 2070:170 2071:159 2072:160 2073:165 2074:223 2075:218 2076:208 2077:191 2078:169 2079:148 2080:129 2081:141 2082:99 2083:241 2084:238 2085:230 2086:202 2087:151 2088:142 2089:189 2090:121 2091:127 2092:231 2093:222 2094:202 2095:201 2096:181 2097:159 2098:213 2099:206 2100:205 2101:221 2102:199 2103:189 2104:183 2105:141 2106:139 2107:212 2108:159 2109:109 2110:227 2111:198 2112:153 2113:255 2114:255 2115:255 2116:255 2117:255 2118:255 2119:255 2120:255 2121:255 2122:254 2123:254 2124:254 2125:255 2126:255 2127:255 2128:223 2129:226 2130:221 2131:105 2132:94 2133:77 2134:197 2135:189 2136:181 2137:251 2138:251 2139:253 2140:242 2141:241 2142:242 2143:239 2144:237 2145:240 2146:229 2147:228 2148:228 2149:203 2150:176 2151:154 2152:237 2153:168 2154:105 2155:208 2156:142 2157:99 2158:218 2159:189 2160:184 2161:213 2162:193 2163:183 2164:200 2165:172 2166:165 2167:98 2168:96 2169:117 2170:209 2171:205 2172:199 2173:219 2174:211 2175:189 2176:189 2177:179 2178:158 2179:222 2180:219 2181:208 2182:218 2183:172 2184:121 2185:191 2186:125 2187:117 2188:100 2189:109 2190:136 2191:160 2192:147 2193:153 2194:199 2195:192 2196:140 2197:188 2198:161 2199:139 2200:177 2201:109 2202:102 2203:226 2204:168 2205:109 2206:228 2207:205 2208:169 2209:255 2210:255 2211:255 2212:255 2213:255 2214:255 2215:255 2216:255 2217:255 2218:255 2219:255 2220:255 2221:254 2222:254 2223:254 2224:255 2225:255 2226:255 2227:143 2228:140 2229:121 2230:138 2231:125 2232:108 2233:225 2234:221 2235:220 2236:203 2237:198 2238:193 2239:201 2240:195 2241:189 2242:199 2243:195 2244:191 2245:179 2246:169 2247:158 2248:198 2249:149 2250:94 2251:239 2252:184 2253:124 2254:203 2255:144 2256:113 2257:116 2258:135 2259:92 2260:222 2261:240 2262:220 2263:241 2264:235 2265:221 2266:231 2267:216 2268:202 2269:186 2270:183 2271:139 2272:165 2273:164 2274:122 2275:234 2276:218 2277:212 2278:195 2279:168 2280:108 2281:204 2282:184 2283:162 2284:188 2285:169 2286:166 2287:208 2288:198 2289:194 2290:215 2291:184 2292:166 2293:190 2294:153 2295:141 2296:203 2297:138 2298:110 2299:245 2300:191 2301:127 2302:235 2303:219 2304:201 2305:255 2306:255 2307:255 2308:255 2309:255 2310:255 2311:255 2312:255 2313:255 2314:255 2315:255 2316:255 2317:253 2318:253 2319:253 2320:255 2321:255 2322:255 2323:181 2324:182 2325:167 2326:105 2327:90 2328:71 2329:178 2330:172 2331:163 2332:170 2333:171 2334:162 2335:156 2336:160 2337:144 2338:129 2339:137 2340:114 2341:70 2342:89 2343:70 2344:112 2345:100 2346:62 2347:236 2348:174 2349:118 2350:232 2351:177 2352:117 2353:177 2354:126 2355:86 2356:183 2357:116 2358:113 2359:223 2360:181 2361:169 2362:235 2363:230 2364:213 2365:233 2366:233 2367:212 2368:217 2369:202 2370:183 2371:201 2372:174 2373:179 2374:185 2375:182 2376:184 2377:213 2378:199 2379:186 2380:208 2381:174 2382:170 2383:247 2384:243 2385:232 2386:163 2387:149 2388:155 2389:152 2390:108 2391:118 2392:230 2393:161 2394:111 2395:226 2396:181 2397:119 2398:235 2399:233 2400:227 2401:255 2402:255 2403:255 2404:255 2405:255 2406:255 2407:255 2408:255 2409:255 2410:255 2411:255 2412:255 2413:254 2414:254 2415:254 2416:255 2417:255 2418:255 2419:231 2420:232 2421:227 2422:118 2423:119 2424:98 2425:115 2426:122 2427:97 2428:95 2429:112 2430:81 2431:80 2432:98 2433:70 2434:48 2435:69 2436:41 2437:42 2438:66 2439:42 2440:22 2441:42 2442:28 2443:140 2444:108 2445:62 2446:236 2447:182 2448:121 2449:241 2450:187 2451:131 2452:194 2453:106 2454:84 2455:159 2456:31 2457:38 2458:222 2459:205 2460:190 2461:148 2462:180 2463:128 2464:185 2465:151 2466:138 2467:215 2468:181 2469:180 2470:238 2471:233 2472:215 2473:206 2474:166 2475:145 2476:238 2477:218 2478:162 2479:246 2480:225 2481:171 2482:124 2483:94 2484:110 2485:144 2486:112 2487:89 2488:249 2489:185 2490:115 2491:215 2492:191 2493:161 2494:250 2495:254 2496:254 2497:255 2498:255 2499:255 2500:255 2501:255 2502:255 2503:255 2504:255 2505:255 2506:255 2507:255 2508:255 2509:255 2510:255 2511:255 2512:254 2513:254 2514:254 2515:255 2516:255 2517:255 2518:131 2519:139 2520:119 2521:72 2522:87 2523:53 2524:78 2525:99 2526:64 2527:82 2528:102 2529:72 2530:111 2531:124 2532:108 2533:109 2534:120 2535:106 2536:155 2537:161 2538:158 2539:196 2540:194 2541:193 2542:192 2543:159 2544:113 2545:224 2546:170 2547:106 2548:248 2549:195 2550:135 2551:195 2552:133 2553:103 2554:173 2555:98 2556:100 2557:155 2558:87 2559:74 2560:208 2561:188 2562:182 2563:174 2564:70 2565:81 2566:176 2567:63 2568:65 2569:196 2570:147 2571:140 2572:203 2573:165 2574:128 2575:189 2576:130 2577:84 2578:219 2579:169 2580:137 2581:249 2582:192 2583:126 2584:204 2585:166 2586:121 2587:242 2588:238 2589:235 2590:255 2591:255 2592:255 2593:255 2594:255 2595:255 2596:255 2597:255 2598:255 2599:255 2600:255 2601:255 2602:255 2603:255 2604:255 2605:255 2606:255 2607:255 2608:253 2609:253 2610:253 2611:255 2612:254 2613:254 2614:188 2615:193 2616:182 2617:134 2618:146 2619:125 2620:190 2621:196 2622:187 2623:230 2624:231 2625:229 2626:254 2627:255 2628:254 2629:253 2630:255 2631:253 2632:255 2633:255 2634:255 2635:255 2636:255 2637:255 2638:234 2639:230 2640:229 2641:192 2642:164 2643:122 2644:208 2645:157 2646:92 2647:236 2648:189 2649:125 2650:222 2651:155 2652:104 2653:227 2654:151 2655:112 2656:214 2657:161 2658:136 2659:196 2660:125 2661:96 2662:199 2663:121 2664:94 2665:207 2666:169 2667:139 2668:206 2669:144 2670:109 2671:237 2672:185 2673:129 2674:238 2675:186 2676:116 2677:198 2678:159 2679:108 2680:230 2681:226 2682:218 2683:255 2684:255 2685:255 2686:254 2687:253 2688:253 2689:255 2690:255 2691:255 2692:255 2693:255 2694:255 2695:255 2696:255 2697:255 2698:255 2699:255 2700:255 2701:255 2702:255 2703:255 2704:255 2705:255 2706:255 2707:255 2708:255 2709:255 2710:255 2711:255 2712:255 2713:255 2714:255 2715:255 2716:255 2717:255 2718:255 2719:255 2720:255 2721:255 2722:252 2723:254 2724:252 2725:253 2726:254 2727:253 2728:251 2729:251 2730:251 2731:252 2732:253 2733:252 2734:255 2735:255 2736:255 2737:245 2738:248 2739:247 2740:212 2741:198 2742:181 2743:182 2744:151 2745:112 2746:191 2747:149 2748:90 2749:215 2750:166 2751:99 2752:230 2753:173 2754:107 2755:242 2756:189 2757:122 2758:246 2759:191 2760:119 2761:239 2762:179 2763:110 2764:239 2765:181 2766:110 2767:208 2768:161 2769:101 2770:191 2771:165 2772:132 2773:233 2774:234 2775:226 2776:255 2777:255 2778:255 2779:253 2780:254 2781:253 2782:255 2783:255 2784:255 2785:255 2786:255 2787:255 2788:255 2789:255 2790:255 2791:255 2792:255 2793:255 2794:255 2795:255 2796:255 2797:255 2798:255 2799:255 2800:255 2801:255 2802:255 2803:255 2804:255 2805:255 2806:255 2807:255 2808:255 2809:254 2810:253 2811:253 2812:252 2813:253 2814:252 2815:254 2816:254 2817:254 2818:255 2819:255 2820:255 2821:255 2822:255 2823:255 2824:255 2825:255 2826:255 2827:255 2828:255 2829:255 2830:255 2831:254 2832:253 2833:254 2834:254 2835:250 2836:255 2837:255 2838:255 2839:243 2840:246 2841:246 2842:215 2843:216 2844:209 2845:204 2846:192 2847:177 2848:201 2849:177 2850:147 2851:181 2852:156 2853:121 2854:177 2855:148 2856:109 2857:188 2858:165 2859:133 2860:205 2861:192 2862:168 2863:221 2864:219 2865:209 2866:251 2867:254 2868:254 2869:255 2870:255 2871:255 2872:253 2873:253 2874:253 2875:255 2876:255 2877:255 2878:255 2879:255 2880:255 2881:255 2882:255 2883:255 2884:255 2885:255 2886:255 2887:255 2888:255 2889:255 2890:255 2891:255 2892:255 2893:255 2894:255 2895:255 2896:255 2897:255 2898:255 2899:255 2900:255 2901:255 2902:255 2903:255 2904:255 2905:255 2906:255 2907:255 2908:255 2909:255 2910:255 2911:255 2912:255 2913:255 2914:255 2915:255 2916:255 2917:255 2918:255 2919:255 2920:255 2921:255 2922:255 2923:255 2924:255 2925:255 2926:255 2927:255 2928:254 2929:254 2930:254 2931:254 2932:254 2933:253 2934:251 2935:255 2936:255 2937:255 2938:255 2939:255 2940:255 2941:255 2942:255 2943:255 2944:255 2945:255 2946:255 2947:253 2948:255 2949:255 2950:251 2951:254 2952:255 2953:254 2954:255 2955:255 2956:255 2957:255 2958:255 2959:255 2960:255 2961:255 2962:255 2963:254 2964:253 2965:254 2966:254 2967:252 2968:255 2969:255 2970:255 2971:255 2972:255 2973:255 2974:255 2975:255 2976:255 2977:255 2978:255 2979:255 2980:255 2981:255 2982:255 2983:255 2984:255 2985:255 2986:255 2987:255 2988:255 2989:255 2990:255 2991:255 2992:255 2993:255 2994:255 2995:255 2996:255 2997:255 2998:255 2999:255 3000:255 3001:255 3002:255 3003:255 3004:255 3005:255 3006:255 3007:255 3008:255 3009:255 3010:255 3011:255 3012:255 3013:255 3014:255 3015:255 3016:255 3017:255 3018:255 3019:255 3020:255 3021:255 3022:255 3023:255 3024:255 3025:255 3026:255 3027:255 3028:255 3029:255 3030:255 3031:255 3032:255 3033:255 3034:254 3035:254 3036:253 3037:254 3038:253 3039:253 3040:254 3041:254 3042:253 3043:255 3044:255 3045:254 3046:255 3047:255 3048:255 3049:255 3050:254 3051:253 3052:254 3053:253 3054:252 3055:254 3056:254 3057:253 3058:255 3059:255 3060:255 3061:255 3062:255 3063:255 3064:255 3065:255 3066:255 3067:255 3068:255 3069:255 3070:255 3071:255 3072:255 
1.645875624951915e-07 1:255 2:255 3:255 4:255 5:255 6:255 7:255 8:255 9:255 10:255 11:255 12:255 13:255 14:255 15:255 16:255 17:255 18:255 19:255 20:255 21:255 22:255 23:255 24:255 25:254 26:254 27:253 28:252 29:254 30:251 31:254 32:255 33:255 34:249 35:250 36:248 37:243 38:238 39:233 40:243 41:240 42:238 43:233 44:222 45:212 46:213 47:185 48:160 49:211 50:175 51:148 52:199 53:166 54:147 55:236 56:235 57:230 58:254 59:255 60:255 61:255 62:255 63:255 64:255 65:255 66:255 67:253 68:254 69:252 70:253 71:252 72:250 73:255 74:254 75:254 76:255 77:255 78:255 79:255 80:255 81:255 82:255 83:255 84:255 85:255 86:255 87:255 88:255 89:255 90:255 91:255 92:255 93:255 94:255 95:255 96:255 97:255 98:255 99:255 100:255 101:255 102:255 103:255 104:255 105:255 106:255 107:255 108:255 109:255 110:255 111:255 112:255 113:255 114:255 115:254 116:254 117:254 118:254 119:254 120:253 121:255 122:255 123:255 124:252 125:251 126:251 127:220 128:200 129:185 130:192 131:147 132:109 133:172 134:109 135:66 136:182 137:128 138:87 139:174 140:110 141:63 142:171 143:101 144:46 145:174 146:104 147:43 148:164 149:97 150:34 151:166 152:110 153:71 154:189 155:149 156:124 157:199 158:180 159:163 160:229 161:225 162:218 163:251 164:255 165:253 166:255 167:255 168:255 169:255 170:255 171:255 172:253 173:254 174:253 175:255 176:255 177:255 178:255 179:255 180:255 181:255 182:255 183:255 184:255 185:255 186:255 187:255 188:255 189:255 190:255 191:255 192:255 193:255 194:255 195:255 196:255 197:255 198:255 199:255 200:255 201:255 202:255 203:255 204:255 205:254 206:255 207:251 208:254 209:253 210:252 211:254 212:255 213:255 214:253 215:255 216:253 217:240 218:236 219:228 220:212 221:181 222:154 223:198 224:127 225:87 226:174 227:96 228:45 229:153 230:80 231:34 232:165 233:93 234:52 235:175 236:106 237:59 238:182 239:113 240:61 241:182 242:113 243:50 244:176 245:110 246:45 247:161 248:87 249:37 250:155 251:77 252:23 253:130 254:67 255:39 256:134 257:73 258:38 259:159 260:108 261:78 262:191 263:164 264:150 265:244 266:243 267:243 268:255 269:255 270:255 271:251 272:253 273:252 274:255 275:255 276:255 277:255 278:255 279:255 280:255 281:255 282:255 283:255 284:255 285:255 286:255 287:255 288:255 289:255 290:255 291:255 292:255 293:255 294:255 295:255 296:255 297:255 298:255 299:255 300:254 301:254 302:254 303:249 304:255 305:255 306:255 307:239 308:227 309:221 310:187 311:160 312:140 313:200 314:156 315:112 316:200 317:144 318:99 319:173 320:99 321:51 322:149 323:74 324:29 325:144 326:74 327:48 328:145 329:82 330:44 331:130 332:56 333:26 334:132 335:62 336:31 337:145 338:72 339:30 340:146 341:71 342:18 343:127 344:56 345:23 346:118 347:55 348:31 349:107 350:56 351:35 352:140 353:70 354:27 355:156 356:81 357:35 358:131 359:55 360:12 361:135 362:87 363:70 364:227 365:220 366:222 367:255 368:255 369:255 370:253 371:253 372:252 373:255 374:254 375:255 376:255 377:255 378:255 379:255 380:255 381:255 382:255 383:255 384:255 385:255 386:255 387:255 388:255 389:255 390:255 391:255 392:255 393:255 394:254 395:254 396:252 397:255 398:255 399:254 400:224 401:208 402:181 403:207 404:165 405:119 406:172 407:136 408:109 409:169 410:120 411:93 412:180 413:116 414:66 415:164 416:91 417:28 418:157 419:74 420:19 421:94 422:40 423:24 424:94 425:51 426:32 427:144 428:60 429:29 430:174 431:108 432:37 433:143 434:80 435:35 436:144 437:87 438:39 439:128 440:75 441:34 442:93 443:46 444:35 445:65 446:24 447:25 448:103 449:51 450:35 451:133 452:74 453:35 454:145 455:77 456:42 457:145 458:76 459:36 460:141 461:79 462:51 463:227 464:222 465:212 466:255 467:255 468:255 469:252 470:252 471:252 472:255 473:255 474:255 475:255 476:255 477:255 478:255 479:255 480:255 481:255 482:255 483:255 484:255 485:254 486:255 487:254 488:253 489:252 490:255 491:255 492:255 493:227 494:212 495:191 496:196 497:150 498:95 499:206 500:167 501:119 502:202 503:158 504:123 505:140 506:81 507:59 508:129 509:88 510:31 511:138 512:95 513:26 514:147 515:86 516:27 517:85 518:37 519:21 520:121 521:57 522:29 523:102 524:61 525:44 526:122 527:94 528:57 529:211 530:163 531:74 532:189 533:140 534:53 535:185 536:136 537:84 538:114 539:72 540:57 541:114 542:53 543:39 544:122 545:63 546:31 547:101 548:49 549:25 550:133 551:70 552:43 553:178 554:107 555:58 556:175 557:98 558:44 559:161 560:108 561:70 562:240 563:238 564:232 565:253 566:254 567:254 568:254 569:254 570:254 571:255 572:255 573:255 574:255 575:255 576:255 577:255 578:255 579:255 580:254 581:254 582:253 583:255 584:255 585:254 586:244 587:239 588:227 589:203 590:175 591:133 592:201 593:154 594:102 595:202 596:149 597:101 598:182 599:123 600:79 601:141 602:87 603:60 604:124 605:100 606:53 607:105 608:95 609:32 610:134 611:110 612:56 613:154 614:78 615:31 616:112 617:60 618:26 619:58 620:49 621:44 622:101 623:75 624:59 625:169 626:122 627:44 628:176 629:128 630:63 631:155 632:106 633:93 634:128 635:83 636:56 637:137 638:74 639:42 640:165 641:76 642:27 643:159 644:93 645:36 646:123 647:57 648:32 649:124 650:38 651:25 652:184 653:113 654:66 655:158 656:79 657:29 658:169 659:122 660:89 661:251 662:250 663:252 664:254 665:253 666:253 667:254 668:254 669:254 670:255 671:255 672:255 673:255 674:254 675:255 676:255 677:255 678:254 679:248 680:248 681:243 682:210 683:178 684:140 685:202 686:157 687:110 688:207 689:158 690:106 691:201 692:151 693:99 694:132 695:83 696:67 697:119 698:70 699:42 700:166 701:126 702:64 703:88 704:66 705:36 706:114 707:69 708:33 709:176 710:114 711:36 712:147 713:105 714:43 715:68 716:55 717:38 718:82 719:62 720:42 721:170 722:122 723:58 724:172 725:110 726:55 727:72 728:46 729:41 730:128 731:66 732:19 733:190 734:105 735:31 736:166 737:96 738:36 739:166 740:101 741:49 742:157 743:99 744:92 745:120 746:39 747:34 748:156 749:75 750:46 751:188 752:116 753:68 754:142 755:63 756:24 757:187 758:158 759:144 760:255 761:255 762:255 763:253 764:252 765:251 766:255 767:255 768:255 769:254 770:254 771:253 772:253 773:255 774:254 775:222 776:200 777:179 778:205 779:150 780:95 781:200 782:138 783:81 784:209 785:148 786:79 787:180 788:114 789:52 790:134 791:55 792:29 793:173 794:108 795:54 796:189 797:140 798:65 799:137 800:89 801:59 802:170 803:110 804:60 805:177 806:127 807:47 808:212 809:164 810:66 811:156 812:122 813:67 814:146 815:105 816:91 817:191 818:127 819:73 820:163 821:93 822:32 823:92 824:50 825:25 826:195 827:126 828:35 829:204 830:129 831:34 832:167 833:114 834:54 835:183 836:136 837:101 838:161 839:108 840:106 841:144 842:91 843:84 844:174 845:107 846:99 847:182 848:111 849:75 850:154 851:84 852:31 853:133 854:59 855:28 856:218 857:199 858:184 859:255 860:255 861:255 862:254 863:253 864:253 865:254 866:255 867:254 868:236 869:227 870:222 871:201 872:164 873:119 874:208 875:155 876:100 877:208 878:151 879:77 880:177 881:116 882:68 883:149 884:54 885:9 886:188 887:102 888:49 889:210 890:154 891:78 892:180 893:125 894:57 895:138 896:83 897:43 898:136 899:115 900:58 901:159 902:120 903:42 904:168 905:106 906:35 907:211 908:157 909:60 910:212 911:155 912:81 913:188 914:118 915:41 916:122 917:60 918:28 919:149 920:101 921:55 922:219 923:145 924:51 925:203 926:129 927:37 928:187 929:128 930:73 931:84 932:61 933:46 934:77 935:60 936:53 937:172 938:115 939:80 940:145 941:79 942:80 943:139 944:69 945:60 946:190 947:132 948:88 949:139 950:67 951:45 952:154 953:92 954:62 955:251 956:249 957:243 958:255 959:254 960:255 961:252 962:254 963:254 964:212 965:189 966:164 967:202 968:163 969:110 970:211 971:165 972:101 973:187 974:127 975:91 976:133 977:37 978:24 979:167 980:104 981:55 982:90 983:64 984:43 985:192 986:154 987:99 988:185 989:140 990:74 991:169 992:115 993:47 994:118 995:94 996:56 997:132 998:89 999:50 1000:147 1001:83 1002:43 1003:162 1004:112 1005:61 1006:186 1007:127 1008:75 1009:223 1010:162 1011:86 1012:139 1013:93 1014:61 1015:167 1016:108 1017:55 1018:171 1019:101 1020:50 1021:177 1022:133 1023:68 1024:190 1025:153 1026:79 1027:90 1028:72 1029:49 1030:89 1031:52 1032:32 1033:145 1034:96 1035:67 1036:174 1037:115 1038:90 1039:183 1040:115 1041:84 1042:145 1043:74 1044:61 1045:128 1046:64 1047:43 1048:124 1049:43 1050:4 1051:220 1052:197 1053:182 1054:255 1055:255 1056:255 1057:246 1058:245 1059:242 1060:207 1061:184 1062:150 1063:207 1064:169 1065:116 1066:208 1067:149 1068:89 1069:167 1070:107 1071:101 1072:160 1073:81 1074:37 1075:193 1076:138 1077:57 1078:87 1079:63 1080:42 1081:163 1082:110 1083:59 1084:192 1085:139 1086:59 1087:172 1088:132 1089:55 1090:164 1091:120 1092:55 1093:119 1094:53 1095:33 1096:138 1097:63 1098:42 1099:164 1100:106 1101:59 1102:122 1103:44 1104:39 1105:143 1106:71 1107:44 1108:109 1109:57 1110:42 1111:191 1112:104 1113:55 1114:165 1115:81 1116:45 1117:164 1118:103 1119:41 1120:161 1121:111 1122:37 1123:112 1124:77 1125:46 1126:69 1127:41 1128:27 1129:128 1130:86 1131:61 1132:220 1133:156 1134:93 1135:155 1136:97 1137:59 1138:99 1139:25 1140:23 1141:174 1142:109 1143:79 1144:144 1145:74 1146:24 1147:190 1148:150 1149:122 1150:255 1151:255 1152:255 1153:233 1154:223 1155:212 1156:206 1157:187 1158:146 1159:210 1160:174 1161:120 1162:177 1163:78 1164:45 1165:175 1166:88 1167:44 1168:188 1169:126 1170:66 1171:201 1172:144 1173:54 1174:115 1175:87 1176:49 1177:191 1178:146 1179:63 1180:196 1181:149 1182:45 1183:192 1184:150 1185:59 1186:174 1187:131 1188:88 1189:124 1190:59 1191:48 1192:86 1193:18 1194:16 1195:198 1196:125 1197:51 1198:161 1199:78 1200:41 1201:100 1202:48 1203:46 1204:163 1205:112 1206:55 1207:185 1208:124 1209:44 1210:198 1211:122 1212:46 1213:197 1214:132 1215:61 1216:222 1217:167 1218:118 1219:185 1220:126 1221:76 1222:126 1223:77 1224:41 1225:171 1226:111 1227:72 1228:168 1229:115 1230:76 1231:144 1232:117 1233:74 1234:82 1235:18 1236:17 1237:165 1238:90 1239:70 1240:140 1241:63 1242:23 1243:163 1244:109 1245:72 1246:248 1247:252 1248:252 1249:218 1250:204 1251:186 1252:206 1253:181 1254:134 1255:199 1256:141 1257:82 1258:164 1259:71 1260:41 1261:203 1262:131 1263:75 1264:184 1265:135 1266:57 1267:195 1268:159 1269:71 1270:181 1271:151 1272:65 1273:176 1274:131 1275:62 1276:153 1277:119 1278:64 1279:189 1280:149 1281:75 1282:131 1283:93 1284:52 1285:135 1286:111 1287:70 1288:140 1289:95 1290:69 1291:163 1292:98 1293:66 1294:142 1295:53 1296:36 1297:122 1298:82 1299:57 1300:192 1301:145 1302:69 1303:182 1304:102 1305:33 1306:187 1307:115 1308:40 1309:201 1310:159 1311:119 1312:194 1313:146 1314:92 1315:168 1316:100 1317:37 1318:153 1319:94 1320:58 1321:159 1322:109 1323:78 1324:155 1325:117 1326:71 1327:123 1328:93 1329:58 1330:139 1331:80 1332:58 1333:163 1334:73 1335:37 1336:159 1337:78 1338:18 1339:161 1340:97 1341:56 1342:246 1343:245 1344:240 1345:224 1346:207 1347:182 1348:197 1349:132 1350:74 1351:174 1352:84 1353:37 1354:190 1355:107 1356:76 1357:187 1358:141 1359:94 1360:170 1361:152 1362:73 1363:201 1364:148 1365:57 1366:207 1367:153 1368:49 1369:191 1370:129 1371:80 1372:212 1373:171 1374:138 1375:175 1376:143 1377:112 1378:148 1379:107 1380:84 1381:184 1382:140 1383:69 1384:180 1385:142 1386:77 1387:122 1388:73 1389:69 1390:94 1391:56 1392:38 1393:122 1394:68 1395:31 1396:151 1397:79 1398:31 1399:182 1400:102 1401:54 1402:217 1403:151 1404:74 1405:195 1406:139 1407:80 1408:159 1409:102 1410:36 1411:181 1412:114 1413:99 1414:184 1415:136 1416:117 1417:141 1418:116 1419:67 1420:90 1421:57 1422:32 1423:160 1424:112 1425:85 1426:206 1427:165 1428:118 1429:143 1430:79 1431:40 1432:131 1433:70 1434:27 1435:139 1436:79 1437:41 1438:211 1439:198 1440:186 1441:206 1442:185 1443:167 1444:156 1445:110 1446:70 1447:110 1448:45 1449:22 1450:133 1451:78 1452:60 1453:146 1454:111 1455:69 1456:145 1457:125 1458:85 1459:150 1460:89 1461:52 1462:169 1463:111 1464:43 1465:165 1466:118 1467:61 1468:172 1469:132 1470:102 1471:141 1472:94 1473:61 1474:119 1475:79 1476:55 1477:142 1478:125 1479:99 1480:152 1481:105 1482:76 1483:118 1484:65 1485:58 1486:97 1487:73 1488:51 1489:133 1490:64 1491:26 1492:136 1493:70 1494:33 1495:150 1496:104 1497:61 1498:148 1499:98 1500:60 1501:136 1502:100 1503:65 1504:109 1505:92 1506:59 1507:140 1508:115 1509:88 1510:94 1511:68 1512:45 1513:93 1514:59 1515:48 1516:131 1517:91 1518:79 1519:85 1520:47 1521:35 1522:65 1523:26 1524:18 1525:89 1526:36 1527:27 1528:131 1529:77 1530:57 1531:159 1532:105 1533:70 1534:203 1535:186 1536:169 1537:189 1538:165 1539:145 1540:153 1541:114 1542:93 1543:140 1544:95 1545:80 1546:94 1547:40 1548:25 1549:113 1550:106 1551:73 1552:122 1553:93 1554:63 1555:156 1556:101 1557:86 1558:174 1559:127 1560:103 1561:113 1562:46 1563:39 1564:127 1565:59 1566:35 1567:163 1568:104 1569:69 1570:134 1571:69 1572:53 1573:120 1574:85 1575:49 1576:155 1577:117 1578:66 1579:109 1580:76 1581:53 1582:80 1583:53 1584:40 1585:164 1586:124 1587:60 1588:157 1589:95 1590:33 1591:126 1592:67 1593:40 1594:135 1595:91 1596:76 1597:129 1598:71 1599:54 1600:117 1601:74 1602:36 1603:84 1604:58 1605:27 1606:109 1607:67 1608:46 1609:219 1610:178 1611:117 1612:168 1613:116 1614:71 1615:104 1616:48 1617:43 1618:160 1619:104 1620:91 1621:148 1622:89 1623:70 1624:163 1625:97 1626:62 1627:162 1628:88 1629:32 1630:207 1631:190 1632:171 1633:231 1634:216 1635:192 1636:193 1637:137 1638:91 1639:162 1640:69 1641:33 1642:181 1643:102 1644:78 1645:154 1646:115 1647:73 1648:153 1649:124 1650:64 1651:184 1652:134 1653:90 1654:149 1655:84 1656:60 1657:131 1658:52 1659:29 1660:156 1661:84 1662:35 1663:204 1664:149 1665:76 1666:158 1667:85 1668:55 1669:154 1670:68 1671:37 1672:192 1673:132 1674:74 1675:162 1676:111 1677:64 1678:167 1679:94 1680:47 1681:107 1682:56 1683:35 1684:145 1685:59 1686:20 1687:171 1688:98 1689:51 1690:176 1691:135 1692:84 1693:122 1694:44 1695:29 1696:125 1697:49 1698:46 1699:114 1700:43 1701:41 1702:200 1703:143 1704:60 1705:224 1706:175 1707:58 1708:168 1709:130 1710:67 1711:137 1712:108 1713:98 1714:116 1715:77 1716:62 1717:124 1718:56 1719:50 1720:142 1721:74 1722:35 1723:153 1724:83 1725:32 1726:224 1727:220 1728:207 1729:223 1730:216 1731:201 1732:200 1733:177 1734:139 1735:188 1736:125 1737:96 1738:181 1739:119 1740:108 1741:181 1742:140 1743:120 1744:172 1745:149 1746:113 1747:183 1748:112 1749:74 1750:190 1751:123 1752:74 1753:175 1754:119 1755:56 1756:220 1757:165 1758:84 1759:175 1760:115 1761:43 1762:157 1763:97 1764:35 1765:175 1766:115 1767:59 1768:195 1769:135 1770:74 1771:158 1772:115 1773:65 1774:182 1775:84 1776:37 1777:101 1778:5 1779:20 1780:99 1781:28 1782:29 1783:152 1784:90 1785:67 1786:188 1787:130 1788:107 1789:128 1790:33 1791:32 1792:129 1793:46 1794:48 1795:151 1796:80 1797:64 1798:197 1799:139 1800:78 1801:106 1802:84 1803:58 1804:122 1805:86 1806:42 1807:168 1808:122 1809:73 1810:83 1811:28 1812:12 1813:103 1814:17 1815:12 1816:137 1817:66 1818:33 1819:157 1820:108 1821:73 1822:249 1823:252 1824:248 1825:236 1826:227 1827:218 1828:207 1829:193 1830:159 1831:198 1832:137 1833:97 1834:141 1835:62 1836:31 1837:158 1838:99 1839:95 1840:167 1841:109 1842:86 1843:173 1844:96 1845:48 1846:141 1847:101 1848:70 1849:163 1850:88 1851:37 1852:216 1853:147 1854:62 1855:199 1856:135 1857:38 1858:186 1859:105 1860:31 1861:195 1862:126 1863:62 1864:142 1865:81 1866:29 1867:171 1868:104 1869:63 1870:190 1871:123 1872:84 1873:192 1874:124 1875:68 1876:109 1877:47 1878:33 1879:96 1880:36 1881:22 1882:185 1883:133 1884:99 1885:149 1886:78 1887:63 1888:113 1889:57 1890:39 1891:196 1892:137 1893:91 1894:135 1895:87 1896:65 1897:20 1898:15 1899:27 1900:122 1901:89 1902:48 1903:209 1904:157 1905:90 1906:147 1907:89 1908:73 1909:115 1910:27 1911:23 1912:115 1913:39 1914:14 1915:171 1916:135 1917:107 1918:254 1919:255 1920:255 1921:248 1922:247 1923:244 1924:210 1925:177 1926:137 1927:198 1928:144 1929:91 1930:151 1931:64 1932:30 1933:137 1934:60 1935:32 1936:197 1937:110 1938:34 1939:162 1940:112 1941:54 1942:103 1943:60 1944:44 1945:87 1946:59 1947:43 1948:206 1949:137 1950:59 1951:183 1952:123 1953:47 1954:172 1955:86 1956:38 1957:190 1958:111 1959:52 1960:153 1961:99 1962:50 1963:171 1964:103 1965:41 1966:194 1967:139 1968:73 1969:188 1970:150 1971:68 1972:85 1973:53 1974:34 1975:92 1976:64 1977:60 1978:142 1979:91 1980:55 1981:186 1982:124 1983:74 1984:191 1985:135 1986:80 1987:226 1988:165 1989:92 1990:155 1991:121 1992:73 1993:56 1994:50 1995:43 1996:103 1997:75 1998:63 1999:174 2000:118 2001:89 2002:131 2003:72 2004:54 2005:106 2006:12 2007:12 2008:119 2009:50 2010:24 2011:225 2012:209 2013:188 2014:255 2015:255 2016:255 2017:255 2018:255 2019:255 2020:228 2021:211 2022:190 2023:197 2024:165 2025:110 2026:166 2027:79 2028:31 2029:165 2030:81 2031:56 2032:211 2033:144 2034:73 2035:195 2036:126 2037:62 2038:84 2039:37 2040:22 2041:157 2042:115 2043:81 2044:195 2045:100 2046:37 2047:198 2048:115 2049:51 2050:197 2051:128 2052:39 2053:180 2054:121 2055:77 2056:154 2057:86 2058:50 2059:142 2060:59 2061:23 2062:183 2063:113 2064:64 2065:164 2066:132 2067:63 2068:151 2069:152 2070:116 2071:158 2072:144 2073:122 2074:109 2075:69 2076:45 2077:177 2078:106 2079:55 2080:207 2081:155 2082:96 2083:228 2084:183 2085:91 2086:248 2087:198 2088:105 2089:216 2090:174 2091:105 2092:188 2093:148 2094:130 2095:172 2096:128 2097:115 2098:98 2099:33 2100:21 2101:95 2102:15 2103:8 2104:150 2105:96 2106:56 2107:250 2108:249 2109:243 2110:255 2111:255 2112:255 2113:252 2114:254 2115:250 2116:247 2117:247 2118:246 2119:212 2120:181 2121:140 2122:171 2123:111 2124:63 2125:198 2126:132 2127:61 2128:205 2129:125 2130:54 2131:108 2132:78 2133:43 2134:70 2135:52 2136:43 2137:148 2138:106 2139:68 2140:206 2141:145 2142:71 2143:199 2144:112 2145:41 2146:184 2147:89 2148:41 2149:155 2150:86 2151:51 2152:170 2153:92 2154:44 2155:138 2156:28 2157:10 2158:152 2159:86 2160:32 2161:211 2162:153 2163:56 2164:208 2165:154 2166:101 2167:195 2168:154 2169:102 2170:158 2171:111 2172:67 2173:193 2174:141 2175:96 2176:215 2177:171 2178:87 2179:181 2180:137 2181:76 2182:159 2183:111 2184:101 2185:203 2186:175 2187:147 2188:190 2189:170 2190:153 2191:142 2192:113 2193:91 2194:107 2195:52 2196:29 2197:119 2198:44 2199:7 2200:197 2201:160 2202:134 2203:254 2204:255 2205:255 2206:253 2207:253 2208:252 2209:254 2210:253 2211:252 2212:255 2213:255 2214:255 2215:225 2216:205 2217:178 2218:202 2219:157 2220:103 2221:197 2222:133 2223:60 2224:193 2225:133 2226:47 2227:200 2228:148 2229:74 2230:225 2231:161 2232:69 2233:199 2234:147 2235:63 2236:187 2237:122 2238:47 2239:187 2240:117 2241:47 2242:196 2243:129 2244:76 2245:154 2246:104 2247:62 2248:196 2249:124 2250:45 2251:169 2252:71 2253:30 2254:119 2255:73 2256:37 2257:84 2258:61 2259:34 2260:172 2261:101 2262:33 2263:204 2264:129 2265:68 2266:166 2267:104 2268:75 2269:139 2270:92 2271:64 2272:205 2273:155 2274:66 2275:180 2276:126 2277:100 2278:122 2279:84 2280:75 2281:184 2282:158 2283:133 2284:170 2285:143 2286:132 2287:115 2288:67 2289:49 2290:111 2291:34 2292:12 2293:152 2294:90 2295:54 2296:237 2297:230 2298:224 2299:255 2300:254 2301:254 2302:255 2303:254 2304:253 2305:255 2306:255 2307:255 2308:255 2309:254 2310:254 2311:245 2312:241 2313:235 2314:206 2315:167 2316:125 2317:198 2318:123 2319:64 2320:207 2321:135 2322:59 2323:206 2324:133 2325:59 2326:202 2327:124 2328:35 2329:182 2330:115 2331:39 2332:193 2333:129 2334:55 2335:220 2336:160 2337:71 2338:183 2339:132 2340:64 2341:147 2342:93 2343:42 2344:205 2345:142 2346:48 2347:219 2348:152 2349:51 2350:175 2351:117 2352:73 2353:62 2354:40 2355:32 2356:141 2357:97 2358:74 2359:201 2360:129 2361:78 2362:159 2363:69 2364:50 2365:145 2366:78 2367:56 2368:141 2369:124 2370:92 2371:90 2372:57 2373:42 2374:101 2375:55 2376:33 2377:143 2378:77 2379:59 2380:149 2381:63 2382:64 2383:148 2384:66 2385:33 2386:146 2387:75 2388:34 2389:208 2390:187 2391:181 2392:254 2393:255 2394:255 2395:252 2396:252 2397:252 2398:255 2399:255 2400:255 2401:255 2402:255 2403:255 2404:255 2405:255 2406:254 2407:254 2408:255 2409:255 2410:241 2411:238 2412:229 2413:208 2414:177 2415:138 2416:190 2417:106 2418:43 2419:189 2420:122 2421:32 2422:206 2423:142 2424:61 2425:182 2426:114 2427:53 2428:217 2429:152 2430:67 2431:226 2432:158 2433:68 2434:156 2435:114 2436:59 2437:206 2438:143 2439:53 2440:208 2441:141 2442:45 2443:192 2444:126 2445:33 2446:120 2447:74 2448:45 2449:74 2450:59 2451:59 2452:144 2453:97 2454:59 2455:186 2456:111 2457:59 2458:181 2459:113 2460:51 2461:223 2462:185 2463:136 2464:94 2465:81 2466:74 2467:108 2468:67 2469:56 2470:130 2471:63 2472:40 2473:120 2474:26 2475:16 2476:140 2477:58 2478:29 2479:129 2480:48 2481:6 2482:196 2483:167 2484:148 2485:255 2486:255 2487:255 2488:254 2489:253 2490:252 2491:255 2492:255 2493:255 2494:255 2495:255 2496:255 2497:255 2498:255 2499:255 2500:255 2501:255 2502:255 2503:253 2504:254 2505:252 2506:252 2507:255 2508:255 2509:251 2510:253 2511:251 2512:204 2513:162 2514:124 2515:125 2516:68 2517:21 2518:133 2519:89 2520:48 2521:126 2522:54 2523:23 2524:132 2525:65 2526:26 2527:160 2528:109 2529:50 2530:155 2531:108 2532:51 2533:184 2534:122 2535:40 2536:189 2537:125 2538:50 2539:157 2540:102 2541:27 2542:162 2543:108 2544:37 2545:108 2546:60 2547:38 2548:159 2549:84 2550:58 2551:164 2552:90 2553:54 2554:214 2555:175 2556:87 2557:223 2558:194 2559:131 2560:143 2561:83 2562:71 2563:113 2564:31 2565:27 2566:126 2567:33 2568:29 2569:140 2570:70 2571:47 2572:130 2573:62 2574:35 2575:186 2576:154 2577:138 2578:252 2579:254 2580:255 2581:250 2582:253 2583:252 2584:255 2585:255 2586:254 2587:255 2588:255 2589:255 2590:255 2591:255 2592:255 2593:255 2594:255 2595:255 2596:255 2597:255 2598:255 2599:255 2600:255 2601:255 2602:254 2603:254 2604:251 2605:255 2606:254 2607:253 2608:255 2609:255 2610:251 2611:204 2612:170 2613:149 2614:153 2615:80 2616:34 2617:168 2618:105 2619:42 2620:102 2621:52 2622:22 2623:97 2624:34 2625:27 2626:185 2627:97 2628:43 2629:187 2630:99 2631:41 2632:214 2633:150 2634:53 2635:212 2636:135 2637:41 2638:204 2639:125 2640:41 2641:134 2642:80 2643:51 2644:110 2645:65 2646:44 2647:115 2648:70 2649:56 2650:171 2651:117 2652:82 2653:127 2654:50 2655:16 2656:122 2657:19 2658:15 2659:121 2660:32 2661:26 2662:140 2663:75 2664:44 2665:143 2666:80 2667:52 2668:216 2669:200 2670:191 2671:255 2672:255 2673:255 2674:254 2675:254 2676:253 2677:255 2678:255 2679:255 2680:255 2681:255 2682:255 2683:255 2684:255 2685:255 2686:255 2687:255 2688:255 2689:255 2690:255 2691:255 2692:255 2693:255 2694:255 2695:255 2696:255 2697:255 2698:255 2699:255 2700:255 2701:254 2702:254 2703:251 2704:252 2705:254 2706:254 2707:251 2708:248 2709:246 2710:194 2711:147 2712:111 2713:188 2714:128 2715:65 2716:162 2717:93 2718:37 2719:82 2720:8 2721:7 2722:136 2723:61 2724:26 2725:119 2726:32 2727:20 2728:182 2729:100 2730:43 2731:162 2732:77 2733:30 2734:146 2735:55 2736:22 2737:142 2738:79 2739:41 2740:188 2741:118 2742:75 2743:143 2744:57 2745:41 2746:92 2747:9 2748:12 2749:135 2750:67 2751:41 2752:151 2753:73 2754:38 2755:141 2756:66 2757:33 2758:132 2759:86 2760:65 2761:224 2762:215 2763:200 2764:255 2765:255 2766:255 2767:253 2768:252 2769:251 2770:255 2771:255 2772:255 2773:255 2774:255 2775:255 2776:255 2777:255 2778:255 2779:255 2780:255 2781:255 2782:255 2783:255 2784:255 2785:255 2786:255 2787:255 2788:255 2789:255 2790:255 2791:255 2792:255 2793:255 2794:255 2795:255 2796:255 2797:254 2798:255 2799:255 2800:254 2801:255 2802:252 2803:251 2804:253 2805:255 2806:250 2807:255 2808:255 2809:239 2810:235 2811:221 2812:173 2813:141 2814:117 2815:140 2816:79 2817:45 2818:161 2819:86 2820:35 2821:189 2822:114 2823:67 2824:169 2825:86 2826:34 2827:149 2828:60 2829:28 2830:145 2831:63 2832:24 2833:150 2834:80 2835:34 2836:165 2837:84 2838:45 2839:123 2840:38 2841:7 2842:119 2843:39 2844:13 2845:160 2846:92 2847:42 2848:176 2849:116 2850:74 2851:178 2852:139 2853:119 2854:233 2855:225 2856:223 2857:255 2858:255 2859:255 2860:252 2861:252 2862:250 2863:255 2864:255 2865:255 2866:255 2867:255 2868:255 2869:255 2870:255 2871:255 2872:255 2873:255 2874:255 2875:255 2876:255 2877:255 2878:255 2879:255 2880:255 2881:255 2882:255 2883:255 2884:255 2885:255 2886:255 2887:255 2888:255 2889:255 2890:255 2891:255 2892:255 2893:255 2894:255 2895:255 2896:255 2897:255 2898:255 2899:255 2900:254 2901:255 2902:254 2903:254 2904:253 2905:254 2906:255 2907:255 2908:254 2909:255 2910:255 2911:245 2912:239 2913:229 2914:211 2915:181 2916:148 2917:167 2918:113 2919:76 2920:160 2921:85 2922:43 2923:157 2924:79 2925:37 2926:156 2927:90 2928:51 2929:137 2930:79 2931:43 2932:131 2933:73 2934:45 2935:123 2936:71 2937:58 2938:156 2939:113 2940:93 2941:202 2942:177 2943:159 2944:239 2945:235 2946:228 2947:253 2948:255 2949:255 2950:255 2951:255 2952:255 2953:254 2954:254 2955:253 2956:255 2957:255 2958:255 2959:255 2960:255 2961:255 2962:255 2963:255 2964:255 2965:255 2966:255 2967:255 2968:255 2969:255 2970:255 2971:255 2972:255 2973:255 2974:255 2975:255 2976:255 2977:255 2978:255 2979:255 2980:255 2981:255 2982:255 2983:255 2984:255 2985:255 2986:255 2987:255 2988:255 2989:255 2990:255 2991:255 2992:255 2993:255 2994:255 2995:255 2996:255 2997:255 2998:255 2999:255 3000:255 3001:254 3002:254 3003:253 3004:253 3005:253 3006:250 3007:253 3008:255 3009:255 3010:254 3011:255 3012:255 3013:245 3014:244 3015:244 3016:227 3017:221 3018:214 3019:222 3020:213 3021:210 3022:235 3023:231 3024:226 3025:225 3026:222 3027:215 3028:241 3029:237 3030:232 3031:252 3032:254 3033:251 3034:255 3035:255 3036:255 3037:255 3038:255 3039:255 3040:255 3041:255 3042:255 3043:253 3044:253 3045:253 3046:251 3047:253 3048:252 3049:255 3050:255 3051:255 3052:255 3053:255 3054:255 3055:255 3056:255 3057:255 3058:255 3059:255 3060:255 3061:255 3062:255 3063:255 3064:255 3065:255 3066:255 3067:255 3068:255 3069:255 3070:255 3071:255 3072:255 
2.516084991118634e-07 1:174 4:168 7:235 8:211 9:211 10:255 11:255 12:255 13:187 14:71 15:71 16:159 19:211 20:151 21:148 22:255 23:255 24:255 25:207 26:135 27:135 28:159 31:192 32:86 33:86 34:255 35:255 36:255 37:225 38:197 39:200 40:157 43:170 44:32 45:37 46:247 47:249 48:245 49:250 50:250 51:244 52:171 53:32 54:34 55:160 58:225 59:198 60:203 61:255 62:255 63:255 64:191 65:86 66:85 67:157 70:205 71:135 72:132 73:255 74:255 75:255 76:213 77:151 78:151 79:161 82:188 83:71 84:72 85:255 86:255 87:255 88:235 89:211 90:210 91:168 94:174 97:168 98:1 100:163 101:2 102:1 103:230 104:209 105:209 106:252 107:255 108:254 109:183 110:72 111:72 112:155 115:206 116:151 117:147 118:253 119:255 120:255 121:205 122:136 123:136 124:155 125:2 126:10 127:190 128:92 129:93 130:251 131:248 132:226 133:226 134:189 135:140 136:204 137:105 138:41 139:203 140:131 141:69 142:214 143:177 144:107 145:216 146:179 147:110 148:188 149:122 150:75 151:197 152:108 153:51 154:218 155:182 156:130 157:249 158:247 159:220 160:192 161:93 162:90 163:153 164:2 165:10 166:204 167:135 168:134 169:253 170:255 171:255 172:210 173:151 174:150 175:155 178:183 179:72 180:72 181:252 182:255 183:254 184:232 185:210 186:207 187:163 188:1 189:3 190:168 191:1 192:1 193:236 194:212 195:211 196:231 197:210 198:209 199:186 200:73 201:72 202:172 203:42 204:40 205:212 206:162 207:161 208:234 209:213 210:213 211:191 212:111 213:107 214:162 215:33 216:37 217:194 218:118 219:115 220:225 221:199 222:150 223:201 224:150 225:79 226:195 227:148 228:77 229:189 230:152 231:82 232:196 233:164 234:98 235:199 236:173 237:97 238:197 239:174 240:99 241:196 242:176 243:124 244:183 245:166 246:109 247:199 248:172 249:107 250:207 251:155 252:93 253:205 254:151 255:78 256:206 257:152 258:79 259:223 260:195 261:151 262:190 263:119 264:117 265:161 266:32 267:36 268:193 269:112 270:106 271:235 272:213 273:212 274:213 275:163 276:162 277:175 278:42 279:41 280:182 281:73 282:71 283:231 284:210 285:209 286:235 287:211 288:211 289:255 290:255 291:255 292:255 293:255 294:255 295:172 296:33 297:31 298:153 301:224 302:190 303:188 304:255 305:255 306:255 307:191 308:92 309:105 310:174 311:26 312:4 313:207 314:151 315:76 316:207 317:162 318:82 319:210 320:168 321:102 322:216 323:200 324:123 325:238 326:236 327:145 328:247 329:250 330:161 331:255 332:255 333:155 334:213 335:201 336:109 337:153 338:100 339:55 340:209 341:196 342:128 343:235 344:240 345:154 346:93 347:145 348:66 349:126 350:148 351:72 352:205 353:168 354:103 355:190 356:151 357:81 358:213 359:152 360:73 361:179 362:37 363:10 364:189 365:94 366:101 367:255 368:255 369:255 370:223 371:191 372:185 373:152 376:173 377:33 378:33 379:255 380:255 381:255 382:255 383:255 384:255 385:187 386:71 387:71 388:183 389:71 390:71 391:212 392:163 393:161 394:223 395:183 396:182 397:190 398:100 399:96 400:176 401:62 402:66 403:193 404:128 405:94 406:204 407:157 408:81 409:198 410:166 411:102 412:203 413:197 414:115 415:124 416:173 417:89 418:230 419:243 420:145 421:241 422:236 423:136 424:225 425:220 426:131 427:237 428:234 429:132 430:223 431:211 432:140 433:161 434:117 435:64 436:143 437:89 438:38 439:171 440:147 441:77 442:128 443:175 444:94 445:148 446:187 447:98 448:254 449:255 450:158 451:226 452:216 453:137 454:196 455:163 456:89 457:201 458:158 459:80 460:207 461:139 462:89 463:175 464:62 465:67 466:186 467:97 468:97 469:223 470:184 471:183 472:212 473:162 474:160 475:183 476:72 477:71 478:186 479:71 480:71 481:158 484:156 487:236 488:229 489:230 490:255 491:255 492:255 493:180 494:55 495:65 496:189 497:66 498:20 499:197 500:153 501:84 502:170 503:149 504:105 505:253 506:245 507:165 508:152 509:191 510:89 511:42 512:109 513:25 514:230 515:215 516:132 517:238 518:231 519:132 520:200 521:170 522:103 523:149 524:87 525:35 526:221 527:219 528:134 529:241 530:250 531:154 532:167 533:131 534:74 535:156 536:118 537:52 538:166 539:198 540:114 541:239 542:244 543:145 544:245 545:242 546:159 547:236 548:241 549:154 550:232 551:240 552:146 553:200 554:176 555:117 556:195 557:145 558:69 559:196 560:79 561:30 562:180 563:60 564:67 565:255 566:255 567:255 568:238 569:229 570:228 571:155 574:158 577:212 578:152 579:149 580:208 581:151 582:147 583:191 584:112 585:108 586:190 587:93 588:101 589:204 590:135 591:90 592:199 593:154 594:72 595:211 596:187 597:128 598:170 599:198 600:121 601:185 602:187 603:119 604:230 605:225 606:141 607:220 608:216 609:135 610:158 611:97 612:40 613:203 614:176 615:92 616:234 617:228 618:149 619:136 620:109 621:49 622:136 623:95 624:32 625:197 626:179 627:107 628:242 629:244 630:154 631:227 632:233 633:132 634:82 635:136 636:57 637:215 638:214 639:122 640:248 641:242 642:156 643:183 644:156 645:92 646:159 647:102 648:50 649:156 650:178 651:88 652:215 653:199 654:127 655:201 656:157 657:86 658:199 659:131 660:87 661:191 662:95 663:99 664:194 665:111 666:109 667:209 668:150 669:147 670:212 671:152 672:149 673:255 674:255 675:255 676:255 677:255 678:255 679:164 680:10 681:16 682:171 683:17 685:207 686:156 687:83 688:191 689:167 690:109 691:251 692:255 693:151 694:232 695:240 696:141 697:198 698:193 699:127 700:202 701:185 702:114 703:209 704:185 705:119 706:151 707:92 708:46 709:159 710:122 711:66 712:204 713:173 714:107 715:184 716:176 717:112 718:147 719:89 720:38 721:127 722:64 723:24 724:179 725:155 726:86 727:255 728:255 729:158 730:146 731:180 732:99 733:175 734:181 735:110 736:244 737:238 738:158 739:152 740:168 741:101 742:105 743:75 744:22 745:180 746:183 747:101 748:135 749:181 750:106 751:150 752:143 753:89 754:211 755:158 756:76 757:179 758:34 759:10 760:161 761:11 762:16 763:255 764:255 765:255 766:255 767:255 768:255 769:208 770:134 771:135 772:204 773:136 774:137 775:193 776:119 777:120 778:209 779:147 780:78 781:206 782:168 783:113 784:241 785:239 786:158 787:245 788:245 789:155 790:245 791:244 792:158 793:155 794:97 795:39 796:160 797:118 798:66 799:171 800:141 801:81 802:148 803:85 804:34 805:159 806:114 807:64 808:146 809:78 810:30 811:153 812:88 813:42 814:147 815:76 816:25 817:134 818:87 819:40 820:149 821:92 822:38 823:192 824:188 825:105 826:133 827:166 828:88 829:155 830:176 831:102 832:115 833:156 834:74 835:205 836:217 837:127 838:116 839:88 840:29 841:161 842:103 843:55 844:128 845:113 846:60 847:224 848:241 849:130 850:199 851:169 852:107 853:208 854:149 855:80 856:195 857:120 858:109 859:204 860:136 861:140 862:207 863:135 864:135 865:159 868:154 871:230 872:200 873:157 874:189 875:160 876:89 877:140 878:159 879:102 880:229 881:225 882:136 883:249 884:241 885:143 886:227 887:239 888:154 889:213 890:197 891:121 892:235 893:223 894:130 895:94 896:140 897:64 898:110 899:130 900:59 901:203 902:165 903:101 904:144 905:80 906:34 907:179 908:166 909:101 910:212 911:198 912:113 913:205 914:208 915:155 916:168 917:128 918:69 919:166 920:128 921:70 922:243 923:228 924:154 925:241 926:230 927:135 928:237 929:243 930:141 931:230 932:220 933:139 934:183 935:138 936:87 937:150 938:96 939:48 940:156 941:91 942:44 943:191 944:163 945:76 946:227 947:226 948:154 949:194 950:158 951:97 952:222 953:187 954:138 955:154 958:160 961:193 962:87 963:89 964:189 965:92 966:96 967:208 968:159 969:80 970:184 971:161 972:105 973:102 974:152 975:72 976:56 977:121 978:33 979:116 980:158 981:81 982:109 983:154 984:78 985:201 986:220 987:127 988:188 989:198 990:119 991:55 992:123 993:40 994:190 995:210 996:133 997:186 998:152 999:89 1000:158 1001:112 1002:60 1003:140 1004:80 1005:32 1006:204 1007:186 1008:113 1009:213 1010:210 1011:137 1012:182 1013:144 1014:80 1015:156 1016:170 1017:100 1018:163 1019:187 1020:109 1021:238 1022:223 1023:140 1024:241 1025:235 1026:148 1027:218 1028:213 1029:147 1030:176 1031:193 1032:117 1033:164 1034:178 1035:102 1036:123 1037:90 1038:34 1039:192 1040:149 1041:90 1042:252 1043:255 1044:155 1045:201 1046:180 1047:113 1048:202 1049:144 1050:75 1051:189 1052:91 1053:88 1054:193 1055:88 1056:87 1057:255 1058:255 1059:255 1060:250 1061:255 1062:234 1063:204 1064:162 1065:85 1066:162 1067:166 1068:105 1069:183 1070:203 1071:120 1072:158 1073:195 1074:114 1075:173 1076:201 1077:104 1078:249 1079:237 1080:145 1081:124 1082:163 1083:71 1084:37 1085:107 1086:26 1087:168 1088:191 1089:107 1090:208 1091:194 1092:118 1093:113 1094:57 1095:15 1096:225 1097:202 1098:133 1099:205 1100:177 1101:104 1102:226 1103:214 1104:131 1105:179 1106:150 1107:89 1108:155 1109:92 1110:40 1111:220 1112:225 1113:141 1114:155 1115:158 1116:86 1117:206 1118:188 1119:125 1120:194 1121:197 1122:133 1123:181 1124:149 1125:85 1126:106 1127:81 1128:22 1129:104 1130:78 1131:17 1132:142 1133:104 1134:43 1135:190 1136:200 1137:122 1138:234 1139:228 1140:121 1141:222 1142:211 1143:127 1144:193 1145:138 1146:65 1147:251 1148:254 1149:219 1150:255 1151:255 1152:255 1153:224 1154:197 1155:199 1156:222 1157:187 1158:137 1159:195 1160:148 1161:83 1162:204 1163:212 1164:128 1165:175 1166:207 1167:124 1168:219 1169:192 1170:125 1171:200 1172:162 1173:87 1174:239 1175:229 1176:143 1177:224 1178:232 1179:144 1180:169 1181:147 1182:81 1183:168 1184:102 1185:49 1186:201 1187:186 1188:117 1189:189 1190:176 1191:108 1192:211 1193:217 1194:131 1195:245 1196:255 1197:138 1198:154 1199:192 1200:97 1201:126 1202:155 1203:83 1204:215 1205:189 1206:122 1207:195 1208:158 1209:95 1210:151 1211:88 1212:38 1213:178 1214:151 1215:99 1216:219 1217:225 1218:146 1219:155 1220:124 1221:65 1222:146 1223:131 1224:65 1225:153 1226:153 1227:82 1228:162 1229:130 1230:70 1231:124 1232:92 1233:37 1234:148 1235:92 1236:33 1237:214 1238:220 1239:133 1240:199 1241:146 1242:79 1243:225 1244:184 1245:127 1246:227 1247:197 1248:196 1249:155 1252:200 1253:106 1254:50 1255:192 1256:168 1257:107 1258:232 1259:223 1260:152 1261:255 1262:251 1263:163 1264:154 1265:116 1266:55 1267:139 1268:116 1269:47 1270:225 1271:218 1272:128 1273:207 1274:183 1275:114 1276:227 1277:206 1278:125 1279:155 1280:116 1281:59 1282:227 1283:216 1284:133 1285:255 1286:254 1287:164 1288:160 1289:184 1290:113 1291:32 1292:104 1293:29 1294:111 1295:90 1296:32 1297:119 1298:117 1299:64 1300:140 1301:152 1302:80 1303:125 1304:63 1305:15 1306:133 1307:74 1308:29 1309:168 1310:150 1311:85 1312:135 1313:168 1314:90 1315:40 1316:113 1317:31 1318:182 1319:211 1320:113 1321:253 1322:247 1323:164 1324:178 1325:132 1326:75 1327:149 1328:75 1329:25 1330:74 1331:99 1332:35 1333:175 1334:206 1335:109 1336:215 1337:192 1338:125 1339:196 1340:115 1341:55 1342:160 1345:171 1346:31 1347:32 1348:185 1349:121 1350:78 1351:186 1352:171 1353:112 1354:188 1355:169 1356:105 1357:138 1358:88 1359:43 1360:174 1361:179 1362:107 1363:172 1364:192 1365:119 1366:196 1367:152 1368:91 1369:151 1370:85 1371:30 1372:219 1373:228 1374:130 1375:155 1376:181 1377:103 1378:240 1379:230 1380:147 1381:208 1382:211 1383:118 1384:182 1385:208 1386:123 1387:137 1388:167 1389:100 1390:112 1391:71 1392:23 1393:165 1394:93 1395:51 1396:81 1397:114 1398:50 1399:74 1400:114 1401:49 1402:161 1403:108 1404:55 1405:130 1406:87 1407:30 1408:144 1409:91 1410:39 1411:147 1412:149 1413:76 1414:250 1415:248 1416:153 1417:221 1418:219 1419:140 1420:210 1421:206 1422:125 1423:165 1424:163 1425:97 1426:118 1427:163 1428:86 1429:248 1430:252 1431:169 1432:203 1433:183 1434:113 1435:205 1436:137 1437:67 1438:177 1439:41 1440:36 1441:248 1442:248 1443:243 1444:209 1445:174 1446:113 1447:198 1448:173 1449:101 1450:227 1451:220 1452:139 1453:169 1454:122 1455:58 1456:217 1457:191 1458:125 1459:170 1460:181 1461:118 1462:78 1463:117 1464:51 1465:74 1466:109 1467:40 1468:219 1469:222 1470:143 1471:200 1472:205 1473:139 1474:160 1475:114 1476:67 1477:124 1478:68 1479:26 1480:121 1481:97 1482:46 1483:149 1484:106 1485:53 1486:122 1487:66 1488:33 1489:121 1490:68 1491:38 1492:158 1493:161 1494:100 1495:164 1496:160 1497:92 1498:148 1499:76 1500:28 1501:153 1502:98 1503:48 1504:148 1505:82 1506:37 1507:154 1508:88 1509:38 1510:181 1511:159 1512:93 1513:113 1514:165 1515:81 1516:33 1517:117 1518:30 1519:163 1520:202 1521:119 1522:220 1523:234 1524:139 1525:246 1526:252 1527:152 1528:205 1529:187 1530:119 1531:211 1532:167 1533:97 1534:245 1535:246 1536:234 1537:249 1538:249 1539:243 1540:217 1541:178 1542:103 1543:213 1544:188 1545:113 1546:228 1547:239 1548:144 1549:135 1550:176 1551:88 1552:240 1553:239 1554:151 1555:205 1556:204 1557:125 1558:42 1559:112 1560:38 1561:158 1562:193 1563:102 1564:254 1565:253 1566:159 1567:191 1568:161 1569:94 1570:130 1571:75 1572:29 1573:136 1574:83 1575:36 1576:153 1577:84 1578:38 1579:151 1580:110 1581:58 1582:167 1583:152 1584:98 1585:103 1586:74 1587:38 1588:149 1589:160 1590:97 1591:177 1592:172 1593:109 1594:181 1595:147 1596:98 1597:164 1598:130 1599:81 1600:128 1601:81 1602:33 1603:125 1604:66 1605:27 1606:180 1607:150 1608:94 1609:141 1610:179 1611:109 1612:2 1613:85 1614:7 1616:86 1617:9 1618:6 1619:93 1620:15 1621:78 1622:141 1623:53 1624:206 1625:184 1626:116 1627:210 1628:165 1629:101 1630:248 1631:249 1632:238 1633:173 1634:32 1635:32 1636:204 1637:132 1638:64 1639:206 1640:185 1641:103 1642:230 1643:223 1644:141 1645:144 1646:161 1647:89 1648:231 1649:224 1650:150 1651:155 1652:181 1653:90 1654:158 1655:194 1656:96 1657:96 1658:147 1659:72 1660:191 1661:213 1662:121 1663:174 1664:117 1665:60 1666:137 1667:81 1668:30 1669:144 1670:88 1671:35 1672:139 1673:70 1674:23 1675:164 1676:137 1677:77 1678:204 1679:198 1680:116 1681:129 1682:66 1683:25 1684:175 1685:180 1686:118 1687:124 1688:151 1689:78 1690:160 1691:93 1692:44 1693:167 1694:164 1695:95 1696:200 1697:202 1698:121 1699:143 1700:81 1701:32 1702:133 1703:124 1704:67 1705:214 1706:225 1707:142 1708:201 1709:210 1710:133 1711:139 1712:168 1713:97 1714:52 1715:116 1716:36 1717:187 1718:205 1719:120 1720:188 1721:169 1722:111 1723:191 1724:129 1725:73 1726:177 1727:41 1728:38 1729:159 1732:198 1733:105 1734:52 1735:201 1736:170 1737:98 1738:243 1739:245 1740:146 1741:253 1742:242 1743:158 1744:237 1745:226 1746:152 1747:232 1748:236 1749:141 1750:209 1751:185 1752:95 1753:119 1754:92 1755:30 1756:225 1757:232 1758:135 1759:200 1760:176 1761:108 1762:146 1763:77 1764:24 1765:128 1766:77 1767:28 1768:160 1769:136 1770:79 1771:210 1772:195 1773:130 1774:138 1775:91 1776:50 1777:151 1778:97 1779:48 1780:232 1781:231 1782:144 1783:120 1784:153 1785:83 1786:119 1787:68 1788:19 1789:205 1790:164 1791:104 1792:220 1793:206 1794:136 1795:212 1796:194 1797:123 1798:78 1799:133 1800:57 1801:61 1802:130 1803:36 1804:249 1805:233 1806:146 1807:221 1808:195 1809:127 1810:223 1811:225 1812:127 1813:255 1814:255 1815:133 1816:199 1817:171 1818:96 1819:203 1820:118 1821:58 1822:161 1825:223 1826:197 1827:199 1828:226 1829:191 1830:139 1831:189 1832:146 1833:78 1834:241 1835:241 1836:154 1837:239 1838:243 1839:135 1840:202 1841:220 1842:139 1843:211 1844:201 1845:132 1846:151 1847:92 1848:43 1849:166 1850:120 1851:60 1852:220 1853:210 1854:140 1855:233 1856:225 1857:154 1858:177 1859:130 1860:81 1861:111 1862:69 1863:25 1864:189 1865:209 1866:107 1867:198 1868:205 1869:120 1870:145 1871:108 1872:61 1873:137 1874:76 1875:30 1876:185 1877:142 1878:73 1879:218 1880:213 1881:144 1882:181 1883:193 1884:116 1885:162 1886:159 1887:90 1888:124 1889:61 1890:12 1891:193 1892:152 1893:84 1894:224 1895:223 1896:150 1897:150 1898:173 1899:94 1900:214 1901:213 1902:129 1903:146 1904:88 1905:37 1906:191 1907:159 1908:87 1909:247 1910:253 1911:141 1912:190 1913:141 1914:72 1915:226 1916:182 1917:128 1918:228 1919:197 1920:198 1921:255 1922:255 1923:255 1924:253 1925:255 1926:228 1927:192 1928:147 1929:74 1930:213 1931:203 1932:113 1933:209 1934:215 1935:118 1936:107 1937:148 1938:77 1939:195 1940:197 1941:113 1942:154 1943:83 1944:30 1945:149 1946:141 1947:74 1948:135 1949:96 1950:41 1951:167 1952:157 1953:91 1954:111 1955:122 1956:57 1957:154 1958:80 1959:36 1960:193 1961:185 1962:105 1963:129 1964:80 1965:29 1966:131 1967:77 1968:37 1969:160 1970:102 1971:48 1972:145 1973:147 1974:73 1975:141 1976:176 1977:100 1978:194 1979:156 1980:97 1981:108 1982:79 1983:27 1984:181 1985:180 1986:106 1987:210 1988:201 1989:118 1990:161 1991:174 1992:105 1993:233 1994:218 1995:141 1996:194 1997:198 1998:111 1999:150 2000:82 2001:30 2002:171 2003:129 2004:66 2005:231 2006:230 2007:145 2008:189 2009:137 2010:68 2011:251 2012:249 2013:210 2014:255 2015:255 2016:255 2017:192 2018:86 2019:87 2020:191 2021:91 2022:89 2023:206 2024:154 2025:84 2026:187 2027:165 2028:95 2029:245 2030:226 2031:148 2032:190 2033:192 2034:119 2035:211 2036:220 2037:143 2038:210 2039:181 2040:107 2041:218 2042:209 2043:124 2044:167 2045:129 2046:73 2047:115 2048:77 2049:26 2050:132 2051:155 2052:70 2053:200 2054:197 2055:102 2056:226 2057:231 2058:157 2059:189 2060:161 2061:92 2062:135 2063:79 2064:38 2065:155 2066:97 2067:45 2068:161 2069:153 2070:81 2071:173 2072:180 2073:99 2074:148 2075:89 2076:42 2077:180 2078:140 2079:96 2080:254 2081:255 2082:169 2083:72 2084:135 2085:54 2086:144 2087:179 2088:99 2089:246 2090:236 2091:143 2092:173 2093:195 2094:102 2095:144 2096:144 2097:81 2098:221 2099:210 2100:127 2101:203 2102:186 2103:120 2104:206 2105:142 2106:67 2107:192 2108:93 2109:85 2110:191 2111:86 2112:87 2113:158 2116:155 2119:228 2120:194 2121:147 2122:203 2123:169 2124:92 2125:222 2126:215 2127:127 2128:203 2129:212 2130:123 2131:217 2132:212 2133:138 2134:187 2135:192 2136:115 2137:191 2138:197 2139:127 2140:190 2141:158 2142:95 2143:146 2144:69 2145:17 2146:161 2147:111 2148:58 2149:145 2150:173 2151:96 2152:231 2153:222 2154:149 2155:164 2156:189 2157:108 2158:129 2159:90 2160:42 2161:135 2162:69 2163:24 2164:149 2165:74 2166:26 2167:143 2168:110 2169:53 2170:149 2171:101 2172:42 2173:167 2174:134 2175:73 2176:149 2177:105 2178:55 2179:133 2180:95 2181:46 2182:182 2183:176 2184:106 2185:252 2186:251 2187:148 2188:136 2189:176 2190:93 2191:128 2192:180 2193:93 2194:248 2195:243 2196:171 2197:189 2198:150 2199:85 2200:230 2201:187 2202:124 2203:156 2206:157 2209:206 2210:135 2211:132 2212:205 2213:135 2214:134 2215:195 2216:120 2217:118 2218:214 2219:152 2220:70 2221:193 2222:160 2223:84 2224:233 2225:238 2226:151 2227:219 2228:207 2229:147 2230:212 2231:216 2232:139 2233:221 2234:213 2235:131 2236:196 2237:198 2238:126 2239:123 2240:110 2241:49 2242:203 2243:174 2244:108 2245:203 2246:213 2247:131 2248:75 2249:132 2250:54 2251:93 2252:145 2253:69 2254:208 2255:189 2256:129 2257:163 2258:129 2259:73 2260:130 2261:82 2262:27 2263:173 2264:152 2265:85 2266:218 2267:237 2268:154 2269:185 2270:150 2271:87 2272:141 2273:85 2274:37 2275:149 2276:87 2277:43 2278:150 2279:80 2280:29 2281:164 2282:123 2283:61 2284:177 2285:139 2286:78 2287:247 2288:246 2289:155 2290:194 2291:166 2292:104 2293:216 2294:153 2295:75 2296:197 2297:123 2298:110 2299:201 2300:136 2301:134 2302:206 2303:135 2304:132 2305:255 2306:255 2307:255 2308:255 2309:255 2310:255 2311:162 2312:10 2313:12 2314:180 2315:28 2316:2 2317:203 2318:155 2319:84 2320:183 2321:163 2322:122 2323:241 2324:250 2325:167 2326:240 2327:238 2328:136 2329:233 2330:216 2331:135 2332:227 2333:227 2334:144 2335:208 2336:194 2337:122 2338:135 2339:167 2340:95 2341:84 2342:143 2343:63 2344:90 2345:152 2346:71 2347:136 2348:164 2349:87 2350:233 2351:220 2352:160 2353:195 2354:221 2355:143 2356:113 2357:78 2358:23 2359:149 2360:98 2361:40 2362:108 2363:127 2364:55 2365:211 2366:200 2367:132 2368:159 2369:106 2370:49 2371:156 2372:113 2373:65 2374:153 2375:107 2376:56 2377:141 2378:76 2379:27 2380:163 2381:122 2382:58 2383:197 2384:185 2385:127 2386:203 2387:159 2388:88 2389:185 2390:45 2391:14 2392:158 2393:11 2394:17 2395:255 2396:255 2397:255 2398:255 2399:255 2400:255 2401:213 2402:151 2403:152 2404:209 2405:152 2406:151 2407:191 2408:113 2409:107 2410:189 2411:94 2412:97 2413:198 2414:132 2415:93 2416:192 2417:146 2418:80 2419:206 2420:186 2421:128 2422:251 2423:252 2424:153 2425:248 2426:245 2427:160 2428:219 2429:201 2430:129 2431:158 2432:79 2433:28 2434:121 2435:143 2436:65 2437:13 2438:99 2439:18 2440:162 2441:195 2442:103 2443:239 2444:227 2445:143 2446:142 2447:87 2448:36 2449:200 2450:198 2451:112 2452:79 2453:125 2454:45 2455:102 2456:85 2457:24 2458:148 2459:83 2460:33 2461:146 2462:79 2463:30 2464:159 2465:81 2466:36 2467:125 2468:84 2469:31 2470:146 2471:169 2472:91 2473:236 2474:236 2475:137 2476:186 2477:175 2478:120 2479:196 2480:151 2481:82 2482:211 2483:149 2484:88 2485:188 2486:94 2487:99 2488:194 2489:110 2490:108 2491:209 2492:152 2493:150 2494:213 2495:151 2496:152 2497:161 2500:154 2503:242 2504:231 2505:231 2506:255 2507:255 2508:255 2509:177 2510:62 2511:67 2512:197 2513:77 2514:23 2515:197 2516:150 2517:81 2518:200 2519:181 2520:117 2521:250 2522:254 2523:150 2524:226 2525:207 2526:133 2527:141 2528:124 2529:62 2530:185 2531:203 2532:105 2533:149 2534:188 2535:101 2536:241 2537:231 2538:158 2539:191 2540:156 2541:96 2542:113 2543:55 2544:12 2545:191 2546:183 2547:112 2548:189 2549:216 2550:131 2551:8 2552:99 2553:13 2554:215 2555:203 2556:132 2557:168 2558:168 2559:102 2560:44 2561:78 2562:13 2563:164 2564:129 2565:63 2566:237 2567:236 2568:149 2569:193 2570:178 2571:116 2572:198 2573:152 2574:83 2575:198 2576:90 2577:35 2578:181 2579:62 2580:64 2581:255 2582:255 2583:255 2584:239 2585:232 2586:231 2587:152 2590:161 2593:188 2594:72 2595:71 2596:183 2597:73 2598:72 2599:213 2600:163 2601:162 2602:222 2603:184 2604:180 2605:188 2606:98 2607:98 2608:176 2609:63 2610:67 2611:206 2612:139 2613:86 2614:203 2615:153 2616:84 2617:190 2618:163 2619:95 2620:226 2621:219 2622:140 2623:101 2624:162 2625:76 2626:65 2627:136 2628:44 2629:26 2630:110 2631:26 2632:157 2633:174 2634:99 2635:117 2636:88 2637:34 2638:120 2639:116 2640:57 2641:191 2642:197 2643:117 2644:204 2645:200 2646:129 2647:42 2648:117 2649:34 2650:130 2651:169 2652:84 2653:219 2654:233 2655:139 2656:93 2657:161 2658:66 2659:208 2660:221 2661:132 2662:202 2663:181 2664:120 2665:197 2666:151 2667:80 2668:200 2669:136 2670:84 2671:181 2672:66 2673:66 2674:190 2675:95 2676:99 2677:225 2678:184 2679:182 2680:211 2681:163 2682:158 2683:184 2684:72 2685:74 2686:188 2687:72 2688:73 2689:255 2690:255 2691:255 2692:255 2693:255 2694:255 2695:175 2696:33 2697:32 2698:154 2701:225 2702:191 2703:188 2704:255 2705:255 2706:255 2707:189 2708:93 2709:102 2710:182 2711:40 2712:13 2713:212 2714:150 2715:80 2716:193 2717:160 2718:92 2719:195 2720:167 2721:107 2722:223 2723:210 2724:111 2725:157 2726:187 2727:96 2728:71 2729:140 2730:52 2731:96 2732:155 2733:77 2734:216 2735:218 2736:142 2737:239 2738:237 2739:147 2740:207 2741:224 2742:130 2743:186 2744:211 2745:103 2746:172 2747:196 2748:107 2749:230 2750:220 2751:142 2752:214 2753:183 2754:118 2755:197 2756:155 2757:81 2758:211 2759:150 2760:74 2761:187 2762:51 2763:16 2764:187 2765:95 2766:101 2767:255 2768:255 2769:255 2770:224 2771:192 2772:188 2773:153 2776:173 2777:32 2778:33 2779:255 2780:255 2781:255 2782:255 2783:255 2784:255 2785:234 2786:210 2787:210 2788:231 2789:209 2790:206 2791:181 2792:73 2793:70 2794:173 2795:42 2796:42 2797:212 2798:162 2799:160 2800:235 2801:213 2802:212 2803:194 2804:110 2805:109 2806:158 2807:31 2808:35 2809:195 2810:118 2811:114 2812:222 2813:190 2814:141 2815:207 2816:146 2817:82 2818:196 2819:140 2820:73 2821:202 2822:161 2823:92 2824:208 2825:185 2826:109 2827:199 2828:177 2829:119 2830:202 2831:183 2832:111 2833:205 2834:182 2835:111 2836:213 2837:193 2838:126 2839:210 2840:186 2841:110 2842:205 2843:163 2844:92 2845:188 2846:144 2847:76 2848:200 2849:140 2850:69 2851:227 2852:185 2853:126 2854:200 2855:121 2856:112 2857:157 2858:30 2859:36 2860:192 2861:111 2862:108 2863:233 2864:213 2865:212 2866:210 2867:163 2868:158 2869:171 2870:42 2871:42 2872:183 2873:73 2874:72 2875:230 2876:209 2877:207 2878:235 2879:210 2880:209 2881:168 2883:1 2884:162 2885:1 2886:3 2887:231 2888:209 2889:208 2890:252 2891:255 2892:255 2893:184 2894:73 2895:72 2896:154 2899:208 2900:150 2901:146 2902:253 2903:255 2904:255 2905:204 2906:137 2907:139 2908:156 2909:2 2910:9 2911:191 2912:94 2913:87 2914:249 2915:244 2916:205 2917:218 2918:179 2919:127 2920:202 2921:115 2922:54 2923:187 2924:128 2925:74 2926:205 2927:165 2928:104 2929:215 2930:166 2931:96 2932:210 2933:137 2934:76 2935:200 2936:115 2937:52 2938:226 2939:183 2940:122 2941:249 2942:241 2943:204 2944:192 2945:93 2946:84 2947:156 2948:2 2949:9 2950:201 2951:133 2952:135 2953:254 2954:255 2955:255 2956:209 2957:152 2958:150 2959:151 2962:183 2963:72 2964:74 2965:253 2966:255 2967:255 2968:230 2969:209 2970:208 2971:162 2972:2 2973:2 2974:167 2976:1 2977:174 2980:168 2982:1 2983:235 2984:212 2985:211 2986:255 2987:255 2988:255 2989:186 2990:71 2991:71 2992:159 2995:212 2996:151 2997:148 2998:255 2999:255 3000:255 3001:207 3002:135 3003:134 3004:161 3007:192 3008:87 3009:87 3010:255 3011:255 3012:255 3013:228 3014:200 3015:203 3016:157 3019:176 3020:40 3021:40 3022:247 3023:247 3024:232 3025:248 3026:248 3027:231 3028:176 3029:41 3030:37 3031:158 3034:228 3035:199 3036:205 3037:255 3038:255 3039:255 3040:191 3041:85 3042:87 3043:158 3046:205 3047:135 3048:132 3049:255 3050:255 3051:255 3052:213 3053:151 3054:151 3055:161 3058:188 3059:71 3060:72 3061:255 3062:255 3063:255 3064:234 3065:209 3066:209 3067:167 3069:1 3070:174 
6.79838677078446e-08 1:59 2:45 3:39 4:53 5:41 6:33 7:121 8:117 9:105 10:225 11:227 12:213 13:76 14:73 15:72 16:39 17:35 18:34 19:47 20:42 21:40 22:53 23:50 24:47 25:60 26:57 27:54 28:51 29:48 30:43 31:45 32:43 33:41 34:47 35:45 36:42 37:59 38:56 39:52 40:57 41:54 42:48 43:32 44:31 45:30 46:8 47:4 48:6 49:12 50:12 51:19 52:2 53:2 54:6 58:3 59:3 60:5 61:24 62:24 63:26 64:7 65:8 66:13 67:1 68:1 69:8 70:24 71:19 72:18 73:81 74:75 75:64 76:65 77:64 78:59 79:12 80:13 81:18 82:4 83:3 84:7 85:19 86:16 87:17 88:4 89:5 90:10 91:1 92:2 93:5 94:1 95:2 96:5 97:53 98:53 99:52 100:46 101:45 102:44 103:81 104:85 105:89 106:195 107:204 108:208 109:73 110:76 111:73 112:50 113:45 114:42 115:55 116:51 117:47 118:62 119:59 120:56 121:59 122:56 123:52 124:48 125:45 126:40 127:54 128:53 129:50 130:60 131:60 132:57 133:60 134:57 135:53 136:49 137:47 138:43 139:48 140:45 141:37 142:48 143:36 144:29 145:13 146:12 147:20 148:5 149:6 150:10 151:1 152:1 153:1 154:4 155:3 156:5 157:24 158:24 159:27 160:8 161:8 162:14 163:5 164:4 165:11 166:39 167:35 168:34 169:83 170:81 171:71 172:61 173:62 174:60 177:4 178:35 179:39 180:40 181:231 182:230 183:226 184:103 185:104 186:106 189:1 190:4 191:5 192:9 193:68 194:65 195:62 196:76 197:73 198:68 199:28 200:26 201:27 202:56 203:58 204:64 205:61 206:54 207:53 208:62 209:54 210:54 211:65 212:60 213:57 214:60 215:57 216:52 217:50 218:47 219:41 220:55 221:52 222:48 223:65 224:61 225:56 226:57 227:54 228:49 229:42 230:41 231:37 232:55 233:54 234:49 235:32 236:32 237:27 238:64 239:51 240:39 241:50 242:46 243:37 244:5 245:4 246:11 247:5 248:5 249:6 250:7 251:6 252:7 253:27 254:27 255:28 256:9 257:9 258:12 259:6 260:5 261:8 262:40 263:36 264:34 265:89 266:90 267:79 268:52 269:54 270:54 271:1 272:1 273:2 274:28 275:33 276:34 277:193 278:203 279:209 280:86 281:94 282:102 286:4 287:4 288:8 289:68 290:64 291:60 292:66 293:63 294:59 295:65 296:60 297:51 298:78 299:74 300:63 301:89 302:80 303:66 304:78 305:66 306:60 307:53 308:50 309:51 310:39 311:35 312:34 313:50 314:45 315:42 316:58 317:54 318:49 319:47 320:44 321:39 322:48 323:44 324:40 325:54 326:53 327:49 328:56 329:58 330:54 331:61 332:53 333:39 334:67 335:57 336:38 337:13 338:13 339:15 342:9 345:4 347:1 348:8 349:15 350:18 351:26 353:1 354:10 357:5 358:28 359:24 360:23 361:84 362:78 363:69 364:49 365:48 366:52 369:5 370:12 371:12 372:18 373:45 374:49 375:64 376:8 377:6 378:16 379:1 380:1 381:2 384:4 385:59 386:55 387:53 388:33 389:30 390:29 391:60 392:57 393:48 394:63 395:63 396:59 397:71 398:69 399:60 400:59 401:56 402:45 403:44 404:43 405:41 406:55 407:57 408:53 409:57 410:59 411:58 412:47 413:47 414:46 415:44 416:42 417:40 418:55 419:54 420:50 421:50 422:50 423:43 424:42 425:39 426:32 427:82 428:62 429:41 430:35 431:22 432:11 433:24 434:12 435:7 436:45 437:26 438:16 439:61 440:35 441:20 442:76 443:48 444:21 445:101 446:62 447:24 448:104 449:62 450:22 451:78 452:44 453:23 454:39 455:29 456:28 457:85 458:83 459:62 460:64 461:61 462:49 463:20 464:18 465:20 466:33 467:30 468:28 469:73 470:71 471:64 472:53 473:49 474:39 475:2 476:3 477:7 480:2 481:29 482:29 483:33 484:7 485:7 486:10 487:15 488:19 489:29 490:91 491:103 492:135 493:51 494:59 495:80 498:4 499:39 500:32 501:32 502:67 503:54 504:47 505:57 506:43 507:32 508:71 509:53 510:32 511:74 512:53 513:35 514:75 515:46 516:29 517:104 518:63 519:30 520:113 521:72 522:36 523:129 524:76 525:29 526:124 527:73 528:19 529:144 530:88 531:25 532:153 533:91 534:27 535:161 536:101 537:31 538:159 539:104 540:35 541:130 542:85 543:34 544:141 545:88 546:28 547:173 548:105 549:18 550:122 551:72 552:22 553:64 554:41 555:23 556:24 557:22 558:16 559:16 560:17 561:18 562:55 563:54 564:45 565:41 566:39 567:34 568:39 569:34 570:29 571:8 572:9 573:15 574:1 575:1 576:2 577:35 578:24 579:20 585:4 586:68 587:87 588:128 589:24 590:40 591:67 592:5 593:8 594:15 595:88 596:67 597:45 598:111 599:65 600:13 601:116 602:65 603:15 604:90 605:54 606:23 607:89 608:50 609:23 610:155 611:84 612:34 613:178 614:105 615:46 616:97 617:63 618:36 619:125 620:74 621:32 622:172 623:105 624:39 625:78 626:43 627:27 628:36 629:20 630:10 631:29 632:16 633:10 634:11 635:7 636:12 639:6 640:30 641:22 642:24 643:136 644:97 645:45 646:163 647:105 648:27 649:147 650:91 651:20 652:44 653:27 654:11 656:1 657:5 658:32 659:42 660:53 661:72 662:80 663:96 664:15 665:14 666:17 667:9 668:9 669:11 672:2 673:85 674:53 675:23 676:116 677:113 678:121 679:105 680:87 681:99 682:112 683:109 684:132 685:132 686:120 687:133 688:178 689:166 690:170 691:168 692:148 693:124 694:141 695:83 696:11 697:151 698:93 699:18 700:69 701:42 702:18 703:94 704:51 705:35 706:137 707:70 708:35 709:140 710:75 711:38 712:91 713:48 714:29 715:75 716:46 717:29 718:155 719:100 720:49 721:115 722:71 723:43 724:93 725:54 726:31 727:76 728:42 729:31 730:48 731:31 732:21 733:55 734:30 735:11 736:89 737:70 738:55 739:149 740:146 741:144 742:152 743:112 744:55 745:159 746:96 747:17 748:62 749:42 750:25 754:14 755:27 756:41 757:69 758:91 759:121 762:6 765:3 766:5 767:5 768:7 769:98 770:57 771:13 772:179 773:176 774:183 775:206 776:195 777:204 778:207 779:238 780:243 781:229 782:202 783:200 784:215 785:198 786:207 787:142 788:135 789:122 790:141 791:78 792:7 793:164 794:103 795:16 796:64 797:39 798:15 799:65 800:35 801:26 802:135 803:70 804:30 805:167 806:91 807:38 808:160 809:87 810:33 811:129 812:75 813:31 814:139 815:84 816:41 817:107 818:66 819:38 820:148 821:90 822:41 823:139 824:78 825:38 826:153 827:95 828:42 829:210 830:136 831:58 832:172 833:111 834:44 835:114 836:98 837:78 838:139 839:92 840:29 841:145 842:85 843:15 844:131 845:110 846:76 847:104 848:99 849:90 850:79 851:73 852:76 853:40 854:38 855:53 856:39 857:36 858:37 859:67 860:64 861:64 862:14 863:14 864:16 865:96 866:49 867:3 868:172 869:160 870:166 871:157 872:185 873:191 874:122 875:184 876:187 877:185 878:206 879:209 880:177 881:205 882:220 883:165 884:152 885:140 886:151 887:84 888:35 889:178 890:108 891:63 892:47 893:29 894:22 895:23 896:18 897:17 898:171 899:104 900:36 901:160 902:97 903:34 904:125 905:72 906:32 907:130 908:75 909:33 910:132 911:70 912:29 913:133 914:78 915:39 916:150 917:87 918:39 919:138 920:79 921:34 922:113 923:63 924:29 925:127 926:82 927:39 928:155 929:111 930:59 931:134 932:122 933:105 934:151 935:100 936:29 937:141 938:83 939:9 940:167 941:152 942:115 943:222 944:226 945:206 946:222 947:220 948:206 949:210 950:209 951:188 952:207 953:206 954:174 955:157 956:155 957:134 958:10 959:8 960:11 961:102 962:49 963:3 964:156 965:151 966:154 967:217 968:195 969:209 970:172 971:186 972:186 973:184 974:209 975:213 976:196 977:213 978:220 979:173 980:154 981:166 982:199 983:129 984:123 985:193 986:125 987:109 988:78 989:52 990:38 991:91 992:83 993:77 994:188 995:112 996:40 997:164 998:98 999:38 1000:147 1001:82 1002:38 1003:157 1004:92 1005:39 1006:138 1007:75 1008:34 1009:143 1010:86 1011:38 1012:157 1013:95 1014:42 1015:139 1016:77 1017:29 1018:138 1019:75 1020:29 1021:133 1022:75 1023:29 1024:145 1025:90 1026:49 1027:154 1028:147 1029:133 1030:155 1031:109 1032:54 1033:135 1034:82 1035:10 1036:163 1037:154 1038:129 1039:175 1040:210 1041:216 1042:186 1043:219 1044:222 1045:218 1046:225 1047:222 1048:220 1049:224 1050:208 1051:158 1052:153 1053:132 1054:97 1055:58 1056:29 1057:112 1058:57 1059:2 1060:149 1061:143 1062:137 1063:221 1064:214 1065:227 1066:177 1067:188 1068:197 1069:200 1070:214 1071:218 1072:197 1073:203 1074:214 1075:97 1076:97 1077:154 1078:211 1079:142 1080:129 1081:155 1082:95 1083:72 1084:133 1085:82 1086:38 1087:157 1088:99 1089:48 1090:131 1091:79 1092:34 1093:140 1094:80 1095:32 1096:127 1097:77 1098:33 1099:158 1100:93 1101:40 1102:161 1103:94 1104:40 1105:138 1106:85 1107:42 1108:206 1109:148 1110:67 1111:165 1112:103 1113:44 1114:151 1115:84 1116:44 1117:183 1118:105 1119:47 1120:148 1121:94 1122:54 1123:165 1124:165 1125:153 1126:157 1127:120 1128:72 1129:123 1130:71 1131:14 1132:142 1133:143 1134:119 1135:156 1136:215 1137:223 1138:161 1139:225 1140:233 1141:177 1142:218 1143:218 1144:204 1145:216 1146:202 1147:166 1148:153 1149:131 1150:133 1151:81 1152:26 1153:132 1154:69 1155:9 1156:150 1157:132 1158:121 1159:197 1160:229 1161:245 1162:181 1163:200 1164:209 1165:244 1166:237 1167:235 1168:112 1169:154 1170:213 1171:75 1172:91 1173:161 1174:217 1175:144 1176:130 1177:76 1178:46 1179:45 1180:76 1181:44 1182:25 1183:154 1184:89 1185:36 1186:124 1187:73 1188:31 1189:144 1190:91 1191:42 1192:150 1193:92 1194:39 1195:130 1196:79 1197:37 1198:134 1199:87 1200:39 1201:157 1202:95 1203:39 1204:196 1205:129 1206:50 1207:231 1208:164 1209:68 1210:149 1211:93 1212:45 1213:142 1214:75 1215:30 1216:158 1217:101 1218:44 1219:170 1220:161 1221:139 1222:178 1223:147 1224:101 1225:148 1226:91 1227:21 1228:129 1229:149 1230:122 1231:117 1232:174 1233:176 1234:148 1235:189 1236:195 1237:134 1238:174 1239:181 1240:180 1241:196 1242:174 1243:159 1244:135 1245:106 1246:135 1247:84 1248:19 1249:186 1250:104 1251:85 1252:171 1253:134 1254:134 1255:216 1256:239 1257:248 1258:232 1259:238 1260:230 1261:146 1262:178 1263:220 1264:55 1265:124 1266:237 1267:120 1268:125 1269:189 1270:208 1271:144 1272:141 1273:90 1274:58 1275:58 1276:57 1277:36 1278:21 1279:172 1280:100 1281:43 1282:142 1283:78 1284:32 1285:118 1286:71 1287:31 1288:150 1289:88 1290:33 1291:169 1292:101 1293:36 1294:162 1295:109 1296:48 1297:138 1298:89 1299:36 1300:150 1301:88 1302:35 1303:157 1304:89 1305:32 1306:142 1307:90 1308:43 1309:165 1310:100 1311:36 1312:196 1313:155 1314:99 1315:161 1316:164 1317:161 1318:186 1319:136 1320:121 1321:163 1322:110 1323:58 1324:128 1325:133 1326:108 1327:141 1328:172 1329:180 1330:175 1331:219 1332:225 1333:145 1334:187 1335:188 1336:196 1337:206 1338:181 1339:142 1340:112 1341:73 1342:120 1343:70 1344:13 1345:197 1346:117 1347:114 1348:166 1349:123 1350:124 1351:212 1352:221 1353:226 1354:163 1355:185 1356:227 1357:93 1358:155 1359:240 1360:89 1361:140 1362:214 1363:95 1364:98 1365:119 1366:188 1367:133 1368:131 1369:194 1370:135 1371:144 1372:75 1373:47 1374:53 1375:97 1376:68 1377:41 1378:178 1379:128 1380:65 1381:168 1382:115 1383:54 1384:189 1385:120 1386:54 1387:213 1388:155 1389:70 1390:213 1391:166 1392:83 1393:192 1394:135 1395:66 1396:191 1397:147 1398:85 1399:169 1400:136 1401:83 1402:167 1403:118 1404:58 1405:194 1406:132 1407:64 1408:126 1409:115 1410:105 1411:121 1412:96 1413:103 1414:207 1415:144 1416:144 1417:188 1418:132 1419:125 1420:115 1421:105 1422:95 1423:132 1424:125 1425:124 1426:172 1427:161 1428:161 1429:161 1430:143 1431:145 1432:168 1433:173 1434:150 1435:165 1436:135 1437:86 1438:127 1439:71 1440:11 1441:203 1442:131 1443:123 1444:137 1445:88 1446:86 1447:39 1448:40 1449:50 1450:62 1451:72 1452:92 1453:56 1454:68 1455:90 1456:26 1457:33 1458:36 1459:34 1460:24 1461:22 1462:189 1463:129 1464:142 1465:188 1466:138 1467:130 1468:174 1469:145 1470:91 1471:160 1472:126 1473:48 1474:201 1475:193 1476:106 1477:202 1478:193 1479:108 1480:200 1481:147 1482:78 1483:225 1484:180 1485:121 1486:210 1487:172 1488:121 1489:188 1490:129 1491:73 1492:204 1493:174 1494:93 1495:233 1496:237 1497:148 1498:224 1499:182 1500:98 1501:197 1502:143 1503:62 1504:161 1505:123 1506:81 1507:196 1508:142 1509:130 1510:207 1511:149 1512:153 1513:169 1514:115 1515:116 1516:149 1517:152 1518:141 1519:209 1520:217 1521:197 1522:212 1523:214 1524:198 1525:174 1526:169 1527:154 1528:187 1529:184 1530:164 1531:149 1532:119 1533:81 1534:140 1535:91 1536:26 1537:200 1538:127 1539:130 1540:170 1541:117 1542:117 1543:7 1544:2 1545:8 1546:7 1547:10 1548:21 1549:6 1550:4 1551:10 1555:77 1556:61 1557:67 1558:208 1559:133 1560:98 1561:161 1562:120 1563:54 1564:189 1565:152 1566:68 1567:224 1568:141 1569:62 1570:201 1571:134 1572:78 1573:205 1574:212 1575:140 1576:195 1577:183 1578:105 1579:186 1580:80 1581:37 1582:191 1583:144 1584:83 1585:218 1586:234 1587:156 1588:201 1589:186 1590:118 1591:193 1592:148 1593:86 1594:185 1595:165 1596:85 1597:228 1598:207 1599:127 1600:217 1601:143 1602:63 1603:211 1604:138 1605:83 1606:212 1607:155 1608:139 1609:152 1610:109 1611:115 1612:22 1613:20 1614:21 1615:107 1616:108 1617:107 1618:140 1619:142 1620:138 1621:149 1622:146 1623:138 1624:106 1625:101 1626:97 1627:102 1628:71 1629:42 1630:134 1631:89 1632:39 1633:193 1634:124 1635:126 1636:198 1637:132 1638:135 1639:112 1640:81 1641:90 1642:9 1643:9 1644:22 1645:56 1646:47 1647:63 1648:49 1649:35 1650:38 1651:169 1652:109 1653:56 1654:226 1655:182 1656:117 1657:161 1658:136 1659:85 1660:172 1661:170 1662:100 1663:226 1664:206 1665:153 1666:186 1667:125 1668:57 1669:168 1670:170 1671:83 1672:191 1673:190 1674:104 1675:186 1676:158 1677:84 1678:181 1679:153 1680:86 1681:203 1682:175 1683:108 1684:208 1685:187 1686:115 1687:201 1688:148 1689:77 1690:196 1691:174 1692:101 1693:207 1694:198 1695:132 1696:185 1697:159 1698:88 1699:187 1700:140 1701:74 1702:194 1703:105 1704:47 1705:174 1706:113 1707:85 1708:1 1709:3 1710:7 1713:6 1714:14 1715:19 1716:34 1717:19 1718:20 1719:33 1720:10 1721:7 1722:11 1723:121 1724:85 1725:36 1726:129 1727:87 1728:36 1729:196 1730:126 1731:129 1732:196 1733:127 1734:130 1735:193 1736:134 1737:144 1738:140 1739:102 1740:117 1741:166 1742:115 1743:112 1744:214 1745:179 1746:121 1747:230 1748:189 1749:117 1750:208 1751:171 1752:117 1753:202 1754:157 1755:99 1756:190 1757:177 1758:123 1759:199 1760:209 1761:138 1762:187 1763:194 1764:102 1765:164 1766:144 1767:82 1768:185 1769:150 1770:85 1771:206 1772:216 1773:125 1774:173 1775:146 1776:71 1777:160 1778:133 1779:61 1780:188 1781:199 1782:106 1783:173 1784:152 1785:73 1786:161 1787:124 1788:63 1789:185 1790:187 1791:116 1792:205 1793:201 1794:112 1795:178 1796:120 1797:55 1798:166 1799:94 1800:32 1801:199 1802:112 1803:48 1804:119 1805:82 1806:59 1807:1 1808:5 1809:13 1810:19 1811:20 1812:29 1813:4 1814:9 1815:20 1816:67 1817:49 1818:53 1819:165 1820:117 1821:78 1822:136 1823:96 1824:32 1825:196 1826:129 1827:132 1828:199 1829:135 1830:138 1831:202 1832:141 1833:144 1834:207 1835:140 1836:142 1837:189 1838:120 1839:62 1840:228 1841:210 1842:129 1843:186 1844:172 1845:95 1846:175 1847:126 1848:54 1849:182 1850:146 1851:68 1852:192 1853:201 1854:124 1855:172 1856:183 1857:103 1858:220 1859:225 1860:151 1861:205 1862:177 1863:119 1864:206 1865:174 1866:106 1867:209 1868:172 1869:114 1870:178 1871:147 1872:65 1873:203 1874:182 1875:120 1876:194 1877:194 1878:130 1879:204 1880:184 1881:116 1882:186 1883:165 1884:91 1885:206 1886:186 1887:112 1888:194 1889:161 1890:93 1891:185 1892:104 1893:54 1894:163 1895:132 1896:61 1897:191 1898:134 1899:60 1900:206 1901:126 1902:64 1903:102 1904:84 1905:69 1906:102 1907:76 1908:100 1909:115 1910:89 1911:110 1912:161 1913:124 1914:140 1915:203 1916:150 1917:153 1918:179 1919:129 1920:95 1921:200 1922:136 1923:138 1924:202 1925:138 1926:138 1927:203 1928:143 1929:146 1930:197 1931:137 1932:120 1933:196 1934:132 1935:71 1936:198 1937:189 1938:118 1939:202 1940:183 1941:99 1942:207 1943:201 1944:141 1945:216 1946:213 1947:139 1948:216 1949:204 1950:126 1951:166 1952:163 1953:77 1954:169 1955:156 1956:78 1957:208 1958:216 1959:126 1960:206 1961:210 1962:124 1963:184 1964:178 1965:96 1966:177 1967:140 1968:66 1969:206 1970:203 1971:131 1972:216 1973:184 1974:121 1975:242 1976:228 1977:150 1978:186 1979:174 1980:99 1981:148 1982:116 1983:47 1984:171 1985:133 1986:76 1987:204 1988:186 1989:102 1990:184 1991:152 1992:74 1993:199 1994:128 1995:72 1996:194 1997:114 1998:47 1999:210 2000:160 2001:106 2002:199 2003:149 2004:163 2005:211 2006:156 2007:171 2008:202 2009:152 2010:157 2011:203 2012:150 2013:154 2014:208 2015:152 2016:152 2017:200 2018:140 2019:141 2020:203 2021:142 2022:140 2023:204 2024:142 2025:149 2026:194 2027:130 2028:97 2029:208 2030:142 2031:73 2032:213 2033:201 2034:138 2035:175 2036:152 2037:78 2038:211 2039:197 2040:122 2041:236 2042:236 2043:170 2044:214 2045:189 2046:128 2047:178 2048:137 2049:68 2050:201 2051:176 2052:113 2053:189 2054:144 2055:71 2056:189 2057:143 2058:67 2059:186 2060:165 2061:97 2062:214 2063:212 2064:136 2065:190 2066:193 2067:125 2068:174 2069:161 2070:88 2071:203 2072:132 2073:65 2074:220 2075:181 2076:112 2077:182 2078:141 2079:73 2080:190 2081:189 2082:117 2083:206 2084:193 2085:120 2086:184 2087:106 2088:51 2089:171 2090:53 2091:17 2092:185 2093:88 2094:36 2095:196 2096:138 2097:79 2098:198 2099:161 2100:150 2101:202 2102:152 2103:158 2104:204 2105:154 2106:156 2107:204 2108:152 2109:153 2110:203 2111:153 2112:154 2113:210 2114:143 2115:146 2116:205 2117:139 2118:141 2119:202 2120:144 2121:148 2122:191 2123:126 2124:85 2125:198 2126:140 2127:85 2128:235 2129:210 2130:143 2131:173 2132:130 2133:64 2134:173 2135:163 2136:80 2137:191 2138:199 2139:108 2140:195 2141:208 2142:116 2143:188 2144:171 2145:91 2146:217 2147:181 2148:113 2149:198 2150:179 2151:110 2152:173 2153:152 2154:69 2155:187 2156:182 2157:103 2158:215 2159:206 2160:135 2161:196 2162:149 2163:90 2164:207 2165:196 2166:109 2167:191 2168:160 2169:89 2170:201 2171:187 2172:136 2173:235 2174:231 2175:163 2176:224 2177:216 2178:163 2179:226 2180:220 2181:148 2182:233 2183:201 2184:135 2185:208 2186:135 2187:73 2188:217 2189:121 2190:47 2191:204 2192:138 2193:69 2194:182 2195:144 2196:122 2197:210 2198:162 2199:166 2200:211 2201:164 2202:164 2203:206 2204:159 2205:159 2206:202 2207:152 2208:154 2209:202 2210:131 2211:134 2212:210 2213:148 2214:152 2215:203 2216:149 2217:155 2218:189 2219:131 2220:92 2221:193 2222:144 2223:93 2224:227 2225:200 2226:134 2227:218 2228:191 2229:128 2230:197 2231:179 2232:103 2233:206 2234:218 2235:136 2236:194 2237:210 2238:127 2239:186 2240:175 2241:86 2242:172 2243:137 2244:45 2245:194 2246:171 2247:98 2248:221 2249:237 2250:155 2251:212 2252:227 2253:133 2254:198 2255:216 2256:124 2257:192 2258:150 2259:85 2260:199 2261:133 2262:64 2263:217 2264:209 2265:128 2266:189 2267:143 2268:78 2269:203 2270:157 2271:84 2272:215 2273:228 2274:147 2275:205 2276:197 2277:112 2278:184 2279:120 2280:53 2281:201 2282:133 2283:70 2284:208 2285:138 2286:73 2287:202 2288:138 2289:68 2290:171 2291:142 2292:118 2293:217 2294:166 2295:175 2296:211 2297:164 2298:164 2299:210 2300:163 2301:163 2302:204 2303:155 2304:157 2305:210 2306:150 2307:152 2308:210 2309:143 2310:147 2311:206 2312:152 2313:160 2314:176 2315:110 2316:84 2317:181 2318:101 2319:46 2320:213 2321:166 2322:120 2323:209 2324:189 2325:123 2326:176 2327:162 2328:79 2329:210 2330:174 2331:105 2332:215 2333:166 2334:106 2335:222 2336:225 2337:143 2338:169 2339:180 2340:82 2341:180 2342:170 2343:84 2344:241 2345:239 2346:169 2347:217 2348:219 2349:134 2350:203 2351:213 2352:117 2353:192 2354:177 2355:93 2356:217 2357:166 2358:106 2359:216 2360:195 2361:116 2362:196 2363:104 2364:43 2365:182 2366:102 2367:52 2368:221 2369:201 2370:117 2371:201 2372:170 2373:95 2374:183 2375:157 2376:83 2377:199 2378:137 2379:82 2380:213 2381:163 2382:91 2383:217 2384:185 2385:114 2386:173 2387:154 2388:144 2389:211 2390:163 2391:175 2392:214 2393:166 2394:169 2395:208 2396:159 2397:161 2398:212 2399:160 2400:162 2401:205 2402:138 2403:142 2404:213 2405:154 2406:157 2407:214 2408:156 2409:168 2410:185 2411:123 2412:109 2413:187 2414:115 2415:51 2416:200 2417:122 2418:65 2419:188 2420:175 2421:101 2422:185 2423:172 2424:94 2425:216 2426:166 2427:89 2428:227 2429:175 2430:94 2431:229 2432:200 2433:124 2434:203 2435:203 2436:115 2437:202 2438:206 2439:118 2440:182 2441:190 2442:113 2443:168 2444:188 2445:94 2446:186 2447:195 2448:106 2449:221 2450:215 2451:133 2452:196 2453:136 2454:68 2455:178 2456:120 2457:52 2458:217 2459:199 2460:120 2461:225 2462:204 2463:118 2464:215 2465:170 2466:88 2467:176 2468:141 2469:73 2470:194 2471:136 2472:82 2473:141 2474:74 2475:39 2476:217 2477:167 2478:96 2479:206 2480:170 2481:103 2482:184 2483:156 2484:154 2485:217 2486:170 2487:183 2488:214 2489:165 2490:169 2491:217 2492:167 2493:170 2494:207 2495:159 2496:160 2497:205 2498:147 2499:152 2500:214 2501:154 2502:156 2503:211 2504:151 2505:161 2506:190 2507:144 2508:146 2509:192 2510:154 2511:96 2512:220 2513:173 2514:103 2515:183 2516:145 2517:85 2518:169 2519:150 2520:72 2521:219 2522:215 2523:129 2524:203 2525:172 2526:87 2527:173 2528:119 2529:46 2530:170 2531:127 2532:51 2533:229 2534:216 2535:139 2536:196 2537:204 2538:121 2539:203 2540:194 2541:116 2542:211 2543:195 2544:120 2545:217 2546:195 2547:117 2548:186 2549:146 2550:68 2551:172 2552:151 2553:75 2554:211 2555:206 2556:128 2557:204 2558:195 2559:121 2560:174 2561:137 2562:76 2563:168 2564:103 2565:46 2566:198 2567:121 2568:59 2569:213 2570:164 2571:94 2572:236 2573:201 2574:128 2575:190 2576:157 2577:113 2578:209 2579:170 2580:174 2581:212 2582:166 2583:172 2584:215 2585:172 2586:174 2587:213 2588:165 2589:168 2590:211 2591:163 2592:165 2593:194 2594:134 2595:146 2596:215 2597:151 2598:156 2599:212 2600:157 2601:162 2602:207 2603:157 2604:170 2605:177 2606:140 2607:121 2608:217 2609:186 2610:120 2611:222 2612:169 2613:93 2614:188 2615:113 2616:47 2617:170 2618:109 2619:54 2620:201 2621:184 2622:104 2623:192 2624:180 2625:103 2626:208 2627:173 2628:103 2629:231 2630:222 2631:144 2632:197 2633:186 2634:99 2635:208 2636:133 2637:76 2638:218 2639:167 2640:89 2641:229 2642:200 2643:96 2644:197 2645:182 2646:82 2647:188 2648:160 2649:85 2650:234 2651:210 2652:143 2653:215 2654:176 2655:101 2656:177 2657:102 2658:42 2659:197 2660:123 2661:54 2662:225 2663:174 2664:93 2665:248 2666:210 2667:130 2668:214 2669:183 2670:115 2671:192 2672:165 2673:152 2674:219 2675:166 2676:181 2677:220 2678:172 2679:174 2680:215 2681:169 2682:172 2683:213 2684:164 2685:168 2686:212 2687:169 2688:171 2689:180 2690:118 2691:129 2692:218 2693:158 2694:162 2695:217 2696:157 2697:163 2698:215 2699:158 2700:166 2701:198 2702:149 2703:158 2704:192 2705:160 2706:126 2707:241 2708:204 2709:123 2710:222 2711:178 2712:100 2713:186 2714:98 2715:53 2716:210 2717:136 2718:67 2719:222 2720:190 2721:104 2722:217 2723:177 2724:103 2725:211 2726:161 2727:83 2728:190 2729:180 2730:92 2731:197 2732:161 2733:90 2734:196 2735:119 2736:52 2737:212 2738:200 2739:103 2740:200 2741:203 2742:93 2743:191 2744:115 2745:47 2746:206 2747:123 2748:50 2749:198 2750:106 2751:31 2752:215 2753:148 2754:76 2755:235 2756:188 2757:113 2758:246 2759:217 2760:139 2761:222 2762:197 2763:125 2764:190 2765:171 2766:134 2767:215 2768:174 2769:183 2770:219 2771:169 2772:174 2773:222 2774:175 2775:178 2776:210 2777:165 2778:167 2779:217 2780:166 2781:171 2782:212 2783:159 2784:166 2785:151 2786:97 2787:107 2788:219 2789:156 2790:162 2791:216 2792:156 2793:160 2794:219 2795:163 2796:167 2797:220 2798:159 2799:169 2800:198 2801:158 2802:163 2803:189 2804:160 2805:122 2806:237 2807:204 2808:124 2809:245 2810:208 2811:129 2812:219 2813:169 2814:98 2815:209 2816:152 2817:83 2818:205 2819:132 2820:64 2821:209 2822:132 2823:61 2824:193 2825:122 2826:57 2827:184 2828:137 2829:68 2830:177 2831:132 2832:60 2833:171 2834:125 2835:61 2836:206 2837:162 2838:80 2839:213 2840:124 2841:44 2842:223 2843:128 2844:48 2845:225 2846:147 2847:80 2848:237 2849:212 2850:136 2851:251 2852:244 2853:165 2854:227 2855:213 2856:149 2857:193 2858:176 2859:152 2860:215 2861:176 2862:191 2863:220 