svm_type c_svc
kernel_type linear
nr_class 2
total_sv 108
rho 1.28835
label 1 0
probA -1.30248
probB 0.73955
nr_sv 36 72
SV
3.375627256089355e-07 1:255 2:255 3:175 4:255 5:255 6:175 7:255 8:255 9:175 10:255 11:255 12:175 13:255 14:255 15:175 16:255 17:255 18:175 19:255 20:255 21:175 22:255 23:255 24:175 25:255 26:255 27:175 28:255 29:255 30:175 31:255 32:255 33:175 34:255 35:255 36:175 37:255 38:255 39:175 40:255 41:255 42:175 43:255 44:255 45:175 46:255 47:255 48:175 49:255 50:255 51:175 52:255 53:255 54:175 55:255 56:255 57:175 58:255 59:255 60:175 61:255 62:255 63:175 64:255 65:255 66:175 67:255 68:255 69:175 70:255 71:255 72:175 73:255 74:255 75:175 76:255 77:255 78:175 79:255 80:255 81:175 82:255 83:255 84:175 85:255 86:255 87:175 88:255 89:255 90:175 91:255 92:255 93:175 94:255 95:255 96:175 97:255 98:255 99:175 100:255 101:255 102:175 103:255 104:255 105:175 106:255 107:255 108:175 109:255 110:255 111:175 112:255 113:255 114:175 115:255 116:255 117:175 118:255 119:255 120:175 121:255 122:255 123:175 124:255 125:255 126:175 127:255 128:255 129:175 130:255 131:255 132:175 133:255 134:255 135:175 136:255 137:255 138:175 139:255 140:255 141:175 142:255 143:255 144:175 145:255 146:255 147:175 148:255 149:255 150:175 151:255 152:255 153:175 154:255 155:255 156:175 157:255 158:255 159:175 160:255 161:255 162:175 163:255 164:255 165:176 166:255 167:255 168:175 169:255 170:255 171:175 172:255 173:255 174:175 175:255 176:255 177:175 178:255 179:255 180:175 181:255 182:255 183:175 184:255 185:255 186:175 187:255 188:255 189:175 190:255 191:255 192:175 193:255 194:255 195:175 196:255 197:255 198:175 199:255 200:255 201:175 202:255 203:255 204:175 205:255 206:255 207:175 208:255 209:255 210:175 211:255 212:255 213:175 214:255 215:255 216:175 217:255 218:255 219:175 220:255 221:255 222:175 223:255 224:255 225:175 226:255 227:255 228:175 229:255 230:255 231:175 232:255 233:255 234:175 235:255 236:255 237:175 238:255 239:255 240:175 241:255 242:255 243:175 244:255 245:255 246:175 247:255 248:255 249:174 250:255 251:255 252:174 253:255 254:254 255:177 256:255 257:255 258:176 259:255 260:255 261:172 262:254 263:254 264:173 265:253 266:252 267:174 268:255 269:254 270:175 271:255 272:255 273:175 274:255 275:255 276:175 277:255 278:255 279:175 280:255 281:255 282:175 283:255 284:255 285:175 286:255 287:255 288:175 289:255 290:255 291:175 292:255 293:255 294:175 295:255 296:255 297:175 298:255 299:255 300:175 301:255 302:255 303:175 304:255 305:255 306:175 307:255 308:255 309:175 310:255 311:255 312:175 313:255 314:255 315:175 316:255 317:255 318:175 319:255 320:255 321:175 322:255 323:255 324:175 325:255 326:255 327:175 328:255 329:255 330:175 331:255 332:255 333:175 334:255 335:255 336:175 337:255 338:255 339:175 340:255 341:255 342:175 343:255 344:254 345:176 346:254 347:252 348:175 349:254 350:253 351:169 352:252 353:251 354:179 355:248 356:250 357:177 358:255 359:255 360:185 361:255 362:255 363:181 364:254 365:254 366:171 367:254 368:252 369:178 370:255 371:255 372:177 373:255 374:255 375:175 376:255 377:255 378:175 379:255 380:255 381:175 382:255 383:255 384:175 385:255 386:255 387:175 388:255 389:255 390:175 391:255 392:255 393:175 394:255 395:255 396:175 397:255 398:255 399:175 400:255 401:255 402:175 403:255 404:255 405:175 406:255 407:255 408:175 409:255 410:255 411:175 412:255 413:255 414:175 415:255 416:255 417:175 418:255 419:255 420:175 421:255 422:255 423:175 424:255 425:255 426:175 427:255 428:255 429:175 430:255 431:255 432:175 433:255 434:255 435:175 436:255 437:255 438:175 439:255 440:254 441:175 442:253 443:254 444:166 445:255 446:255 447:187 448:247 449:244 450:225 451:239 452:238 453:228 454:164 455:158 456:152 457:132 458:130 459:101 460:255 461:255 462:189 463:255 464:255 465:173 466:254 467:254 468:171 469:255 470:255 471:176 472:255 473:255 474:175 475:255 476:255 477:175 478:255 479:255 480:175 481:255 482:255 483:175 484:255 485:255 486:175 487:255 488:255 489:175 490:255 491:255 492:175 493:255 494:255 495:175 496:255 497:255 498:175 499:255 500:255 501:175 502:255 503:255 504:175 505:255 506:255 507:175 508:255 509:255 510:175 511:255 512:255 513:175 514:255 515:255 516:175 517:255 518:255 519:175 520:255 521:255 522:175 523:255 524:255 525:175 526:255 527:255 528:175 529:255 530:255 531:175 532:254 533:254 534:176 535:255 536:255 537:173 538:251 539:251 540:188 541:236 542:231 543:222 544:252 545:251 546:255 547:251 548:252 549:251 550:235 551:234 552:239 553:86 554:83 555:92 556:71 557:68 558:58 559:227 560:224 561:176 562:254 563:254 564:178 565:254 566:254 567:175 568:255 569:255 570:174 571:255 572:255 573:175 574:255 575:255 576:175 577:255 578:255 579:175 580:255 581:255 582:175 583:255 584:255 585:175 586:255 587:255 588:175 589:255 590:255 591:175 592:255 593:255 594:175 595:255 596:255 597:175 598:255 599:255 600:175 601:255 602:255 603:175 604:255 605:255 606:175 607:255 608:255 609:175 610:255 611:255 612:175 613:255 614:255 615:175 616:255 617:255 618:175 619:255 620:255 621:175 622:255 623:255 624:175 625:255 626:254 627:176 628:253 629:253 630:169 631:254 632:254 633:189 634:91 635:87 636:72 637:103 638:99 639:102 640:255 641:255 642:253 643:251 644:251 645:248 646:255 647:255 648:255 649:242 650:241 651:238 652:180 653:178 654:184 655:222 656:217 657:216 658:254 659:253 660:188 661:254 662:254 663:170 664:255 665:255 666:177 667:255 668:255 669:175 670:255 671:255 672:175 673:255 674:255 675:175 676:255 677:255 678:175 679:255 680:255 681:175 682:255 683:255 684:175 685:255 686:255 687:175 688:255 689:255 690:175 691:255 692:255 693:175 694:255 695:255 696:175 697:255 698:255 699:175 700:255 701:255 702:175 703:255 704:255 705:175 706:255 707:255 708:175 709:255 710:255 711:175 712:255 713:255 714:175 715:255 716:255 717:175 718:255 719:255 720:175 721:252 722:251 723:172 724:255 725:255 726:181 727:174 728:175 729:139 733:106 734:106 735:105 736:255 737:255 738:255 739:249 740:249 741:247 742:255 743:255 744:255 745:255 746:255 747:255 748:255 749:255 750:255 751:255 752:250 753:255 754:252 755:244 756:222 757:255 758:254 759:174 760:255 761:255 762:176 763:255 764:255 765:175 766:255 767:255 768:175 769:255 770:255 771:175 772:255 773:255 774:175 775:255 776:255 777:175 778:255 779:255 780:175 781:255 782:255 783:175 784:255 785:255 786:175 787:255 788:255 789:175 790:255 791:255 792:175 793:255 794:255 795:175 796:255 797:255 798:175 799:255 800:255 801:175 802:255 803:255 804:175 805:255 806:255 807:175 808:255 809:255 810:175 811:255 812:255 813:175 814:254 815:254 816:175 817:254 818:253 819:170 820:246 821:245 822:178 823:55 824:53 825:48 829:101 830:97 831:93 832:247 833:244 834:244 835:255 836:255 837:254 838:242 839:241 840:240 841:176 842:172 843:168 844:249 845:246 846:241 847:249 848:240 849:244 850:240 851:226 852:245 853:250 854:249 855:187 856:255 857:255 858:171 859:255 860:255 861:176 862:255 863:255 864:175 865:255 866:255 867:175 868:255 869:255 870:175 871:255 872:255 873:175 874:255 875:255 876:175 877:255 878:255 879:175 880:255 881:255 882:175 883:255 884:255 885:175 886:255 887:255 888:175 889:255 890:255 891:175 892:255 893:255 894:175 895:255 896:255 897:175 898:255 899:255 900:175 901:255 902:255 903:175 904:255 905:255 906:175 907:255 908:255 909:175 910:253 911:253 912:174 913:255 914:255 915:177 916:207 917:203 918:158 921:1 922:45 923:46 924:45 925:212 926:210 927:208 928:235 929:231 930:229 931:191 932:184 933:185 934:61 935:55 936:55 940:171 941:166 942:163 943:255 944:252 945:247 946:224 947:212 948:222 949:230 950:226 951:191 952:255 953:255 954:176 955:255 956:254 957:175 958:255 959:255 960:175 961:255 962:255 963:175 964:255 965:255 966:175 967:255 968:255 969:175 970:255 971:255 972:175 973:255 974:255 975:175 976:255 977:255 978:175 979:255 980:255 981:175 982:255 983:255 984:175 985:255 986:255 987:175 988:255 989:255 990:175 991:255 992:255 993:175 994:255 995:255 996:175 997:255 998:255 999:175 1000:255 1001:255 1002:175 1003:255 1004:255 1005:175 1006:253 1007:253 1008:173 1009:255 1010:255 1011:183 1012:197 1013:193 1014:169 1015:9 1016:10 1017:11 1018:197 1019:193 1020:194 1021:254 1022:244 1023:247 1024:255 1025:255 1026:255 1027:141 1028:134 1029:136 1033:2 1034:2 1035:2 1036:31 1037:26 1038:26 1039:220 1040:206 1041:207 1042:215 1043:199 1044:207 1045:172 1046:161 1047:146 1048:255 1049:255 1050:179 1051:254 1052:254 1053:174 1054:255 1055:255 1056:175 1057:255 1058:255 1059:175 1060:255 1061:255 1062:175 1063:255 1064:255 1065:175 1066:255 1067:255 1068:175 1069:255 1070:255 1071:175 1072:255 1073:255 1074:175 1075:255 1076:255 1077:175 1078:255 1079:255 1080:175 1081:255 1082:255 1083:175 1084:255 1085:255 1086:175 1087:255 1088:255 1089:175 1090:255 1091:255 1092:175 1093:255 1094:255 1095:175 1096:255 1097:255 1098:175 1099:255 1100:255 1101:175 1102:255 1103:255 1104:173 1105:253 1106:251 1107:183 1108:225 1109:219 1110:202 1111:180 1112:171 1113:177 1114:227 1115:207 1116:218 1117:214 1118:191 1119:194 1120:232 1121:216 1122:219 1123:148 1124:139 1125:144 1126:2 1127:2 1128:2 1129:4 1130:4 1131:4 1135:120 1136:107 1137:115 1138:177 1139:163 1140:175 1141:112 1142:106 1143:92 1144:253 1145:254 1146:179 1147:254 1148:254 1149:172 1150:255 1151:255 1152:175 1153:255 1154:255 1155:175 1156:255 1157:255 1158:175 1159:255 1160:255 1161:175 1162:255 1163:255 1164:175 1165:255 1166:255 1167:175 1168:255 1169:255 1170:175 1171:255 1172:255 1173:175 1174:255 1175:255 1176:175 1177:255 1178:255 1179:175 1180:255 1181:255 1182:175 1183:255 1184:255 1185:175 1186:255 1187:255 1188:175 1189:255 1190:255 1191:175 1192:255 1193:255 1194:175 1195:255 1196:255 1197:175 1198:255 1199:255 1200:173 1201:251 1202:247 1203:185 1204:206 1205:195 1206:186 1207:232 1208:220 1209:217 1210:211 1211:191 1212:192 1213:200 1214:185 1215:176 1216:196 1217:184 1218:178 1219:143 1220:131 1221:140 1222:3 1223:2 1224:2 1225:3 1226:4 1227:3 1229:1 1230:1 1231:138 1232:128 1233:132 1234:174 1235:162 1236:173 1237:59 1238:54 1239:55 1240:242 1241:244 1242:176 1243:255 1244:255 1245:172 1246:254 1247:254 1248:175 1249:255 1250:255 1251:175 1252:255 1253:255 1254:175 1255:255 1256:255 1257:175 1258:255 1259:255 1260:175 1261:255 1262:255 1263:175 1264:255 1265:255 1266:175 1267:255 1268:255 1269:175 1270:255 1271:255 1272:175 1273:255 1274:255 1275:175 1276:255 1277:255 1278:175 1279:255 1280:255 1281:175 1282:255 1283:255 1284:175 1285:255 1286:255 1287:175 1288:255 1289:255 1290:175 1291:255 1292:255 1293:175 1294:255 1295:255 1296:174 1297:250 1298:247 1299:183 1300:192 1301:180 1302:178 1303:186 1304:174 1305:174 1306:194 1307:180 1308:172 1309:186 1310:174 1311:169 1312:182 1313:174 1314:184 1315:131 1316:120 1317:136 1322:1 1323:1 1324:3 1325:2 1326:3 1327:155 1328:144 1329:154 1330:166 1331:152 1332:172 1333:69 1334:62 1335:74 1336:226 1337:226 1338:166 1339:255 1340:255 1341:175 1342:254 1343:254 1344:175 1345:255 1346:255 1347:175 1348:255 1349:255 1350:175 1351:255 1352:255 1353:175 1354:255 1355:255 1356:175 1357:255 1358:255 1359:175 1360:255 1361:255 1362:175 1363:255 1364:255 1365:175 1366:255 1367:255 1368:175 1369:255 1370:255 1371:175 1372:255 1373:255 1374:175 1375:255 1376:255 1377:175 1378:255 1379:255 1380:175 1381:255 1382:255 1383:175 1384:255 1385:255 1386:175 1387:254 1388:254 1389:175 1390:255 1391:255 1392:176 1393:243 1394:240 1395:173 1396:182 1397:171 1398:171 1399:170 1400:159 1401:178 1402:182 1403:173 1404:176 1405:173 1406:163 1407:168 1408:160 1409:152 1410:172 1411:156 1412:143 1413:163 1414:72 1415:66 1416:67 1417:1 1420:35 1421:32 1422:35 1423:148 1424:136 1425:156 1426:152 1427:137 1428:167 1429:97 1430:86 1431:104 1432:206 1433:205 1434:151 1435:255 1436:255 1437:178 1438:253 1439:253 1440:175 1441:255 1442:255 1443:175 1444:255 1445:255 1446:175 1447:255 1448:255 1449:175 1450:255 1451:255 1452:175 1453:255 1454:255 1455:175 1456:255 1457:255 1458:175 1459:255 1460:255 1461:175 1462:255 1463:255 1464:175 1465:255 1466:255 1467:175 1468:255 1469:255 1470:175 1471:255 1472:255 1473:175 1474:255 1475:255 1476:175 1477:255 1478:255 1479:175 1480:255 1481:255 1482:175 1483:255 1484:254 1485:175 1486:255 1487:255 1488:175 1489:246 1490:243 1491:176 1492:194 1493:184 1494:181 1495:128 1496:118 1497:131 1498:145 1499:136 1500:154 1501:163 1502:159 1503:182 1504:149 1505:135 1506:154 1507:179 1508:164 1509:180 1510:177 1511:169 1512:179 1513:114 1514:104 1515:113 1516:96 1517:86 1518:96 1519:149 1520:134 1521:157 1522:150 1523:134 1524:168 1525:119 1526:106 1527:126 1528:217 1529:217 1530:156 1531:255 1532:255 1533:176 1534:253 1535:253 1536:175 1537:255 1538:255 1539:175 1540:255 1541:255 1542:175 1543:255 1544:255 1545:175 1546:255 1547:255 1548:175 1549:255 1550:255 1551:175 1552:255 1553:255 1554:175 1555:255 1556:255 1557:175 1558:255 1559:255 1560:175 1561:255 1562:255 1563:175 1564:255 1565:255 1566:175 1567:255 1568:255 1569:175 1570:255 1571:255 1572:175 1573:255 1574:255 1575:175 1576:255 1577:255 1578:175 1579:255 1580:255 1581:175 1582:255 1583:255 1584:173 1585:253 1586:251 1587:184 1588:207 1589:197 1590:190 1591:53 1592:47 1593:48 1594:19 1595:17 1596:21 1597:111 1598:104 1599:112 1600:157 1601:140 1602:169 1603:149 1604:135 1605:150 1606:137 1607:125 1608:145 1609:153 1610:131 1611:168 1612:152 1613:134 1614:152 1615:146 1616:130 1617:143 1618:153 1619:140 1620:168 1621:144 1622:132 1623:142 1624:239 1625:241 1626:170 1627:255 1628:255 1629:172 1630:255 1631:255 1632:175 1633:255 1634:255 1635:175 1636:255 1637:255 1638:175 1639:255 1640:255 1641:175 1642:255 1643:255 1644:175 1645:255 1646:255 1647:175 1648:255 1649:255 1650:175 1651:255 1652:255 1653:175 1654:255 1655:255 1656:175 1657:255 1658:255 1659:175 1660:255 1661:255 1662:175 1663:255 1664:255 1665:175 1666:255 1667:255 1668:175 1669:255 1670:255 1671:175 1672:255 1673:255 1674:175 1675:255 1676:255 1677:175 1678:254 1679:254 1680:174 1681:255 1682:255 1683:182 1684:198 1685:189 1686:177 1687:26 1688:21 1689:24 1693:7 1694:6 1695:4 1696:136 1697:124 1698:146 1699:152 1700:134 1701:157 1702:147 1703:130 1704:152 1705:147 1706:128 1707:156 1708:144 1709:126 1710:147 1711:147 1712:134 1713:159 1714:147 1715:138 1716:168 1717:183 1718:175 1719:171 1720:255 1721:255 1722:180 1723:254 1724:254 1725:172 1726:255 1727:255 1728:176 1729:255 1730:255 1731:175 1732:255 1733:255 1734:175 1735:255 1736:255 1737:175 1738:255 1739:255 1740:175 1741:255 1742:255 1743:175 1744:255 1745:255 1746:175 1747:255 1748:255 1749:175 1750:255 1751:255 1752:175 1753:255 1754:255 1755:175 1756:255 1757:255 1758:175 1759:255 1760:255 1761:175 1762:255 1763:255 1764:175 1765:255 1766:255 1767:175 1768:255 1769:255 1770:175 1771:255 1772:255 1773:175 1774:254 1775:253 1776:175 1777:255 1778:255 1779:177 1780:208 1781:199 1782:185 1783:26 1784:20 1785:28 1786:2 1787:1 1788:2 1789:9 1790:6 1791:8 1792:130 1793:119 1794:142 1795:153 1796:140 1797:164 1798:148 1799:135 1800:155 1801:147 1802:134 1803:158 1804:160 1805:147 1806:173 1807:170 1808:155 1809:186 1810:156 1811:144 1812:175 1813:208 1814:201 1815:183 1816:255 1817:255 1818:178 1819:254 1820:254 1821:172 1822:255 1823:255 1824:175 1825:255 1826:255 1827:175 1828:255 1829:255 1830:175 1831:255 1832:255 1833:175 1834:255 1835:255 1836:175 1837:255 1838:255 1839:175 1840:255 1841:255 1842:175 1843:255 1844:255 1845:175 1846:255 1847:255 1848:175 1849:255 1850:255 1851:175 1852:255 1853:255 1854:175 1855:255 1856:255 1857:175 1858:255 1859:255 1860:175 1861:255 1862:255 1863:175 1864:255 1865:255 1866:175 1867:255 1868:255 1869:175 1870:254 1871:254 1872:176 1873:254 1874:254 1875:171 1876:248 1877:246 1878:196 1879:73 1880:67 1881:65 1885:10 1886:4 1887:3 1888:126 1889:117 1890:130 1891:157 1892:150 1893:178 1894:148 1895:140 1896:172 1897:162 1898:153 1899:183 1900:108 1901:102 1902:114 1903:96 1904:86 1905:95 1906:152 1907:139 1908:154 1909:237 1910:232 1911:190 1912:255 1913:255 1914:171 1915:254 1916:254 1917:174 1918:255 1919:255 1920:175 1921:255 1922:255 1923:175 1924:255 1925:255 1926:175 1927:255 1928:255 1929:175 1930:255 1931:255 1932:175 1933:255 1934:255 1935:175 1936:255 1937:255 1938:175 1939:255 1940:255 1941:175 1942:255 1943:255 1944:175 1945:255 1946:255 1947:175 1948:255 1949:255 1950:175 1951:255 1952:255 1953:175 1954:255 1955:255 1956:175 1957:255 1958:255 1959:175 1960:255 1961:255 1962:175 1963:255 1964:255 1965:175 1966:255 1967:254 1968:176 1969:253 1970:253 1971:170 1972:255 1973:255 1974:185 1975:168 1976:161 1977:151 1978:6 1979:1 1980:5 1984:111 1985:101 1986:107 1987:173 1988:166 1989:185 1990:164 1991:153 1992:178 1993:155 1994:147 1995:165 1996:25 1997:18 1998:20 2002:129 2003:119 2004:121 2005:255 2006:255 2007:200 2008:253 2009:253 2010:169 2011:255 2012:255 2013:176 2014:255 2015:255 2016:175 2017:255 2018:255 2019:175 2020:255 2021:255 2022:175 2023:255 2024:255 2025:175 2026:255 2027:255 2028:175 2029:255 2030:255 2031:175 2032:255 2033:255 2034:175 2035:255 2036:255 2037:175 2038:255 2039:255 2040:175 2041:255 2042:255 2043:175 2044:255 2045:255 2046:175 2047:255 2048:255 2049:175 2050:255 2051:255 2052:175 2053:255 2054:255 2055:175 2056:255 2057:255 2058:175 2059:255 2060:255 2061:175 2062:255 2063:255 2064:176 2065:254 2066:254 2067:172 2068:255 2069:255 2070:172 2071:236 2072:233 2073:197 2074:98 2075:87 2076:94 2077:58 2078:53 2079:53 2080:143 2081:128 2082:135 2083:169 2084:155 2085:173 2086:163 2087:147 2088:162 2089:59 2090:52 2091:55 2092:6 2093:2 2094:2 2095:7 2097:3 2098:192 2099:188 2100:160 2101:255 2102:255 2103:184 2104:252 2105:252 2106:171 2107:255 2108:255 2109:176 2110:255 2111:255 2112:175 2113:255 2114:255 2115:175 2116:255 2117:255 2118:175 2119:255 2120:255 2121:175 2122:255 2123:255 2124:175 2125:255 2126:255 2127:175 2128:255 2129:255 2130:175 2131:255 2132:255 2133:175 2134:255 2135:255 2136:175 2137:255 2138:255 2139:175 2140:255 2141:255 2142:175 2143:255 2144:255 2145:175 2146:255 2147:255 2148:175 2149:255 2150:255 2151:175 2152:255 2153:255 2154:175 2155:255 2156:255 2157:175 2158:255 2159:255 2160:176 2161:255 2162:255 2163:174 2164:254 2165:254 2166:171 2167:252 2168:252 2169:181 2170:196 2171:184 2172:177 2173:169 2174:158 2175:175 2176:184 2177:167 2178:181 2179:172 2180:158 2181:183 2182:120 2183:110 2184:124 2185:3 2191:84 2192:78 2193:74 2194:252 2195:253 2196:192 2197:253 2198:253 2199:167 2200:255 2201:255 2202:175 2203:255 2204:255 2205:175 2206:255 2207:255 2208:175 2209:255 2210:255 2211:175 2212:255 2213:255 2214:175 2215:255 2216:255 2217:175 2218:255 2219:255 2220:175 2221:255 2222:255 2223:175 2224:255 2225:255 2226:175 2227:255 2228:255 2229:175 2230:255 2231:255 2232:175 2233:255 2234:255 2235:175 2236:255 2237:255 2238:175 2239:255 2240:255 2241:175 2242:255 2243:255 2244:175 2245:255 2246:255 2247:175 2248:255 2249:255 2250:175 2251:255 2252:255 2253:175 2254:255 2255:255 2256:175 2257:255 2258:255 2259:175 2260:254 2261:254 2262:176 2263:254 2264:254 2265:174 2266:244 2267:241 2268:178 2269:184 2270:179 2271:166 2272:145 2273:131 2274:155 2275:157 2276:140 2277:169 2278:135 2279:122 2280:143 2281:1 2283:6 2284:76 2285:75 2286:64 2287:234 2288:233 2289:188 2290:254 2291:254 2292:179 2293:254 2294:253 2295:174 2296:255 2297:255 2298:175 2299:255 2300:255 2301:175 2302:255 2303:255 2304:175 2305:255 2306:255 2307:175 2308:255 2309:255 2310:175 2311:255 2312:255 2313:175 2314:255 2315:255 2316:175 2317:255 2318:255 2319:175 2320:255 2321:255 2322:175 2323:255 2324:255 2325:175 2326:255 2327:255 2328:175 2329:255 2330:255 2331:175 2332:255 2333:255 2334:175 2335:255 2336:255 2337:175 2338:255 2339:255 2340:175 2341:255 2342:255 2343:175 2344:255 2345:255 2346:175 2347:255 2348:255 2349:175 2350:255 2351:255 2352:175 2353:255 2354:255 2355:175 2356:255 2357:255 2358:175 2359:254 2360:254 2361:174 2362:255 2363:255 2364:175 2365:253 2366:252 2367:185 2368:202 2369:194 2370:176 2371:165 2372:152 2373:142 2374:172 2375:161 2376:144 2377:173 2378:168 2379:140 2380:251 2381:251 2382:185 2383:255 2384:255 2385:181 2386:254 2387:254 2388:173 2389:255 2390:255 2391:175 2392:255 2393:255 2394:175 2395:255 2396:255 2397:175 2398:255 2399:255 2400:175 2401:255 2402:255 2403:175 2404:255 2405:255 2406:175 2407:255 2408:255 2409:175 2410:255 2411:255 2412:175 2413:255 2414:255 2415:175 2416:255 2417:255 2418:175 2419:255 2420:255 2421:175 2422:255 2423:255 2424:175 2425:255 2426:255 2427:175 2428:255 2429:255 2430:175 2431:255 2432:255 2433:175 2434:255 2435:255 2436:175 2437:255 2438:255 2439:175 2440:255 2441:255 2442:175 2443:255 2444:255 2445:175 2446:255 2447:255 2448:175 2449:255 2450:255 2451:175 2452:255 2453:255 2454:175 2455:255 2456:255 2457:176 2458:254 2459:254 2460:175 2461:255 2462:254 2463:169 2464:255 2465:255 2466:176 2467:255 2468:255 2469:184 2470:255 2471:255 2472:181 2473:255 2474:255 2475:182 2476:253 2477:254 2478:169 2479:254 2480:252 2481:175 2482:255 2483:255 2484:176 2485:255 2486:255 2487:175 2488:255 2489:255 2490:175 2491:255 2492:255 2493:175 2494:255 2495:255 2496:175 2497:255 2498:255 2499:175 2500:255 2501:255 2502:175 2503:255 2504:255 2505:175 2506:255 2507:255 2508:175 2509:255 2510:255 2511:175 2512:255 2513:255 2514:175 2515:255 2516:255 2517:175 2518:255 2519:255 2520:175 2521:255 2522:255 2523:175 2524:255 2525:255 2526:175 2527:255 2528:255 2529:175 2530:255 2531:255 2532:175 2533:255 2534:255 2535:175 2536:255 2537:255 2538:175 2539:255 2540:255 2541:175 2542:255 2543:255 2544:175 2545:255 2546:255 2547:175 2548:255 2549:255 2550:175 2551:255 2552:255 2553:175 2554:255 2555:255 2556:175 2557:255 2558:254 2559:173 2560:253 2561:253 2562:168 2563:254 2564:253 2565:172 2566:254 2567:253 2568:172 2569:252 2570:251 2571:172 2572:255 2573:255 2574:175 2575:255 2576:254 2577:174 2578:255 2579:255 2580:175 2581:255 2582:255 2583:175 2584:255 2585:255 2586:175 2587:255 2588:255 2589:175 2590:255 2591:255 2592:175 2593:255 2594:255 2595:175 2596:255 2597:255 2598:175 2599:255 2600:255 2601:175 2602:255 2603:255 2604:175 2605:255 2606:255 2607:175 2608:255 2609:255 2610:175 2611:255 2612:255 2613:175 2614:255 2615:255 2616:175 2617:255 2618:255 2619:175 2620:255 2621:255 2622:175 2623:255 2624:255 2625:175 2626:255 2627:255 2628:175 2629:255 2630:255 2631:175 2632:255 2633:255 2634:175 2635:255 2636:255 2637:175 2638:255 2639:255 2640:175 2641:255 2642:255 2643:175 2644:255 2645:255 2646:175 2647:255 2648:255 2649:175 2650:255 2651:255 2652:175 2653:255 2654:255 2655:174 2656:255 2657:255 2658:174 2659:255 2660:254 2661:175 2662:255 2663:255 2664:175 2665:255 2666:255 2667:175 2668:255 2669:255 2670:175 2671:255 2672:255 2673:175 2674:255 2675:255 2676:175 2677:255 2678:255 2679:175 2680:255 2681:255 2682:175 2683:255 2684:255 2685:175 2686:255 2687:255 2688:175 2689:255 2690:255 2691:175 2692:255 2693:255 2694:175 2695:255 2696:255 2697:175 2698:255 2699:255 2700:175 2701:255 2702:255 2703:175 2704:255 2705:255 2706:175 2707:255 2708:255 2709:175 2710:255 2711:255 2712:175 2713:255 2714:255 2715:175 2716:255 2717:255 2718:175 2719:255 2720:255 2721:175 2722:255 2723:255 2724:175 2725:255 2726:255 2727:175 2728:255 2729:255 2730:175 2731:255 2732:255 2733:175 2734:255 2735:255 2736:175 2737:255 2738:255 2739:175 2740:255 2741:255 2742:175 2743:255 2744:255 2745:175 2746:255 2747:255 2748:175 2749:255 2750:255 2751:175 2752:255 2753:255 2754:175 2755:255 2756:255 2757:175 2758:255 2759:255 2760:175 2761:255 2762:255 2763:175 2764:255 2765:255 2766:175 2767:255 2768:255 2769:175 2770:255 2771:255 2772:175 2773:255 2774:255 2775:175 2776:255 2777:255 2778:175 2779:255 2780:255 2781:175 2782:255 2783:255 2784:175 2785:255 2786:255 2787:175 2788:255 2789:255 2790:175 2791:255 2792:255 2793:175 2794:255 2795:255 2796:175 2797:255 2798:255 2799:175 2800:255 2801:255 2802:175 2803:255 2804:255 2805:175 2806:255 2807:255 2808:175 2809:255 2810:255 2811:175 2812:255 2813:255 2814:175 2815:255 2816:255 2817:175 2818:255 2819:255 2820:175 2821:255 2822:255 2823:175 2824:255 2825:255 2826:175 2827:255 2828:255 2829:175 2830:255 2831:255 2832:175 2833:255 2834:255 2835:175 2836:255 2837:255 2838:175 2839:255 2840:255 2841:175 2842:255 2843:255 2844:175 2845:255 2846:255 2847:175 2848:255 2849:255 2850:175 2851:255 2852:255 2853:175 2854:255 2855:255 2856:175 2857:255 2858:255 2859:175 2860:255 2861:255 2862:175 2863:255 2864:255 2865:175 2866:255 2867:255 2868:175 2869:255 2870:255 2871:175 2872:255 2873:255 2874:175 2875:255 2876:255 2877:175 2878:255 2879:255 2880:175 2881:255 2882:255 2883:175 2884:255 2885:255 2886:175 2887:255 2888:255 2889:175 2890:255 2891:255 2892:175 2893:255 2894:255 2895:175 2896:255 2897:255 2898:175 2899:255 2900:255 2901:175 2902:255 2903:255 2904:175 2905:255 2906:255 2907:175 2908:255 2909:255 2910:175 2911:255 2912:255 2913:175 2914:255 2915:255 2916:175 2917:255 2918:255 2919:175 2920:255 2921:255 2922:175 2923:255 2924:255 2925:175 2926:255 2927:255 2928:175 2929:255 2930:255 2931:175 2932:255 2933:255 2934:175 2935:255 2936:255 2937:175 2938:255 2939:255 2940:175 2941:255 2942:255 2943:175 2944:255 2945:255 2946:175 2947:255 2948:255 2949:175 2950:255 2951:255 2952:175 2953:255 2954:255 2955:175 2956:255 2957:255 2958:175 2959:255 2960:255 2961:175 2962:255 2963:255 2964:175 2965:255 2966:255 2967:175 2968:255 2969:255 2970:175 2971:255 2972:255 2973:175 2974:255 2975:255 2976:175 2977:255 2978:255 2979:175 2980:255 2981:255 2982:175 2983:255 2984:255 2985:175 2986:255 2987:255 2988:175 2989:255 2990:255 2991:175 2992:255 2993:255 2994:175 2995:255 2996:255 2997:175 2998:255 2999:255 3000:175 3001:255 3002:255 3003:175 3004:255 3005:255 3006:175 3007:255 3008:255 3009:175 3010:255 3011:255 3012:175 3013:255 3014:255 3015:175 3016:255 3017:255 3018:175 3019:255 3020:255 3021:175 3022:255 3023:255 3024:175 3025:255 3026:255 3027:175 3028:255 3029:255 3030:175 3031:255 3032:255 3033:175 3034:255 3035:255 3036:175 3037:255 3038:255 3039:175 3040:255 3041:255 3042:175 3043:255 3044:255 3045:175 3046:255 3047:255 3048:175 3049:255 3050:255 3051:175 3052:255 3053:255 3054:175 3055:255 3056:255 3057:175 3058:255 3059:255 3060:175 3061:255 3062:255 3063:175 3064:255 3065:255 3066:175 3067:255 3068:255 3069:175 3070:255 3071:255 3072:175 
5.41910030150061e-07 1:252 2:252 3:252 4:212 5:212 6:214 7:200 8:199 9:205 10:202 11:201 12:204 13:200 14:200 15:201 16:200 17:199 18:202 19:199 20:199 21:202 22:200 23:200 24:203 25:200 26:200 27:204 28:202 29:201 30:207 31:204 32:203 33:209 34:205 35:204 36:209 37:205 38:205 39:206 40:202 41:201 42:202 43:199 44:198 45:202 46:198 47:197 48:203 49:198 50:197 51:201 52:198 53:197 54:202 55:199 56:198 57:206 58:201 59:200 60:204 61:201 62:200 63:203 64:200 65:199 66:203 67:199 68:199 69:204 70:199 71:198 72:204 73:198 74:199 75:204 76:198 77:199 78:204 79:199 80:198 81:203 82:199 83:198 84:204 85:199 86:198 87:203 88:193 89:194 90:198 91:225 92:226 93:226 94:255 95:255 96:255 97:189 98:188 99:194 100:68 101:66 102:80 103:61 104:59 105:73 106:62 107:60 108:74 109:63 110:61 111:74 112:59 113:57 114:69 115:57 116:55 117:67 118:59 119:57 120:69 121:57 122:55 123:68 124:66 125:63 126:78 127:73 128:71 129:85 130:59 131:56 132:71 133:56 134:54 135:68 136:72 137:68 138:82 139:71 140:65 141:78 142:71 143:66 144:74 145:71 146:67 147:74 148:65 149:62 150:70 151:54 152:51 153:62 154:48 155:46 156:59 157:50 158:50 159:63 160:56 161:56 162:68 163:56 164:53 165:66 166:54 167:52 168:65 169:54 170:53 171:66 172:53 173:52 174:65 175:53 176:50 177:64 178:51 179:49 180:63 181:50 182:48 183:62 184:38 185:37 186:50 187:91 188:91 189:97 190:237 191:237 192:237 193:150 194:150 195:156 196:41 197:40 198:55 199:49 200:48 201:64 202:52 203:50 204:67 205:52 206:51 207:64 208:50 209:48 210:61 211:46 212:43 213:57 214:49 215:45 216:59 217:53 218:50 219:65 220:45 221:42 222:59 223:53 224:49 225:66 226:105 227:102 228:111 229:132 230:130 231:133 232:149 233:146 234:147 235:118 236:115 237:111 238:164 239:161 240:156 241:161 242:158 243:151 244:109 245:101 246:96 247:117 248:109 249:100 250:90 251:81 252:81 253:72 254:64 255:72 256:36 257:36 258:49 259:38 260:37 261:51 262:44 263:41 264:55 265:42 266:39 267:53 268:39 269:38 270:52 271:37 272:38 273:52 274:38 275:38 276:52 277:38 278:37 279:52 280:29 281:29 282:42 283:52 284:52 285:63 286:217 287:217 288:220 289:154 290:154 291:161 292:47 293:46 294:60 295:52 296:51 297:67 298:54 299:53 300:69 301:52 302:52 303:65 304:49 305:48 306:60 307:47 308:45 309:57 310:53 311:48 312:62 313:47 314:42 315:56 316:96 317:94 318:104 319:198 320:197 321:199 322:249 323:249 324:245 325:219 326:220 327:211 328:204 329:204 330:195 331:218 332:217 333:207 334:228 335:227 336:217 337:217 338:216 339:206 340:224 341:217 342:206 343:190 344:183 345:167 346:178 347:170 348:152 349:204 350:194 351:176 352:146 353:134 354:129 355:64 356:58 357:70 358:42 359:40 360:57 361:48 362:47 363:61 364:45 365:44 366:58 367:43 368:43 369:57 370:45 371:44 372:58 373:45 374:44 375:58 376:36 377:36 378:49 379:60 380:60 381:71 382:219 383:218 384:222 385:155 386:154 387:162 388:48 389:45 390:62 391:55 392:52 393:69 394:55 395:54 396:70 397:54 398:54 399:70 400:48 401:46 402:60 403:49 404:45 405:55 406:41 407:34 408:45 409:145 410:139 411:147 412:233 413:232 414:231 415:195 416:194 417:189 418:193 419:193 420:188 421:252 422:253 423:249 424:249 425:250 426:246 427:255 428:255 429:252 430:253 431:254 432:247 433:251 434:252 435:244 436:251 437:248 438:239 439:243 440:240 441:227 442:244 443:240 444:225 445:184 446:178 447:162 448:148 449:136 450:125 451:138 452:127 453:117 454:83 455:77 456:83 457:45 458:41 459:59 460:46 461:44 462:58 463:44 464:42 465:56 466:44 467:43 468:57 469:45 470:44 471:58 472:38 473:37 474:52 475:59 476:59 477:68 478:218 479:218 480:220 481:155 482:154 483:162 484:49 485:46 486:63 487:55 488:52 489:70 490:56 491:54 492:71 493:56 494:55 495:71 496:55 497:51 498:67 499:45 500:34 501:48 502:153 503:147 504:151 505:209 506:209 507:206 508:116 509:114 510:113 511:136 512:135 513:133 514:222 515:222 516:218 517:254 518:254 519:250 520:250 521:250 522:246 523:254 524:254 525:251 526:251 527:252 528:247 529:248 530:248 531:243 532:245 533:244 534:238 535:238 536:238 537:227 538:242 539:240 540:228 541:214 542:211 543:197 544:134 545:128 546:120 547:94 548:86 549:81 550:95 551:85 552:73 553:81 554:71 555:73 556:40 557:38 558:53 559:43 560:39 561:54 562:42 563:40 564:54 565:40 566:39 567:53 568:33 569:33 570:48 571:56 572:56 573:66 574:218 575:218 576:221 577:155 578:153 579:162 580:48 581:45 582:63 583:57 584:54 585:73 586:57 587:54 588:73 589:61 590:58 591:74 592:52 593:47 594:65 595:116 596:112 597:120 598:201 599:201 600:199 601:158 602:157 603:157 604:134 605:131 606:133 607:183 608:183 609:182 610:255 611:255 612:254 613:251 614:252 615:248 616:254 617:254 618:253 619:255 620:255 621:253 622:253 623:253 624:247 625:252 626:250 627:246 628:248 629:248 630:241 631:244 632:244 633:232 634:237 635:236 636:223 637:246 638:243 639:229 640:169 641:166 642:155 643:120 644:113 645:108 646:112 647:102 648:96 649:110 650:101 651:91 652:56 653:51 654:56 655:38 656:34 657:49 658:39 659:37 660:51 661:38 662:36 663:50 664:29 665:31 666:44 667:53 668:54 669:66 670:218 671:218 672:221 673:154 674:154 675:160 676:49 677:46 678:63 679:57 680:53 681:73 682:60 683:57 684:77 685:53 686:50 687:66 688:105 689:102 690:111 691:168 692:170 693:170 694:114 695:116 696:119 697:152 698:154 699:155 700:185 701:185 702:185 703:204 704:204 705:203 706:255 707:255 708:255 709:252 710:252 711:252 712:255 713:255 714:255 715:255 716:255 717:253 718:254 719:254 720:249 721:252 722:252 723:247 724:250 725:249 726:243 727:246 728:246 729:234 730:241 731:239 732:226 733:242 734:239 735:227 736:210 737:206 738:194 739:133 740:126 741:119 742:104 743:97 744:96 745:74 746:67 747:63 748:80 749:70 750:66 751:55 752:50 753:58 754:36 755:34 756:51 757:40 758:38 759:52 760:30 761:31 762:45 763:55 764:55 765:67 766:219 767:218 768:222 769:153 770:154 771:160 772:48 773:47 774:65 775:59 776:56 777:75 778:59 779:57 780:74 781:67 782:65 783:79 784:170 785:170 786:172 787:180 788:180 789:177 790:164 791:165 792:167 793:129 794:133 795:134 796:195 797:200 798:201 799:237 800:238 801:237 802:254 803:254 804:252 805:253 806:253 807:253 808:255 809:255 810:255 811:255 812:255 813:253 814:255 815:255 816:250 817:254 818:252 819:249 820:250 821:249 822:243 823:246 824:245 825:234 826:242 827:240 828:227 829:238 830:237 831:224 832:235 833:230 834:218 835:148 836:140 837:136 838:58 839:55 840:50 841:108 842:104 843:102 844:97 845:91 846:87 847:85 848:79 849:75 850:39 851:38 852:51 853:35 854:39 855:52 856:25 857:30 858:43 859:52 860:54 861:65 862:219 863:218 864:220 865:156 866:155 867:165 868:52 869:49 870:70 871:63 872:60 873:79 874:49 875:46 876:63 877:136 878:135 879:143 880:225 881:224 882:225 883:174 884:174 885:173 886:174 887:175 888:177 889:192 890:196 891:196 892:213 893:216 894:216 895:250 896:250 897:249 898:254 899:254 900:252 901:254 902:254 903:253 904:255 905:255 906:254 907:255 908:255 909:253 910:254 911:255 912:250 913:254 914:253 915:248 916:250 917:250 918:244 919:247 920:247 921:235 922:241 923:239 924:226 925:234 926:232 927:219 928:250 929:244 930:229 931:160 932:152 933:144 934:129 935:124 936:119 937:114 938:112 939:108 940:94 941:90 942:86 943:124 944:114 945:102 946:74 947:65 948:68 949:33 950:31 951:48 952:31 953:30 954:43 955:55 956:55 957:66 958:219 959:218 960:221 961:158 962:156 963:166 964:54 965:50 966:71 967:60 968:57 969:77 970:63 971:60 972:76 973:218 974:218 975:221 976:255 977:255 978:255 979:236 980:236 981:237 982:210 983:211 984:212 985:228 986:234 987:233 988:244 989:245 990:245 991:254 992:253 993:252 994:255 995:255 996:253 997:254 998:254 999:252 1000:253 1001:253 1002:251 1003:254 1004:253 1005:252 1006:255 1007:255 1008:251 1009:253 1010:254 1011:248 1012:251 1013:250 1014:244 1015:245 1016:245 1017:233 1018:245 1019:243 1020:230 1021:239 1022:236 1023:223 1024:239 1025:232 1026:215 1027:224 1028:216 1029:202 1030:147 1031:139 1032:132 1033:110 1034:107 1035:102 1036:154 1037:150 1038:139 1039:190 1040:180 1041:163 1042:119 1043:109 1044:100 1045:34 1046:32 1047:44 1048:39 1049:35 1050:49 1051:54 1052:54 1053:65 1054:218 1055:217 1056:221 1057:159 1058:158 1059:166 1060:56 1061:54 1062:73 1063:51 1064:48 1065:68 1066:108 1067:106 1068:115 1069:255 1070:255 1071:255 1072:253 1073:253 1074:253 1075:255 1076:255 1077:255 1078:254 1079:254 1080:255 1081:252 1082:253 1083:253 1084:255 1085:255 1086:255 1087:255 1088:255 1089:255 1090:255 1091:255 1092:254 1093:255 1094:255 1095:254 1096:254 1097:254 1098:254 1099:251 1100:252 1101:248 1102:252 1103:253 1104:248 1105:252 1106:252 1107:247 1108:246 1109:246 1110:241 1111:249 1112:248 1113:238 1114:246 1115:245 1116:233 1117:239 1118:237 1119:224 1120:236 1121:229 1122:213 1123:232 1124:226 1125:205 1126:223 1127:220 1128:200 1129:194 1130:192 1131:175 1132:208 1133:206 1134:186 1135:186 1136:178 1137:160 1138:159 1139:150 1140:135 1141:50 1142:45 1143:53 1144:35 1145:32 1146:47 1147:55 1148:54 1149:66 1150:218 1151:217 1152:222 1153:159 1154:158 1155:166 1156:58 1157:56 1158:74 1159:48 1160:45 1161:67 1162:155 1163:153 1164:159 1165:254 1166:254 1167:254 1168:252 1169:252 1170:252 1171:254 1172:254 1173:254 1174:255 1175:255 1176:255 1177:255 1178:255 1179:255 1180:253 1181:253 1182:253 1183:248 1184:248 1185:248 1186:254 1187:254 1188:254 1189:253 1190:253 1191:253 1192:254 1193:254 1194:253 1195:254 1196:254 1197:250 1198:247 1199:248 1200:241 1201:246 1202:247 1203:243 1204:252 1205:251 1206:247 1207:249 1208:249 1209:239 1210:243 1211:243 1212:231 1213:238 1214:237 1215:224 1216:237 1217:229 1218:212 1219:228 1220:221 1221:203 1222:216 1223:214 1224:195 1225:219 1226:216 1227:196 1228:205 1229:202 1230:183 1231:187 1232:182 1233:163 1234:171 1235:160 1236:141 1237:75 1238:67 1239:72 1240:26 1241:27 1242:41 1243:56 1244:58 1245:69 1246:218 1247:217 1248:223 1249:158 1250:157 1251:165 1252:57 1253:55 1254:72 1255:55 1256:53 1257:70 1258:202 1259:200 1260:204 1261:255 1262:255 1263:255 1264:253 1265:253 1266:253 1267:255 1268:255 1269:255 1270:254 1271:254 1272:254 1273:255 1274:255 1275:255 1276:209 1277:209 1278:209 1279:200 1280:200 1281:200 1282:255 1283:255 1284:255 1285:255 1286:255 1287:255 1288:255 1289:255 1290:255 1291:255 1292:255 1293:253 1294:255 1295:255 1296:251 1297:247 1298:248 1299:244 1300:255 1301:255 1302:252 1303:250 1304:250 1305:242 1306:251 1307:251 1308:239 1309:242 1310:240 1311:228 1312:242 1313:238 1314:221 1315:241 1316:238 1317:220 1318:232 1319:231 1320:213 1321:212 1322:210 1323:190 1324:214 1325:208 1326:189 1327:195 1328:189 1329:171 1330:172 1331:159 1332:141 1333:88 1334:76 1335:76 1336:25 1337:26 1338:39 1339:57 1340:58 1341:68 1342:218 1343:217 1344:221 1345:156 1346:154 1347:162 1348:54 1349:52 1350:69 1351:60 1352:58 1353:75 1354:222 1355:220 1356:223 1357:255 1358:255 1359:255 1360:253 1361:253 1362:253 1363:255 1364:255 1365:255 1366:255 1367:255 1368:255 1369:254 1370:254 1371:254 1372:203 1373:203 1374:203 1375:241 1376:241 1377:241 1378:255 1379:255 1380:255 1381:170 1382:170 1383:171 1384:169 1385:169 1386:168 1387:227 1388:227 1389:222 1390:176 1391:177 1392:169 1393:237 1394:237 1395:234 1396:197 1397:197 1398:193 1399:147 1400:144 1401:139 1402:153 1403:148 1404:142 1405:151 1406:146 1407:141 1408:138 1409:134 1410:126 1411:133 1412:130 1413:122 1414:134 1415:132 1416:125 1417:210 1418:208 1419:189 1420:213 1421:206 1422:186 1423:197 1424:190 1425:172 1426:172 1427:164 1428:145 1429:99 1430:90 1431:87 1432:24 1433:24 1434:37 1435:57 1436:57 1437:67 1438:218 1439:218 1440:220 1441:155 1442:152 1443:160 1444:48 1445:46 1446:61 1447:57 1448:55 1449:67 1450:222 1451:221 1452:224 1453:255 1454:255 1455:255 1456:253 1457:253 1458:253 1459:255 1460:255 1461:255 1462:255 1463:255 1464:255 1465:249 1466:250 1467:250 1468:204 1469:205 1470:207 1471:213 1472:210 1473:210 1474:215 1475:214 1476:212 1477:154 1478:153 1479:152 1480:195 1481:194 1482:192 1483:204 1484:205 1485:200 1486:168 1487:169 1488:164 1489:226 1490:228 1491:223 1492:195 1493:197 1494:192 1495:148 1496:147 1497:143 1498:116 1499:112 1500:106 1501:141 1502:136 1503:133 1504:108 1505:105 1506:100 1507:167 1508:164 1509:158 1510:146 1511:144 1512:136 1513:203 1514:202 1515:185 1516:210 1517:208 1518:189 1519:195 1520:190 1521:172 1522:172 1523:164 1524:146 1525:93 1526:87 1527:83 1528:21 1529:23 1530:36 1531:54 1532:55 1533:65 1534:218 1535:217 1536:220 1537:159 1538:156 1539:164 1540:48 1541:45 1542:59 1543:57 1544:51 1545:62 1546:225 1547:221 1548:224 1549:255 1550:255 1551:255 1552:253 1553:253 1554:253 1555:254 1556:254 1557:254 1558:255 1559:255 1560:255 1561:236 1562:238 1563:238 1564:193 1565:199 1566:199 1567:157 1568:156 1569:155 1570:138 1571:138 1572:135 1573:113 1574:112 1575:110 1576:148 1577:148 1578:145 1579:175 1580:176 1581:171 1582:199 1583:200 1584:195 1585:194 1586:196 1587:191 1588:215 1589:217 1590:211 1591:210 1592:210 1593:204 1594:127 1595:124 1596:120 1597:112 1598:108 1599:101 1600:137 1601:136 1602:124 1603:125 1604:122 1605:119 1606:166 1607:164 1608:152 1609:220 1610:219 1611:200 1612:204 1613:204 1614:185 1615:193 1616:190 1617:171 1618:172 1619:163 1620:145 1621:90 1622:83 1623:80 1624:21 1625:23 1626:36 1627:53 1628:54 1629:64 1630:218 1631:217 1632:220 1633:159 1634:158 1635:165 1636:52 1637:50 1638:64 1639:55 1640:51 1641:62 1642:222 1643:219 1644:222 1645:255 1646:255 1647:255 1648:253 1649:253 1650:253 1651:255 1652:255 1653:255 1654:255 1655:255 1656:255 1657:242 1658:244 1659:244 1660:217 1661:222 1662:220 1663:206 1664:207 1665:207 1666:197 1667:197 1668:197 1669:176 1670:176 1671:174 1672:198 1673:198 1674:195 1675:244 1676:245 1677:240 1678:234 1679:235 1680:230 1681:215 1682:216 1683:210 1684:252 1685:252 1686:245 1687:247 1688:247 1689:236 1690:218 1691:216 1692:204 1693:215 1694:213 1695:199 1696:186 1697:184 1698:172 1699:146 1700:144 1701:135 1702:205 1703:204 1704:186 1705:216 1706:216 1707:197 1708:207 1709:205 1710:187 1711:190 1712:187 1713:168 1714:168 1715:160 1716:142 1717:94 1718:84 1719:82 1720:20 1721:21 1722:35 1723:52 1724:54 1725:64 1726:216 1727:218 1728:220 1729:158 1730:157 1731:164 1732:56 1733:54 1734:69 1735:48 1736:43 1737:58 1738:199 1739:196 1740:201 1741:255 1742:255 1743:255 1744:252 1745:252 1746:253 1747:255 1748:255 1749:255 1750:254 1751:254 1752:254 1753:255 1754:255 1755:255 1756:255 1757:255 1758:255 1759:255 1760:255 1761:255 1762:255 1763:255 1764:255 1765:255 1766:255 1767:255 1768:255 1769:255 1770:255 1771:255 1772:255 1773:252 1774:249 1775:249 1776:244 1777:250 1778:250 1779:244 1780:251 1781:251 1782:244 1783:245 1784:245 1785:234 1786:237 1787:235 1788:223 1789:216 1790:214 1791:198 1792:228 1793:226 1794:209 1795:226 1796:225 1797:206 1798:216 1799:215 1800:197 1801:207 1802:206 1803:189 1804:209 1805:207 1806:188 1807:185 1808:182 1809:163 1810:161 1811:156 1812:136 1813:76 1814:72 1815:67 1816:17 1817:19 1818:32 1819:50 1820:53 1821:64 1822:216 1823:218 1824:221 1825:159 1826:158 1827:163 1828:61 1829:57 1830:75 1831:45 1832:39 1833:55 1834:147 1835:145 1836:149 1837:255 1838:255 1839:255 1840:252 1841:252 1842:252 1843:254 1844:254 1845:254 1846:255 1847:255 1848:255 1849:255 1850:255 1851:255 1852:253 1853:253 1854:253 1855:253 1856:253 1857:253 1858:253 1859:253 1860:249 1861:252 1862:252 1863:248 1864:252 1865:253 1866:248 1867:249 1868:251 1869:246 1870:243 1871:242 1872:237 1873:246 1874:245 1875:241 1876:247 1877:247 1878:240 1879:243 1880:243 1881:231 1882:239 1883:237 1884:226 1885:235 1886:233 1887:219 1888:227 1889:226 1890:207 1891:220 1892:219 1893:201 1894:217 1895:215 1896:199 1897:216 1898:215 1899:196 1900:201 1901:199 1902:178 1903:177 1904:175 1905:156 1906:157 1907:151 1908:132 1909:60 1910:54 1911:55 1912:19 1913:20 1914:33 1915:50 1916:53 1917:64 1918:216 1919:218 1920:221 1921:159 1922:157 1923:167 1924:59 1925:55 1926:76 1927:52 1928:48 1929:65 1930:99 1931:97 1932:103 1933:255 1934:254 1935:254 1936:255 1937:255 1938:255 1939:255 1940:255 1941:255 1942:214 1943:214 1944:214 1945:228 1946:228 1947:228 1948:255 1949:255 1950:255 1951:255 1952:255 1953:255 1954:254 1955:255 1956:250 1957:253 1958:254 1959:249 1960:249 1961:250 1962:245 1963:247 1964:248 1965:242 1966:255 1967:255 1968:251 1969:255 1970:255 1971:254 1972:241 1973:240 1974:234 1975:240 1976:240 1977:227 1978:237 1979:235 1980:220 1981:229 1982:228 1983:212 1984:223 1985:222 1986:204 1987:225 1988:224 1989:205 1990:213 1991:211 1992:195 1993:189 1994:187 1995:174 1996:200 1997:199 1998:180 1999:177 2000:174 2001:153 2002:136 2003:127 2004:115 2005:29 2006:26 2007:36 2008:22 2009:25 2010:37 2011:51 2012:54 2013:64 2014:216 2015:218 2016:221 2017:158 2018:157 2019:167 2020:57 2021:53 2022:74 2023:65 2024:61 2025:81 2026:58 2027:53 2028:69 2029:212 2030:209 2031:209 2032:249 2033:249 2034:249 2035:183 2036:182 2037:183 2038:141 2039:141 2040:140 2041:160 2042:159 2043:159 2044:207 2045:205 2046:206 2047:250 2048:250 2049:249 2050:251 2051:252 2052:246 2053:249 2054:250 2055:245 2056:249 2057:250 2058:245 2059:254 2060:254 2061:252 2062:211 2063:209 2064:205 2065:170 2066:168 2067:164 2068:247 2069:244 2070:236 2071:238 2072:236 2073:222 2074:230 2075:229 2076:213 2077:223 2078:221 2079:207 2080:230 2081:228 2082:214 2083:200 2084:199 2085:183 2086:126 2087:124 2088:112 2089:118 2090:114 2091:110 2092:130 2093:128 2094:118 2095:163 2096:158 2097:140 2098:82 2099:75 2100:69 2101:14 2102:18 2103:30 2104:24 2105:26 2106:39 2107:50 2108:52 2109:63 2110:215 2111:217 2112:220 2113:159 2114:157 2115:166 2116:56 2117:54 2118:74 2119:66 2120:66 2121:85 2122:46 2123:44 2124:63 2125:130 2126:129 2127:133 2128:185 2129:184 2130:182 2131:133 2132:131 2133:133 2134:156 2135:154 2136:156 2137:144 2138:142 2139:143 2140:165 2141:163 2142:163 2143:242 2144:242 2145:240 2146:254 2147:254 2148:249 2149:251 2150:252 2151:246 2152:250 2153:250 2154:246 2155:254 2156:254 2157:254 2158:176 2159:171 2160:169 2161:98 2162:92 2163:90 2164:238 2165:235 2166:227 2167:237 2168:236 2169:222 2170:227 2171:225 2172:210 2173:223 2174:222 2175:207 2176:231 2177:230 2178:213 2179:131 2180:128 2181:121 2182:114 2183:111 2184:109 2185:100 2186:96 2187:95 2188:86 2189:84 2190:80 2191:82 2192:78 2193:73 2194:45 2195:40 2196:45 2197:24 2198:24 2199:35 2200:23 2201:22 2202:35 2203:47 2204:50 2205:60 2206:215 2207:217 2208:219 2209:155 2210:156 2211:162 2212:52 2213:51 2214:69 2215:63 2216:61 2217:81 2218:64 2219:61 2220:84 2221:52 2222:51 2223:64 2224:186 2225:187 2226:185 2227:147 2228:146 2229:146 2230:129 2231:125 2232:129 2233:51 2234:49 2235:49 2236:133 2237:133 2238:131 2239:215 2240:214 2241:213 2242:255 2243:255 2244:254 2245:247 2246:246 2247:241 2248:252 2249:251 2250:246 2251:254 2252:253 2253:250 2254:201 2255:200 2256:195 2257:160 2258:158 2259:153 2260:233 2261:233 2262:224 2263:232 2264:232 2265:218 2266:225 2267:223 2268:208 2269:226 2270:224 2271:208 2272:210 2273:209 2274:191 2275:134 2276:131 2277:128 2278:73 2279:70 2280:70 2281:55 2282:55 2283:50 2284:97 2285:94 2286:86 2287:59 2288:59 2289:60 2290:32 2291:32 2292:43 2293:31 2294:31 2295:41 2296:20 2297:21 2298:33 2299:45 2300:48 2301:57 2302:216 2303:216 2304:218 2305:154 2306:155 2307:162 2308:50 2309:50 2310:67 2311:60 2312:59 2313:79 2314:60 2315:61 2316:81 2317:50 2318:51 2319:70 2320:91 2321:89 2322:101 2323:188 2324:188 2325:182 2326:107 2327:108 2328:103 2329:144 2330:144 2331:142 2332:164 2333:163 2334:159 2335:180 2336:180 2337:176 2338:254 2339:254 2340:251 2341:246 2342:245 2343:240 2344:248 2345:247 2346:242 2347:233 2348:233 2349:226 2350:233 2351:233 2352:225 2353:236 2354:237 2355:227 2356:225 2357:225 2358:215 2359:221 2360:221 2361:208 2362:217 2363:216 2364:201 2365:220 2366:219 2367:201 2368:180 2369:178 2370:166 2371:117 2372:113 2373:112 2374:108 2375:104 2376:103 2377:52 2378:51 2379:48 2380:54 2381:51 2382:47 2383:42 2384:43 2385:52 2386:27 2387:32 2388:46 2389:30 2390:32 2391:45 2392:21 2393:26 2394:37 2395:44 2396:46 2397:57 2398:216 2399:216 2400:219 2401:154 2402:154 2403:162 2404:46 2405:48 2406:63 2407:57 2408:58 2409:76 2410:54 2411:55 2412:73 2413:62 2414:63 2415:81 2416:43 2417:43 2418:62 2419:110 2420:109 2421:115 2422:231 2423:233 2424:222 2425:140 2426:140 2427:134 2428:111 2429:109 2430:111 2431:155 2432:154 2433:151 2434:231 2435:230 2436:226 2437:251 2438:250 2439:245 2440:222 2441:222 2442:214 2443:211 2444:211 2445:202 2446:212 2447:212 2448:201 2449:210 2450:210 2451:200 2452:194 2453:195 2454:183 2455:183 2456:183 2457:171 2458:210 2459:211 2460:196 2461:210 2462:210 2463:193 2464:141 2465:137 2466:131 2467:79 2468:75 2469:77 2470:78 2471:73 2472:69 2473:82 2474:76 2475:71 2476:41 2477:41 2478:48 2479:27 2480:31 2481:44 2482:27 2483:30 2484:43 2485:30 2486:33 2487:45 2488:26 2489:28 2490:41 2491:48 2492:50 2493:63 2494:217 2495:217 2496:221 2497:153 2498:154 2499:161 2500:44 2501:46 2502:63 2503:54 2504:55 2505:73 2506:55 2507:57 2508:74 2509:56 2510:57 2511:75 2512:57 2513:64 2514:81 2515:34 2516:32 2517:51 2518:120 2519:118 2520:122 2521:207 2522:207 2523:198 2524:130 2525:129 2526:123 2527:143 2528:142 2529:139 2530:170 2531:169 2532:165 2533:238 2534:237 2535:232 2536:238 2537:238 2538:231 2539:237 2540:237 2541:227 2542:227 2543:228 2544:214 2545:221 2546:222 2547:207 2548:217 2549:214 2550:200 2551:209 2552:209 2553:195 2554:209 2555:209 2556:192 2557:169 2558:168 2559:154 2560:98 2561:96 2562:93 2563:68 2564:62 2565:61 2566:72 2567:70 2568:66 2569:43 2570:45 2571:50 2572:27 2573:30 2574:46 2575:31 2576:33 2577:47 2578:29 2579:29 2580:43 2581:33 2582:33 2583:47 2584:27 2585:28 2586:41 2587:51 2588:51 2589:65 2590:217 2591:216 2592:221 2593:151 2594:153 2595:159 2596:43 2597:46 2598:64 2599:51 2600:52 2601:70 2602:52 2603:56 2604:73 2605:55 2606:55 2607:74 2608:53 2609:54 2610:74 2611:49 2612:50 2613:70 2614:24 2615:23 2616:37 2617:99 2618:96 2619:100 2620:213 2621:213 2622:206 2623:203 2624:203 2625:192 2626:174 2627:174 2628:165 2629:215 2630:215 2631:210 2632:224 2633:224 2634:218 2635:235 2636:236 2637:223 2638:224 2639:225 2640:210 2641:218 2642:218 2643:205 2644:209 2645:205 2646:191 2647:187 2648:183 2649:170 2650:188 2651:186 2652:171 2653:133 2654:131 2655:116 2656:91 2657:89 2658:81 2659:93 2660:85 2661:80 2662:44 2663:47 2664:52 2665:28 2666:32 2667:45 2668:36 2669:35 2670:50 2671:34 2672:36 2673:49 2674:31 2675:35 2676:48 2677:32 2678:33 2679:47 2680:26 2681:28 2682:41 2683:51 2684:51 2685:65 2686:217 2687:216 2688:220 2689:149 2690:152 2691:159 2692:42 2693:43 2694:60 2695:52 2696:53 2697:69 2698:47 2699:52 2700:68 2701:51 2702:52 2703:70 2704:51 2705:48 2706:68 2707:45 2708:48 2709:65 2710:45 2711:45 2712:62 2713:28 2714:26 2715:40 2716:48 2717:46 2718:52 2719:149 2720:148 2721:145 2722:212 2723:210 2724:204 2725:166 2726:163 2727:157 2728:142 2729:139 2730:134 2731:129 2732:127 2733:121 2734:155 2735:153 2736:146 2737:150 2738:148 2739:141 2740:117 2741:114 2742:106 2743:96 2744:87 2745:83 2746:92 2747:88 2748:80 2749:120 2750:113 2751:105 2752:79 2753:75 2754:74 2755:34 2756:32 2757:45 2758:29 2759:32 2760:47 2761:33 2762:35 2763:51 2764:30 2765:33 2766:47 2767:30 2768:33 2769:46 2770:29 2771:35 2772:46 2773:31 2774:33 2775:44 2776:26 2777:31 2778:40 2779:49 2780:55 2781:63 2782:217 2783:216 2784:220 2785:145 2786:149 2787:154 2788:36 2789:37 2790:49 2791:47 2792:49 2793:64 2794:44 2795:51 2796:67 2797:51 2798:51 2799:69 2800:47 2801:47 2802:65 2803:45 2804:49 2805:65 2806:47 2807:46 2808:62 2809:43 2810:43 2811:57 2812:37 2813:37 2814:52 2815:25 2816:25 2817:38 2818:55 2819:52 2820:61 2821:86 2822:82 2823:86 2824:84 2825:80 2826:84 2827:62 2828:57 2829:61 2830:73 2831:70 2832:72 2833:74 2834:72 2835:72 2836:49 2837:45 2838:47 2839:49 2840:47 2841:53 2842:49 2843:49 2844:58 2845:39 2846:38 2847:51 2848:29 2849:30 2850:45 2851:31 2852:34 2853:49 2854:33 2855:35 2856:51 2857:33 2858:35 2859:51 2860:27 2861:34 2862:47 2863:30 2864:35 2865:46 2866:30 2867:33 2868:46 2869:32 2870:34 2871:43 2872:27 2873:30 2874:40 2875:45 2876:52 2877:59 2878:214 2879:215 2880:217 2881:170 2882:172 2883:173 2884:43 2885:42 2886:54 2887:41 2888:41 2889:56 2890:43 2891:48 2892:65 2893:48 2894:49 2895:67 2896:44 2897:44 2898:63 2899:43 2900:46 2901:63 2902:44 2903:46 2904:61 2905:43 2906:45 2907:60 2908:37 2909:40 2910:55 2911:43 2912:43 2913:57 2914:37 2915:36 2916:49 2917:25 2918:29 2919:42 2920:28 2921:32 2922:46 2923:37 2924:41 2925:57 2926:38 2927:37 2928:53 2929:39 2930:37 2931:53 2932:40 2933:41 2934:59 2935:39 2936:42 2937:62 2938:37 2939:40 2940:58 2941:37 2942:38 2943:55 2944:36 2945:35 2946:50 2947:33 2948:34 2949:49 2950:33 2951:36 2952:50 2953:33 2954:36 2955:48 2956:31 2957:34 2958:47 2959:33 2960:36 2961:49 2962:30 2963:32 2964:45 2965:27 2966:31 2967:41 2968:14 2969:19 2970:31 2971:58 2972:63 2973:73 2974:229 2975:229 2976:231 2977:243 2978:243 2979:244 2980:176 2981:175 2982:178 2983:159 2984:160 2985:163 2986:161 2987:165 2988:172 2989:164 2990:162 2991:172 2992:163 2993:162 2994:172 2995:164 2996:163 2997:173 2998:162 2999:162 3000:169 3001:164 3002:164 3003:172 3004:162 3005:162 3006:171 3007:159 3008:158 3009:165 3010:162 3011:161 3012:168 3013:163 3014:162 3015:172 3016:160 3017:162 3018:171 3019:159 3020:162 3021:171 3022:166 3023:165 3024:173 3025:166 3026:165 3027:172 3028:163 3029:163 3030:172 3031:164 3032:163 3033:171 3034:162 3035:162 3036:168 3037:159 3038:160 3039:166 3040:159 3041:159 3042:166 3043:159 3044:160 3045:167 3046:159 3047:159 3048:166 3049:160 3050:160 3051:167 3052:160 3053:160 3054:165 3055:159 3056:159 3057:163 3058:157 3059:158 3060:163 3061:157 3062:158 3063:163 3064:148 3065:150 3066:155 3067:191 3068:194 3069:199 3070:255 3071:255 3072:255 
4.650091473952383e-07 1:212 2:216 3:214 4:229 5:227 6:229 7:206 8:204 9:204 10:198 11:199 12:198 13:194 14:194 15:194 16:193 17:193 18:193 19:192 20:192 21:192 22:192 23:192 24:192 25:192 26:192 27:192 28:193 29:192 30:192 31:192 32:192 33:192 34:190 35:190 36:191 37:190 38:189 39:191 40:206 41:206 42:206 43:239 44:238 45:238 46:255 47:254 48:253 49:238 50:237 51:234 52:223 53:222 54:222 55:215 56:214 57:215 58:223 59:225 60:226 61:215 62:216 63:218 64:216 65:217 66:219 67:231 68:231 69:230 70:252 71:252 72:250 73:250 74:250 75:249 76:248 77:249 78:246 79:248 80:248 81:245 82:247 83:247 84:244 85:252 86:252 87:249 88:249 89:249 90:245 91:249 92:249 93:247 94:206 95:206 96:206 97:219 98:218 99:220 100:255 101:252 102:248 103:251 104:250 105:239 106:248 107:249 108:244 109:235 110:235 111:235 112:210 113:210 114:210 115:201 116:201 117:201 118:190 119:190 120:190 121:191 122:191 123:191 124:188 125:188 126:188 127:193 128:193 129:194 130:196 131:196 132:195 133:219 134:219 135:215 136:249 137:249 138:236 139:229 140:225 141:220 142:212 143:210 144:207 145:216 146:216 147:209 148:223 149:223 150:217 151:223 152:222 153:217 154:236 155:235 156:228 157:234 158:232 159:224 160:224 161:222 162:214 163:213 164:210 165:201 166:193 167:191 168:182 169:199 170:201 171:190 172:200 173:201 174:192 175:199 176:200 177:193 178:179 179:180 180:172 181:177 182:178 183:171 184:185 185:186 186:179 187:211 188:211 189:206 190:214 191:214 192:214 193:214 194:213 195:215 196:252 197:248 198:240 199:253 200:250 201:232 202:255 203:255 204:248 205:241 206:241 207:240 208:193 209:193 210:193 211:199 212:200 213:198 214:191 215:192 216:193 217:198 218:195 219:202 220:214 221:214 222:209 223:203 224:200 225:188 226:202 227:204 228:193 229:199 230:202 231:195 232:174 233:175 234:171 235:170 236:168 237:169 238:164 239:164 240:165 241:161 242:162 243:160 244:168 245:169 246:169 247:159 248:160 249:160 250:98 251:98 252:95 253:116 254:117 255:108 256:154 257:155 258:144 259:176 260:175 261:162 262:176 263:176 264:163 265:172 266:175 267:161 268:178 269:179 270:169 271:175 272:176 273:169 274:156 275:158 276:148 277:138 278:139 279:133 280:147 281:148 282:142 283:206 284:207 285:203 286:205 287:206 288:206 289:208 290:207 291:209 292:251 293:246 294:239 295:254 296:252 297:232 298:250 299:251 300:243 301:204 302:204 303:203 304:190 305:190 306:190 307:205 308:205 309:207 310:208 311:207 312:204 313:196 314:192 315:177 316:138 317:134 318:115 319:114 320:109 321:95 322:168 323:173 324:173 325:174 326:179 327:185 328:163 329:168 330:173 331:169 332:172 333:177 334:168 335:172 336:176 337:162 338:167 339:172 340:158 341:162 342:166 343:163 344:166 345:171 346:109 347:112 348:116 349:28 350:31 351:29 352:36 353:39 354:34 355:82 356:84 357:78 358:146 359:147 360:135 361:186 362:187 363:173 364:186 365:188 366:175 367:173 368:175 369:165 370:165 371:167 372:156 373:155 374:156 375:150 376:146 377:147 378:140 379:209 380:210 381:205 382:209 383:209 384:209 385:208 386:207 387:209 388:251 389:247 390:240 391:254 392:253 393:231 394:251 395:252 396:244 397:207 398:207 399:206 400:204 401:205 402:203 403:206 404:208 405:197 406:147 407:146 408:129 409:73 410:68 411:57 412:64 413:65 414:58 415:171 416:174 417:178 418:189 419:194 420:200 421:183 422:188 423:192 424:178 425:184 426:187 427:173 428:179 429:182 430:173 431:178 432:182 433:169 434:174 435:178 436:164 437:167 438:172 439:159 440:162 441:166 442:169 443:174 444:176 445:124 446:127 447:130 448:25 449:26 450:29 451:19 452:18 453:25 454:41 455:40 456:44 457:114 458:115 459:108 460:185 461:188 462:172 463:176 464:178 465:165 466:170 467:172 468:158 469:161 470:163 471:152 472:145 473:146 474:138 475:187 476:188 477:182 478:221 479:221 480:221 481:213 482:212 483:212 484:254 485:250 486:241 487:253 488:251 489:230 490:251 491:252 492:244 493:255 494:255 495:255 496:230 497:230 498:220 499:116 500:118 501:102 502:51 503:51 504:41 505:42 506:41 507:39 508:163 509:166 510:169 511:195 512:202 513:204 514:185 515:190 516:193 517:179 518:184 519:188 520:173 521:178 522:182 523:173 524:176 525:181 526:172 527:176 528:181 529:168 530:171 531:176 532:163 533:167 534:170 535:161 536:164 537:167 538:154 539:156 540:158 541:165 542:167 543:168 544:99 545:100 546:101 547:15 548:15 549:16 550:17 551:19 552:25 553:21 554:23 555:30 556:104 557:105 558:99 559:180 560:181 561:168 562:173 563:174 564:161 565:161 566:163 567:150 568:153 569:155 570:144 571:201 572:202 573:197 574:213 575:214 576:214 577:220 578:220 579:217 580:254 581:250 582:241 583:253 584:251 585:230 586:254 587:254 588:247 589:236 590:237 591:226 592:115 593:117 594:93 595:35 596:35 597:31 598:31 599:35 600:37 601:95 602:97 603:97 604:202 605:204 606:206 607:186 608:191 609:195 610:184 611:189 612:192 613:179 614:185 615:188 616:175 617:179 618:183 619:173 620:176 621:181 622:172 623:175 624:180 625:169 626:172 627:177 628:164 629:168 630:171 631:161 632:165 633:167 634:157 635:158 636:160 637:160 638:162 639:162 640:148 641:150 642:148 643:102 644:103 645:100 646:71 647:75 648:73 649:34 650:37 651:36 652:19 653:17 654:20 655:120 656:120 657:112 658:182 659:183 660:171 661:166 662:168 663:155 664:158 665:160 666:148 667:196 668:197 669:191 670:221 671:221 672:221 673:216 674:216 675:213 676:254 677:251 678:240 679:250 680:251 681:232 682:253 683:253 684:246 685:153 686:153 687:137 688:38 689:41 690:29 691:101 692:105 693:108 694:171 695:175 696:180 697:187 698:190 699:195 700:186 701:189 702:194 703:191 704:196 705:200 706:183 707:188 708:192 709:180 710:185 711:189 712:175 713:179 714:184 715:173 716:176 717:181 718:172 719:175 720:180 721:169 722:171 723:177 724:164 725:167 726:173 727:160 728:163 729:164 730:165 731:166 732:166 733:136 734:137 735:137 736:152 737:152 738:152 739:152 740:152 741:152 742:146 743:148 744:143 745:131 746:132 747:128 748:74 749:74 750:71 751:81 752:82 753:79 754:169 755:171 756:162 757:177 758:179 759:165 760:165 761:167 762:154 763:184 764:186 765:177 766:220 767:220 768:219 769:201 770:200 771:201 772:251 773:248 774:240 775:254 776:254 777:235 778:232 779:232 780:226 781:117 782:115 783:117 784:152 785:155 786:158 787:214 788:221 789:225 790:211 791:213 792:218 793:203 794:206 795:211 796:175 797:179 798:184 799:142 800:147 801:151 802:188 803:193 804:197 805:178 806:183 807:187 808:175 809:179 810:183 811:173 812:176 813:181 814:171 815:174 816:179 817:168 818:171 819:176 820:162 821:165 822:171 823:166 824:168 825:169 826:144 827:144 828:144 829:108 830:108 831:108 832:158 833:158 834:158 835:147 836:147 837:147 838:138 839:139 840:134 841:138 842:139 843:132 844:142 845:143 846:136 847:116 848:117 849:110 850:132 851:133 852:125 853:171 854:173 855:160 856:175 857:176 858:163 859:189 860:191 861:181 862:215 863:215 864:215 865:218 866:218 867:218 868:253 869:251 870:239 871:249 872:247 873:230 874:206 875:208 876:209 877:191 878:195 879:199 880:214 881:218 882:223 883:205 884:208 885:213 886:209 887:213 888:218 889:196 890:199 891:204 892:203 893:206 894:211 895:141 896:145 897:148 898:147 899:151 900:154 901:189 902:193 903:196 904:175 905:179 906:183 907:175 908:178 909:184 910:173 911:176 912:181 913:172 914:175 915:180 916:168 917:171 918:175 919:167 920:167 921:167 922:107 923:107 924:106 925:153 926:153 927:153 928:157 929:157 930:157 931:154 932:153 933:153 934:142 935:143 936:139 937:137 938:138 939:132 940:135 941:136 942:131 943:131 944:132 945:127 946:122 947:121 948:116 949:159 950:159 951:148 952:171 953:172 954:159 955:189 956:190 957:181 958:215 959:216 960:215 961:227 962:226 963:228 964:254 965:251 966:237 967:236 968:232 969:221 970:190 971:195 972:200 973:196 974:204 975:206 976:204 977:207 978:212 979:214 980:217 981:222 982:214 983:217 984:222 985:199 986:202 987:207 988:196 989:199 990:204 991:194 992:198 993:202 994:123 995:127 996:131 997:162 998:166 999:170 1000:176 1001:180 1002:183 1003:162 1004:167 1005:168 1006:157 1007:161 1008:164 1009:152 1010:156 1011:160 1012:157 1013:159 1014:159 1015:122 1016:122 1017:121 1018:131 1019:131 1020:131 1021:166 1022:166 1023:166 1024:153 1025:153 1026:153 1027:156 1028:156 1029:156 1030:143 1031:144 1032:140 1033:140 1034:141 1035:136 1036:136 1037:137 1038:132 1039:138 1040:139 1041:134 1042:125 1043:123 1044:117 1045:146 1046:144 1047:134 1048:166 1049:167 1050:153 1051:183 1052:184 1053:175 1054:216 1055:217 1056:215 1057:211 1058:210 1059:213 1060:254 1061:252 1062:236 1063:220 1064:221 1065:214 1066:183 1067:191 1068:195 1069:203 1070:207 1071:212 1072:210 1073:212 1074:218 1075:218 1076:221 1077:226 1078:209 1079:212 1080:217 1081:199 1082:202 1083:207 1084:199 1085:202 1086:207 1087:192 1088:196 1089:201 1090:178 1091:183 1092:187 1093:68 1094:72 1095:73 1096:45 1097:49 1098:49 1099:37 1100:38 1101:37 1102:32 1103:33 1104:34 1105:31 1106:32 1107:34 1108:28 1109:28 1110:28 1111:43 1112:43 1113:43 1114:161 1115:161 1116:161 1117:160 1118:160 1119:161 1120:155 1121:155 1122:155 1123:156 1124:156 1125:156 1126:147 1127:147 1128:143 1129:141 1130:142 1131:136 1132:137 1133:138 1134:133 1135:138 1136:139 1137:134 1138:131 1139:131 1140:125 1141:129 1142:128 1143:121 1144:163 1145:163 1146:150 1147:196 1148:197 1149:189 1150:222 1151:223 1152:220 1153:207 1154:208 1155:207 1156:249 1157:248 1158:236 1159:213 1160:213 1161:211 1162:192 1163:198 1164:204 1165:204 1166:209 1167:213 1168:210 1169:214 1170:218 1171:218 1172:222 1173:226 1174:206 1175:209 1176:214 1177:203 1178:206 1179:211 1180:202 1181:206 1182:210 1183:196 1184:201 1185:205 1186:171 1187:176 1188:180 1189:35 1190:39 1191:38 1192:23 1193:23 1194:23 1195:25 1196:24 1197:25 1198:24 1199:24 1200:24 1201:24 1202:23 1203:23 1204:23 1205:23 1206:23 1207:17 1208:17 1209:18 1210:120 1211:120 1212:121 1213:170 1214:171 1215:167 1216:156 1217:157 1218:153 1219:155 1220:155 1221:153 1222:150 1223:151 1224:145 1225:140 1226:141 1227:135 1228:136 1229:137 1230:134 1231:136 1232:137 1233:131 1234:134 1235:135 1236:130 1237:123 1238:124 1239:121 1240:162 1241:161 1242:149 1243:210 1244:209 1245:201 1246:223 1247:223 1248:220 1249:195 1250:195 1251:195 1252:237 1253:236 1254:233 1255:204 1256:203 1257:203 1258:189 1259:194 1260:200 1261:205 1262:210 1263:214 1264:207 1265:212 1266:216 1267:212 1268:216 1269:220 1270:204 1271:207 1272:212 1273:204 1274:208 1275:213 1276:198 1277:203 1278:207 1279:202 1280:207 1281:211 1282:130 1283:135 1284:138 1285:20 1286:24 1287:23 1288:31 1289:31 1290:31 1291:27 1292:27 1293:28 1294:26 1295:25 1296:26 1297:23 1298:22 1299:22 1300:24 1301:24 1302:24 1303:14 1304:14 1305:15 1306:70 1307:70 1308:71 1309:171 1310:171 1311:167 1312:156 1313:157 1314:152 1315:154 1316:155 1317:152 1318:156 1319:157 1320:149 1321:137 1322:138 1323:132 1324:135 1325:135 1326:134 1327:135 1328:136 1329:130 1330:136 1331:137 1332:132 1333:110 1334:110 1335:108 1336:153 1337:152 1338:136 1339:197 1340:194 1341:183 1342:218 1343:218 1344:216 1345:196 1346:194 1347:198 1348:242 1349:240 1350:234 1351:200 1352:201 1353:200 1354:192 1355:197 1356:203 1357:205 1358:210 1359:214 1360:203 1361:208 1362:212 1363:204 1364:209 1365:213 1366:195 1367:200 1368:204 1369:196 1370:201 1371:205 1372:194 1373:199 1374:203 1375:197 1376:202 1377:205 1378:82 1379:88 1380:87 1381:16 1382:19 1383:20 1384:28 1385:28 1386:29 1387:26 1388:26 1389:26 1390:20 1391:25 1392:23 1393:17 1394:25 1395:22 1396:18 1397:25 1398:23 1399:19 1400:21 1401:21 1402:31 1403:31 1404:29 1405:151 1406:152 1407:147 1408:162 1409:163 1410:158 1411:153 1412:154 1413:148 1414:152 1415:153 1416:147 1417:138 1418:139 1419:134 1420:135 1421:136 1422:131 1423:135 1424:136 1425:131 1426:137 1427:139 1428:131 1429:52 1430:55 1431:51 1432:131 1433:128 1434:113 1435:209 1436:203 1437:187 1438:219 1439:217 1440:214 1441:224 1442:225 1443:221 1444:254 1445:249 1446:230 1447:130 1448:127 1449:120 1450:166 1451:171 1452:178 1453:212 1454:217 1455:220 1456:201 1457:206 1458:210 1459:202 1460:207 1461:211 1462:189 1463:194 1464:198 1465:190 1466:195 1467:199 1468:187 1469:192 1470:196 1471:183 1472:188 1473:191 1474:49 1475:54 1476:52 1477:19 1478:22 1479:19 1480:26 1481:27 1482:25 1483:27 1484:27 1485:27 1486:20 1487:24 1488:22 1489:18 1490:24 1491:22 1492:19 1493:25 1494:23 1495:24 1496:25 1497:25 1498:14 1499:14 1500:12 1501:110 1502:111 1503:106 1504:171 1505:172 1506:167 1507:150 1508:151 1509:145 1510:153 1511:153 1512:147 1513:143 1514:141 1515:137 1516:134 1517:133 1518:128 1519:139 1520:140 1521:135 1522:112 1523:115 1524:107 1525:17 1526:19 1527:17 1528:112 1529:109 1530:95 1531:214 1532:210 1533:195 1534:220 1535:220 1536:215 1537:229 1538:228 1539:221 1540:248 1541:241 1542:220 1543:94 1544:89 1545:72 1546:103 1547:105 1548:107 1549:216 1550:220 1551:224 1552:198 1553:202 1554:206 1555:200 1556:205 1557:209 1558:187 1559:192 1560:196 1561:187 1562:191 1563:196 1564:197 1565:200 1566:205 1567:158 1568:162 1569:165 1570:27 1571:27 1572:28 1573:27 1574:26 1575:26 1576:27 1577:27 1578:27 1579:25 1580:25 1581:25 1582:22 1583:22 1584:22 1585:23 1586:22 1587:22 1588:22 1589:22 1590:22 1591:24 1592:24 1593:24 1594:19 1595:19 1596:17 1597:50 1598:51 1599:46 1600:154 1601:153 1602:149 1603:157 1604:154 1605:150 1606:159 1607:156 1608:151 1609:148 1610:143 1611:140 1612:145 1613:140 1614:137 1615:146 1616:145 1617:140 1618:60 1619:61 1620:59 1621:17 1622:18 1623:19 1624:113 1625:112 1626:96 1627:202 1628:201 1629:188 1630:213 1631:214 1632:210 1633:230 1634:229 1635:221 1636:235 1637:229 1638:208 1639:111 1640:106 1641:87 1642:44 1643:47 1644:40 1645:165 1646:170 1647:171 1648:215 1649:221 1650:225 1651:198 1652:204 1653:207 1654:186 1655:192 1656:196 1657:186 1658:190 1659:194 1660:165 1661:168 1662:174 1663:99 1664:103 1665:107 1666:19 1667:20 1668:21 1669:25 1670:25 1671:24 1672:28 1673:28 1674:28 1675:23 1676:23 1677:23 1678:22 1679:22 1680:22 1681:22 1682:22 1683:22 1684:22 1685:22 1686:22 1687:24 1688:25 1689:24 1690:16 1691:17 1692:15 1693:69 1694:68 1695:64 1696:114 1697:113 1698:109 1699:107 1700:105 1701:100 1702:153 1703:151 1704:146 1705:134 1706:133 1707:129 1708:105 1709:103 1710:99 1711:94 1712:94 1713:89 1714:25 1715:28 1716:25 1717:34 1718:36 1719:34 1720:128 1721:126 1722:108 1723:197 1724:198 1725:181 1726:211 1727:212 1728:206 1729:230 1730:229 1731:223 1732:235 1733:230 1734:212 1735:130 1736:125 1737:108 1738:45 1739:46 1740:36 1741:72 1742:74 1743:74 1744:163 1745:166 1746:171 1747:142 1748:145 1749:150 1750:188 1751:193 1752:197 1753:157 1754:161 1755:165 1756:134 1757:138 1758:143 1759:169 1760:172 1761:178 1762:130 1763:130 1764:132 1765:34 1766:33 1767:33 1768:19 1769:19 1770:19 1771:28 1772:28 1773:28 1774:26 1775:26 1776:26 1777:27 1778:27 1779:27 1780:25 1781:25 1782:26 1783:14 1784:16 1785:15 1786:87 1787:88 1788:85 1789:169 1790:167 1791:165 1792:164 1793:163 1794:159 1795:140 1796:141 1797:136 1798:150 1799:147 1800:143 1801:144 1802:143 1803:139 1804:130 1805:128 1806:125 1807:63 1808:64 1809:58 1810:25 1811:27 1812:28 1813:49 1814:47 1815:42 1816:148 1817:144 1818:125 1819:195 1820:196 1821:182 1822:214 1823:215 1824:212 1825:226 1826:225 1827:224 1828:237 1829:233 1830:217 1831:158 1832:153 1833:134 1834:60 1835:59 1836:48 1837:36 1838:36 1839:37 1840:110 1841:110 1842:117 1843:201 1844:202 1845:208 1846:188 1847:193 1848:197 1849:183 1850:187 1851:192 1852:191 1853:193 1854:198 1855:179 1856:182 1857:187 1858:184 1859:186 1860:190 1861:154 1862:156 1863:156 1864:63 1865:63 1866:63 1867:15 1868:15 1869:15 1870:25 1871:25 1872:25 1873:22 1874:22 1875:22 1876:21 1877:21 1878:19 1879:104 1880:105 1881:100 1882:172 1883:172 1884:167 1885:162 1886:158 1887:155 1888:157 1889:153 1890:150 1891:155 1892:151 1893:147 1894:154 1895:152 1896:147 1897:141 1898:141 1899:137 1900:151 1901:149 1902:145 1903:89 1904:90 1905:87 1906:21 1907:22 1908:24 1909:66 1910:63 1911:53 1912:166 1913:163 1914:141 1915:194 1916:195 1917:184 1918:218 1919:218 1920:219 1921:224 1922:224 1923:222 1924:232 1925:228 1926:213 1927:199 1928:195 1929:175 1930:80 1931:79 1932:67 1933:39 1934:40 1935:40 1936:135 1937:137 1938:140 1939:211 1940:213 1941:215 1942:186 1943:191 1944:195 1945:182 1946:186 1947:190 1948:180 1949:182 1950:187 1951:174 1952:177 1953:182 1954:170 1955:174 1956:178 1957:175 1958:178 1959:182 1960:174 1961:174 1962:176 1963:104 1964:105 1965:104 1966:31 1967:31 1968:31 1969:40 1970:40 1971:40 1972:129 1973:129 1974:126 1975:171 1976:173 1977:165 1978:159 1979:159 1980:153 1981:161 1982:157 1983:153 1984:158 1985:154 1986:151 1987:151 1988:144 1989:141 1990:152 1991:151 1992:146 1993:141 1994:140 1995:136 1996:146 1997:145 1998:140 1999:92 2000:92 2001:90 2002:20 2003:21 2004:19 2005:96 2006:94 2007:79 2008:168 2009:165 2010:144 2011:195 2012:196 2013:184 2014:224 2015:224 2016:224 2017:224 2018:223 2019:222 2020:222 2021:219 2022:204 2023:219 2024:215 2025:193 2026:129 2027:126 2028:108 2029:42 2030:42 2031:37 2032:126 2033:126 2034:127 2035:208 2036:209 2037:210 2038:185 2039:191 2040:195 2041:179 2042:184 2043:188 2044:180 2045:183 2046:188 2047:174 2048:178 2049:182 2050:172 2051:176 2052:179 2053:170 2054:169 2055:175 2056:167 2057:165 2058:171 2059:182 2060:182 2061:184 2062:120 2063:120 2064:120 2065:127 2066:127 2067:127 2068:175 2069:175 2070:175 2071:156 2072:157 2073:152 2074:157 2075:158 2076:152 2077:156 2078:154 2079:149 2080:154 2081:151 2082:147 2083:149 2084:146 2085:141 2086:149 2087:146 2088:142 2089:143 2090:139 2091:136 2092:150 2093:146 2094:144 2095:85 2096:84 2097:84 2098:29 2099:31 2100:21 2101:147 2102:147 2103:127 2104:174 2105:172 2106:156 2107:194 2108:193 2109:181 2110:220 2111:221 2112:216 2113:221 2114:221 2115:223 2116:232 2117:228 2118:219 2119:229 2120:221 2121:200 2122:209 2123:202 2124:176 2125:70 2126:67 2127:53 2128:110 2129:110 2130:104 2131:207 2132:207 2133:210 2134:188 2135:190 2136:195 2137:178 2138:180 2139:185 2140:176 2141:180 2142:186 2143:173 2144:178 2145:181 2146:169 2147:173 2148:176 2149:167 2150:168 2151:173 2152:164 2153:164 2154:169 2155:168 2156:167 2157:169 2158:134 2159:135 2160:135 2161:131 2162:131 2163:131 2164:163 2165:163 2166:163 2167:154 2168:155 2169:150 2170:155 2171:156 2172:149 2173:151 2174:153 2175:146 2176:148 2177:148 2178:143 2179:147 2180:145 2181:140 2182:149 2183:145 2184:141 2185:141 2186:137 2187:134 2188:149 2189:145 2190:142 2191:70 2192:68 2193:66 2194:96 2195:98 2196:81 2197:180 2198:180 2199:160 2200:169 2201:167 2202:151 2203:189 2204:188 2205:176 2206:215 2207:216 2208:210 2209:221 2210:221 2211:222 2212:238 2213:233 2214:227 2215:226 2216:218 2217:193 2218:245 2219:236 2220:212 2221:173 2222:167 2223:149 2224:96 2225:94 2226:88 2227:190 2228:190 2229:191 2230:192 2231:194 2232:196 2233:178 2234:180 2235:184 2236:177 2237:179 2238:185 2239:172 2240:174 2241:177 2242:168 2243:170 2244:172 2245:166 2246:168 2247:171 2248:162 2249:164 2250:165 2251:168 2252:168 2253:168 2254:135 2255:135 2256:135 2257:126 2258:126 2259:126 2260:162 2261:162 2262:162 2263:153 2264:154 2265:148 2266:153 2267:154 2268:145 2269:150 2270:151 2271:144 2272:145 2273:146 2274:140 2275:144 2276:145 2277:139 2278:146 2279:143 2280:138 2281:146 2282:142 2283:137 2284:128 2285:124 2286:118 2287:122 2288:120 2289:107 2290:170 2291:169 2292:152 2293:170 2294:169 2295:151 2296:161 2297:160 2298:142 2299:181 2300:180 2301:169 2302:212 2303:213 2304:208 2305:222 2306:222 2307:223 2308:230 2309:224 2310:217 2311:230 2312:222 2313:199 2314:240 2315:232 2316:210 2317:251 2318:240 2319:215 2320:199 2321:193 2322:178 2323:173 2324:175 2325:172 2326:189 2327:190 2328:191 2329:185 2330:185 2331:184 2332:177 2333:177 2334:175 2335:175 2336:174 2337:174 2338:170 2339:169 2340:169 2341:166 2342:166 2343:166 2344:163 2345:163 2346:163 2347:167 2348:167 2349:167 2350:138 2351:138 2352:137 2353:122 2354:122 2355:122 2356:159 2357:159 2358:158 2359:153 2360:153 2361:151 2362:151 2363:151 2364:148 2365:148 2366:149 2367:144 2368:143 2369:145 2370:139 2371:143 2372:144 2373:139 2374:147 2375:144 2376:139 2377:132 2378:129 2379:120 2380:122 2381:120 2382:110 2383:159 2384:158 2385:141 2386:168 2387:166 2388:147 2389:160 2390:158 2391:141 2392:157 2393:154 2394:136 2395:179 2396:178 2397:166 2398:214 2399:215 2400:210 2401:218 2402:216 2403:219 2404:232 2405:230 2406:219 2407:224 2408:215 2409:195 2410:239 2411:231 2412:205 2413:247 2414:237 2415:210 2416:245 2417:237 2418:211 2419:198 2420:197 2421:184 2422:174 2423:173 2424:168 2425:183 2426:182 2427:181 2428:179 2429:179 2430:177 2431:173 2432:173 2433:172 2434:168 2435:169 2436:169 2437:164 2438:164 2439:164 2440:160 2441:160 2442:160 2443:165 2444:165 2445:165 2446:148 2447:148 2448:148 2449:130 2450:130 2451:130 2452:166 2453:166 2454:165 2455:150 2456:150 2457:150 2458:147 2459:147 2460:145 2461:145 2462:147 2463:140 2464:143 2465:147 2466:139 2467:141 2468:144 2469:138 2470:130 2471:128 2472:126 2473:124 2474:120 2475:115 2476:152 2477:151 2478:133 2479:165 2480:161 2481:141 2482:163 2483:156 2484:138 2485:161 2486:154 2487:137 2488:155 2489:150 2490:128 2491:179 2492:179 2493:164 2494:218 2495:219 2496:214 2497:200 2498:198 2499:202 2500:238 2501:237 2502:231 2503:219 2504:213 2505:195 2506:233 2507:225 2508:202 2509:241 2510:234 2511:208 2512:248 2513:241 2514:214 2515:245 2516:238 2517:212 2518:209 2519:204 2520:188 2521:173 2522:172 2523:165 2524:172 2525:173 2526:170 2527:175 2528:176 2529:175 2530:172 2531:172 2532:172 2533:172 2534:172 2535:172 2536:170 2537:170 2538:170 2539:164 2540:164 2541:164 2542:111 2543:111 2544:110 2545:71 2546:71 2547:71 2548:127 2549:127 2550:127 2551:146 2552:146 2553:147 2554:153 2555:153 2556:153 2557:147 2558:147 2559:143 2560:140 2561:140 2562:137 2563:136 2564:136 2565:130 2566:128 2567:124 2568:115 2569:146 2570:143 2571:124 2572:156 2573:153 2574:127 2575:152 2576:143 2577:125 2578:150 2579:142 2580:124 2581:145 2582:137 2583:118 2584:138 2585:133 2586:109 2587:170 2588:170 2589:153 2590:220 2591:221 2592:216 2593:208 2594:208 2595:211 2596:234 2597:233 2598:229 2599:216 2600:210 2601:193 2602:229 2603:221 2604:200 2605:235 2606:228 2607:202 2608:242 2609:235 2610:206 2611:246 2612:239 2613:211 2614:244 2615:238 2616:213 2617:223 2618:219 2619:198 2620:189 2621:188 2622:184 2623:172 2624:173 2625:170 2626:160 2627:161 2628:158 2629:132 2630:132 2631:132 2632:99 2633:100 2634:100 2635:53 2636:57 2637:56 2638:25 2639:27 2640:27 2641:23 2642:23 2643:23 2644:25 2645:25 2646:26 2647:48 2648:48 2649:50 2650:62 2651:62 2652:64 2653:90 2654:90 2655:85 2656:130 2657:129 2658:124 2659:128 2660:125 2661:112 2662:139 2663:132 2664:112 2665:145 2666:138 2667:114 2668:143 2669:136 2670:116 2671:140 2672:132 2673:113 2674:136 2675:128 2676:109 2677:138 2678:131 2679:112 2680:135 2681:131 2682:106 2683:183 2684:182 2685:166 2686:226 2687:227 2688:223 2689:220 2690:220 2691:220 2692:228 2693:225 2694:218 2695:207 2696:201 2697:182 2698:227 2699:219 2700:198 2701:234 2702:226 2703:204 2704:238 2705:230 2706:206 2707:239 2708:232 2709:207 2710:237 2711:230 2712:203 2713:244 2714:235 2715:210 2716:241 2717:234 2718:215 2719:215 2720:213 2721:197 2722:172 2723:173 2724:164 2725:91 2726:92 2727:87 2728:37 2729:38 2730:34 2731:30 2732:31 2733:27 2734:31 2735:32 2736:32 2737:30 2738:31 2739:33 2740:29 2741:29 2742:30 2743:27 2744:26 2745:28 2746:36 2747:36 2748:33 2749:91 2750:92 2751:79 2752:125 2753:123 2754:105 2755:129 2756:125 2757:105 2758:137 2759:130 2760:107 2761:140 2762:132 2763:111 2764:140 2765:132 2766:112 2767:136 2768:127 2769:109 2770:133 2771:125 2772:106 2773:139 2774:131 2775:113 2776:137 2777:132 2778:107 2779:186 2780:185 2781:169 2782:223 2783:224 2784:219 2785:216 2786:215 2787:217 2788:231 2789:228 2790:219 2791:208 2792:202 2793:182 2794:227 2795:218 2796:198 2797:236 2798:226 2799:205 2800:238 2801:229 2802:209 2803:237 2804:228 2805:209 2806:238 2807:230 2808:212 2809:240 2810:230 2811:209 2812:231 2813:222 2814:203 2815:210 2816:203 2817:191 2818:184 2819:181 2820:168 2821:170 2822:168 2823:154 2824:136 2825:133 2826:118 2827:92 2828:89 2829:72 2830:62 2831:60 2832:47 2833:52 2834:51 2835:40 2836:52 2837:49 2838:38 2839:56 2840:54 2841:42 2842:77 2843:75 2844:62 2845:89 2846:86 2847:73 2848:107 2849:100 2850:84 2851:119 2852:114 2853:94 2854:126 2855:119 2856:97 2857:136 2858:128 2859:107 2860:144 2861:137 2862:117 2863:137 2864:129 2865:111 2866:135 2867:127 2868:108 2869:142 2870:135 2871:116 2872:139 2873:134 2874:111 2875:173 2876:172 2877:156 2878:215 2879:216 2880:212 2881:229 2882:228 2883:230 2884:236 2885:232 2886:222 2887:224 2888:218 2889:204 2890:241 2891:233 2892:220 2893:240 2894:231 2895:214 2896:242 2897:236 2898:219 2899:245 2900:243 2901:230 2902:242 2903:238 2904:226 2905:217 2906:215 2907:200 2908:211 2909:210 2910:202 2911:211 2912:208 2913:206 2914:208 2915:206 2916:201 2917:192 2918:190 2919:183 2920:182 2921:181 2922:173 2923:167 2924:166 2925:156 2926:170 2927:169 2928:158 2929:153 2930:153 2931:141 2932:126 2933:125 2934:114 2935:146 2936:145 2937:134 2938:150 2939:149 2940:138 2941:153 2942:152 2943:141 2944:167 2945:166 2946:156 2947:156 2948:153 2949:136 2950:185 2951:180 2952:169 2953:210 2954:208 2955:202 2956:211 2957:213 2958:206 2959:207 2960:205 2961:197 2962:178 2963:174 2964:163 2965:160 2966:157 2967:141 2968:156 2969:151 2970:137 2971:197 2972:197 2973:187 2974:218 2975:219 2976:218 2977:204 2978:203 2979:202 2980:243 2981:240 2982:239 2983:254 2984:252 2985:249 2986:253 2987:253 2988:251 2989:249 2990:248 2991:242 2992:251 2993:250 2994:245 2995:226 2996:228 2997:227 2998:230 2999:232 3000:229 3001:242 3002:243 3003:240 3004:242 3005:243 3006:241 3007:239 3008:239 3009:237 3010:228 3011:228 3012:226 3013:237 3014:238 3015:234 3016:238 3017:239 3018:236 3019:238 3020:238 3021:237 3022:250 3023:251 3024:248 3025:239 3026:240 3027:237 3028:231 3029:232 3030:230 3031:250 3032:251 3033:249 3034:235 3035:236 3036:234 3037:226 3038:227 3039:224 3040:242 3041:242 3042:240 3043:246 3044:247 3045:243 3046:232 3047:234 3048:231 3049:215 3050:215 3051:214 3052:202 3053:203 3054:204 3055:221 3056:220 3057:222 3058:247 3059:246 3060:243 3061:221 3062:220 3063:214 3064:217 3065:216 3066:211 3067:227 3068:228 3069:225 3070:211 3071:211 3072:211 
3.03624430843234e-07 1:255 2:255 3:255 4:255 5:255 6:255 7:255 8:255 9:255 10:255 11:255 12:255 13:255 14:255 15:255 16:255 17:255 18:255 19:255 20:255 21:255 22:255 23:255 24:255 25:255 26:255 27:255 28:255 29:255 30:255 31:255 32:255 33:255 34:253 35:253 36:253 37:253 38:253 39:253 40:255 41:255 42:255 43:255 44:255 45:255 46:255 47:255 48:255 49:251 50:251 51:251 52:254 53:254 54:254 55:255 56:255 57:255 58:253 59:253 60:253 61:253 62:253 63:253 64:255 65:255 66:255 67:255 68:255 69:255 70:255 71:255 72:255 73:255 74:255 75:255 76:255 77:255 78:255 79:255 80:255 81:255 82:255 83:255 84:255 85:255 86:255 87:255 88:255 89:255 90:255 91:255 92:255 93:255 94:255 95:255 96:255 97:255 98:255 99:255 100:255 101:255 102:255 103:255 104:255 105:255 106:255 107:255 108:255 109:255 110:255 111:255 112:255 113:255 114:255 115:255 116:255 117:255 118:255 119:255 120:255 121:255 122:255 123:255 124:255 125:255 126:255 127:255 128:255 129:255 130:255 131:255 132:255 133:255 134:255 135:255 136:245 137:245 138:246 139:221 140:220 141:223 142:211 143:210 144:215 145:227 146:226 147:228 148:218 149:217 150:220 151:244 152:244 153:245 154:255 155:255 156:255 157:255 158:255 159:255 160:255 161:255 162:255 163:255 164:255 165:255 166:255 167:255 168:255 169:255 170:255 171:255 172:255 173:255 174:255 175:255 176:255 177:255 178:255 179:255 180:255 181:255 182:255 183:255 184:255 185:255 186:255 187:255 188:255 189:255 190:255 191:255 192:255 193:255 194:255 195:255 196:255 197:255 198:255 199:255 200:255 201:255 202:255 203:255 204:255 205:255 206:255 207:255 208:255 209:255 210:255 211:255 212:255 213:255 214:255 215:255 216:255 217:255 218:255 219:255 220:255 221:255 222:255 223:253 224:252 225:253 226:204 227:204 228:206 229:129 230:127 231:130 232:78 233:76 234:80 235:47 236:44 237:53 238:122 239:120 240:128 241:155 242:154 243:158 244:40 245:40 246:45 247:63 248:63 249:69 250:106 251:104 252:116 253:181 254:180 255:190 256:243 257:242 258:243 259:255 260:255 261:254 262:255 263:255 264:255 265:255 266:255 267:255 268:255 269:255 270:255 271:255 272:255 273:255 274:255 275:255 276:255 277:255 278:255 279:255 280:255 281:255 282:255 283:255 284:255 285:255 286:255 287:255 288:255 289:255 290:255 291:255 292:255 293:255 294:255 295:255 296:255 297:255 298:255 299:255 300:255 301:255 302:255 303:255 304:255 305:255 306:255 307:255 308:255 309:255 310:255 311:255 312:255 313:253 314:253 315:254 316:244 317:244 318:248 319:249 320:250 321:253 322:147 323:144 324:151 325:32 326:31 327:35 328:48 329:46 330:51 331:40 332:38 333:43 334:64 335:62 336:70 337:50 338:48 339:58 340:31 341:30 342:39 343:35 344:34 345:41 346:15 347:14 348:21 349:88 350:87 351:94 352:214 353:214 354:218 355:233 356:233 357:236 358:240 359:240 360:242 361:255 362:255 363:255 364:255 365:255 366:255 367:254 368:254 369:255 370:255 371:255 372:255 373:255 374:255 375:255 376:255 377:255 378:255 379:255 380:255 381:255 382:255 383:255 384:255 385:255 386:255 387:255 388:255 389:255 390:255 391:255 392:255 393:255 394:255 395:255 396:255 397:255 398:255 399:255 400:255 401:255 402:255 403:255 404:255 405:255 406:249 407:248 408:250 409:242 410:241 411:247 412:243 413:244 414:250 415:246 416:248 417:252 418:253 419:252 420:254 421:124 422:124 423:123 424:65 425:64 426:68 427:108 428:108 429:109 430:109 431:109 432:110 433:89 434:88 435:92 436:63 437:62 438:67 439:32 440:31 441:36 442:137 443:136 444:141 445:250 446:249 447:252 448:242 449:241 450:247 451:233 452:232 453:237 454:222 455:221 456:226 457:223 458:223 459:226 460:248 461:247 462:249 463:255 464:255 465:255 466:254 467:254 468:254 469:255 470:255 471:255 472:255 473:255 474:255 475:255 476:255 477:255 478:255 479:255 480:255 481:255 482:255 483:255 484:255 485:255 486:255 487:255 488:255 489:255 490:255 491:255 492:255 493:255 494:255 495:255 496:255 497:255 498:255 499:241 500:241 501:245 502:242 503:243 504:248 505:245 506:246 507:252 508:249 509:250 510:255 511:247 512:250 513:250 514:249 515:254 516:250 517:241 518:244 519:246 520:229 521:231 522:231 523:250 524:250 525:249 526:255 527:255 528:255 529:253 530:255 531:253 532:243 533:244 534:241 535:224 536:224 537:223 538:249 539:250 540:254 541:248 542:249 543:255 544:241 545:239 546:246 547:241 548:238 549:244 550:236 551:236 552:240 553:223 554:222 555:227 556:205 557:204 558:210 559:243 560:243 561:243 562:255 563:255 564:255 565:254 566:254 567:254 568:255 569:255 570:255 571:255 572:255 573:255 574:255 575:255 576:255 577:255 578:255 579:255 580:255 581:255 582:255 583:255 584:255 585:255 586:254 587:254 588:254 589:251 590:251 591:251 592:202 593:202 594:203 595:239 596:239 597:243 598:246 599:248 600:252 601:247 602:248 603:254 604:249 605:249 606:254 607:248 608:252 609:250 610:246 611:251 612:247 613:247 614:252 615:248 616:251 617:255 618:253 619:247 620:251 621:249 622:245 623:250 624:247 625:246 626:251 627:247 628:248 629:253 630:249 631:253 632:255 633:254 634:246 635:247 636:250 637:248 638:249 639:254 640:254 641:253 642:255 643:245 644:242 645:248 646:236 647:236 648:242 649:237 650:236 651:241 652:228 653:228 654:230 655:192 656:192 657:196 658:236 659:236 660:236 661:255 662:255 663:255 664:254 665:254 666:254 667:255 668:255 669:255 670:255 671:255 672:255 673:255 674:255 675:255 676:255 677:255 678:255 679:254 680:254 681:254 682:255 683:255 684:255 685:180 686:179 687:182 688:204 689:205 690:209 691:253 692:254 693:255 694:245 695:246 696:252 697:245 698:247 699:250 700:244 701:248 702:247 703:246 704:251 705:248 706:246 707:251 708:246 709:247 710:252 711:247 712:246 713:251 714:247 715:247 716:252 717:248 718:247 719:252 720:248 721:247 722:252 723:248 724:246 725:251 726:247 727:246 728:250 729:246 730:249 731:251 732:249 733:241 734:241 735:245 736:220 737:220 738:225 739:242 740:241 741:246 742:252 743:252 744:255 745:236 746:237 747:241 748:232 749:232 750:237 751:217 752:216 753:223 754:153 755:152 756:155 757:244 758:244 759:245 760:254 761:254 762:254 763:255 764:254 765:255 766:255 767:255 768:255 769:255 770:255 771:255 772:254 773:254 774:254 775:255 776:255 777:255 778:218 779:218 780:219 781:161 782:160 783:163 784:255 785:255 786:255 787:243 788:244 789:250 790:246 791:246 792:250 793:255 794:255 795:255 796:255 797:255 798:255 799:253 800:255 801:255 802:251 803:254 804:254 805:246 806:252 807:248 808:247 809:252 810:248 811:247 812:252 813:248 814:247 815:252 816:248 817:247 818:252 819:248 820:247 821:252 822:248 823:247 824:251 825:248 826:251 827:254 828:253 829:238 830:240 831:241 832:60 833:60 834:63 835:70 836:69 837:73 838:175 839:174 840:177 841:239 842:239 843:244 844:235 845:235 846:241 847:235 848:234 849:240 850:171 851:169 852:176 853:169 854:168 855:174 856:255 857:255 858:255 859:253 860:253 861:253 862:255 863:255 864:255 865:255 866:255 867:255 868:254 869:254 870:254 871:255 872:255 873:255 874:99 875:99 876:102 877:185 878:185 879:186 880:254 881:254 882:254 883:255 884:255 885:255 886:253 887:252 888:255 889:205 890:205 891:209 892:138 893:140 894:142 895:92 896:92 897:100 898:219 899:219 900:226 901:252 902:254 903:252 904:245 905:250 906:246 907:247 908:252 909:248 910:247 911:252 912:248 913:247 914:252 915:248 916:247 917:252 918:248 919:245 920:249 921:247 922:255 923:255 924:255 925:196 926:197 927:203 928:30 929:29 930:35 931:26 932:24 933:29 934:22 935:20 936:26 937:84 938:84 939:92 940:208 941:207 942:215 943:240 944:239 945:245 946:216 947:215 948:222 949:112 950:111 951:118 952:223 953:222 954:223 955:255 956:255 957:255 958:254 959:254 960:254 961:253 962:253 963:253 964:255 965:255 966:255 967:194 968:195 969:194 970:123 971:123 972:124 973:238 974:238 975:240 976:253 977:252 978:255 979:195 980:194 981:198 982:81 983:78 984:86 985:29 986:27 987:33 988:19 989:18 990:23 991:42 992:41 993:47 994:143 995:142 996:148 997:253 998:252 999:255 1000:247 1001:250 1002:249 1003:247 1004:252 1005:248 1006:247 1007:252 1008:248 1009:247 1010:252 1011:248 1012:246 1013:252 1014:247 1015:248 1016:251 1017:248 1018:245 1019:245 1020:245 1021:76 1022:76 1023:79 1024:25 1025:23 1026:29 1027:33 1028:31 1029:39 1030:30 1031:28 1032:34 1033:13 1034:12 1035:17 1036:40 1037:38 1038:43 1039:148 1040:145 1041:153 1042:210 1043:208 1044:216 1045:173 1046:172 1047:178 1048:163 1049:163 1050:165 1051:255 1052:255 1053:255 1054:253 1055:253 1056:253 1057:254 1058:254 1059:254 1060:251 1061:251 1062:251 1063:181 1064:181 1065:180 1066:245 1067:244 1068:249 1069:254 1070:254 1071:255 1072:229 1073:228 1074:233 1075:41 1076:40 1077:45 1078:12 1079:9 1080:16 1081:32 1082:29 1083:35 1084:36 1085:34 1086:39 1087:69 1088:67 1089:72 1090:89 1091:89 1092:94 1093:190 1094:190 1095:195 1096:255 1097:255 1098:255 1099:244 1100:249 1101:246 1102:247 1103:252 1104:249 1105:247 1106:252 1107:249 1108:244 1109:249 1110:246 1111:255 1112:255 1113:255 1114:155 1115:154 1116:158 1117:26 1118:25 1119:31 1120:39 1121:37 1122:42 1123:26 1124:25 1125:33 1126:25 1127:24 1128:29 1129:24 1130:22 1131:27 1132:14 1133:12 1134:18 1135:14 1136:11 1137:19 1138:183 1139:182 1140:189 1141:213 1142:212 1143:218 1144:157 1145:156 1146:161 1147:236 1148:236 1149:236 1150:255 1151:255 1152:255 1153:255 1154:255 1155:255 1156:246 1157:247 1158:247 1159:226 1160:225 1161:229 1162:239 1163:242 1164:247 1165:253 1166:254 1167:254 1168:188 1169:188 1170:193 1171:18 1172:17 1173:20 1174:31 1175:29 1176:34 1177:33 1178:31 1179:36 1180:38 1181:37 1182:41 1183:62 1184:61 1185:67 1186:96 1187:95 1188:101 1189:112 1190:110 1191:118 1192:240 1193:240 1194:244 1195:250 1196:250 1197:253 1198:248 1199:250 1200:253 1201:248 1202:252 1203:254 1204:248 1205:252 1206:253 1207:248 1208:250 1209:251 1210:83 1211:82 1212:87 1213:33 1214:31 1215:39 1216:32 1217:29 1218:37 1219:27 1220:25 1221:30 1222:21 1223:19 1224:23 1225:17 1226:16 1227:22 1228:19 1229:18 1230:24 1231:5 1232:3 1233:8 1234:123 1235:122 1236:130 1237:211 1238:210 1239:215 1240:165 1241:163 1242:169 1243:218 1244:218 1245:220 1246:255 1247:255 1248:255 1249:255 1250:255 1251:255 1252:243 1253:243 1254:244 1255:232 1256:231 1257:236 1258:241 1259:241 1260:246 1261:255 1262:255 1263:255 1264:175 1265:174 1266:180 1267:17 1268:15 1269:20 1270:30 1271:28 1272:34 1273:31 1274:29 1275:35 1276:37 1277:36 1278:41 1279:43 1280:42 1281:47 1282:78 1283:76 1284:84 1285:56 1286:55 1287:62 1288:163 1289:163 1290:168 1291:255 1292:255 1293:255 1294:244 1295:247 1296:251 1297:245 1298:249 1299:252 1300:244 1301:247 1302:253 1303:242 1304:244 1305:250 1306:155 1307:154 1308:159 1309:47 1310:45 1311:51 1312:29 1313:26 1314:33 1315:27 1316:25 1317:30 1318:20 1319:18 1320:22 1321:17 1322:15 1323:22 1324:17 1325:15 1326:21 1327:2 1329:5 1330:94 1331:92 1332:99 1333:209 1334:208 1335:214 1336:170 1337:169 1338:175 1339:206 1340:205 1341:210 1342:255 1343:255 1344:255 1345:255 1346:255 1347:255 1348:235 1349:235 1350:238 1351:231 1352:230 1353:235 1354:244 1355:242 1356:246 1357:255 1358:255 1359:255 1360:173 1361:170 1362:177 1363:17 1364:14 1365:21 1366:29 1367:28 1368:34 1369:27 1370:27 1371:33 1372:27 1373:26 1374:32 1375:28 1376:25 1377:32 1378:33 1379:29 1380:37 1381:64 1382:62 1383:71 1384:194 1385:194 1386:198 1387:254 1388:254 1389:255 1390:246 1391:248 1392:254 1393:247 1394:251 1395:254 1396:246 1397:250 1398:254 1399:246 1400:249 1401:253 1402:252 1403:251 1404:254 1405:94 1406:92 1407:97 1408:25 1409:23 1410:28 1411:31 1412:29 1413:34 1414:24 1415:21 1416:27 1417:19 1418:16 1419:23 1420:17 1421:14 1422:20 1423:8 1424:6 1425:11 1426:67 1427:66 1428:71 1429:195 1430:195 1431:199 1432:174 1433:174 1434:179 1435:190 1436:189 1437:197 1438:254 1439:254 1440:255 1441:255 1442:255 1443:255 1444:231 1445:231 1446:234 1447:228 1448:227 1449:232 1450:242 1451:240 1452:245 1453:255 1454:255 1455:255 1456:199 1457:196 1458:202 1459:22 1460:20 1461:26 1462:31 1463:29 1464:35 1465:29 1466:27 1467:34 1468:23 1469:23 1470:28 1471:34 1472:32 1473:37 1474:50 1475:49 1476:55 1477:82 1478:81 1479:87 1480:246 1481:245 1482:248 1483:248 1484:248 1485:254 1486:247 1487:249 1488:252 1489:247 1490:252 1491:252 1492:249 1493:251 1494:251 1495:247 1496:249 1497:250 1498:252 1499:254 1500:255 1501:187 1502:187 1503:192 1504:32 1505:30 1506:35 1507:32 1508:31 1509:37 1510:27 1511:26 1512:30 1513:24 1514:22 1515:27 1516:22 1517:20 1518:28 1519:13 1520:11 1521:18 1522:65 1523:62 1524:68 1525:188 1526:186 1527:192 1528:174 1529:172 1530:177 1531:181 1532:179 1533:186 1534:252 1535:252 1536:253 1537:255 1538:255 1539:255 1540:227 1541:226 1542:229 1543:223 1544:222 1545:228 1546:240 1547:238 1548:243 1549:247 1550:245 1551:250 1552:240 1553:238 1554:242 1555:57 1556:55 1557:60 1558:12 1559:9 1560:16 1561:32 1562:28 1563:36 1564:25 1565:24 1566:27 1567:43 1568:43 1569:46 1570:50 1571:49 1572:54 1573:204 1574:203 1575:208 1576:255 1577:255 1578:255 1579:245 1580:245 1581:254 1582:247 1583:250 1584:251 1585:247 1586:252 1587:249 1588:249 1589:251 1590:249 1591:247 1592:248 1593:249 1594:240 1595:244 1596:250 1597:250 1598:252 1599:254 1600:109 1601:108 1602:113 1603:8 1604:7 1605:14 1606:17 1607:17 1608:19 1609:16 1610:13 1611:17 1612:11 1613:8 1614:18 1617:3 1618:93 1619:91 1620:97 1621:193 1622:190 1623:197 1624:170 1625:166 1626:174 1627:180 1628:177 1629:183 1630:251 1631:251 1632:251 1633:255 1634:255 1635:255 1636:223 1637:223 1638:225 1639:215 1640:214 1641:219 1642:235 1643:234 1644:240 1645:241 1646:239 1647:245 1648:249 1649:248 1650:251 1651:200 1652:201 1653:205 1654:96 1655:96 1656:99 1657:32 1658:29 1659:34 1660:23 1661:18 1662:25 1663:19 1664:17 1665:22 1666:123 1667:122 1668:127 1669:255 1670:255 1671:255 1672:244 1673:244 1674:250 1675:247 1676:247 1677:254 1678:247 1679:247 1680:255 1681:247 1682:248 1683:254 1684:244 1685:247 1686:252 1687:242 1688:245 1689:250 1690:240 1691:244 1692:247 1693:247 1694:248 1695:252 1696:211 1697:209 1698:214 1699:91 1700:90 1701:95 1702:90 1703:89 1704:94 1705:82 1706:81 1707:86 1708:81 1709:80 1710:85 1711:95 1712:94 1713:97 1714:170 1715:169 1716:177 1717:195 1718:193 1719:200 1720:170 1721:167 1722:174 1723:179 1724:177 1725:182 1726:251 1727:251 1728:249 1729:255 1730:255 1731:255 1732:221 1733:220 1734:222 1735:205 1736:204 1737:209 1738:231 1739:230 1740:235 1741:240 1742:239 1743:245 1744:236 1745:236 1746:241 1747:250 1748:248 1749:254 1750:254 1751:254 1752:255 1753:194 1754:194 1755:197 1756:97 1757:96 1758:101 1759:48 1760:47 1761:51 1762:219 1763:219 1764:224 1765:248 1766:250 1767:252 1768:242 1769:243 1770:249 1771:243 1772:244 1773:253 1774:243 1775:244 1776:253 1777:243 1778:244 1779:249 1780:241 1781:244 1782:249 1783:242 1784:245 1785:250 1786:242 1787:245 1788:248 1789:242 1790:243 1791:247 1792:236 1793:235 1794:240 1795:243 1796:242 1797:247 1798:242 1799:241 1800:246 1801:231 1802:230 1803:235 1804:224 1805:222 1806:228 1807:220 1808:219 1809:226 1810:198 1811:197 1812:205 1813:194 1814:193 1815:199 1816:169 1817:167 1818:171 1819:180 1820:178 1821:184 1822:252 1823:252 1824:254 1825:255 1826:255 1827:255 1828:223 1829:223 1830:224 1831:195 1832:194 1833:200 1834:224 1835:223 1836:227 1837:231 1838:230 1839:235 1840:235 1841:234 1842:240 1843:239 1844:239 1845:245 1846:238 1847:242 1848:246 1849:252 1850:254 1851:255 1852:254 1853:253 1854:255 1855:215 1856:215 1857:218 1858:234 1859:233 1860:239 1861:242 1862:246 1863:250 1864:242 1865:246 1866:249 1867:241 1868:245 1869:248 1870:241 1871:245 1872:248 1873:241 1874:245 1875:248 1876:241 1877:245 1878:248 1879:242 1880:245 1881:248 1882:243 1883:243 1884:247 1885:240 1886:241 1887:246 1888:230 1889:231 1890:237 1891:236 1892:236 1893:241 1894:229 1895:228 1896:233 1897:228 1898:224 1899:231 1900:219 1901:217 1902:224 1903:211 1904:210 1905:216 1906:194 1907:193 1908:199 1909:192 1910:191 1911:196 1912:174 1913:173 1914:177 1915:188 1916:188 1917:192 1918:255 1919:255 1920:255 1921:255 1922:255 1923:255 1924:239 1925:239 1926:240 1927:153 1928:152 1929:156 1930:214 1931:213 1932:218 1933:228 1934:227 1935:233 1936:235 1937:235 1938:240 1939:240 1940:241 1941:245 1942:240 1943:242 1944:246 1945:241 1946:242 1947:245 1948:242 1949:244 1950:246 1951:250 1952:252 1953:254 1954:239 1955:241 1956:245 1957:239 1958:241 1959:245 1960:243 1961:244 1962:247 1963:242 1964:245 1965:247 1966:242 1967:245 1968:247 1969:242 1970:244 1971:248 1972:242 1973:244 1974:248 1975:242 1976:242 1977:247 1978:240 1979:241 1980:247 1981:234 1982:235 1983:240 1984:230 1985:230 1986:235 1987:235 1988:235 1989:240 1990:228 1991:227 1992:232 1993:225 1994:223 1995:230 1996:216 1997:215 1998:221 1999:207 2000:206 2001:212 2002:192 2003:190 2004:197 2005:173 2006:172 2007:177 2008:117 2009:115 2010:122 2011:187 2012:187 2013:191 2014:255 2015:255 2016:255 2017:253 2018:253 2019:253 2020:255 2021:255 2022:255 2023:96 2024:95 2025:99 2026:67 2027:66 2028:71 2029:177 2030:176 2031:182 2032:230 2033:230 2034:235 2035:236 2036:236 2037:240 2038:239 2039:238 2040:243 2041:241 2042:242 2043:246 2044:239 2045:244 2046:247 2047:240 2048:244 2049:247 2050:242 2051:246 2052:249 2053:240 2054:240 2055:244 2056:244 2057:242 2058:247 2059:240 2060:241 2061:247 2062:240 2063:241 2064:246 2065:239 2066:240 2067:244 2068:239 2069:237 2070:245 2071:237 2072:236 2073:243 2074:239 2075:240 2076:243 2077:230 2078:230 2079:235 2080:231 2081:230 2082:236 2083:231 2084:230 2085:235 2086:225 2087:224 2088:229 2089:222 2090:221 2091:227 2092:215 2093:214 2094:220 2095:199 2096:198 2097:204 2098:196 2099:195 2100:201 2101:83 2102:82 2103:88 2104:50 2105:49 2106:55 2107:226 2108:226 2109:228 2110:255 2111:255 2112:255 2113:252 2114:252 2115:252 2116:255 2117:255 2118:255 2119:182 2120:182 2121:183 2125:45 2126:44 2127:47 2128:213 2129:213 2130:219 2131:229 2132:229 2133:234 2134:232 2135:230 2136:235 2137:232 2138:232 2139:236 2140:235 2141:237 2142:241 2143:239 2144:240 2145:244 2146:243 2147:243 2148:247 2149:239 2150:237 2151:242 2152:235 2153:236 2154:240 2155:246 2156:247 2157:252 2158:247 2159:247 2160:250 2161:248 2162:247 2163:254 2164:248 2165:246 2166:254 2167:249 2168:248 2169:255 2170:225 2171:224 2172:230 2173:212 2174:211 2175:217 2176:232 2177:231 2178:237 2179:227 2180:224 2181:231 2182:222 2183:220 2184:226 2185:216 2186:215 2187:221 2188:208 2189:207 2190:213 2191:202 2192:201 2193:207 2194:173 2195:172 2196:178 2197:35 2198:34 2199:40 2200:113 2201:112 2202:118 2203:255 2204:255 2205:255 2206:254 2207:254 2208:254 2209:254 2210:254 2211:254 2212:255 2213:255 2214:255 2215:249 2216:250 2217:249 2218:79 2219:79 2220:81 2221:7 2222:6 2223:11 2224:146 2225:145 2226:151 2227:233 2228:232 2229:238 2230:223 2231:222 2232:227 2233:225 2234:223 2235:229 2236:227 2237:225 2238:230 2239:233 2240:231 2241:236 2242:237 2243:236 2244:241 2245:237 2246:237 2247:242 2248:211 2249:208 2250:215 2251:174 2252:171 2253:180 2254:165 2255:163 2256:173 2257:159 2258:158 2259:165 2260:146 2261:144 2262:155 2263:129 2264:127 2265:136 2266:65 2267:63 2268:71 2269:125 2270:124 2271:131 2272:234 2273:233 2274:239 2275:219 2276:217 2277:224 2278:218 2279:215 2280:222 2281:212 2282:211 2283:216 2284:205 2285:204 2286:210 2287:204 2288:203 2289:209 2290:107 2291:106 2292:111 2293:27 2294:26 2295:33 2296:190 2297:190 2298:194 2299:255 2300:255 2301:255 2302:252 2303:252 2304:252 2305:255 2306:255 2307:255 2308:253 2309:253 2310:253 2311:255 2312:255 2313:255 2314:193 2315:192 2316:195 2317:28 2318:27 2319:32 2320:51 2321:50 2322:56 2323:214 2324:213 2325:219 2326:224 2327:223 2328:229 2329:224 2330:222 2331:228 2332:225 2333:221 2334:228 2335:224 2336:221 2337:228 2338:225 2339:222 2340:229 2341:239 2342:238 2343:244 2344:154 2345:153 2346:159 2347:15 2348:12 2349:20 2350:24 2351:23 2352:29 2353:19 2354:20 2355:24 2356:14 2357:13 2358:17 2359:10 2360:10 2361:12 2362:10 2363:8 2364:12 2365:49 2366:48 2367:53 2368:204 2369:203 2370:211 2371:215 2372:215 2373:220 2374:210 2375:209 2376:215 2377:203 2378:202 2379:207 2380:203 2381:201 2382:207 2383:177 2384:173 2385:180 2386:33 2387:31 2388:37 2389:95 2390:94 2391:98 2392:251 2393:251 2394:252 2395:254 2396:254 2397:254 2398:255 2399:255 2400:255 2401:255 2402:255 2403:255 2404:255 2405:255 2406:255 2407:254 2408:254 2409:254 2410:255 2411:255 2412:255 2413:139 2414:138 2415:141 2416:20 2417:19 2418:25 2419:109 2420:108 2421:114 2422:226 2423:226 2424:231 2425:218 2426:217 2427:223 2428:221 2429:219 2430:226 2431:219 2432:217 2433:224 2434:221 2435:219 2436:225 2437:209 2438:209 2439:215 2440:61 2441:60 2442:66 2443:22 2444:20 2445:26 2446:32 2447:31 2448:36 2449:27 2450:27 2451:31 2452:25 2453:24 2454:27 2455:22 2456:20 2457:27 2458:23 2459:21 2460:26 2461:19 2462:18 2463:23 2464:162 2465:161 2466:169 2467:213 2468:212 2469:217 2470:200 2471:199 2472:205 2473:195 2474:193 2475:199 2476:195 2477:193 2478:199 2479:75 2480:73 2481:80 2482:36 2483:35 2484:39 2485:215 2486:214 2487:217 2488:255 2489:255 2490:255 2491:253 2492:253 2493:253 2494:255 2495:255 2496:255 2497:255 2498:255 2499:255 2500:255 2501:255 2502:255 2503:254 2504:254 2505:254 2506:254 2507:254 2508:254 2509:245 2510:245 2511:244 2512:112 2513:111 2514:116 2515:25 2516:24 2517:29 2518:122 2519:121 2520:127 2521:211 2522:210 2523:216 2524:211 2525:210 2526:216 2527:216 2528:215 2529:221 2530:222 2531:221 2532:227 2533:126 2534:125 2535:131 2536:24 2537:22 2538:28 2539:34 2540:32 2541:37 2542:29 2543:27 2544:32 2545:25 2546:23 2547:28 2548:20 2549:19 2550:24 2551:19 2552:17 2553:26 2554:25 2555:23 2556:28 2557:16 2558:14 2559:19 2560:107 2561:104 2562:112 2563:199 2564:198 2565:205 2566:187 2567:186 2568:192 2569:188 2570:184 2571:192 2572:110 2573:108 2574:115 2575:18 2576:18 2577:24 2578:170 2579:170 2580:172 2581:255 2582:255 2583:255 2584:253 2585:253 2586:253 2587:255 2588:255 2589:255 2590:255 2591:255 2592:255 2593:255 2594:255 2595:255 2596:255 2597:255 2598:255 2599:255 2600:255 2601:255 2602:254 2603:254 2604:254 2605:255 2606:255 2607:255 2608:231 2609:231 2610:232 2611:95 2612:95 2613:97 2614:104 2615:103 2616:108 2617:207 2618:206 2619:212 2620:205 2621:204 2622:210 2623:209 2624:208 2625:214 2626:208 2627:207 2628:213 2629:78 2630:77 2631:82 2632:17 2633:16 2634:21 2635:34 2636:32 2637:37 2638:34 2639:31 2640:38 2641:30 2642:27 2643:34 2644:28 2645:27 2646:34 2647:25 2648:23 2649:30 2650:17 2651:15 2652:20 2653:5 2654:3 2655:8 2656:102 2657:99 2658:107 2659:205 2660:204 2661:211 2662:186 2663:185 2664:191 2665:165 2666:163 2667:170 2668:76 