svm_type c_svc
kernel_type polynomial
degree 3
gamma 3.25521e-07
coef0 0
nr_class 2
total_sv 92
rho -0.197501
label 1 0
probA -1.96207
probB 0.170209
nr_sv 39 53
SV
2.890915863597512e-05 1:251 2:246 3:252 4:251 5:246 6:252 7:251 8:246 9:252 10:251 11:246 12:252 13:249 14:244 15:250 16:249 17:244 18:250 19:250 20:245 21:251 22:251 23:246 24:252 25:251 26:246 27:252 28:251 29:246 30:252 31:251 32:247 33:249 34:251 35:247 36:248 37:251 38:246 39:250 40:251 41:246 42:247 43:250 44:247 45:247 46:255 47:253 48:255 49:181 50:191 51:183 52:80 53:121 54:82 55:65 56:110 57:71 58:107 59:138 60:117 61:221 62:227 63:228 64:255 65:255 66:255 67:254 68:255 69:253 70:252 71:252 72:252 73:252 74:252 75:252 76:251 77:251 78:251 79:250 80:251 81:250 82:253 83:250 84:251 85:254 86:249 87:251 88:251 89:246 90:252 91:253 92:247 93:253 94:255 95:251 96:255 97:251 98:246 99:252 100:251 101:246 102:252 103:251 104:245 105:251 106:250 107:245 108:251 109:249 110:244 111:250 112:249 113:244 114:250 115:250 116:245 117:251 118:251 119:246 120:252 121:251 122:246 123:252 124:251 125:246 126:252 127:251 128:248 129:250 130:251 131:247 132:248 133:252 134:248 135:245 136:250 137:249 138:253 139:255 140:251 141:248 142:217 143:213 144:200 145:95 146:122 147:96 148:67 149:116 150:66 151:71 152:122 153:73 154:79 155:121 156:82 157:101 158:135 159:105 160:156 161:178 162:163 163:230 164:231 165:231 166:254 167:253 168:254 169:253 170:254 171:253 172:255 173:255 174:255 175:255 176:255 177:255 178:249 179:247 180:248 181:248 182:246 183:247 184:255 185:255 186:255 187:252 188:248 189:254 190:222 191:220 192:226 193:251 194:246 195:252 196:251 197:246 198:252 199:250 200:247 201:252 202:250 203:246 204:252 205:250 206:245 207:251 208:250 209:245 210:251 211:251 212:246 213:252 214:251 215:246 216:252 217:250 218:246 219:252 220:249 221:246 222:253 223:250 224:245 225:244 226:245 227:244 228:247 229:240 230:231 231:210 232:235 233:221 234:192 235:208 236:204 237:196 238:208 239:177 240:108 241:146 242:146 243:84 244:82 245:121 246:75 247:87 248:128 249:83 250:110 251:142 252:104 253:164 254:183 255:164 256:202 257:213 258:208 259:238 260:236 261:238 262:254 263:251 264:252 265:241 266:240 267:240 268:214 269:222 270:218 271:173 272:188 273:179 274:123 275:150 276:136 277:105 278:141 279:130 280:142 281:172 282:167 283:160 284:177 285:177 286:142 287:154 288:161 289:250 290:248 291:253 292:250 293:248 294:253 295:248 296:247 297:251 298:250 299:246 300:252 301:252 302:246 303:252 304:252 305:246 306:252 307:251 308:246 309:252 310:250 311:245 312:251 313:249 314:244 315:248 316:250 317:251 318:255 319:241 320:220 321:184 322:234 323:208 324:156 325:234 326:219 327:184 328:234 329:190 330:120 331:170 332:158 333:112 334:226 335:185 336:99 337:230 338:183 339:101 340:214 341:214 342:199 343:153 344:171 345:149 346:148 347:160 348:132 349:255 350:254 351:250 352:255 353:255 354:255 355:254 356:249 357:251 358:252 359:248 360:248 361:238 362:236 363:237 364:135 365:155 366:144 367:76 368:119 369:92 370:67 371:118 372:87 373:44 374:86 375:75 376:38 377:66 378:72 379:62 380:99 381:95 382:79 383:123 384:112 385:250 386:250 387:253 388:250 389:250 390:254 391:250 392:248 393:253 394:251 395:247 396:252 397:251 398:246 399:252 400:250 401:246 402:252 403:250 404:244 405:251 406:255 407:249 408:255 409:244 410:241 411:242 412:251 413:248 414:246 415:246 416:230 417:204 418:232 419:180 420:90 421:228 422:187 423:98 424:238 425:188 426:107 427:203 428:171 429:94 430:216 431:180 432:92 433:230 434:176 435:88 436:241 437:222 438:184 439:204 440:195 441:151 442:216 443:184 444:115 445:248 446:244 447:231 448:237 449:238 450:245 451:252 452:250 453:253 454:251 455:249 456:249 457:255 458:255 459:255 460:177 461:191 462:179 463:87 464:123 465:92 466:80 467:126 468:97 469:69 470:116 471:93 472:64 473:107 474:91 475:71 476:117 477:96 478:105 479:143 480:122 481:250 482:250 483:252 484:250 485:250 486:253 487:250 488:249 489:255 490:249 491:248 492:253 493:249 494:247 495:252 496:249 497:246 498:252 499:253 500:252 501:255 502:227 503:226 504:226 505:191 506:192 507:173 508:191 509:186 510:152 511:250 512:234 513:212 514:235 515:203 516:144 517:229 518:177 519:88 520:236 521:180 522:95 523:198 524:168 525:94 526:190 527:168 528:85 529:234 530:175 531:87 532:218 533:171 534:91 535:217 536:173 537:86 538:237 539:196 540:131 541:239 542:232 543:210 544:221 545:212 546:188 547:241 548:216 549:172 550:248 551:236 552:213 553:209 554:219 555:217 556:120 557:151 558:128 559:89 560:133 561:98 562:79 563:133 564:100 565:69 566:123 567:93 568:121 569:154 570:140 571:216 572:224 573:219 574:208 575:218 576:213 577:250 578:250 579:252 580:250 581:250 582:253 583:249 584:248 585:253 586:247 587:247 588:252 589:245 590:247 591:250 592:254 593:253 594:255 595:194 596:205 597:203 598:91 599:119 600:92 601:178 602:159 603:93 604:194 605:169 606:99 607:232 608:180 609:101 610:221 611:184 612:115 613:228 614:177 615:87 616:226 617:168 618:88 619:224 620:169 621:86 622:201 623:155 624:78 625:174 626:142 627:75 628:187 629:136 630:71 631:205 632:152 633:78 634:222 635:178 636:98 637:226 638:187 639:105 640:232 641:189 642:98 643:232 644:192 645:119 646:251 647:247 648:231 649:146 650:168 651:156 652:81 653:130 654:92 655:77 656:129 657:88 658:93 659:131 660:101 661:179 662:192 663:184 664:222 665:230 666:227 667:160 668:186 669:175 670:89 671:125 672:112 673:250 674:250 675:250 676:250 677:250 678:250 679:250 680:250 681:252 682:249 683:249 684:251 685:248 686:248 687:248 688:254 689:253 690:255 691:128 692:153 693:136 694:74 695:112 696:78 697:153 698:151 699:90 700:239 701:184 702:90 703:232 704:178 705:91 706:232 707:172 708:89 709:229 710:174 711:87 712:231 713:177 714:88 715:191 716:138 717:76 718:154 719:105 720:60 721:110 722:87 723:52 724:113 725:82 726:53 727:166 728:133 729:72 730:210 731:160 732:85 733:229 734:180 735:95 736:222 737:181 738:93 739:157 740:164 741:120 742:129 743:166 744:145 745:94 746:141 747:104 748:90 749:135 750:99 751:137 752:165 753:141 754:198 755:211 756:207 757:202 758:217 759:219 760:90 761:132 762:109 763:100 764:137 765:121 766:206 767:215 768:216 769:251 770:251 771:251 772:251 773:251 774:251 775:250 776:250 777:252 778:249 779:249 780:252 781:253 782:253 783:252 784:236 785:238 786:239 787:105 788:133 789:113 790:89 791:127 792:95 793:130 794:142 795:90 796:229 797:188 798:95 799:231 800:178 801:93 802:224 803:172 804:87 805:188 806:137 807:80 808:143 809:97 810:65 811:86 812:43 813:49 814:75 815:34 816:38 817:91 818:61 819:47 820:107 821:85 822:56 823:114 824:106 825:60 826:175 827:139 828:78 829:221 830:167 831:86 832:232 833:189 834:98 835:157 836:159 837:98 838:79 839:132 840:88 841:79 842:130 843:84 844:151 845:173 846:156 847:188 848:204 849:200 850:132 851:166 852:153 853:97 854:140 855:118 856:138 857:162 858:152 859:242 860:242 861:244 862:254 863:255 864:255 865:252 866:252 867:252 868:252 869:252 870:252 871:251 872:251 873:252 874:251 875:251 876:252 877:255 878:254 879:255 880:231 881:233 882:235 883:86 884:118 885:100 886:111 887:135 888:101 889:219 890:188 891:116 892:234 893:188 894:96 895:215 896:151 897:76 898:197 899:138 900:75 901:107 902:51 903:49 904:58 905:5 906:38 907:67 908:25 909:45 910:69 911:28 912:43 913:88 914:62 915:48 916:105 917:89 918:55 919:104 920:94 921:57 922:136 923:105 924:61 925:234 926:184 927:94 928:243 929:198 930:99 931:233 932:194 933:107 934:116 935:140 936:95 937:100 938:132 939:107 940:150 941:169 942:166 943:117 944:148 945:136 946:83 947:131 948:99 949:159 950:181 951:167 952:252 953:248 954:255 955:247 956:250 957:255 958:230 959:240 960:243 961:251 962:251 963:251 964:252 965:252 966:252 967:252 968:252 969:252 970:251 971:251 972:251 973:251 974:251 975:250 976:244 977:247 978:251 979:155 980:156 981:129 982:205 983:176 984:99 985:235 986:184 987:100 988:219 989:159 990:82 991:180 992:126 993:65 994:85 995:30 996:42 997:62 998:8 999:42 1000:62 1001:15 1002:48 1003:60 1004:18 1005:46 1006:64 1007:24 1008:40 1009:78 1010:46 1011:43 1012:89 1013:70 1014:50 1015:99 1016:88 1017:56 1018:112 1019:86 1020:58 1021:187 1022:152 1023:78 1024:207 1025:169 1026:86 1027:240 1028:188 1029:103 1030:200 1031:171 1032:98 1033:133 1034:152 1035:131 1036:207 1037:217 1038:220 1039:160 1040:174 1041:170 1042:123 1043:145 1044:129 1045:255 1046:253 1047:255 1048:205 1049:216 1050:220 1051:121 1052:144 1053:149 1054:127 1055:149 1056:155 1057:250 1058:250 1059:250 1060:251 1061:251 1062:251 1063:251 1064:251 1065:251 1066:251 1067:250 1068:250 1069:250 1070:251 1071:250 1072:244 1073:250 1074:249 1075:235 1076:213 1077:164 1078:234 1079:192 1080:121 1081:223 1082:172 1083:93 1084:220 1085:165 1086:86 1087:121 1088:67 1089:51 1090:47 1092:38 1093:53 1094:8 1095:43 1096:51 1097:10 1098:42 1099:57 1100:15 1101:43 1102:58 1103:19 1104:36 1105:70 1106:32 1107:43 1108:81 1109:57 1110:50 1111:92 1112:78 1113:53 1114:87 1115:69 1116:47 1117:94 1118:69 1119:47 1120:176 1121:138 1122:69 1123:217 1124:160 1125:84 1126:204 1127:170 1128:94 1129:193 1130:201 1131:188 1132:255 1133:255 1134:255 1135:217 1136:225 1137:225 1138:122 1139:145 1140:121 1141:161 1142:181 1143:174 1144:109 1145:147 1146:140 1147:42 1148:68 1149:74 1150:42 1151:52 1152:69 1153:249 1154:249 1155:249 1156:250 1157:250 1158:250 1159:250 1160:250 1161:250 1162:250 1163:250 1164:251 1165:250 1166:249 1167:249 1168:250 1169:254 1170:254 1171:235 1172:220 1173:191 1174:230 1175:181 1176:102 1177:240 1178:191 1179:94 1180:205 1181:153 1182:85 1183:82 1184:23 1185:41 1186:46 1187:2 1188:38 1189:45 1190:7 1191:39 1192:44 1193:5 1194:37 1195:49 1196:8 1197:39 1198:51 1199:11 1200:36 1201:58 1202:22 1203:41 1204:73 1205:45 1206:48 1207:75 1208:57 1209:40 1210:81 1211:67 1212:50 1213:88 1214:59 1215:54 1216:175 1217:133 1218:74 1219:208 1220:158 1221:82 1222:224 1223:180 1224:102 1225:230 1226:230 1227:218 1228:148 1229:171 1230:168 1231:104 1232:137 1233:119 1234:104 1235:137 1236:109 1237:69 1238:113 1239:90 1240:52 1241:92 1242:79 1243:41 1244:48 1245:63 1246:42 1247:38 1248:62 1249:248 1250:248 1251:248 1252:249 1253:249 1254:249 1255:250 1256:250 1257:250 1258:250 1259:250 1260:249 1261:251 1262:250 1263:251 1264:248 1265:247 1266:242 1267:235 1268:201 1269:133 1270:235 1271:182 1272:88 1273:235 1274:182 1275:96 1276:176 1277:120 1278:71 1279:64 1280:7 1281:37 1282:44 1283:3 1284:36 1285:43 1286:4 1287:38 1288:41 1289:3 1290:34 1291:47 1292:6 1293:36 1294:52 1295:11 1296:39 1297:50 1298:12 1299:38 1300:59 1301:29 1302:39 1303:73 1304:54 1305:44 1306:76 1307:60 1308:51 1309:76 1310:43 1311:46 1312:180 1313:128 1314:72 1315:204 1316:153 1317:78 1318:223 1319:176 1320:95 1321:181 1322:168 1323:105 1324:71 1325:124 1326:84 1327:77 1328:131 1329:97 1330:103 1331:135 1332:116 1333:77 1334:110 1335:100 1336:58 1337:79 1338:81 1339:31 1340:16 1341:49 1342:42 1343:26 1344:49 1345:248 1346:248 1347:248 1348:249 1349:249 1350:249 1351:250 1352:250 1353:250 1354:250 1355:250 1356:249 1357:251 1358:251 1359:253 1360:244 1361:241 1362:231 1363:234 1364:194 1365:110 1366:233 1367:181 1368:91 1369:223 1370:164 1371:85 1372:153 1373:96 1374:64 1375:53 1376:3 1377:40 1378:44 1379:5 1380:35 1381:45 1382:6 1383:37 1384:45 1385:5 1386:38 1387:45 1388:8 1389:37 1390:50 1391:15 1392:37 1393:53 1394:11 1395:37 1396:58 1397:23 1398:38 1399:75 1400:49 1401:47 1402:79 1403:58 1404:54 1405:82 1406:48 1407:50 1408:197 1409:142 1410:81 1411:222 1412:169 1413:86 1414:215 1415:162 1416:86 1417:182 1418:153 1419:84 1420:82 1421:131 1422:84 1423:55 1424:120 1425:80 1426:105 1427:140 1428:130 1429:136 1430:148 1431:154 1432:116 1433:146 1434:136 1435:48 1436:48 1437:62 1438:86 1439:66 1440:52 1441:250 1442:250 1443:250 1444:250 1445:250 1446:250 1447:249 1448:249 1449:249 1450:248 1451:249 1452:248 1453:250 1454:251 1455:252 1456:254 1457:255 1458:255 1459:235 1460:199 1461:145 1462:221 1463:164 1464:79 1465:222 1466:161 1467:80 1468:123 1469:61 1470:58 1471:42 1473:37 1474:40 1475:5 1476:33 1477:43 1478:4 1479:34 1480:43 1481:4 1482:36 1483:32 1484:4 1485:30 1486:42 1487:11 1488:28 1489:55 1490:13 1491:36 1492:61 1493:26 1494:44 1495:70 1496:42 1497:47 1498:73 1499:50 1500:51 1501:76 1502:45 1503:53 1504:175 1505:126 1506:69 1507:223 1508:169 1509:89 1510:233 1511:176 1512:89 1513:179 1514:160 1515:84 1516:62 1517:118 1518:72 1519:60 1520:122 1521:78 1522:70 1523:128 1524:102 1525:110 1526:146 1527:135 1528:79 1529:98 1530:99 1531:90 1532:76 1533:51 1534:157 1535:141 1536:89 1537:249 1538:249 1539:249 1540:248 1541:248 1542:249 1543:255 1544:255 1545:255 1546:255 1547:255 1548:255 1549:248 1550:245 1551:241 1552:223 1553:217 1554:198 1555:228 1556:178 1557:106 1558:217 1559:155 1560:76 1561:210 1562:151 1563:74 1564:107 1565:48 1566:52 1567:43 1569:34 1570:38 1571:3 1572:33 1573:43 1574:3 1575:37 1576:34 1577:4 1578:33 1579:32 1580:2 1581:32 1582:48 1583:13 1584:31 1585:54 1586:13 1587:31 1588:57 1589:22 1590:38 1591:60 1592:31 1593:40 1594:70 1595:48 1596:52 1597:95 1598:67 1599:63 1600:189 1601:137 1602:72 1603:203 1604:146 1605:76 1606:209 1607:151 1608:84 1609:185 1610:162 1611:89 1612:85 1613:128 1614:74 1615:59 1616:123 1617:81 1618:61 1619:124 1620:79 1621:58 1622:122 1623:81 1624:71 1625:108 1626:81 1627:127 1628:128 1629:88 1630:134 1631:152 1632:136 1633:255 1634:255 1635:255 1636:255 1637:255 1638:255 1639:208 1640:217 1641:216 1642:164 1643:177 1644:177 1645:199 1646:186 1647:150 1648:220 1649:182 1650:97 1651:218 1652:161 1653:81 1654:195 1655:141 1656:70 1657:212 1658:165 1659:81 1660:110 1661:52 1662:56 1663:44 1665:33 1666:38 1667:4 1668:35 1669:40 1670:3 1671:37 1672:40 1673:5 1674:35 1675:44 1676:8 1677:36 1678:51 1679:11 1680:33 1681:55 1682:16 1683:35 1684:60 1685:25 1686:43 1687:68 1688:39 1689:49 1690:73 1691:51 1692:54 1693:126 1694:95 1695:69 1696:227 1697:175 1698:90 1699:220 1700:166 1701:90 1702:208 1703:149 1704:75 1705:176 1706:150 1707:79 1708:83 1709:132 1710:79 1711:63 1712:126 1713:84 1714:59 1715:123 1716:81 1717:56 1718:114 1719:78 1720:53 1721:101 1722:86 1723:57 1724:104 1725:99 1726:53 1727:91 1728:95 1729:215 1730:222 1731:224 1732:193 1733:203 1734:204 1735:121 1736:144 1737:138 1738:113 1739:139 1740:132 1741:181 1742:177 1743:133 1744:230 1745:183 1746:96 1747:202 1748:146 1749:80 1750:191 1751:140 1752:74 1753:193 1754:151 1755:76 1756:94 1757:39 1758:51 1759:43 1761:34 1762:39 1763:4 1764:35 1765:39 1766:2 1767:36 1768:43 1769:3 1770:34 1771:45 1772:7 1773:33 1774:47 1775:6 1776:28 1777:51 1778:13 1779:32 1780:57 1781:24 1782:46 1783:72 1784:45 1785:56 1786:76 1787:52 1788:55 1789:157 1790:117 1791:72 1792:231 1793:178 1794:88 1795:231 1796:181 1797:92 1798:215 1799:158 1800:81 1801:214 1802:163 1803:91 1804:100 1805:131 1806:86 1807:61 1808:127 1809:79 1810:62 1811:120 1812:86 1813:56 1814:95 1815:87 1816:55 1817:85 1818:89 1819:57 1820:98 1821:99 1822:54 1823:85 1824:87 1825:104 1826:139 1827:132 1828:91 1829:132 1830:125 1831:119 1832:150 1833:146 1834:115 1835:146 1836:143 1837:176 1838:164 1839:108 1840:192 1841:163 1842:102 1843:188 1844:145 1845:89 1846:198 1847:143 1848:68 1849:184 1850:143 1851:68 1852:97 1853:50 1854:48 1855:42 1857:33 1858:40 1859:4 1860:35 1861:42 1862:1 1863:37 1864:42 1865:3 1866:34 1867:42 1868:3 1869:33 1870:47 1871:6 1872:31 1873:51 1874:14 1875:36 1876:55 1877:23 1878:47 1879:61 1880:33 1881:47 1882:113 1883:76 1884:57 1885:223 1886:170 1887:93 1888:227 1889:174 1890:82 1891:231 1892:186 1893:88 1894:219 1895:165 1896:80 1897:180 1898:144 1899:88 1900:90 1901:132 1902:119 1903:61 1904:105 1905:95 1906:61 1907:103 1908:89 1909:57 1910:92 1911:90 1912:55 1913:94 1914:93 1915:57 1916:101 1917:97 1918:38 1919:67 1920:69 1921:99 1922:141 1923:138 1924:97 1925:145 1926:138 1927:89 1928:135 1929:123 1930:89 1931:127 1932:110 1933:167 1934:175 1935:156 1936:209 1937:209 1938:202 1939:204 1940:166 1941:112 1942:217 1943:161 1944:81 1945:190 1946:150 1947:73 1948:136 1949:95 1950:56 1951:50 1952:4 1953:31 1954:40 1955:4 1956:37 1957:44 1958:3 1959:37 1960:42 1961:3 1962:35 1963:43 1964:4 1965:33 1966:45 1967:7 1968:33 1969:45 1970:11 1971:35 1972:53 1973:20 1974:42 1975:56 1976:17 1977:37 1978:172 1979:124 1980:73 1981:239 1982:186 1983:92 1984:228 1985:175 1986:83 1987:222 1988:175 1989:84 1990:228 1991:181 1992:93 1993:187 1994:153 1995:90 1996:62 1997:84 1998:80 1999:40 2000:58 2001:64 2002:57 2003:97 2004:91 2005:48 2006:84 2007:83 2008:45 2009:85 2010:84 2011:41 2012:72 2013:77 2014:35 2015:44 2016:62 2017:111 2018:144 2019:140 2020:102 2021:140 2022:122 2023:144 2024:169 2025:156 2026:228 2027:230 2028:225 2029:255 2030:255 2031:255 2032:239 2033:228 2034:216 2035:209 2036:159 2037:90 2038:215 2039:168 2040:84 2041:175 2042:134 2043:64 2044:164 2045:125 2046:64 2047:103 2048:53 2049:42 2050:36 2052:29 2053:42 2054:5 2055:37 2056:47 2057:7 2058:41 2059:47 2060:7 2061:35 2062:46 2063:9 2064:29 2065:48 2066:11 2067:34 2068:48 2069:11 2070:41 2071:81 2072:32 2073:42 2074:214 2075:165 2076:87 2077:229 2078:175 2079:84 2080:231 2081:184 2082:87 2083:224 2084:172 2085:79 2086:173 2087:150 2088:96 2089:141 2090:139 2091:98 2092:49 2093:49 2094:54 2095:107 2096:127 2097:133 2098:96 2099:136 2100:130 2101:54 2102:89 2103:90 2104:54 2105:87 2106:91 2107:42 2108:59 2109:72 2110:39 2111:43 2112:61 2113:75 2114:112 2115:93 2116:64 2117:98 2118:74 2119:154 2120:175 2121:169 2122:215 2123:229 2124:230 2125:162 2126:188 2127:180 2128:164 2129:156 2130:119 2131:200 2132:155 2133:84 2134:159 2135:137 2136:71 2137:170 2138:132 2139:63 2140:168 2141:129 2142:63 2143:153 2144:119 2145:56 2146:109 2147:61 2148:42 2149:47 2151:32 2152:37 2154:37 2155:38 2157:32 2158:42 2159:6 2160:34 2161:42 2162:2 2163:32 2164:49 2165:9 2166:31 2167:153 2168:105 2169:64 2170:230 2171:178 2172:86 2173:213 2174:157 2175:76 2176:225 2177:178 2178:86 2179:227 2180:175 2181:84 2182:158 2183:143 2184:100 2185:60 2186:99 2187:91 2188:119 2189:130 2190:130 2191:231 2192:236 2193:238 2194:109 2195:136 2196:134 2197:59 2198:95 2199:97 2200:61 2201:87 2202:90 2203:43 2204:56 2205:67 2206:42 2207:47 2208:64 2209:28 2210:22 2211:38 2212:27 2213:12 2214:34 2215:33 2216:19 2217:45 2218:47 2219:36 2220:61 2221:28 2222:24 2223:41 2224:144 2225:120 2226:76 2227:165 2228:147 2229:84 2230:162 2231:140 2232:80 2233:193 2234:144 2235:72 2236:177 2237:139 2238:70 2239:183 2240:142 2241:68 2242:188 2243:145 2244:67 2245:137 2246:85 2247:55 2248:95 2249:45 2250:45 2251:94 2252:49 2253:46 2254:54 2255:14 2256:36 2257:90 2258:43 2259:43 2260:163 2261:111 2262:67 2263:199 2264:146 2265:78 2266:219 2267:164 2268:84 2269:203 2270:148 2271:71 2272:208 2273:159 2274:76 2275:222 2276:175 2277:98 2278:180 2279:153 2280:103 2281:129 2282:143 2283:127 2284:240 2285:246 2286:244 2287:219 2288:223 2289:221 2290:66 2291:95 2292:88 2293:52 2294:82 2295:84 2296:44 2297:60 2298:66 2299:31 2300:40 2301:50 2302:48 2303:56 2304:67 2305:34 2307:39 2308:32 2310:39 2311:36 2313:39 2314:32 2316:35 2317:26 2319:34 2320:73 2321:40 2322:49 2323:123 2324:108 2325:72 2326:121 2327:115 2328:66 2329:199 2330:151 2331:77 2332:192 2333:140 2334:74 2335:193 2336:142 2337:73 2338:196 2339:143 2340:72 2341:198 2342:147 2343:71 2344:198 2345:146 2346:71 2347:208 2348:151 2349:81 2350:158 2351:108 2352:61 2353:186 2354:135 2355:71 2356:220 2357:163 2358:83 2359:210 2360:149 2361:79 2362:209 2363:157 2364:77 2365:215 2366:160 2367:82 2368:199 2369:148 2370:78 2371:225 2372:203 2373:161 2374:213 2375:210 2376:204 2377:207 2378:204 2379:199 2380:255 2381:255 2382:255 2383:212 2384:218 2385:214 2386:59 2387:78 2388:67 2389:41 2390:54 2391:60 2392:41 2393:53 2394:60 2395:52 2396:80 2397:77 2398:62 2399:101 2400:98 2401:30 2402:4 2403:39 2404:34 2405:4 2406:40 2407:36 2408:4 2409:44 2410:36 2411:3 2412:41 2413:34 2414:4 2415:38 2416:26 2417:1 2418:34 2419:38 2420:8 2421:30 2422:144 2423:118 2424:67 2425:188 2426:158 2427:96 2428:161 2429:137 2430:93 2431:204 2432:147 2433:83 2434:199 2435:141 2436:75 2437:202 2438:143 2439:71 2440:206 2441:146 2442:76 2443:216 2444:154 2445:83 2446:203 2447:146 2448:71 2449:213 2450:161 2451:77 2452:226 2453:169 2454:83 2455:213 2456:161 2457:81 2458:169 2459:138 2460:87 2461:194 2462:158 2463:83 2464:189 2465:145 2466:79 2467:233 2468:219 2469:199 2470:255 2471:255 2472:255 2473:252 2474:251 2475:252 2476:255 2477:255 2478:255 2479:166 2480:178 2481:165 2482:47 2483:61 2484:55 2485:47 2486:59 2487:63 2488:64 2489:93 2490:90 2491:57 2492:96 2493:96 2494:42 2495:67 2496:78 2497:31 2498:3 2499:41 2500:31 2501:3 2502:40 2503:43 2504:9 2505:53 2506:42 2507:6 2508:46 2509:33 2510:5 2511:38 2512:30 2514:38 2515:89 2516:51 2517:60 2518:173 2519:149 2520:86 2521:186 2522:192 2523:182 2524:233 2525:221 2526:200 2527:195 2528:145 2529:76 2530:194 2531:144 2532:79 2533:200 2534:145 2535:78 2536:208 2537:150 2538:79 2539:219 2540:163 2541:81 2542:203 2543:149 2544:80 2545:138 2546:102 2547:61 2548:146 2549:118 2550:75 2551:115 2552:116 2553:76 2554:72 2555:88 2556:62 2557:106 2558:108 2559:67 2560:120 2561:116 2562:80 2563:159 2564:164 2565:148 2566:225 2567:229 2568:229 2569:253 2570:255 2571:255 2572:167 2573:179 2574:171 2575:72 2576:92 2577:79 2578:51 2579:70 2580:67 2581:41 2582:46 2583:57 2584:32 2585:29 2586:49 2587:32 2588:19 2589:46 2590:34 2591:11 2592:43 2593:32 2594:4 2595:42 2596:34 2597:5 2598:44 2599:53 2600:18 2601:65 2602:45 2603:10 2604:50 2605:37 2606:9 2607:48 2608:34 2609:5 2610:49 2611:39 2612:6 2613:43 2614:100 2615:103 2616:106 2617:245 2618:253 2619:253 2620:238 2621:224 2622:203 2623:216 2624:194 2625:155 2626:216 2627:193 2628:159 2629:208 2630:168 2631:115 2632:195 2633:148 2634:79 2635:216 2636:163 2637:77 2638:186 2639:157 2640:91 2641:65 2642:85 2643:85 2644:48 2645:71 2646:69 2647:81 2648:114 2649:91 2650:99 2651:124 2652:90 2653:80 2654:115 2655:84 2656:112 2657:136 2658:114 2659:121 2660:140 2661:121 2662:132 2663:154 2664:147 2665:138 2666:162 2667:156 2668:63 2669:99 2670:82 2671:112 2672:142 2673:137 2674:108 2675:132 2676:137 2677:71 2678:77 2679:92 2680:48 2681:44 2682:63 2683:36 2684:30 2685:51 2686:34 2687:31 2688:48 2689:43 2690:14 2691:55 2692:47 2693:15 2694:57 2695:52 2696:18 2697:61 2698:42 2699:6 2700:49 2701:43 2702:15 2703:54 2704:43 2705:16 2706:58 2707:50 2708:26 2709:63 2710:197 2711:198 2712:204 2713:255 2714:255 2715:255 2716:237 2717:234 2718:224 2719:243 2720:239 2721:222 2722:227 2723:213 2724:189 2725:213 2726:182 2727:137 2728:179 2729:134 2730:60 2731:216 2732:180 2733:113 2734:165 2735:155 2736:116 2737:88 2738:118 2739:104 2740:93 2741:131 2742:113 2743:90 2744:131 2745:108 2746:88 2747:127 2748:98 2749:88 2750:126 2751:97 2752:102 2753:135 2754:112 2755:133 2756:153 2757:134 2758:113 2759:137 2760:123 2761:113 2762:137 2763:132 2764:92 2765:133 2766:122 2767:64 2768:106 2769:103 2770:87 2771:134 2772:128 2773:107 2774:148 2775:143 2776:117 2777:146 2778:148 2779:104 2780:134 2781:136 2782:90 2783:121 2784:120 2785:36 2786:4 2787:42 2788:36 2789:9 2790:46 2791:43 2792:15 2793:52 2794:41 2795:8 2796:49 2797:39 2798:13 2799:53 2800:44 2801:18 2802:60 2803:74 2804:63 2805:87 2806:233 2807:235 2808:233 2809:255 2810:255 2811:255 2812:255 2813:254 2814:255 2815:251 2816:248 2817:240 2818:245 2819:241 2820:233 2821:214 2822:189 2823:154 2824:201 2825:170 2826:116 2827:223 2828:214 2829:188 2830:194 2831:185 2832:171 2833:111 2834:128 2835:107 2836:91 2837:133 2838:117 2839:83 2840:129 2841:109 2842:83 2843:127 2844:105 2845:99 2846:135 2847:112 2848:77 2849:112 2850:88 2851:113 2852:139 2853:125 2854:127 2855:143 2856:139 2857:123 2858:141 2859:144 2860:116 2861:141 2862:137 2863:46 2864:70 2865:73 2866:52 2867:80 2868:83 2869:75 2870:128 2871:120 2872:89 2873:134 2874:131 2875:97 2876:142 2877:139 2878:98 2879:145 2880:139 2881:73 2882:81 2883:100 2884:69 2885:86 2886:100 2887:65 2888:72 2889:92 2890:42 2891:25 2892:55 2893:43 2894:30 2895:64 2896:41 2897:18 2898:59 2899:119 2900:108 2901:127 2902:255 2903:255 2904:254 2905:252 2906:253 2907:253 2908:254 2909:253 2910:254 2911:255 2912:255 2913:255 2914:255 2915:255 2916:255 2917:232 2918:224 2919:210 2920:245 2921:241 2922:231 2923:244 2924:245 2925:239 2926:225 2927:216 2928:205 2929:112 2930:123 2931:109 2932:102 2933:139 2934:123 2935:97 2936:135 2937:118 2938:105 2939:141 2940:124 2941:92 2942:126 2943:108 2944:77 2945:97 2946:81 2947:80 2948:110 2949:96 2950:110 2951:142 2952:138 2953:124 2954:145 2955:140 2956:136 2957:151 2958:146 2959:101 2960:110 2961:115 2962:42 2963:40 2964:57 2965:54 2966:80 2967:85 2968:68 2969:111 2970:108 2971:80 2972:119 2973:118 2974:77 2975:126 2976:123 2977:84 2978:129 2979:137 2980:84 2981:127 2982:131 2983:81 2984:121 2985:124 2986:59 2987:66 2988:83 2989:48 2990:38 2991:66 2992:43 2993:25 2994:60 2995:147 2996:137 2997:151 2998:255 2999:255 3000:255 3001:251 3002:251 3003:252 3004:252 3005:253 3006:254 3007:225 3008:233 3009:231 3010:241 3011:244 3012:242 3013:252 3014:251 3015:250 3016:254 3017:254 3018:254 3019:255 3020:255 3021:255 3022:242 3023:244 3024:241 3025:90 3026:86 3027:92 3028:81 3029:94 3030:94 3031:120 3032:150 3033:135 3034:97 3035:127 3036:109 3037:111 3038:140 3039:112 3040:71 3041:77 3042:76 3043:35 3044:48 3045:53 3046:97 3047:142 3048:128 3049:114 3050:144 3051:136 3052:125 3053:142 3054:137 3055:134 3056:152 3057:144 3058:94 3059:115 3060:116 3061:40 3062:34 3063:57 3064:43 3065:33 3066:56 3067:49 3068:49 3069:71 3070:60 3071:81 3072:95 
0.001 1:19 2:8 3:5 4:20 5:9 6:6 7:20 8:9 9:4 10:20 11:9 12:5 13:20 14:9 15:5 16:20 17:9 18:6 19:21 20:10 21:6 22:20 23:9 24:4 25:21 26:10 27:5 28:20 29:9 30:4 31:21 32:10 33:2 34:21 35:11 36:1 37:23 38:12 39:2 40:17 41:9 42:2 43:21 44:12 45:5 46:7 48:4 49:111 50:76 51:26 52:85 53:62 54:24 55:4 56:1 57:5 58:62 59:48 60:19 61:121 62:103 63:33 64:20 65:9 66:12 67:11 68:2 69:7 70:11 71:1 72:6 73:20 74:15 75:2 76:21 77:12 78:2 79:22 80:12 81:3 82:22 83:12 84:2 85:22 86:12 87:2 88:22 89:12 90:3 91:22 92:12 93:3 94:22 95:12 96:3 97:20 98:9 99:3 100:20 101:10 102:2 103:20 104:10 105:1 106:20 107:9 108:3 109:20 110:9 111:5 112:20 113:9 114:3 115:21 116:10 117:3 118:21 119:11 120:2 121:22 122:12 123:2 124:24 125:13 126:1 127:23 128:12 129:2 130:22 131:12 132:2 133:23 134:12 135:2 136:20 137:11 138:3 139:10 140:1 141:3 142:83 143:60 144:22 145:237 146:198 147:30 148:115 149:87 150:19 151:30 152:20 153:12 154:232 155:221 156:26 157:176 158:157 159:26 160:2 162:5 163:112 164:88 165:21 166:115 167:89 168:23 169:16 170:6 171:4 172:25 173:14 174:3 175:23 176:13 177:4 178:22 179:12 180:3 181:21 182:11 183:1 184:21 185:11 186:2 187:21 188:11 189:3 190:22 191:12 192:3 193:19 194:10 195:1 196:19 197:10 198:1 199:21 200:10 201:1 202:21 203:10 204:2 205:21 206:10 207:3 208:21 209:11 210:2 211:21 212:11 213:2 214:23 215:12 216:2 217:16 218:8 220:8 222:2 223:17 224:7 225:3 226:25 227:15 228:5 229:28 230:16 231:4 232:10 233:5 235:50 236:36 237:18 238:212 239:169 240:32 241:247 242:210 243:14 244:147 245:117 246:19 247:144 248:121 249:19 250:255 251:255 252:14 253:107 254:89 255:20 256:57 257:36 258:12 259:200 260:157 261:15 262:135 263:94 264:19 265:16 266:9 267:3 268:22 269:13 270:2 271:22 272:12 273:2 274:22 275:12 276:2 277:21 278:11 279:1 280:22 281:12 282:2 283:22 284:12 285:2 286:22 287:12 288:2 289:19 290:10 291:1 292:20 293:10 294:1 295:21 296:11 297:2 298:21 299:11 300:2 301:21 302:11 303:2 304:21 305:11 306:3 307:22 308:13 309:2 310:13 311:6 313:46 314:32 315:13 316:105 317:93 318:24 319:48 320:34 321:14 322:10 324:7 325:12 326:4 327:4 328:11 329:1 330:8 331:129 332:110 333:23 334:232 335:192 336:26 337:232 338:194 339:18 340:209 341:172 342:17 343:217 344:186 345:13 346:249 347:232 348:11 349:110 350:84 351:21 352:179 353:149 354:17 355:163 356:116 357:6 358:61 359:28 360:11 361:17 362:9 363:1 364:23 365:13 366:2 367:23 368:13 369:3 370:23 371:14 372:3 373:23 374:13 375:3 376:23 377:13 378:3 379:23 380:13 381:3 382:23 383:13 384:3 385:19 386:10 387:3 388:20 389:10 390:2 391:21 392:11 393:2 394:20 395:10 396:2 397:20 398:10 399:1 400:21 401:10 402:1 403:18 404:10 405:1 406:31 407:17 408:8 409:107 410:73 411:28 412:171 413:148 414:32 415:192 416:173 417:33 418:120 419:94 420:26 421:120 422:102 423:20 424:43 425:29 426:33 427:154 428:129 429:29 430:236 431:199 432:11 433:237 434:199 435:14 436:233 437:197 438:11 439:240 440:207 441:7 442:225 443:191 444:10 445:182 446:143 447:25 448:206 449:172 450:7 451:168 452:119 453:10 454:56 455:34 456:13 457:21 458:12 459:4 460:29 461:17 462:3 463:25 464:15 465:5 466:24 467:14 468:4 469:23 470:13 471:3 472:23 473:13 474:3 475:22 476:12 477:3 478:22 479:12 480:3 481:18 482:9 483:5 484:19 485:10 486:4 487:20 488:10 489:1 490:20 491:10 492:1 493:20 494:10 495:1 496:22 497:12 498:1 499:15 500:6 502:33 503:16 504:13 505:187 506:148 507:32 508:159 509:114 510:15 511:118 512:69 513:24 514:229 515:195 516:31 517:255 518:230 519:17 520:161 521:147 522:48 523:142 524:113 525:37 526:237 527:192 528:8 529:241 530:198 531:11 532:240 533:198 534:9 535:238 536:197 537:7 538:224 539:185 540:10 541:221 542:181 543:13 544:192 545:147 546:2 547:135 548:93 549:15 550:15 551:4 552:9 553:15 554:3 555:4 556:11 558:5 559:17 560:10 561:5 562:24 563:13 564:3 565:21 566:11 567:2 568:22 569:12 570:2 571:22 572:12 573:3 574:23 575:13 576:4 577:18 578:9 579:3 580:19 581:10 582:4 583:21 584:11 585:2 586:21 587:11 588:2 589:22 590:12 591:3 592:22 593:12 594:1 595:23 596:13 597:8 598:95 599:71 600:29 601:245 602:234 603:24 604:253 605:243 606:16 607:194 608:146 609:21 610:198 611:150 612:17 613:225 614:182 615:20 616:226 617:198 618:28 619:151 620:119 621:30 622:229 623:182 624:14 625:239 626:190 627:10 628:246 629:195 630:9 631:239 632:189 633:5 634:223 635:178 636:14 637:209 638:162 639:10 640:185 641:130 642:3 643:123 644:82 645:19 646:73 647:47 648:22 649:171 650:142 651:16 652:156 653:131 654:25 655:43 656:27 657:16 658:19 659:10 660:1 661:23 662:13 663:3 664:23 665:13 666:3 667:23 668:13 669:3 670:23 671:13 672:4 673:20 674:12 675:2 676:21 677:11 678:1 679:21 680:11 681:2 682:21 683:11 684:2 685:23 686:13 687:3 688:11 689:2 690:4 691:110 692:83 693:32 694:173 695:114 696:32 697:190 698:135 699:12 700:249 701:236 702:13 703:253 704:242 705:17 706:200 707:149 708:21 709:175 710:93 711:13 712:213 713:138 714:10 715:190 716:147 717:22 718:197 719:148 720:22 721:251 722:191 723:11 724:245 725:183 726:7 727:236 728:172 729:6 730:221 731:162 732:15 733:197 734:140 735:4 736:145 737:93 738:14 739:141 740:84 741:20 742:229 743:195 744:24 745:255 746:255 747:11 748:222 749:202 750:31 751:59 752:37 753:19 754:18 755:9 756:2 757:24 758:14 759:3 760:22 761:12 762:2 763:23 764:13 765:3 766:23 767:13 768:4 769:14 770:4 772:18 773:8 775:21 776:12 777:1 778:22 779:12 780:2 781:23 782:14 783:3 784:14 785:4 786:4 787:79 788:53 789:21 790:128 791:78 792:13 793:126 794:60 795:4 796:186 797:121 798:12 799:248 800:225 801:13 802:248 803:230 804:17 805:192 806:125 807:21 808:163 809:54 810:3 811:201 812:122 813:15 814:193 815:138 816:29 817:247 818:179 819:10 820:240 821:172 822:10 823:235 824:148 825:15 826:205 827:122 828:11 829:181 830:111 831:10 832:123 833:66 834:27 835:199 836:154 837:18 838:254 839:241 840:9 841:220 842:209 843:28 844:44 845:28 846:15 847:13 848:4 849:1 850:26 851:15 852:3 853:22 854:12 855:2 856:22 857:12 858:2 859:22 860:12 861:2 862:22 863:12 864:3 865:56 866:61 867:17 868:28 869:19 870:12 871:13 872:1 873:3 874:16 875:5 877:17 878:6 879:2 880:21 881:10 882:3 883:24 884:10 885:6 886:88 887:46 888:9 889:135 890:73 891:8 892:123 893:54 894:5 895:191 896:132 897:16 898:248 899:220 900:13 901:247 902:204 903:13 904:181 905:87 906:13 907:177 908:79 909:16 910:217 911:144 912:34 913:228 914:144 915:22 916:217 917:138 918:28 919:216 920:125 921:25 922:193 923:105 924:10 925:163 926:82 927:16 928:189 929:123 930:14 931:247 932:209 933:9 934:249 935:226 936:13 937:219 938:190 939:19 940:161 941:136 942:27 943:31 944:17 945:11 946:21 947:11 948:2 949:22 950:14 951:2 952:22 953:12 954:2 955:22 956:12 957:2 958:22 959:12 960:3 961:86 962:108 963:11 964:86 965:100 966:22 967:51 968:48 969:23 970:42 971:38 972:26 973:35 974:30 975:20 976:19 977:12 978:7 979:14 980:4 981:2 982:32 983:16 984:9 985:103 986:53 987:14 988:135 989:65 990:6 991:129 992:51 993:5 994:205 995:148 996:17 997:248 998:196 999:19 1000:243 1001:177 1002:18 1003:198 1004:96 1005:28 1006:220 1007:114 1008:30 1009:209 1010:105 1011:28 1012:203 1013:97 1014:33 1015:200 1016:101 1017:37 1018:182 1019:94 1020:30 1021:185 1022:102 1023:14 1024:234 1025:172 1026:8 1027:229 1028:175 1029:15 1030:174 1031:119 1032:15 1033:194 1034:151 1035:17 1036:220 1037:186 1038:23 1039:70 1040:45 1041:22 1042:18 1043:6 1044:3 1045:24 1046:13 1047:1 1048:22 1049:12 1050:2 1051:22 1052:12 1053:2 1054:22 1055:12 1056:3 1057:50 1058:54 1059:11 1060:75 1061:93 1062:9 1063:92 1064:113 1065:20 1066:112 1067:132 1068:50 1069:124 1070:138 1071:61 1072:107 1073:119 1074:52 1075:49 1076:46 1077:21 1078:13 1079:1 1080:3 1081:10 1083:4 1084:64 1085:28 1086:11 1087:111 1088:42 1089:9 1090:129 1091:40 1092:8 1093:201 1094:119 1095:24 1096:228 1097:148 1098:26 1099:204 1100:98 1101:27 1102:176 1103:66 1104:26 1105:173 1106:65 1107:32 1108:191 1109:81 1110:27 1111:204 1112:93 1113:27 1114:193 1115:91 1116:36 1117:212 1118:129 1119:21 1120:199 1121:113 1122:15 1123:159 1124:74 1125:16 1126:144 1127:68 1128:15 1129:158 1130:93 1131:15 1132:180 1133:132 1134:9 1135:184 1136:135 1137:20 1138:95 1139:54 1140:17 1141:19 1142:6 1143:4 1144:22 1145:12 1146:2 1147:21 1148:11 1149:2 1150:21 1151:11 1152:2 1153:16 1154:5 1155:4 1156:21 1157:16 1158:8 1159:44 1160:49 1161:11 1162:67 1163:78 1164:10 1165:85 1166:103 1167:15 1168:91 1169:110 1170:16 1171:70 1172:70 1173:24 1174:104 1175:85 1176:18 1177:128 1178:96 1179:13 1180:92 1181:52 1182:13 1183:97 1184:38 1185:17 1186:129 1187:46 1188:12 1189:175 1190:81 1191:16 1192:201 1193:99 1194:30 1195:186 1196:81 1197:29 1198:153 1199:70 1200:34 1201:157 1202:86 1203:39 1204:125 1205:48 1206:30 1207:177 1208:78 1209:27 1210:216 1211:101 1212:23 1213:168 1214:76 1215:31 1216:156 1217:60 1218:16 1219:164 1220:82 1221:15 1222:183 1223:129 1224:14 1225:237 1226:206 1227:13 1228:248 1229:223 1230:20 1231:144 1232:122 1233:22 1234:52 1235:31 1236:18 1237:21 1238:10 1239:5 1240:22 1241:12 1242:3 1243:22 1244:12 1245:3 1246:21 1247:11 1248:2 1249:18 1250:11 1251:6 1252:18 1253:9 1254:4 1255:15 1256:4 1257:4 1258:17 1259:9 1260:11 1261:54 1262:44 1263:12 1264:115 1265:98 1266:10 1267:204 1268:192 1269:23 1270:255 1271:250 1272:24 1273:255 1274:246 1275:29 1276:247 1277:227 1278:26 1279:236 1280:199 1281:16 1282:246 1283:209 1284:20 1285:212 1286:129 1287:25 1288:189 1289:77 1290:28 1291:163 1292:69 1293:29 1294:134 1295:67 1296:34 1297:149 1298:100 1299:33 1300:128 1301:76 1302:36 1303:127 1304:56 1305:36 1306:188 1307:83 1308:20 1309:191 1310:94 1311:29 1312:205 1313:134 1314:28 1315:196 1316:129 1317:22 1318:201 1319:152 1320:25 1321:186 1322:158 1323:20 1324:88 1325:70 1326:17 1327:11 1329:6 1330:16 1331:7 1332:6 1333:23 1334:12 1335:3 1336:22 1337:12 1338:3 1339:22 1340:13 1341:4 1342:22 1343:12 1344:3 1345:18 1346:9 1347:4 1348:19 1349:10 1350:4 1351:21 1352:12 1353:5 1354:16 1355:6 1356:6 1357:90 1358:59 1359:18 1360:235 1361:208 1362:35 1363:246 1364:231 1365:25 1366:194 1367:152 1368:15 1369:184 1370:118 1371:9 1372:193 1373:120 1374:13 1375:185 1376:98 1377:8 1378:192 1379:110 1380:14 1381:192 1382:96 1383:30 1384:170 1385:70 1386:30 1387:129 1388:56 1389:32 1390:135 1391:92 1392:33 1393:154 1394:128 1395:45 1396:138 1397:106 1398:40 1399:109 1400:61 1401:31 1402:157 1403:67 1404:22 1405:209 1406:105 1407:27 1408:137 1409:80 1410:31 1411:69 1412:25 1413:17 1414:45 1415:24 1416:19 1417:20 1418:7 1419:11 1420:15 1421:4 1422:2 1423:24 1424:15 1425:2 1426:23 1427:13 1428:2 1429:22 1430:12 1431:3 1432:21 1433:12 1434:3 1435:21 1436:11 1437:2 1438:22 1439:12 1440:3 1441:18 1442:9 1443:4 1444:18 1445:9 1446:4 1447:20 1448:11 1449:5 1450:17 1451:9 1452:6 1453:39 1454:21 1455:11 1456:109 1457:95 1458:27 1459:169 1460:139 1461:26 1462:165 1463:100 1464:9 1465:150 1466:71 1467:6 1468:146 1469:59 1470:6 1471:157 1472:62 1473:11 1474:206 1475:122 1476:20 1477:183 1478:80 1479:27 1480:155 1481:56 1482:30 1483:142 1484:81 1485:36 1486:149 1487:123 1488:26 1489:177 1490:168 1491:52 1492:160 1493:142 1494:40 1495:118 1496:78 1497:35 1498:132 1499:55 1500:22 1501:194 1502:81 1503:27 1504:205 1505:136 1506:24 1507:219 1508:174 1509:20 1510:115 1511:62 1512:18 1513:29 1514:9 1515:10 1516:22 1517:16 1518:3 1519:23 1520:12 1521:4 1522:21 1523:11 1524:2 1525:21 1526:11 1527:2 1528:20 1529:11 1530:2 1531:21 1532:11 1533:2 1534:21 1535:11 1536:2 1537:19 1538:8 1539:4 1540:19 1541:9 1542:4 1543:19 1544:10 1545:5 1546:20 1547:11 1548:4 1549:14 1550:6 1551:1 1552:37 1553:13 1554:7 1555:108 1556:53 1557:6 1558:123 1559:59 1560:2 1561:142 1562:84 1563:9 1564:220 1565:180 1566:19 1567:250 1568:210 1569:15 1570:244 1571:184 1572:18 1573:172 1574:79 1575:24 1576:153 1577:54 1578:28 1579:156 1580:94 1581:35 1582:153 1583:132 1584:24 1585:128 1586:120 1587:19 1588:134 1589:108 1590:26 1591:136 1592:90 1593:37 1594:136 1595:54 1596:28 1597:176 1598:72 1599:27 1600:187 1601:101 1602:26 1603:243 1604:193 1605:11 1606:239 1607:200 1608:21 1609:122 1610:71 1611:14 1612:23 1613:8 1614:7 1615:22 1616:13 1617:5 1618:23 1619:12 1620:4 1621:21 1622:11 1623:2 1624:21 1625:11 1626:2 1627:21 1628:11 1629:5 1630:22 1631:12 1632:3 1633:19 1634:8 1635:4 1636:19 1637:8 1638:4 1639:18 1640:9 1641:5 1642:21 1643:10 1644:2 1645:17 1646:8 1647:1 1648:76 1649:42 1650:12 1651:135 1652:79 1653:11 1654:185 1655:144 1656:21 1657:238 1658:219 1659:24 1660:238 1661:212 1662:20 1663:211 1664:168 1665:22 1666:221 1667:160 1668:21 1669:192 1670:101 1671:26 1672:167 1673:63 1674:32 1675:162 1676:82 1677:33 1678:159 1679:123 1680:22 1681:139 1682:116 1683:16 1684:139 1685:103 1686:27 1687:148 1688:89 1689:37 1690:153 1691:56 1692:27 1693:176 1694:76 1695:29 1696:189 1697:108 1698:32 1699:191 1700:90 1701:16 1702:214 1703:147 1704:11 1705:237 1706:196 1707:22 1708:122 1709:99 1710:20 1711:12 1712:2 1713:8 1714:25 1715:14 1716:3 1717:21 1718:11 1719:2 1720:21 1721:11 1722:2 1723:21 1724:10 1725:4 1726:21 1727:11 1728:2 1729:18 1730:9 1731:4 1732:18 1733:9 1734:4 1735:19 1736:10 1737:5 1738:19 1739:11 1740:3 1741:20 1742:11 1744:16 1745:6 1746:4 1747:39 1748:24 1749:17 1750:91 1751:84 1752:35 1753:168 1754:138 1755:34 1756:158 1757:93 1758:13 1759:148 1760:71 1761:11 1762:176 1763:95 1764:24 1765:152 1766:62 1767:24 1768:149 1769:43 1770:22 1771:156 1772:65 1773:30 1774:160 1775:98 1776:31 1777:167 1778:129 1779:27 1780:163 1781:109 1782:31 1783:156 1784:74 1785:39 1786:162 1787:60 1788:25 1789:148 1790:55 1791:25 1792:200 1793:125 1794:28 1795:203 1796:120 1797:28 1798:186 1799:91 1800:13 1801:207 1802:132 1803:9 1804:211 1805:166 1806:16 1807:43 1808:29 1809:13 1810:17 1811:7 1812:3 1813:22 1814:12 1815:2 1816:21 1817:11 1818:2 1819:21 1820:11 1821:2 1822:21 1823:11 1824:2 1825:18 1826:9 1827:4 1828:18 1829:9 1830:4 1831:18 1832:10 1833:5 1834:19 1835:10 1836:3 1837:17 1838:8 1839:2 1840:30 1841:15 1842:12 1843:101 1844:80 1845:35 1846:118 1847:84 1848:19 1849:137 1850:76 1851:13 1852:160 1853:101 1854:18 1855:171 1856:101 1857:26 1858:164 1859:84 1860:29 1861:120 1862:42 1863:18 1864:133 1865:36 1866:23 1867:164 1868:60 1869:34 1870:164 1871:77 1872:41 1873:162 1874:92 1875:38 1876:162 1877:80 1878:36 1879:163 1880:62 1881:32 1882:156 1883:64 1884:24 1885:149 1886:57 1887:24 1888:144 1889:36 1890:14 1891:150 1892:70 1893:23 1894:177 1895:95 1896:15 1897:173 1898:90 1899:7 1900:204 1901:141 1902:20 1903:98 1904:75 1905:17 1906:8 1908:2 1909:24 1910:13 1911:2 1912:21 1913:11 1914:2 1915:21 1916:11 1917:2 1918:21 1919:11 1920:2 1921:18 1922:9 1923:3 1924:18 1925:9 1926:4 1927:19 1928:8 1929:4 1930:19 1931:9 1932:5 1933:19 1934:10 1935:3 1936:19 1937:9 1938:6 1939:89 1940:53 1941:14 1942:119 1943:63 1944:6 1945:180 1946:128 1947:17 1948:177 1949:130 1950:30 1951:103 1952:52 1953:27 1954:232 1955:170 1956:23 1957:212 1958:136 1959:21 1960:112 1961:26 1962:22 1963:145 1964:45 1965:22 1966:163 1967:60 1968:29 1969:174 1970:71 1971:39 1972:169 1973:65 1974:32 1975:160 1976:58 1977:25 1978:115 1979:34 1980:21 1981:190 1982:122 1983:22 1984:186 1985:95 1986:10 1987:122 1988:25 1989:7 1990:124 1991:67 1992:22 1993:164 1994:96 1995:13 1996:143 1997:73 1998:18 1999:117 2000:75 2001:27 2002:14 2003:5 2004:3 2005:23 2006:12 2007:2 2008:21 2009:11 2010:2 2011:21 2012:11 2013:2 2014:21 2015:11 2016:2 2017:17 2018:7 2019:3 2020:19 2021:10 2022:4 2023:22 2024:10 2025:5 2026:22 2027:11 2028:7 2029:17 2030:10 2031:3 2032:30 2033:18 2034:3 2035:62 2036:24 2037:3 2038:152 2039:111 2040:17 2041:148 2042:120 2043:26 2044:16 2045:6 2046:15 2047:159 2048:120 2049:17 2050:255 2051:204 2052:6 2053:245 2054:173 2055:17 2056:184 2057:102 2058:29 2059:115 2060:37 2061:22 2062:126 2063:37 2064:25 2065:159 2066:51 2067:26 2068:148 2069:49 2070:26 2071:104 2072:28 2073:23 2074:132 2075:57 2076:18 2077:209 2078:123 2079:23 2080:206 2081:149 2082:23 2083:170 2084:84 2085:9 2086:101 2087:38 2088:12 2089:122 2090:82 2091:22 2092:177 2093:114 2094:21 2095:96 2096:55 2097:22 2098:14 2099:7 2100:3 2101:22 2102:12 2103:2 2104:21 2105:11 2106:2 2107:21 2108:11 2109:2 2110:21 2111:11 2112:2 2113:20 2114:12 2115:5 2116:14 2117:5 2118:3 2119:10 2122:13 2123:2 2124:2 2125:13 2126:6 2127:1 2128:39 2129:18 2130:7 2131:149 2132:114 2133:25 2134:141 2135:120 2136:29 2139:9 2140:82 2141:61 2142:19 2143:251 2144:211 2145:11 2146:242 2147:192 2148:13 2149:235 2150:170 2151:22 2152:233 2153:163 2154:20 2155:117 2156:42 2157:24 2158:87 2159:24 2160:12 2161:90 2162:26 2163:17 2164:87 2165:26 2166:19 2167:78 2168:16 2169:14 2170:135 2171:46 2172:13 2173:210 2174:126 2175:21 2176:153 2177:83 2178:26 2179:160 2180:112 2181:25 2182:137 2183:62 2184:7 2185:59 2186:32 2187:15 2188:172 2189:121 2190:22 2191:70 2192:40 2193:10 2194:13 2195:6 2196:2 2197:23 2198:12 2199:2 2200:21 2201:11 2202:2 2203:21 2204:11 2205:2 2206:21 2207:11 2208:2 2209:85 2210:96 2211:46 2212:86 2213:94 2214:47 2215:73 2216:77 2217:42 2218:49 2219:47 2220:27 2221:22 2222:17 2223:8 2224:24 2225:11 2226:5 2227:54 2228:37 2229:14 2232:5 2233:13 2234:9 2235:8 2236:208 2237:181 2238:19 2239:253 2240:222 2241:3 2242:234 2243:195 2244:27 2245:229 2246:181 2247:19 2248:219 2249:148 2250:20 2251:191 2252:103 2253:24 2254:125 2255:44 2256:15 2257:73 2258:16 2259:7 2260:102 2261:32 2262:15 2263:109 2264:32 2265:15 2266:120 2267:33 2268:10 2269:158 2270:69 2271:10 2272:164 2273:90 2274:20 2275:89 2276:44 2277:22 2278:135 2279:71 2280:13 2281:59 2282:27 2283:13 2284:120 2285:82 2286:21 2287:61 2288:37 2289:9 2290:12 2291:5 2292:2 2293:22 2294:12 2295:2 2296:21 2297:11 2298:2 2299:21 2300:11 2301:2 2302:21 2303:11 2304:2 2305:27 2306:31 2307:10 2308:41 2309:46 2310:17 2311:77 2312:84 2313:43 2314:113 2315:122 2316:71 2317:113 2318:122 2319:66 2320:82 2321:89 2322:39 2323:67 2324:67 2325:31 2326:41 2327:44 2328:22 2329:100 2330:87 2331:21 2332:243 2333:218 2334:8 2335:244 2336:216 2337:18 2338:219 2339:179 2340:25 2341:226 2342:181 2343:18 2344:199 2345:143 2346:33 2347:236 2348:167 2349:14 2350:203 2351:122 2352:27 2353:155 2354:76 2355:26 2356:193 2357:114 2358:26 2359:163 2360:79 2361:19 2362:116 2363:35 2364:3 2365:122 2366:44 2367:8 2368:157 2369:92 2370:21 2371:138 2372:80 2373:18 2374:136 2375:87 2376:18 2377:62 2378:30 2379:12 2380:49 2381:32 2382:17 2383:40 2384:25 2385:9 2386:18 2387:8 2388:1 2389:21 2390:11 2391:2 2392:21 2393:11 2394:2 2395:21 2396:11 2397:3 2398:21 2399:10 2400:5 2401:21 2402:15 2403:3 2404:18 2405:14 2406:2 2407:13 2408:13 2410:42 2411:46 2412:14 2413:96 2414:111 2415:40 2416:111 2417:128 2418:54 2419:120 2420:135 2421:60 2422:118 2423:130 2424:65 2425:189 2426:174 2427:23 2428:247 2429:224 2430:7 2431:220 2432:185 2433:27 2434:233 2435:199 2436:18 2437:200 2438:163 2439:23 2440:188 2441:141 2442:18 2443:225 2444:169 2445:6 2446:226 2447:164 2448:13 2449:213 2450:145 2451:17 2452:221 2453:162 2454:11 2455:201 2456:136 2457:16 2458:131 2459:53 2460:10 2461:119 2462:46 2463:7 2464:120 2465:67 2466:15 2467:172 2468:126 2469:17 2470:130 2471:81 2472:13 2473:64 2474:32 2475:12 2476:12 2477:6 2478:2 2479:20 2480:11 2481:5 2482:20 2483:10 2484:5 2485:20 2486:11 2487:6 2488:20 2489:11 2490:6 2491:20 2492:11 2493:6 2494:21 2495:10 2496:6 2497:17 2498:7 2499:4 2500:18 2501:8 2502:4 2503:21 2504:12 2505:3 2506:32 2507:29 2508:11 2509:53 2510:61 2511:13 2512:85 2513:100 2514:34 2515:92 2516:109 2517:40 2518:115 2519:124 2520:47 2521:216 2522:196 2523:11 2524:226 2525:186 2526:20 2527:214 2528:177 2529:18 2530:249 2531:235 2532:21 2533:149 2534:122 2535:28 2536:191 2537:149 2538:10 2539:219 2540:169 2541:10 2542:213 2543:163 2544:8 2545:221 2546:171 2547:11 2548:209 2549:163 2550:10 2551:203 2552:152 2553:14 2554:164 2555:97 2556:19 2557:126 2558:50 2559:6 2560:89 2561:44 2562:13 2563:148 2564:106 2565:12 2566:109 2567:61 2568:11 2569:53 2570:26 2571:14 2572:16 2573:8 2574:4 2575:22 2576:12 2577:6 2578:20 2579:11 2580:6 2581:20 2582:11 2583:6 2584:20 2585:11 2586:6 2587:20 2588:11 2589:6 2590:21 2591:10 2592:6 2593:17 2594:8 2595:3 2596:18 2597:8 2598:3 2599:19 2600:8 2601:3 2602:15 2603:6 2604:5 2605:15 2606:9 2607:4 2608:56 2609:57 2610:18 2611:92 2612:109 2613:43 2614:123 2615:126 2616:31 2617:215 2618:189 2619:14 2620:219 2621:184 2622:17 2623:251 2624:228 2625:10 2626:215 2627:199 2628:37 2629:130 2630:101 2631:20 2632:183 2633:129 2634:4 2635:154 2636:103 2637:19 2638:197 2639:159 2640:13 2641:212 2642:163 2643:16 2644:200 2645:157 2646:13 2647:196 2648:153 2649:9 2650:194 2651:147 2652:22 2653:134 2654:68 2655:15 2656:75 2657:31 2658:9 2659:113 2660:77 2661:15 2662:36 2663:19 2664:8 2665:20 2666:9 2667:1 2668:21 2669:11 2670:3 2671:20 2672:11 2673:6 2674:20 2675:11 2676:6 2677:20 2678:11 2679:6 2680:20 2681:11 2682:6 2683:20 2684:11 2685:6 2686:20 2687:11 2688:6 2689:17 2690:8 2691:3 2692:17 2693:8 2694:3 2695:18 2696:9 2697:4 2698:19 2699:10 2700:4 2701:19 2702:9 2703:4 2704:14 2705:4 2706:3 2707:96 2708:100 2709:49 2710:124 2711:122 2712:59 2713:169 2714:134 2715:31 2716:245 2717:211 2718:21 2719:183 2720:162 2721:20 2722:64 2723:46 2724:20 2725:136 2726:91 2727:14 2728:140 2729:82 2730:12 2731:94 2732:54 2733:19 2734:203 2735:173 2736:12 2737:154 2738:115 2739:17 2740:178 2741:139 2742:16 2743:180 2744:136 2745:11 2746:174 2747:134 2748:13 2749:166 2750:119 2751:20 2752:91 2753:43 2754:10 2755:82 2756:50 2757:16 2758:17 2759:10 2760:5 2761:22 2762:11 2763:3 2764:21 2765:11 2766:5 2767:19 2768:11 2769:6 2770:19 2771:10 2772:5 2773:19 2774:10 2775:5 2776:20 2777:11 2778:6 2779:19 2780:10 2781:5 2782:20 2783:11 2784:6 2785:17 2786:8 2787:3 2788:17 2789:8 2790:3 2791:17 2792:8 2793:2 2794:18 2795:9 2796:4 2797:19 2798:11 2799:4 2800:10 2801:3 2802:1 2803:45 2804:38 2805:20 2806:111 2807:111 2808:75 2809:52 2810:33 2811:12 2812:104 2813:76 2814:23 2815:26 2816:13 2817:8 2818:44 2819:21 2820:5 2821:134 2822:76 2823:14 2824:101 2825:51 2826:18 2827:61 2828:39 2829:18 2830:211 2831:175 2832:13 2833:91 2834:66 2835:15 2836:132 2837:97 2838:11 2839:145 2840:100 2841:14 2842:176 2843:138 2844:20 2845:133 2846:87 2847:11 2848:129 2849:80 2850:17 2851:58 2852:32 2853:11 2854:14 2855:9 2856:5 2857:22 2858:11 2859:6 2860:20 2861:10 2862:6 2863:19 2864:11 2865:5 2866:19 2867:10 2868:5 2869:19 2870:10 2871:5 2872:20 2873:11 2874:6 2875:19 2876:10 2877:5 2878:20 2879:11 2880:6 2881:17 2882:8 2883:3 2884:17 2885:8 2886:3 2887:17 2888:8 2889:3 2890:18 2891:9 2892:4 2893:18 2894:9 2895:4 2896:20 2897:11 2898:6 2899:8 2902:109 2903:109 2904:64 2905:52 2906:45 2907:33 2908:2 2911:16 2912:12 2913:5 2914:63 2915:34 2916:7 2917:110 2918:57 2919:12 2920:37 2921:19 2922:13 2923:76 2924:53 2925:17 2926:185 2927:150 2928:15 2929:37 2930:22 2931:12 2932:124 2933:91 2934:15 2935:63 2936:34 2937:10 2938:107 2939:86 2940:27 2941:117 2942:71 2943:10 2944:94 2945:48 2946:9 2947:34 2948:17 2949:11 2950:17 2951:9 2952:6 2953:20 2954:12 2955:6 2956:20 2957:11 2958:6 2959:19 2960:10 2961:5 2962:19 2963:10 2964:5 2965:20 2966:11 2967:6 2968:19 2969:10 2970:5 2971:19 2972:10 2973:5 2974:20 2975:11 2976:6 2977:17 2978:8 2979:3 2980:17 2981:8 2982:3 2983:17 2984:9 2985:4 2986:18 2987:9 2988:4 2989:18 2990:9 2991:4 2992:19 2993:11 2994:5 2995:9 2996:1 2997:1 2998:61 2999:57 3000:32 3001:89 3002:84 3003:51 3004:13 3005:3 3006:1 3007:19 3008:12 3009:8 3010:49 3011:32 3012:7 3013:59 3014:31 3015:10 3016:3 3018:4 3019:109 3020:77 3021:11 3022:116 3023:91 3024:19 3025:16 3026:5 3027:8 3028:82 3029:59 3030:19 3031:11 3032:4 3033:4 3034:19 3035:11 3036:10 3037:67 3038:43 3039:13 3040:63 3041:29 3042:5 3043:21 3044:12 3045:6 3046:20 3047:10 3048:6 3049:19 3050:11 3051:6 3052:20 3053:11 3054:6 3055:19 3056:10 3057:5 3058:19 3059:10 3060:5 3061:19 3062:10 3063:5 3064:19 3065:10 3066:5 3067:19 3068:10 3069:5 3070:19 3071:10 3072:5 
0.001 1:5 2:5 3:5 4:6 5:6 6:7 7:15 8:16 9:20 10:22 11:25 12:27 13:5 14:4 15:7 16:4 17:3 18:8 19:6 20:6 21:9 22:11 23:5 24:7 25:7 26:3 27:3 28:4 30:2 33:1 34:103 35:72 36:51 37:183 38:126 39:78 40:27 41:20 42:15 43:74 44:58 45:47 46:209 47:167 48:95 49:135 50:97 51:58 52:137 53:113 54:75 55:115 56:81 57:53 58:97 59:79 60:52 61:157 62:126 63:76 64:21 65:16 66:18 67:10 68:5 69:5 70:25 71:22 72:24 73:35 74:39 75:44 76:30 77:31 78:31 79:35 80:33 81:44 82:23 83:25 84:35 85:51 86:62 87:63 88:96 89:112 90:120 91:32 92:40 93:41 94:4 95:7 96:12 97:5 98:5 99:4 100:1 102:1 109:4 110:3 111:7 112:8 113:2 114:5 115:9 116:2 117:4 118:2 119:1 120:2 121:28 122:16 123:13 124:127 125:87 126:61 127:69 128:52 129:37 130:126 131:94 132:59 133:221 134:166 135:88 136:93 137:77 138:45 139:110 140:91 141:55 142:216 143:173 144:86 145:171 146:134 147:68 148:146 149:109 150:55 151:169 152:133 153:76 154:211 155:174 156:100 157:90 158:65 159:40 162:2 166:24 167:26 168:39 169:54 170:63 171:77 172:47 173:53 174:58 175:49 176:56 177:65 178:46 179:49 180:61 181:5 182:4 183:2 184:9 185:9 186:8 187:7 188:1 189:3 190:13 191:12 192:15 193:1 194:2 195:3 196:28 197:23 198:23 199:49 200:36 201:31 202:30 203:18 204:16 205:9 206:7 207:6 208:6 209:3 210:5 211:8 212:6 213:7 214:2 215:3 216:3 217:45 218:29 219:23 220:213 221:145 222:82 223:191 224:142 225:78 226:172 227:129 228:74 229:222 230:166 231:91 232:168 233:130 234:76 235:135 236:100 237:60 238:207 239:162 240:87 241:173 242:132 243:69 244:146 245:104 246:61 247:200 248:155 249:84 250:187 251:132 252:73 253:56 254:33 255:25 256:75 257:62 258:41 259:155 260:120 261:83 262:110 263:84 264:64 265:30 266:23 267:23 268:6 269:5 270:4 271:15 272:6 273:10 274:8 275:5 276:9 277:8 278:6 279:8 280:7 281:4 282:5 283:8 284:1 285:4 286:15 287:12 288:14 289:23 290:17 291:14 292:89 293:66 294:53 295:68 296:52 297:46 298:78 299:63 300:43 301:54 302:44 303:34 304:9 305:2 306:9 308:1 309:2 313:16 314:9 315:14 316:187 317:131 318:73 319:199 320:148 321:74 322:201 323:155 324:80 325:227 326:174 327:93 328:210 329:165 330:88 331:186 332:142 333:79 334:187 335:138 336:74 337:162 338:124 339:71 340:166 341:125 342:74 343:200 344:142 345:80 346:159 347:102 348:60 349:136 350:105 351:67 352:224 353:182 354:99 355:137 356:101 357:67 358:84 359:60 360:47 361:76 362:54 363:44 364:3 365:1 366:4 367:12 368:4 369:6 370:9 371:5 372:5 373:9 374:5 375:5 376:8 377:4 378:5 379:6 380:2 381:3 382:15 383:14 384:15 385:73 386:57 387:44 388:117 389:100 390:74 391:11 392:13 393:15 394:91 395:84 396:61 397:115 398:95 399:70 400:26 401:22 402:19 403:53 404:46 405:30 406:128 407:97 408:66 409:42 410:33 411:27 412:144 413:116 414:70 415:214 416:165 417:85 418:194 419:144 420:77 421:223 422:186 423:97 424:203 425:158 426:76 427:188 428:135 429:70 430:186 431:135 432:77 433:145 434:113 435:63 436:186 437:137 438:77 439:197 440:127 441:73 442:179 443:128 444:71 445:212 446:168 447:90 448:171 449:125 450:65 451:84 452:68 453:41 454:128 455:93 456:63 457:94 458:64 459:50 460:3 461:2 462:6 463:10 464:4 465:5 466:8 467:6 468:6 469:8 470:4 471:5 472:7 473:3 474:4 475:6 476:2 477:3 478:15 479:14 480:15 481:85 482:69 483:54 484:104 485:98 486:87 487:55 488:54 489:56 490:85 491:82 492:77 493:108 494:94 495:82 496:59 497:48 498:40 499:125 500:107 501:67 502:233 503:190 504:97 505:197 506:158 507:88 508:180 509:137 510:81 511:221 512:171 513:94 514:198 515:146 516:73 517:207 518:163 519:82 520:202 521:142 522:75 523:178 524:116 525:65 526:183 527:123 528:74 529:128 530:97 531:59 532:193 533:133 534:78 535:189 536:113 537:67 538:188 539:142 540:78 541:186 542:137 543:75 544:161 545:119 546:66 547:210 548:173 549:95 550:221 551:169 552:92 553:59 554:43 555:28 559:12 560:7 561:5 562:7 563:4 564:5 565:8 566:3 567:5 568:7 569:3 570:4 571:6 572:1 573:3 574:13 575:11 576:14 577:88 578:70 579:53 580:90 581:87 582:88 583:98 584:97 585:98 586:99 587:101 588:103 589:106 590:96 591:92 592:73 593:60 594:41 595:5 596:1 597:3 598:174 599:145 600:85 601:239 602:195 603:96 604:208 605:149 606:76 607:203 608:132 609:72 610:214 611:164 612:87 613:192 614:141 615:70 616:199 617:128 618:70 619:151 620:86 621:56 622:150 623:98 624:69 625:122 626:80 627:50 628:185 629:110 630:69 631:167 632:109 633:71 634:181 635:127 636:74 637:159 638:107 639:61 640:177 641:128 642:69 643:193 644:134 645:71 646:128 647:92 648:57 649:29 650:17 651:11 652:93 653:66 654:46 655:18 656:11 657:10 658:6 659:4 660:5 661:8 662:3 663:4 664:7 665:3 666:4 667:7 668:2 669:3 670:14 671:13 672:15 673:115 674:93 675:64 676:100 677:87 678:62 679:18 680:17 681:16 682:69 683:65 684:47 685:98 686:81 687:64 688:57 689:43 690:37 691:35 692:30 693:25 694:96 695:73 696:48 697:216 698:171 699:93 700:218 701:172 702:91 703:197 704:135 705:72 706:193 707:134 708:73 709:167 710:126 711:73 712:132 713:78 714:53 715:103 716:59 717:44 718:85 719:47 720:28 721:99 722:50 723:38 724:113 725:56 726:47 727:113 728:74 729:54 730:142 731:91 732:53 733:156 734:101 735:61 736:176 737:126 738:76 739:196 740:152 741:88 742:162 743:117 744:71 745:190 746:142 747:81 748:133 749:95 750:64 751:2 753:5 754:10 755:8 756:8 757:6 758:3 759:4 760:8 761:5 762:6 763:6 764:1 765:3 766:15 767:14 768:16 769:72 770:62 771:39 772:125 773:99 774:72 775:33 776:20 777:19 778:109 779:90 780:63 781:117 782:91 783:61 784:162 785:136 786:80 787:208 788:173 789:97 790:185 791:139 792:73 793:170 794:117 795:60 796:190 797:144 798:72 799:183 800:137 801:65 802:178 803:120 804:69 805:90 806:57 807:42 808:57 809:29 810:26 811:66 812:34 813:28 814:73 815:34 816:26 817:76 818:35 819:32 820:67 821:30 822:32 823:76 824:37 825:34 826:122 827:77 828:52 829:180 830:134 831:73 832:204 833:152 834:86 835:218 836:176 837:93 838:194 839:137 840:73 841:165 842:113 843:67 844:29 845:17 846:17 847:4 848:2 849:8 850:7 851:4 852:6 853:8 854:6 855:7 856:10 857:6 858:7 859:6 860:1 861:2 862:15 863:14 864:16 865:10 866:9 867:8 868:50 869:36 870:29 871:63 872:48 873:37 874:89 875:70 876:51 877:55 878:44 879:36 880:162 881:135 882:85 883:230 884:177 885:93 886:225 887:170 888:86 889:199 890:142 891:80 892:182 893:124 894:71 895:152 896:96 897:55 898:107 899:72 900:53 901:70 902:36 903:33 904:58 905:28 906:24 907:65 908:32 909:29 910:77 911:36 912:35 913:69 914:36 915:32 916:69 917:35 918:32 919:70 920:27 921:26 922:90 923:44 924:34 925:176 926:130 927:78 928:196 929:150 930:77 931:148 932:115 933:74 934:146 935:117 936:80 937:103 938:85 939:56 940:35 941:28 942:25 943:78 944:65 945:59 946:17 947:15 948:13 949:6 950:3 951:4 952:9 953:5 954:6 955:6 956:1 957:1 958:14 959:12 960:14 961:5 962:2 963:3 964:1 965:1 966:3 967:15 968:13 969:11 970:11 971:6 972:8 973:21 974:17 975:16 976:129 977:113 978:76 979:103 980:82 981:61 982:177 983:135 984:83 985:223 986:171 987:90 988:215 989:155 990:80 991:184 992:116 993:74 994:85 995:49 996:38 997:71 998:36 999:31 1000:59 1001:32 1002:29 1003:53 1004:33 1005:30 1006:63 1007:39 1008:38 1009:54 1010:30 1011:30 1012:52 1013:23 1014:24 1015:60 1016:28 1017:26 1018:60 1019:24 1020:23 1021:119 1022:80 1023:52 1024:205 1025:153 1026:85 1027:169 1028:130 1029:75 1030:205 1031:163 1032:95 1033:224 1034:182 1035:95 1036:187 1037:139 1038:77 1039:118 1040:86 1041:64 1042:17 1043:14 1044:13 1045:6 1046:2 1047:3 1048:7 1049:3 1050:5 1051:6 1052:1 1053:1 1054:15 1055:13 1056:15 1057:2 1058:2 1059:3 1060:2 1061:2 1062:5 1063:4 1064:3 1065:5 1069:39 1070:31 1071:20 1072:214 1073:180 1074:105 1075:54 1076:43 1077:35 1078:17 1079:10 1080:13 1081:146 1082:115 1083:69 1084:193 1085:155 1086:90 1087:123 1088:90 1089:66 1090:91 1091:44 1092:40 1093:73 1094:34 1095:31 1096:64 1097:37 1098:35 1099:50 1100:32 1101:29 1102:35 1103:23 1104:24 1105:40 1106:21 1107:22 1108:46 1109:20 1110:22 1111:56 1112:26 1113:26 1114:54 1115:21 1116:22 1117:106 1118:64 1119:42 1120:193 1121:145 1122:90 1123:210 1124:159 1125:86 1126:191 1127:134 1128:74 1129:194 1130:139 1131:79 1132:152 1133:115 1134:66 1135:20 1136:5 1137:10 1138:1 1140:6 1141:11 1142:6 1143:6 1144:7 1145:3 1146:5 1147:6 1148:1 1149:1 1150:14 1151:13 1152:16 1153:2 1154:2 1155:2 1156:2 1157:2 1158:2 1159:3 1160:3 1161:2 1162:4 1163:3 1164:2 1165:5 1166:3 1167:4 1168:154 1169:120 1170:76 1171:205 1172:163 1173:94 1174:122 1175:87 1176:52 1177:158 1178:121 1179:63 1180:199 1181:149 1182:80 1183:146 1184:91 1185:64 1186:76 1187:35 1188:32 1189:64 1190:29 1191:28 1192:56 1193:29 1194:25 1195:38 1196:21 1197:19 1198:23 1199:22 1200:21 1201:18 1202:15 1203:13 1204:47 1205:27 1206:25 1207:65 1208:29 1209:28 1210:52 1211:22 1212:19 1213:75 1214:43 1215:30 1216:163 1217:126 1218:82 1219:218 1220:179 1221:97 1222:213 1223:169 1224:91 1225:201 1226:153 1227:77 1228:199 1229:152 1230:86 1231:148 1232:117 1233:75 1234:23 1235:17 1236:16 1237:6 1238:3 1239:2 1240:8 1241:4 1242:5 1243:5 1244:1 1245:2 1246:13 1247:14 1248:17 1249:2 1250:2 1251:2 1252:2 1253:2 1254:2 1255:2 1256:2 1257:2 1258:4 1259:2 1260:3 1261:2 1262:2 1263:3 1264:11 1265:6 1266:9 1267:157 1268:124 1269:76 1270:182 1271:136 1272:68 1273:188 1274:146 1275:69 1276:201 1277:150 1278:81 1279:140 1280:81 1281:59 1282:62 1283:33 1284:28 1285:65 1286:35 1287:33 1288:51 1289:27 1290:25 1291:38 1292:25 1293:26 1294:18 1295:22 1296:20 1297:18 1298:17 1299:15 1300:47 1301:28 1302:24 1303:67 1304:33 1305:28 1306:58 1307:25 1308:23 1309:78 1310:46 1311:32 1312:150 1313:113 1314:69 1315:197 1316:155 1317:81 1318:211 1319:164 1320:85 1321:200 1322:153 1323:89 1324:138 1325:110 1326:63 1327:135 1328:106 1329:68 1330:61 1331:51 1332:41 1333:1 1336:9 1337:5 1338:5 1339:5 1340:1 1341:2 1342:13 1343:14 1344:17 1345:2 1346:2 1347:2 1348:3 1349:3 1350:3 1351:2 1352:2 1353:2 1354:2 1355:3 1356:3 1357:3 1360:76 1361:64 1362:42 1363:181 1364:146 1365:86 1366:207 1367:162 1368:86 1369:198 1370:153 1371:76 1372:173 1373:118 1374:63 1375:122 1376:76 1377:56 1378:74 1379:37 1380:36 1381:67 1382:34 1383:34 1384:53 1385:33 1386:30 1387:51 1388:36 1389:36 1390:29 1391:27 1392:24 1393:25 1394:17 1395:14 1396:59 1397:29 1398:30 1399:64 1400:31 1401:30 1402:51 1403:18 1404:16 1405:78 1406:43 1407:33 1408:98 1409:69 1410:46 1411:186 1412:136 1413:75 1414:207 1415:160 1416:79 1417:116 1418:84 1419:55 1422:4 1426:12 1427:7 1428:10 1429:7 1430:3 1431:4 1432:7 1433:3 1434:4 1435:6 1436:1 1437:2 1438:15 1439:13 1440:17 1441:3 1442:3 1443:3 1444:4 1445:4 1446:4 1447:7 1448:6 1449:5 1453:91 1454:76 1455:53 1456:221 1457:182 1458:101 1459:221 1460:177 1461:89 1462:212 1463:163 1464:88 1465:194 1466:140 1467:76 1468:168 1469:110 1470:62 1471:138 1472:77 1473:47 1474:81 1475:40 1476:39 1477:84 1478:43 1479:41 1480:70 1481:35 1482:33 1483:61 1484:31 1485:29 1486:49 1487:27 1488:21 1489:64 1490:44 1491:39 1492:57 1493:33 1494:27 1495:70 1496:39 1497:32 1498:47 1499:18 1500:13 1501:82 1502:47 1503:29 1504:201 1505:146 1506:89 1507:212 1508:170 1509:86 1510:203 1511:167 1512:80 1513:215 1514:175 1515:90 1516:174 1517:139 1518:81 1519:61 1520:44 1521:30 1522:5 1523:2 1524:5 1525:11 1526:7 1527:7 1528:8 1529:4 1530:5 1531:6 1532:1 1533:2 1534:15 1535:13 1536:17 1537:4 1538:4 1539:4 1540:5 1541:5 1542:5 1543:5 1544:5 1545:4 1546:5 1547:5 1548:6 1549:54 1550:45 1551:34 1552:69 1553:50 1554:38 1555:78 1556:61 1557:45 1558:161 1559:125 1560:79 1561:172 1562:121 1563:66 1564:175 1565:115 1566:62 1567:167 1568:107 1569:66 1570:89 1571:42 1572:38 1573:88 1574:42 1575:38 1576:82 1577:37 1578:34 1579:66 1580:33 1581:32 1582:72 1583:38 1584:34 1585:67 1586:39 1587:38 1588:52 1589:27 1590:22 1591:65 1592:32 1593:26 1594:63 1595:23 1596:19 1597:104 1598:59 1599:41 1600:157 1601:106 1602:62 1603:193 1604:144 1605:78 1606:215 1607:171 1608:89 1609:204 1610:162 1611:83 1612:195 1613:149 1614:82 1615:176 1616:122 1617:78 1618:33 1619:19 1620:17 1621:6 1622:3 1623:7 1624:9 1625:5 1626:5 1627:5 1629:1 1630:16 1631:14 1632:18 1633:4 1634:4 1635:4 1636:4 1637:4 1638:4 1639:6 1640:6 1641:6 1642:7 1643:8 1644:7 1645:11 1646:8 1647:11 1648:8 1649:4 1650:13 1651:93 1652:84 1653:55 1654:207 1655:169 1656:94 1657:191 1658:145 1659:76 1660:155 1661:110 1662:67 1663:163 1664:113 1665:72 1666:145 1667:87 1668:55 1669:81 1670:38 1671:36 1672:64 1673:30 1674:29 1675:65 1676:30 1677:28 1678:76 1679:36 1680:33 1681:71 1682:35 1683:34 1684:69 1685:36 1686:32 1687:62 1688:28 1689:25 1690:86 1691:50 1692:36 1693:188 1694:133 1695:81 1696:196 1697:136 1698:81 1699:180 1700:122 1701:65 1702:185 1703:127 1704:66 1705:173 1706:120 1707:66 1708:59 1709:36 1710:28 1711:16 1712:5 1713:8 1714:21 1715:12 1716:15 1717:13 1718:7 1719:7 1720:8 1721:5 1722:6 1723:4 1726:17 1727:15 1728:19 1729:4 1730:3 1731:5 1732:1 1733:1 1734:1 1735:6 1736:6 1737:5 1738:2 1739:3 1740:4 1741:37 1742:27 1743:25 1744:153 1745:132 1746:89 1747:185 1748:157 1749:99 1750:164 1751:123 1752:76 1753:106 1754:74 1755:51 1756:116 1757:83 1758:58 1759:185 1760:138 1761:78 1762:134 1763:86 1764:49 1765:95 1766:49 1767:37 1768:64 1769:27 1770:29 1771:72 1772:31 1773:30 1774:67 1775:34 1776:29 1777:62 1778:30 1779:26 1780:64 1781:28 1782:29 1783:90 1784:42 1785:34 1786:113 1787:77 1788:50 1789:178 1790:140 1791:84 1792:220 1793:178 1794:95 1795:198 1796:154 1797:81 1798:185 1799:136 1800:81 1801:219 1802:171 1803:96 1804:191 1805:151 1806:86 1807:45 1808:32 1809:24 1813:12 1814:7 1815:7 1816:11 1817:7 1818:8 1819:5 1820:1 1821:1 1822:18 1823:15 1824:18 1825:3 1826:3 1827:7 1828:3 1829:2 1830:3 1831:4 1832:4 1833:3 1835:2 1836:2 1837:11 1838:12 1839:13 1840:56 1841:63 1842:45 1843:65 1844:66 1845:44 1846:101 1847:89 1848:56 1849:103 1850:84 1851:52 1852:198 1853:161 1854:86 1855:179 1856:135 1857:78 1858:141 1859:89 1860:55 1861:165 1862:99 1863:68 1864:102 1865:50 1866:38 1867:89 1868:40 1869:37 1870:60 1871:29 1872:26 1873:61 1874:28 1875:29 1876:71 1877:39 1878:33 1879:126 1880:83 1881:56 1882:196 1883:141 1884:85 1885:161 1886:121 1887:74 1888:212 1889:182 1890:99 1891:217 1892:178 1893:96 1894:122 1895:93 1896:54 1897:63 1898:46 1899:32 1900:125 1901:90 1902:55 1903:141 1904:120 1905:74 1906:36 1907:41 1908:27 1909:1 1910:1 1911:3 1912:9 1913:5 1914:7 1915:10 1916:4 1917:3 1918:18 1919:14 1920:16 1921:3 1922:2 1923:5 1924:3 1925:2 1926:3 1930:16 1931:23 1932:14 1933:70 1934:86 1935:58 1936:62 1937:82 1938:52 1939:66 1940:83 1941:49 1942:181 1943:161 1944:87 1945:175 1946:131 1947:71 1948:194 1949:147 1950:81 1951:188 1952:148 1953:73 1954:200 1955:138 1956:80 1957:165 1958:95 1959:57 1960:162 1961:109 1962:66 1963:143 1964:93 1965:59 1966:135 1967:79 1968:56 1969:150 1970:110 1971:69 1972:116 1973:75 1974:45 1975:171 1976:117 1977:71 1978:210 1979:166 1980:89 1981:193 1982:145 1983:84 1984:120 1985:86 1986:57 1987:215 1988:169 1989:95 1990:198 1991:152 1992:85 1993:60 1994:45 1995:32 1996:52 1997:64 1998:44 1999:101 2000:116 2001:64 2002:114 2003:136 2004:78 2005:69 2006:78 2007:51 2008:6 2009:3 2010:4 2011:6 2012:2 2013:3 2014:20 2015:16 2016:18 2017:15 2018:18 2019:17 2020:10 2021:10 2022:7 2023:40 2024:46 2025:33 2026:81 2027:91 2028:62 2029:84 2030:99 2031:62 2032:69 2033:85 2034:54 2035:77 2036:85 2037:48 2038:195 2039:160 2040:87 2041:205 2042:154 2043:83 2044:199 2045:146 2046:79 2047:208 2048:163 2049:88 2050:193 2051:138 2052:74 2053:194 2054:144 2055:74 2056:199 2057:152 2058:85 2059:174 2060:119 2061:63 2062:198 2063:134 2064:80 2065:195 2066:135 2067:78 2068:184 2069:132 2070:77 2071:189 2072:134 2073:75 2074:209 2075:166 2076:94 2077:176 2078:132 2079:80 2080:48 2081:30 2082:28 2083:68 2084:52 2085:33 2086:176 2087:132 2088:81 2089:168 2090:130 2091:75 2092:98 2093:109 2094:65 2095:103 2096:120 2097:71 2098:100 2099:120 2100:66 2101:100 2102:114 2103:68 2104:59 2105:62 2106:43 2107:9 2108:10 2109:9 2110:22 2111:18 2112:21 2113:52 2114:67 2115:40 2116:55 2117:65 2118:39 2119:52 2120:60 2121:35 2122:55 2123:65 2124:41 2125:40 2126:46 2127:34 2128:16 2129:19 2130:15 2131:110 2132:98 2133:68 2134:131 2135:113 2136:67 2137:72 2138:58 2139:41 2140:143 2141:112 2142:66 2143:208 2144:158 2145:87 2146:191 2147:145 2148:75 2149:217 2150:181 2151:98 2152:187 2153:140 2154:70 2155:195 2156:143 2157:76 2158:215 2159:164 2160:86 2161:198 2162:141 2163:72 2164:208 2165:153 2166:89 2167:211 2168:155 2169:89 2170:208 2171:161 2172:90 2173:203 2174:157 2175:88 2176:65 2177:45 2178:31 2179:5 2180:7 2181:8 2182:15 2183:15 2184:16 2185:79 2186:64 2187:46 2188:95 2189:94 2190:55 2191:72 2192:88 2193:53 2194:76 2195:90 2196:57 2197:82 2198:97 2199:55 2200:90 2201:103 2202:56 2203:73 2204:83 2205:48 2206:22 2207:23 2208:22 2209:63 2210:84 2211:50 2212:47 2213:59 2214:42 2215:51 2216:56 2217:40 2218:51 2219:61 2220:36 2221:37 2222:45 2223:27 2224:20 2225:24 2226:19 2227:5 2228:1 2229:2 2230:18 2231:18 2232:18 2234:5 2235:18 2236:118 2237:91 2238:57 2239:201 2240:146 2241:77 2242:193 2243:143 2244:86 2245:218 2246:180 2247:96 2248:165 2249:112 2250:58 2251:166 2252:125 2253:70 2254:209 2255:175 2256:90 2257:204 2258:155 2259:82 2260:207 2261:153 2262:86 2263:206 2264:160 2265:85 2266:224 2267:184 2268:98 2269:205 2270:157 2271:89 2272:112 2273:78 2274:57 2275:19 2276:22 2277:20 2278:57 2279:62 2280:49 2281:48 2282:58 2283:33 2284:70 2285:81 2286:49 2287:32 2288:41 2289:23 2290:37 2291:45 2292:27 2293:78 2294:87 2295:56 2296:77 2297:91 2298:48 2299:87 2300:104 2301:52 2302:59 2303:69 2304:47 2305:72 2306:95 2307:48 2308:57 2309:71 2310:46 2311:49 2312:58 2313:39 2314:49 2315:61 2316:32 2317:49 2318:59 2319:37 2320:47 2321:56 2322:38 2323:15 2324:17 2325:10 2326:19 2327:19 2328:17 2329:14 2330:14 2331:14 2332:166 2333:118 2334:72 2335:159 2336:101 2337:63 2338:130 2339:96 2340:64 2341:233 2342:182 2343:101 2344:126 2345:82 2346:54 2347:134 2348:109 2349:60 2350:217 2351:187 2352:101 2353:185 2354:144 2355:78 2356:207 2357:155 2358:83 2359:164 2360:129 2361:75 2362:143 2363:123 2364:69 2365:207 2366:163 2367:92 2368:185 2369:138 2370:87 2371:47 2372:33 2373:23 2374:53 2375:63 2376:46 2377:87 2378:102 2379:56 2380:96 2381:110 2382:61 2383:79 2384:92 2385:54 2386:33 2387:41 2388:27 2389:44 2390:50 2391:36 2392:78 2393:88 2394:54 2395:80 2396:93 2397:49 2398:82 2399:96 2400:57 2401:67 2402:88 2403:53 2404:74 2405:99 2406:54 2407:58 2408:74 2409:47 2410:58 2411:69 2412:46 2413:53 2414:62 2415:39 2416:40 2417:56 2418:31 2419:58 2420:75 2421:45 2422:74 2423:97 2424:59 2425:86 2426:88 2427:58 2428:149 2429:104 2430:66 2431:49 2432:44 2433:33 2434:123 2435:91 2436:60 2437:202 2438:152 2439:95 2440:30 2441:22 2442:17 2443:128 2444:110 2445:60 2446:214 2447:176 2448:92 2449:154 2450:123 2451:77 2452:199 2453:149 2454:84 2455:181 2456:130 2457:74 2458:24 2459:19 2460:23 2461:126 2462:98 2463:59 2464:129 2465:97 2466:61 2467:65 2468:47 2469:36 2470:39 2471:48 2472:35 2473:99 2474:116 2475:72 2476:85 2477:102 2478:54 2479:96 2480:105 2481:63 2482:72 2483:80 2484:54 2485:28 2486:32 2487:28 2488:51 2489:57 2490:39 2491:87 2492:98 2493:62 2494:92 2495:106 2496:63 2497:70 2498:88 2499:57 2500:81 2501:112 2502:63 2503:67 2504:90 2505:54 2506:66 2507:80 2508:48 2509:60 2510:76 2511:38 2512:73 2513:97 2514:55 2515:84 2516:105 2517:59 2518:92 2519:113 2520:71 2521:83 2522:97 2523:57 2524:68 2525:77 2526:46 2527:66 2528:91 2529:60 2530:163 2531:132 2532:80 2533:87 2534:68 2535:45 2536:7 2537:18 2538:16 2539:113 2540:98 2541:61 2542:210 2543:161 2544:88 2545:105 2546:84 2547:59 2548:155 2549:121 2550:75 2551:175 2552:120 2553:70 2554:4 2555:5 2556:8 2557:57 2558:42 2559:34 2560:54 2561:40 2562:27 2565:2 2566:9 2567:6 2568:11 2569:48 2570:51 2571:37 2572:67 2573:76 2574:48 2575:64 2576:62 2577:38 2578:57 2579:59 2580:34 2581:32 2582:31 2583:30 2584:17 2585:19 2586:18 2587:17 2588:20 2589:15 2590:33 2591:34 2592:28 2593:17 2594:19 2595:11 2596:40 2597:51 2598:34 2599:22 2600:32 2601:24 2602:38 2603:50 2604:29 2605:75 2606:95 2607:49 2608:81 2609:99 2610:54 2611:81 2612:92 2613:58 2614:73 2615:89 2616:60 2617:76 2618:96 2619:55 2620:78 2621:102 2622:53 2623:89 2624:111 2625:66 2626:111 2627:95 2628:67 2629:79 2630:68 2631:54 2632:59 2633:74 2634:56 2635:38 2636:36 2637:30 2638:180 2639:121 2640:72 2641:105 2642:100 2643:61 2644:101 2645:95 2646:53 2647:136 2648:99 2649:61 2650:51 2651:63 2652:44 2653:43 2654:45 2655:35 2656:14 2657:8 2658:9 2659:18 2660:18 2661:23 2662:43 2663:47 2664:56 2665:42 2666:42 2667:57 2668:34 2669:40 2670:52 2671:36 2672:39 2673:46 2674:36 2675:43 2676:50 2677:34 2678:41 2679:55 2680:47 2681:48 2682:59 2683:8 2684:6 2685:8 2686:14 2687:8 2688:15 2689:5 2690:5 2691:6 2695:12 2696:15 2697:14 2698:67 2699:87 2700:54 2701:87 2702:114 2703:61 2704:88 2705:112 2706:70 2707:64 2708:80 2709:51 2710:62 2711:85 2712:42 2713:82 2714:105 2715:61 2716:84 2717:107 2718:56 2719:75 2720:95 2721:52 2722:12 2723:7 2724:9 2725:22 2726:15 2727:14 2728:65 2729:77 2730:55 2731:32 2732:37 2733:30 2734:110 2735:81 2736:54 2737:66 2738:78 2739:45 2740:96 2741:99 2742:67 2743:89 2744:84 2745:56 2746:75 2747:91 2748:57 2749:86 2750:98 2751:65 2752:25 2753:20 2754:22 2755:15 2756:11 2757:17 2758:29 2759:29 2760:32 2761:52 2762:54 2763:65 2764:68 2765:79 2766:93 2767:53 2768:68 2769:79 2770:63 2771:76 2772:89 2773:37 2774:45 2775:56 2776:23 2777:26 2778:32 2779:13 2780:10 2781:11 2782:17 2783:16 2784:18 2785:6 2786:6 2787:5 2788:3 2789:2 2790:3 2791:50 2792:63 2793:39 2794:78 2795:104 2796:55 2797:72 2798:95 2799:56 2800:60 2801:83 2802:48 2803:73 2804:94 2805:56 2806:80 2807:104 2808:55 2809:77 2810:99 2811:59 2812:88 2813:113 2814:65 2815:49 2816:58 2817:39 2824:52 2825:64 2826:45 2827:86 2828:107 2829:67 2830:82 2831:98 2832:58 2833:75 2834:87 2835:54 2836:76 2837:89 2838:57 2839:75 2840:89 2841:55 2842:55 2843:66 2844:46 2845:26 2846:29 2847:22 2848:10 2849:7 2850:9 2851:23 2852:18 2853:20 2854:33 2855:31 2856:38 2857:38 2858:42 2859:52 2860:45 2861:51 2862:67 2863:39 2864:42 2865:59 2866:40 2867:45 2868:57 2869:34 2870:35 2871:45 2872:29 2873:31 2874:36 2875:11 2876:10 2877:7 2878:13 2879:17 2880:14 2884:6 2885:5 2886:5 2887:63 2888:81 2889:48 2890:74 2891:101 2892:55 2893:73 2894:96 2895:53 2896:70 2897:88 2898:53 2899:82 2900:103 2901:62 2902:77 2903:100 2904:53 2905:80 2906:105 2907:57 2908:59 2909:72 2910:41 2911:2 2912:2 2913:2 2914:34 2915:40 2916:28 2917:25 2918:36 2919:19 2920:57 2921:74 2922:43 2923:71 2924:93 2925:49 2926:86 2927:107 2928:60 2929:95 2930:106 2931:58 2932:85 2933:97 2934:53 2935:75 2936:93 2937:55 2938:24 2939:24 2940:20 2941:11 2942:9 2943:18 2944:14 2945:13 2946:20 2947:24 2948:17 2949:25 2950:14 2951:16 2952:22 2953:45 2954:52 2955:63 2956:60 2957:65 2958:83 2959:42 2960:42 2961:55 2962:42 2963:45 2964:63 2965:33 2966:36 2967:52 2968:18 2969:21 2970:32 2971:12 2972:13 2973:18 2974:21 2975:25 2976:31 2977:36 2978:45 2979:54 2980:45 2981:57 2982:63 2983:80 2984:106 2985:96 2986:75 2987:105 2988:93 2989:79 2990:106 2991:95 2992:84 2993:109 2994:96 2995:70 2996:95 2997:77 2998:81 2999:105 3000:84 3001:67 3002:92 3003:69 3004:51 3005:63 3006:58 3007:60 3008:68 3009:77 3010:84 3011:103 3012:94 3013:79 3014:106 3015:86 3016:87 3017:113 3018:93 3019:83 3020:108 3021:92 3022:82 3023:104 3024:93 3025:95 3026:118 3027:92 3028:99 3029:123 3030:97 3031:101 3032:126 3033:105 3034:64 3035:74 3036:77 3037:63 3038:73 3039:88 3040:66 3041:78 3042:95 3043:61 3044:71 3045:85 3046:58 3047:70 3048:83 3049:78 3050:93 3051:109 3052:73 3053:87 3054:102 3055:59 3056:69 3057:76 3058:59 3059:72 3060:91 3061:63 3062:75 3063:93 3064:64 3065:77 3066:91 3067:60 3068:73 3069:89 3070:69 3071:82 3072:100 
0.001 1:100 2:126 3:145 4:84 5:106 6:134 7:93 8:114 9:149 10:93 11:115 12:149 13:70 14:88 15:115 16:80 17:107 18:134 19:109 20:155 21:183 22:103 23:140 24:162 25:91 26:128 27:155 28:114 29:122 30:132 31:115 32:110 33:106 34:78 35:98 36:122 37:127 38:128 39:115 40:107 41:114 42:96 43:69 44:96 45:105 46:152 47:134 48:107 49:141 50:129 51:110 52:84 53:125 54:171 55:88 56:127 57:167 58:100 59:137 60:175 61:86 62:131 63:183 64:78 65:121 66:180 67:77 68:125 69:186 70:71 71:124 72:188 73:62 74:115 75:178 76:56 77:107 78:177 79:67 80:122 81:192 82:76 83:138 84:202 85:77 86:136 87:199 88:60 89:105 90:168 91:28 92:64 93:126 94:65 95:102 96:139 97:58 98:92 99:130 100:40 101:70 102:110 103:46 104:78 105:120 106:50 107:83 108:127 109:43 110:74 111:115 112:55 113:96 114:141 115:86 116:141 117:189 118:110 119:131 120:142 121:136 122:123 123:114 124:123 125:129 126:127 127:183 128:137 129:92 130:101 131:105 132:93 133:180 134:141 135:83 136:165 137:151 138:87 139:125 140:114 141:93 142:208 143:139 144:85 145:129 146:120 147:105 148:89 149:123 150:151 151:154 152:138 153:105 154:137 155:143 156:144 157:87 158:132 159:173 160:97 161:141 162:189 163:89 164:145 165:201 166:72 167:126 168:185 169:73 170:132 171:189 172:69 173:127 174:192 175:56 176:119 177:187 178:68 179:129 180:195 181:67 182:127 183:193 184:48 185:100 186:167 187:38 188:84 189:151 190:47 191:93 192:142 193:59 194:97 195:144 196:55 197:98 198:142 199:53 200:101 201:147 202:52 203:94 204:142 205:65 206:97 207:123 208:109 209:120 210:122 211:103 212:132 213:153 214:128 215:143 216:134 217:217 218:149 219:84 220:192 221:144 222:98 223:192 224:154 225:88 226:149 227:119 228:79 229:177 230:131 231:80 232:168 233:142 234:80 235:215 236:149 237:91 238:212 239:135 240:79 241:146 242:136 243:94 244:185 245:144 246:90 247:211 248:139 249:80 250:179 251:141 252:97 253:157 254:141 255:116 256:109 257:147 258:168 259:143 260:137 261:128 262:121 263:139 264:151 265:92 266:156 267:214 268:77 269:133 270:197 271:53 272:107 273:166 274:54 275:109 276:169 277:45 278:100 279:168 280:29 281:84 282:153 283:53 284:112 285:185 286:52 287:110 288:172 289:63 290:114 291:164 292:53 293:108 294:160 295:52 296:102 297:152 298:42 299:89 300:136 301:61 302:83 303:94 304:176 305:142 306:86 307:221 308:153 309:97 310:177 311:137 312:96 313:202 314:144 315:83 316:233 317:158 318:86 319:214 320:152 321:83 322:208 323:134 324:79 325:208 326:136 327:79 328:203 329:138 330:82 331:247 332:151 333:88 334:196 335:140 336:75 337:169 338:144 339:75 340:232 341:145 342:85 343:221 344:132 345:81 346:242 347:141 348:79 349:164 350:137 351:96 352:170 353:131 354:99 355:197 356:130 357:78 358:103 359:136 360:148 361:69 362:111 363:157 364:126 365:111 366:117 367:95 368:96 369:109 370:53 371:112 372:175 373:40 374:94 375:162 376:31 377:82 378:147 379:44 380:108 381:177 382:58 383:124 384:190 385:58 386:92 387:139 388:46 389:75 390:122 391:46 392:64 393:105 394:108 395:96 396:106 397:76 398:71 399:81 400:156 401:137 402:83 403:233 404:165 405:90 406:243 407:142 408:81 409:207 410:129 411:75 412:205 413:154 414:83 415:213 416:153 417:82 418:210 419:135 420:82 421:220 422:137 423:86 424:191 425:123 426:70 427:214 428:140 429:85 430:176 431:130 432:73 433:213 434:145 435:82 436:217 437:140 438:80 439:221 440:135 441:80 442:208 443:141 444:80 445:184 446:139 447:81 448:220 449:133 450:76 451:174 452:135 453:84 454:141 455:113 456:99 457:195 458:136 459:87 460:202 461:148 462:94 463:74 464:89 465:115 466:37 467:86 468:148 469:30 470:71 471:133 472:28 473:70 474:134 475:44 476:103 477:172 478:54 479:115 480:183 481:46 482:61 483:100 484:39 485:46 486:87 487:23 488:39 489:84 490:143 491:109 492:87 493:246 494:163 495:91 496:226 497:143 498:71 499:240 500:175 501:95 502:245 503:168 504:87 505:242 506:150 507:83 508:174 509:116 510:67 511:174 512:121 513:69 514:188 515:120 516:70 517:186 518:117 519:72 520:168 521:110 522:65 523:169 524:112 525:62 526:187 527:121 528:65 529:193 530:126 531:69 532:187 533:126 534:71 535:195 536:131 537:78 538:183 539:135 540:78 541:230 542:140 543:83 544:207 545:153 546:82 547:197 548:139 549:79 550:226 551:146 552:80 553:227 554:176 555:90 556:123 557:117 558:87 559:68 560:87 561:108 562:61 563:80 564:99 565:44 566:90 567:143 568:46 569:95 570:162 571:44 572:97 573:167 574:51 575:107 576:175 577:45 578:52 579:90 580:62 581:55 582:79 583:125 584:94 585:90 586:84 587:64 588:65 589:144 590:113 591:69 592:224 593:156 594:89 595:249 596:170 597:90 598:245 599:167 600:91 601:201 602:127 603:71 604:169 605:100 606:56 607:179 608:106 609:59 610:203 611:115 612:63 613:205 614:120 615:71 616:197 617:119 618:71 619:184 620:107 621:57 622:180 623:108 624:59 625:176 626:110 627:62 628:183 629:116 630:65 631:169 632:113 633:66 634:172 635:115 636:69 637:191 638:138 639:82 640:203 641:146 642:83 643:232 644:150 645:83 646:215 647:166 648:87 649:183 650:148 651:86 652:159 653:128 654:78 655:174 656:141 657:81 658:100 659:109 660:101 661:46 662:98 663:154 664:51 665:101 666:164 667:45 668:95 669:162 670:48 671:101 672:167 673:56 674:68 675:101 676:53 677:62 678:94 679:138 680:101 681:86 682:223 683:144 684:90 685:200 686:127 687:75 688:203 689:136 690:76 691:245 692:163 693:90 694:215 695:131 696:78 697:188 698:108 699:68 700:196 701:109 702:58 703:205 704:122 705:68 706:204 707:118 708:64 709:204 710:118 711:58 712:208 713:118 714:59 715:200 716:112 717:61 718:191 719:109 720:65 721:189 722:115 723:68 724:187 725:114 726:67 727:185 728:114 729:70 730:184 731:116 732:71 733:163 734:113 735:68 736:199 737:123 738:79 739:210 740:146 741:83 742:196 743:144 744:80 745:203 746:142 747:84 748:180 749:136 750:76 751:109 752:102 753:76 754:56 755:83 756:115 757:40 758:68 759:111 760:35 761:64 762:112 763:36 764:78 765:138 766:51 767:101 768:165 769:52 770:54 771:82 772:36 773:44 774:77 775:28 776:41 777:74 778:80 779:79 780:91 781:169 782:116 783:82 784:224 785:127 786:72 787:233 788:140 789:81 790:204 791:126 792:76 793:215 794:123 795:75 796:211 797:116 798:65 799:188 800:106 801:56 802:207 803:120 804:68 805:218 806:122 807:63 808:209 809:112 810:57 811:200 812:109 813:57 814:198 815:113 816:65 817:195 818:114 819:69 820:188 821:110 822:65 823:178 824:107 825:63 826:178 827:106 828:62 829:173 830:107 831:65 832:160 833:109 834:69 835:210 836:146 837:84 838:229 839:157 840:86 841:215 842:150 843:86 844:183 845:134 846:82 847:139 848:109 849:78 850:137 851:111 852:87 853:94 854:85 855:76 856:32 857:42 858:71 859:33 860:62 861:112 862:46 863:90 864:150 865:50 866:51 867:73 868:128 869:103 870:69 871:206 872:142 873:84 874:224 875:144 876:94 877:198 878:130 879:80 880:212 881:141 882:80 883:193 884:122 885:75 886:198 887:122 888:79 889:211 890:120 891:73 892:206 893:112 894:62 895:203 896:111 897:61 898:206 899:113 900:64 901:216 902:119 903:63 904:204 905:111 906:61 907:201 908:113 909:69 910:191 911:114 912:69 913:184 914:110 915:66 916:190 917:112 918:70 919:184 920:110 921:68 922:186 923:109 924:67 925:183 926:108 927:67 928:155 929:100 930:66 931:174 932:129 933:75 934:224 935:151 936:85 937:228 938:134 939:81 940:213 941:141 942:80 943:207 944:147 945:88 946:167 947:132 948:82 949:92 950:82 951:71 952:39 953:54 954:88 955:42 956:70 957:115 958:47 959:83 960:140 961:42 962:53 963:69 964:102 965:103 966:81 967:172 968:142 969:91 970:205 971:143 972:81 973:182 974:133 975:75 976:148 977:123 978:71 979:155 980:109 981:69 982:186 983:117 984:78 985:189 986:107 987:64 988:205 989:112 990:62 991:202 992:112 993:61 994:207 995:114 996:62 997:202 998:111 999:62 1000:187 1001:105 1002:64 1003:192 1004:111 1005:72 1006:185 1007:108 1008:69 1009:178 1010:106 1011:65 1012:189 1013:111 1014:72 1015:187 1016:112 1017:72 1018:184 1019:108 1020:68 1021:180 1022:108 1023:68 1024:158 1025:102 1026:65 1027:151 1028:109 1029:67 1030:222 1031:151 1032:92 1033:241 1034:164 1035:90 1036:207 1037:161 1038:82 1039:188 1040:140 1041:82 1042:162 1043:124 1044:83 1045:125 1046:113 1047:80 1048:57 1049:67 1050:82 1051:37 1052:60 1053:103 1054:53 1055:86 1056:139 1057:54 1058:54 1059:61 1060:94 1061:75 1062:77 1063:126 1064:92 1065:77 1066:122 1067:82 1068:55 1069:123 1070:86 1071:59 1072:171 1073:126 1074:78 1075:184 1076:117 1077:73 1078:183 1079:114 1080:77 1081:194 1082:114 1083:68 1084:169 1085:96 1086:54 1087:179 1088:100 1089:60 1090:208 1091:115 1092:67 1093:178 1094:100 1095:61 1096:166 1097:96 1098:64 1099:180 1100:104 1101:69 1102:180 1103:105 1104:69 1105:180 1106:105 1107:69 1108:187 1109:111 1110:74 1111:185 1112:116 1113:74 1114:184 1115:111 1116:71 1117:184 1118:112 1119:75 1120:167 1121:105 1122:69 1123:150 1124:108 1125:66 1126:180 1127:136 1128:80 1129:238 1130:146 1131:85 1132:224 1133:136 1134:81 1135:183 1136:125 1137:79 1138:156 1139:116 1140:80 1141:176 1142:132 1143:85 1144:132 1145:105 1146:80 1147:32 1148:47 1149:74 1150:46 1151:74 1152:113 1153:233 1154:154 1155:93 1156:255 1157:165 1158:91 1159:255 1160:168 1161:90 1162:251 1163:161 1164:92 1165:238 1166:160 1167:93 1168:221 1169:144 1170:84 1171:179 1172:116 1173:75 1174:170 1175:110 1176:74 1177:209 1178:120 1179:78 1180:155 1181:94 1182:66 1183:189 1184:110 1185:78 1186:195 1187:110 1188:73 1189:180 1190:108 1191:73 1192:177 1193:107 1194:71 1195:174 1196:99 1197:69 1198:178 1199:105 1200:74 1201:170 1202:100 1203:71 1204:162 1205:94 1206:64 1207:182 1208:110 1209:75 1210:189 1211:114 1212:72 1213:177 1214:104 1215:73 1216:169 1217:105 1218:68 1219:169 1220:111 1221:65 1222:199 1223:145 1224:86 1225:226 1226:161 1227:88 1228:219 1229:157 1230:90 1231:200 1232:162 1233:90 1234:208 1235:165 1236:94 1237:208 1238:148 1239:95 1240:146 1241:116 1242:86 1243:58 1244:71 1245:78 1246:48 1247:72 1248:94 1249:169 1250:137 1251:113 1252:187 1253:144 1254:96 1255:225 1256:155 1257:91 1258:227 1259:140 1260:75 1261:232 1262:142 1263:79 1264:232 1265:151 1266:88 1267:189 1268:131 1269:82 1270:159 1271:103 1272:68 1273:206 1274:119 1275:80 1276:185 1277:109 1278:70 1279:190 1280:112 1281:78 1282:177 1283:106 1284:78 1285:180 1286:105 1287:75 1288:164 1289:94 1290:65 1291:152 1292:90 1293:60 1294:167 1295:103 1296:71 1297:154 1298:92 1299:70 1300:146 1301:86 1302:66 1303:182 1304:111 1305:80 1306:178 1307:107 1308:71 1309:169 1310:104 1311:69 1312:177 1313:111 1314:72 1315:166 1316:106 1317:63 1318:160 1319:125 1320:69 1321:188 1322:151 1323:90 1324:196 1325:152 1326:97 1327:149 1328:127 1329:84 1330:100 1331:96 1332:71 1333:81 1334:80 1335:69 1336:60 1337:63 1338:63 1339:59 1340:78 1341:83 1342:66 1343:89 1344:102 1345:94 1346:95 1347:111 1348:198 1349:133 1350:87 1351:248 1352:157 1353:82 1354:250 1355:158 1356:88 1357:232 1358:149 1359:84 1360:216 1361:153 1362:88 1363:179 1364:126 1365:78 1366:150 1367:100 1368:65 1369:181 1370:112 1371:76 1372:206 1373:120 1374:79 1375:179 1376:107 1377:73 1378:166 1379:103 1380:76 1381:161 1382:97 1383:71 1384:156 1385:95 1386:71 1387:161 1388:99 1389:68 1390:156 1391:94 1392:65 1393:150 1394:91 1395:67 1396:137 1397:82 1398:66 1399:145 1400:91 1401:67 1402:167 1403:101 1404:68 1405:183 1406:113 1407:75 1408:170 1409:108 1410:69 1411:157 1412:108 1413:68 1414:195 1415:152 1416:88 1417:191 1418:141 1419:87 1420:177 1421:126 1422:80 1423:172 1424:124 1425:86 1426:130 1427:104 1428:79 1429:83 1430:76 1431:70 1432:58 1433:67 1434:80 1435:58 1436:79 1437:95 1438:69 1439:95 1440:112 1441:242 1442:157 1443:87 1444:255 1445:172 1446:90 1447:245 1448:154 1449:84 1450:215 1451:131 1452:77 1453:223 1454:139 1455:83 1456:203 1457:130 1458:83 1459:232 1460:157 1461:97 1462:200 1463:130 1464:80 1465:155 1466:97 1467:67 1468:185 1469:114 1470:78 1471:171 1472:102 1473:76 1474:170 1475:105 1476:76 1477:164 1478:102 1479:77 1480:142 1481:87 1482:66 1483:162 1484:94 1485:68 1486:152 1487:90 1488:63 1489:144 1490:90 1491:69 1492:123 1493:77 1494:61 1495:109 1496:67 1497:49 1498:163 1499:102 1500:69 1501:172 1502:107 1503:71 1504:161 1505:105 1506:71 1507:158 1508:113 1509:68 1510:220 1511:173 1512:95 1513:211 1514:170 1515:92 1516:186 1517:154 1518:88 1519:188 1520:147 1521:91 1522:202 1523:145 1524:89 1525:208 1526:146 1527:97 1528:93 1529:87 1530:84 1531:52 1532:77 1533:101 1534:66 1535:90 1536:114 1537:159 1538:118 1539:110 1540:187 1541:126 1542:88 1543:201 1544:129 1545:84 1546:239 1547:162 1548:93 1549:253 1550:175 1551:95 1552:254 1553:175 1554:98 1555:250 1556:166 1557:93 1558:217 1559:127 1560:78 1561:203 1562:126 1563:80 1564:174 1565:108 1566:70 1567:173 1568:109 1569:78 1570:175 1571:107 1572:79 1573:173 1574:112 1575:81 1576:162 1577:103 1578:74 1579:158 1580:97 1581:68 1582:171 1583:103 1584:72 1585:170 1586:100 1587:72 1588:165 1589:100 1590:74 1591:146 1592:88 1593:62 1594:164 1595:98 1596:65 1597:165 1598:104 1599:70 1600:166 1601:108 1602:72 1603:205 1604:131 1605:86 1606:202 1607:160 1608:92 1609:199 1610:159 1611:95 1612:178 1613:144 1614:87 1615:132 1616:124 1617:80 1618:136 1619:124 1620:85 1621:133 1622:118 1623:88 1624:72 1625:80 1626:90 1627:53 1628:74 1629:103 1630:59 1631:81 1632:106 1633:55 1634:88 1635:148 1636:69 1637:78 1638:123 1639:167 1640:120 1641:98 1642:197 1643:149 1644:101 1645:241 1646:168 1647:92 1648:248 1649:157 1650:91 1651:246 1652:146 1653:80 1654:244 1655:135 1656:81 1657:227 1658:133 1659:78 1660:230 1661:139 1662:85 1663:190 1664:116 1665:74 1666:169 1667:105 1668:75 1669:170 1670:110 1671:80 1672:169 1673:107 1674:80 1675:160 1676:100 1677:73 1678:178 1679:106 1680:79 1681:185 1682:110 1683:76 1684:190 1685:116 1686:84 1687:197 1688:121 1689:82 1690:218 1691:129 1692:80 1693:231 1694:137 1695:83 1696:229 1697:137 1698:84 1699:248 1700:146 1701:97 1702:228 1703:144 1704:86 1705:181 1706:140 1707:80 1708:194 1709:140 1710:84 1711:143 1712:110 1713:82 1714:68 1715:73 1716:78 1717:52 1718:70 1719:93 1720:51 1721:69 1722:97 1723:53 1724:68 1725:98 1726:54 1727:74 1728:100 1729:77 1730:105 1731:163 1732:72 1733:83 1734:137 1735:112 1736:94 1737:105 1738:233 1739:174 1740:103 1741:255 1742:183 1743:88 1744:251 1745:167 1746:91 1747:238 1748:143 1749:85 1750:228 1751:135 1752:79 1753:243 1754:142 1755:82 1756:241 1757:140 1758:81 1759:235 1760:153 1761:86 1762:224 1763:141 1764:84 1765:205 1766:129 1767:86 1768:199 1769:140 1770:98 1771:181 1772:121 1773:83 1774:201 1775:133 1776:91 1777:185 1778:120 1779:81 1780:212 1781:132 1782:82 1783:234 1784:137 1785:83 1786:242 1787:142 1788:87 1789:255 1790:152 1791:92 1792:250 1793:161 1794:95 1795:252 1796:161 1797:94 1798:245 1799:140 1800:87 1801:178 1802:120 1803:79 1804:135 1805:120 1806:96 1807:169 1808:134 1809:95 1810:93 1811:82 1812:75 1813:41 1814:48 1815:73 1816:47 1817:56 1818:80 1819:48 1820:59 1821:89 1822:48 1823:70 1824:95 1825:73 1826:101 1827:152 1828:67 1829:80 1830:128 1831:145 1832:128 1833:124 1834:214 1835:163 1836:109 1837:197 1838:139 1839:102 1840:182 1841:124 1842:96 1843:232 1844:145 1845:85 1846:242 1847:148 1848:81 1849:253 1850:146 1851:89 1852:240 1853:150 1854:84 1855:254 1856:178 1857:99 1858:250 1859:169 1860:101 1861:251 1862:161 1863:100 1864:240 1865:172 1866:109 1867:218 1868:146 1869:89 1870:252 1871:182 1872:111 1873:213 1874:144 1875:81 1876:245 1877:154 1878:91 1879:255 1880:152 1881:96 1882:247 1883:144 1884:89 1885:250 1886:144 1887:90 1888:248 1889:159 1890:99 1891:236 1892:163 1893:93 1894:221 1895:143 1896:84 1897:232 1898:139 1899:78 1900:148 1901:120 1902:99 1903:79 1904:94 1905:106 1906:60 1907:67 1908:83 1909:44 1910:50 1911:71 1912:39 1913:49 1914:74 1915:41 1916:56 1917:82 1918:46 1919:66 1920:91 1921:73 1922:106 1923:164 1924:65 1925:93 1926:148 1927:64 1928:80 1929:133 1930:71 1931:86 1932:146 1933:77 1934:91 1935:135 1936:157 1937:112 1938:99 1939:193 1940:138 1941:95 1942:247 1943:176 1944:103 1945:223 1946:139 1947:90 1948:229 1949:146 1950:91 1951:255 1952:167 1953:98 1954:240 1955:155 1956:100 1957:244 1958:145 1959:97 1960:250 1961:175 1962:109 1963:237 1964:160 1965:95 1966:255 1967:180 1968:110 1969:211 1970:145 1971:86 1972:216 1973:140 1974:90 1975:255 1976:153 1977:100 1978:248 1979:144 1980:90 1981:240 1982:139 1983:88 1984:255 1985:149 1986:86 1987:203 1988:138 1989:84 1990:183 1991:140 1992:89 1993:250 1994:162 1995:83 1996:220 1997:155 1998:89 1999:110 2000:115 2001:116 2002:74 2003:80 2004:92 2005:44 2006:50 2007:74 2008:47 2009:61 2010:88 2011:45 2012:64 2013:91 2014:58 2015:79 2016:107 2017:72 2018:108 2019:173 2020:65 2021:96 2022:157 2023:57 2024:82 2025:128 2026:66 2027:86 2028:126 2029:71 2030:88 2031:125 2032:80 2033:81 2034:115 2035:119 2036:111 2037:119 2038:215 2039:156 2040:106 2041:181 2042:126 2043:98 2044:234 2045:144 2046:91 2047:255 2048:156 2049:98 2050:230 2051:145 2052:84 2053:246 2054:147 2055:84 2056:227 2057:162 2058:104 2059:183 2060:133 2061:88 2062:255 2063:182 2064:107 2065:210 2066:145 2067:92 2068:184 2069:132 2070:92 2071:246 2072:151 2073:94 2074:243 2075:148 2076:95 2077:165 2078:119 2079:83 2080:234 2081:141 2082:81 2083:232 2084:139 2085:80 2086:142 2087:127 2088:98 2089:144 2090:127 2091:111 2092:182 2093:142 2094:98 2095:117 2096:122 2097:112 2098:79 2099:88 2100:97 2101:47 2102:58 2103:78 2104:56 2105:76 2106:97 2107:65 2108:91 2109:118 2110:85 2111:113 2112:145 2113:60 2114:94 2115:152 2116:60 2117:93 2118:152 2119:60 2120:90 2121:143 2122:56 2123:80 2124:127 2125:67 2126:90 2127:140 2128:67 2129:89 2130:139 2131:92 2132:94 2133:124 2134:134 2135:111 2136:125 2137:150 2138:117 2139:118 2140:211 2141:137 2142:92 2143:237 2144:159 2145:99 2146:198 2147:136 2148:85 2149:237 2150:164 2151:105 2152:154 2153:121 2154:95 2155:141 2156:111 2157:86 2158:244 2159:173 2160:100 2161:177 2162:131 2163:89 2164:196 2165:147 2166:103 2167:237 2168:156 2169:89 2170:250 2171:157 2172:90 2173:144 2174:124 2175:103 2176:171 2177:135 2178:98 2179:206 2180:150 2181:99 2182:162 2183:148 2184:121 2185:129 2186:141 2187:139 2188:82 2189:95 2190:97 2191:96 2192:104 2193:112 2194:95 2195:107 2196:122 2197:68 2198:84 2199:107 2200:75 2201:97 2202:120 2203:82 2204:106 2205:123 2206:99 2207:125 2208:152 2209:63 2210:100 2211:167 2212:59 2213:93 2214:160 2215:56 2216:86 2217:145 2218:64 2219:97 2220:154 2221:70 2222:97 2223:153 2224:57 2225:78 2226:130 2227:74 2228:102 2229:162 2230:72 2231:105 2232:166 2233:77 2234:104 2235:162 2236:106 2237:102 2238:143 2239:207 2240:158 2241:122 2242:136 2243:138 2244:143 2245:143 2246:148 2247:170 2248:100 2249:107 2250:129 2251:112 2252:95 2253:81 2254:173 2255:143 2256:100 2257:132 2258:127 2259:105 2260:167 2261:132 2262:97 2263:221 2264:160 2265:102 2266:227 2267:156 2268:94 2269:145 2270:128 2271:115 2272:131 2273:130 2274:117 2275:133 2276:149 2277:138 2278:142 2279:155 2280:142 2281:131 2282:144 2283:125 2284:81 2285:92 2286:90 2287:84 2288:91 2289:104 2290:97 2291:110 2292:134 2293:93 2294:108 2295:132 2296:75 2297:91 2298:111 2299:96 2300:111 2301:119 2302:110 2303:132 2304:150 2305:61 2306:98 2307:162 2308:57 2309:95 2310:162 2311:57 2312:99 2313:165 2314:60 2315:100 2316:159 2317:58 2318:87 2319:143 2320:60 2321:80 2322:132 2323:86 2324:100 2325:134 2326:106 2327:123 2328:148 2329:88 2330:114 2331:138 2332:115 2333:116 2334:116 2335:153 2336:146 2337:124 2338:132 2339:151 2340:145 2341:141 2342:167 2343:161 2344:137 2345:160 2346:150 2347:107 2348:117 2349:105 2350:101 2351:102 2352:88 2353:131 2354:133 2355:111 2356:146 2357:136 2358:113 2359:171 2360:148 2361:115 2362:151 2363:132 2364:102 2365:131 2366:125 2367:103 2368:119 2369:125 2370:106 2371:115 2372:135 2373:110 2374:133 2375:144 2376:112 2377:121 2378:133 2379:116 2380:72 2381:93 2382:116 2383:92 2384:117 2385:142 2386:97 2387:117 2388:133 2389:98 2390:100 2391:102 2392:90 2393:98 2394:104 2395:116 2396:127 2397:134 2398:120 2399:140 2400:156 2401:64 2402:96 2403:156 2404:61 2405:100 2406:164 2407:56 2408:92 2409:155 2410:47 2411:81 2412:134 2413:59 2414:78 2415:111 2416:99 2417:101 2418:117 2419:107 2420:106 2421:116 2422:99 2423:99 2424:101 2425:110 2426:111 2427:104 2428:108 2429:114 2430:104 2431:108 2432:121 2433:103 2434:122 2435:137 2436:118 2437:119 2438:137 2439:120 2440:118 2441:135 2442:120 2443:102 2444:113 2445:103 2446:119 2447:116 2448:97 2449:152 2450:140 2451:106 2452:172 2453:152 2454:117 2455:176 2456:156 2457:121 2458:158 2459:147 2460:117 2461:125 2462:131 2463:105 2464:115 2465:127 2466:105 2467:107 2468:116 2469:92 2470:133 2471:142 2472:116 2473:114 2474:134 2475:151 2476:68 2477:104 2478:168 2479:79 2480:111 2481:157 2482:101 2483:121 2484:146 2485:92 2486:97 2487:96 2488:114 2489:122 2490:121 2491:129 2492:135 2493:142 2494:113 2495:129 2496:150 2497:68 2498:107 2499:172 2500:58 2501:96 2502:155 2503:46 2504:68 2505:117 2506:54 2507:72 2508:109 2509:65 2510:85 2511:117 2512:83 2513:107 2514:155 2515:103 2516:137 2517:181 2518:109 2519:138 2520:175 2521:118 2522:138 2523:172 2524:128 2525:148 2526:176 2527:133 2528:144 2529:154 2530:131 2531:144 2532:152 2533:116 2534:130 2535:140 2536:94 2537:99 2538:97 2539:94 2540:105 2541:96 2542:118 2543:135 2544:121 2545:101 2546:106 2547:93 2548:127 2549:124 2550:108 2551:133 2552:130 2553:104 2554:113 2555:112 2556:100 2557:112 2558:120 2559:106 2560:140 2561:146 2562:120 2563:150 2564:160 2565:134 2566:150 2567:162 2568:136 2569:90 2570:119 2571:137 2572:62 2573:102 2574:172 2575:64 2576:102 2577:164 2578:75 2579:106 2580:153 2581:106 2582:109 2583:116 2584:115 2585:117 2586:115 2587:114 2588:118 2589:114 2590:104 2591:123 2592:141 2593:62 2594:104 2595:165 2596:46 2597:80 2598:133 2599:57 2600:85 2601:131 2602:72 2603:113 2604:163 2605:85 2606:135 2607:200 2608:87 2609:138 2610:207 2611:94 2612:142 2613:212 2614:111 2615:161 2616:218 2617:110 2618:159 2619:201 2620:121 2621:163 2622:211 2623:147 2624:178 2625:222 2626:140 2627:172 2628:206 2629:95 2630:119 2631:141 2632:107 2633:119 2634:116 2635:109 2636:119 2637:106 2638:113 2639:119 2640:107 2641:124 2642:131 2643:117 2644:129 2645:135 2646:120 2647:113 2648:124 2649:111 2650:104 2651:119 2652:113 2653:121 2654:139 2655:127 2656:141 2657:162 2658:145 2659:147 2660:177 2661:158 2662:119 2663:156 2664:138 2665:98 2666:132 2667:126 2668:84 2669:111 2670:132 2671:75 2672:115 2673:172 2674:69 2675:113 2676:180 2677:75 2678:111 2679:165 2680:105 2681:115 2682:141 2683:112 2684:116 2685:117 2686:89 2687:120 2688:155 2689:57 2690:91 2691:146 2692:45 2693:79 2694:134 2695:62 2696:104 2697:163 2698:83 2699:134 2700:199 2701:91 2702:139 2703:207 2704:83 2705:128 2706:189 2707:86 2708:134 2709:181 2710:70 2711:113 2712:140 2713:71 2714:109 2715:118 2716:77 2717:118 2718:133 2719:85 2720:118 2721:144 2722:97 2723:132 2724:150 2725:110 2726:149 2727:149 2728:127 2729:154 2730:149 2731:150 2732:168 2733:155 2734:118 2735:133 2736:119 2737:138 2738:159 2739:136 2740:145 2741:174 2742:151 2743:107 2744:138 2745:128 2746:98 2747:134 2748:130 2749:100 2750:145 2751:138 2752:119 2753:168 2754:159 2755:100 2756:150 2757:140 2758:81 2759:130 2760:119 2761:99 2762:135 2763:125 2764:133 2765:154 2766:152 2767:83 2768:117 2769:161 2770:69 2771:111 2772:175 2773:68 2774:115 2775:172 2776:77 2777:118 2778:176 2779:108 2780:122 2781:138 2782:105 2783:129 2784:155 2785:61 2786:105 2787:159 2788:67 2789:112 2790:167 2791:70 2792:114 2793:176 2794:71 2795:115 2796:181 2797:68 2798:108 2799:174 2800:88 2801:138 2802:179 2803:82 2804:139 2805:148 2806:72 2807:116 2808:117 2809:75 2810:104 2811:113 2812:77 2813:103 2814:108 2815:81 2816:109 2817:107 2818:87 2819:119 2820:117 2821:94 2822:135 2823:132 2824:118 2825:156 2826:150 2827:152 2828:181 2829:168 2830:124 2831:155 2832:149 2833:128 2834:159 2835:147 2836:138 2837:169 2838:149 2839:115 2840:145 2841:129 2842:109 2843:140 2844:133 2845:114 2846:149 2847:143 2848:118 2849:151 2850:140 2851:120 2852:151 2853:150 2854:117 2855:149 2856:156 2857:106 2858:141 2859:158 2860:99 2861:127 2862:162 2863:78 2864:116 2865:164 2866:67 2867:102 2868:148 2869:71 2870:104 2871:147 2872:74 2873:112 2874:158 2875:86 2876:114 2877:149 2878:108 2879:118 2880:125 2881:72 2882:119 2883:179 2884:70 2885:116 2886:175 2887:72 2888:116 2889:178 2890:77 2891:120 2892:187 2893:68 2894:108 2895:166 2896:75 2897:126 2898:151 2899:79 2900:127 2901:137 2902:76 2903:102 2904:109 2905:76 2906:90 2907:95 2908:79 2909:83 2910:86 2911:89 2912:101 2913:101 2914:93 2915:108 2916:103 2917:88 2918:103 2919:96 2920:88 2921:105 2922:97 2923:111 2924:125 2925:107 2926:121 2927:138 2928:124 2929:109 2930:129 2931:122 2932:116 2933:137 2934:131 2935:134 2936:160 2937:159 2938:126 2939:152 2940:153 2941:108 2942:132 2943:132 2944:109 2945:127 2946:136 2947:120 2948:147 2949:174 2950:111 2951:150 2952:184 2953:93 2954:132 2955:174 2956:91 2957:130 2958:178 2959:89 2960:129 2961:182 2962:90 2963:129 2964:174 2965:83 2966:120 2967:166 2968:85 2969:125 2970:171 2971:94 2972:138 2973:182 2974:101 2975:130 2976:157 2977:87 2978:129 2979:188 2980:76 2981:119 2982:177 2983:79 2984:123 2985:183 2986:81 2987:120 2988:179 2989:74 2990:112 2991:159 2992:82 2993:125 2994:169 2995:86 2996:128 2997:175 2998:86 2999:123 3000:168 3001:86 3002:115 3003:148 3004:89 3005:117 3006:141 3007:94 3008:127 3009:154 3010:101 3011:130 3012:152 3013:97 3014:123 3015:129 3016:105 3017:130 3018:143 3019:101 3020:114 3021:119 3022:103 3023:116 3024:110 3025:109 3026:126 3027:116 3028:109 3029:127 3030:114 3031:113 3032:132 3033:124 3034:112 3035:134 3036:132 3037:118 3038:143 3039:132 3040:136 3041:158 3042:155 3043:140 3044:173 3045:179 3046:136 3047:176 3048:188 3049:127 3050:162 3051:187 3052:116 3053:156 3054:184 3055:109 3056:149 3057:185 3058:101 3059:141 3060:180 3061:105 3062:145 3063:188 3064:103 3065:147 3066:191 3067:122 3068:161 3069:197 3070:114 3071:160 3072:201 
